{"1.weight": [[-0.07259372621774673, -0.0598079077899456, -0.06904920935630798, -0.05206119641661644, -0.07496748864650726, 0.0325755774974823, 0.08547984808683395, -0.03339764103293419, -0.003434729529544711, 0.020682979375123978, 0.09459855407476425, -0.0722644105553627, -0.09812702238559723, 0.05489763617515564, 0.03201397508382797, 0.09708183258771896, -0.056945979595184326, -0.04811367020010948, -0.04843711853027344, -0.06807184219360352, -0.06780343502759933, 0.0598006546497345, -0.004017301369458437, 0.008444482460618019, -0.07465792447328568, -0.07639851421117783, 0.04850420355796814, -0.03845658525824547, 0.009487176313996315, -0.05760101228952408, -0.08261964470148087, 0.08531362563371658, -0.07755187153816223, 0.012749002315104008, -0.036615245044231415, 0.0969787985086441, 0.06658726185560226, 0.04834064841270447, 0.00024162531190086156, -0.02799309603869915, -0.08426462113857269, 0.05369535833597183, -0.006681640632450581, 0.0646740049123764, -0.10556381940841675, 0.0725717693567276, -0.0855007916688919, -0.02826060727238655, 0.05733010917901993, 0.08886346966028214, -0.05390699580311775, 0.008497453294694424, 0.03694698214530945, -0.09032847732305527, -0.06518371403217316, -0.10995713621377945, -0.03452477976679802, -0.013452778570353985, 0.054601769894361496, 0.0175029169768095, 0.045138608664274216, 0.06329705566167831, 0.015466517768800259, -0.036276813596487045, 0.023029644042253494, 0.0670856460928917, -0.08418219536542892, 0.030918236821889877, 0.022275904193520546, 0.027658121660351753, 0.03908398747444153, 0.011217642575502396, 0.06423937529325485, -0.0506470687687397, -0.06274431943893433, 0.045107219368219376, 0.00866472814232111, -0.00884147360920906, -0.003577802563086152, -0.026856061071157455, -0.012503755278885365, 0.06274441629648209, 0.08761104196310043, 0.02524193562567234, -0.07677251100540161, -0.09373648464679718, 0.022051513195037842, -0.11967553943395615, 6.07881520409137e-05, 0.028342409059405327, -0.001217102981172502, 0.0005035877111367881, 0.012735450640320778, -0.020128702744841576, -0.05829126760363579, -0.07237265259027481, 0.10245752334594727, -0.06264425069093704, -0.06265309453010559, -0.003280259668827057], [0.03133681043982506, -0.016314735636115074, 0.025220053270459175, -0.08861331641674042, -0.015729961916804314, 0.040140558034181595, -0.0021471858490258455, -0.06275075674057007, -0.03124239481985569, 0.09157892316579819, -0.08076076954603195, 0.06582283973693848, -0.06605922430753708, 0.008222904987633228, -0.004110845737159252, 0.08122998476028442, 0.08335894346237183, 0.01937466859817505, -0.03814486414194107, 0.09949518740177155, 0.0073865437880158424, -0.03043094277381897, 0.041104093194007874, 0.02221173606812954, -0.06086747720837593, -0.09095638990402222, 0.011011539027094841, -0.03665954992175102, -0.03965944051742554, -0.07119103521108627, -0.016802914440631866, 0.01304403506219387, 0.07508532702922821, -0.04379414767026901, -0.06036948040127754, -0.007659877184778452, -0.012573824264109135, -0.036962803453207016, 0.04820214584469795, 0.09177156537771225, -0.08908595144748688, 0.0238258745521307, 0.10687243193387985, -0.09495223313570023, 0.0734734907746315, -0.07094018161296844, -0.06786539405584335, 0.0381346121430397, 0.0030996680725365877, -0.08764191716909409, 0.10470394045114517, -0.012369978241622448, -0.016135510057210922, 0.06370151042938232, 0.07125779986381531, 0.06327618658542633, -0.08846259862184525, -0.08549493551254272, -0.07867550849914551, 0.07836593687534332, 0.002557752886787057, -0.06400499492883682, -0.09323935955762863, 0.1060185506939888, -0.03807603567838669, -0.06397830694913864, -0.02839297614991665, -0.03543278947472572, -0.06619978696107864, -0.09142551571130753, -0.09480740875005722, 0.03983207792043686, 0.01443000789731741, 0.048623695969581604, -0.02900257334113121, -0.0763978362083435, -0.030155761167407036, 0.031193852424621582, 0.027048012241721153, -0.04235999658703804, 0.03533605486154556, 0.11337804049253464, -0.06300704926252365, 0.03765665367245674, 0.0918106660246849, -0.051532257348299026, -0.05382956191897392, 0.04340587928891182, 0.03467073291540146, 0.03100503608584404, 0.05560808256268501, -0.028293848037719727, -0.028620077297091484, 0.0026072978507727385, 0.02211134508252144, -0.04094289615750313, 0.06271933764219284, -0.06925425678491592, -0.06290782988071442, 0.006170821376144886], [-0.09529083967208862, -0.0075823902152478695, 0.005059027578681707, -0.07699884474277496, -0.08786848932504654, 0.00869131088256836, -0.03663996607065201, 0.08222050964832306, -0.08446141332387924, 0.02087860181927681, 0.058854054659605026, 0.014959550462663174, -0.02629495970904827, -0.051784612238407135, -0.033703338354825974, 0.06632763147354126, -0.04484958574175835, -0.025926148518919945, 0.06495290994644165, 0.03498983383178711, 0.04736577346920967, 0.012466884218156338, 0.007278812117874622, 0.0008965611341409385, -0.09647168964147568, -0.02718297205865383, 0.08148562908172607, -0.00882487278431654, 0.018629861995577812, -0.05668586492538452, 0.022940946742892265, -0.03774386644363403, -0.008236992172896862, 0.05584937334060669, -0.002915155841037631, -0.008090055547654629, 0.06863094866275787, -0.0834968239068985, -0.04771305248141289, 0.08760183304548264, -0.018216252326965332, 0.04619980975985527, -0.053714800626039505, 0.0825393944978714, -0.09593385457992554, 0.027900367975234985, -0.05336613580584526, 0.0030432939529418945, -0.020187079906463623, 0.0660480484366417, 0.017935598269104958, 0.04396107420325279, -0.0684666633605957, -0.09123574942350388, 0.020447159186005592, -0.02417479269206524, -0.09760107845067978, -0.0372309610247612, -0.030707156285643578, 0.04655461385846138, 0.09450674057006836, -0.03797609731554985, 0.09534993022680283, -0.08275037258863449, -0.02319110743701458, -0.09835115820169449, -0.05224486440420151, 0.03846966102719307, -0.08955416083335876, 0.011348082683980465, -0.06316622346639633, -0.06447410583496094, -0.07087582349777222, 0.09029731899499893, 0.003056395100429654, -0.0864509716629982, -0.06507803499698639, -0.03213963657617569, -0.03254738450050354, 0.05804072692990303, 0.032414760440588, 0.04663345590233803, 0.02957066334784031, -0.014431595802307129, -0.0868808850646019, -0.06953764706850052, 0.06341101974248886, -0.015370657667517662, -0.015789764001965523, 0.0011229038937017322, 0.05380043014883995, -0.030530035495758057, 0.04866533353924751, 0.06760858744382858, -0.05726751312613487, -0.041162069886922836, 0.04920197278261185, 0.02021944522857666, 0.05148286744952202, -0.050108883529901505], [-0.05862544849514961, 0.053467512130737305, -0.045875776559114456, -0.09572076797485352, 0.023712599650025368, -0.06601996719837189, -0.09631504118442535, 0.03173142671585083, 0.0067764162085950375, -0.0828290805220604, 0.026501333341002464, 0.013304960913956165, 0.03325679525732994, 0.03079882077872753, -0.0021841267589479685, 0.0319165475666523, 0.0471935048699379, -0.05670202895998955, 0.00973124522715807, 0.030731117352843285, -0.04814460501074791, 0.021294808015227318, -0.06102849170565605, 0.04409477859735489, 0.0489875003695488, -0.019437795504927635, 0.08538481593132019, -0.02729215659201145, 0.08687714487314224, -0.011645532213151455, -0.087993323802948, 0.08865079283714294, 0.010226166807115078, 0.043174732476472855, 0.0506415031850338, 0.012271225452423096, -0.06432463228702545, 0.10421205312013626, 0.06072717905044556, -0.0054742456413805485, -0.046037476509809494, -0.060081060975790024, -0.04065440222620964, -0.05597002059221268, -0.06187671795487404, 0.09189633280038834, -0.025650694966316223, -0.015540563501417637, -0.04171723127365112, 0.024102771654725075, 0.0893898755311966, 0.09074544906616211, 0.0642780140042305, -0.05774323642253876, 0.08201546221971512, -0.049319006502628326, -0.009290220215916634, -0.04981159046292305, 0.0067383768036961555, 0.024438608437776566, -0.03408186510205269, 0.07469506561756134, 0.06395955383777618, 0.1171986311674118, -0.05238610506057739, -0.01806027442216873, 0.07084476202726364, 0.0023201259318739176, -0.00736863911151886, 0.09757300466299057, 0.06360697001218796, 0.10342767089605331, -0.051897551864385605, 0.08187997341156006, -0.014009833335876465, 0.09708406031131744, 0.12292227149009705, -0.04044448956847191, -0.02306816354393959, -0.023995613679289818, -0.08818834275007248, 0.09647778421640396, -0.08314558118581772, 0.042311858385801315, -0.06282898038625717, 0.017927072942256927, -0.0887836292386055, 0.0643390491604805, 0.015721384435892105, -0.043564390391111374, -0.08610671013593674, -0.07624178379774094, 0.042039453983306885, 0.04092881828546524, 0.037702083587646484, -0.011738894507288933, -0.12639158964157104, -0.00024341234529856592, -0.02519707754254341, -0.027133163064718246], [0.029794706031680107, -0.09569990634918213, -0.0035775022115558386, -6.40107537037693e-05, 0.11890535056591034, 0.060749176889657974, -0.029712414368987083, 0.024288369342684746, -0.039933979511260986, 0.019265521317720413, 0.009375214576721191, -0.08068881183862686, -0.09402807056903839, -0.07696294039487839, 0.0776621624827385, -0.08364611119031906, 0.024866998195648193, 0.05504412576556206, -0.012114286422729492, 0.08389405161142349, 0.12193606048822403, 0.047159574925899506, -0.013132703490555286, 0.048231057822704315, -0.06851515918970108, 0.0749473124742508, -0.0765283852815628, -0.009900713339447975, -0.004489135928452015, 0.021793007850646973, -0.020184457302093506, -0.05873321369290352, 0.003984806593507528, -0.01275335717946291, 0.051230479031801224, 0.00273175910115242, 0.05909349396824837, -0.046141840517520905, -0.0977146252989769, 0.08529330790042877, 0.056316129863262177, -0.06971689313650131, -0.006626881659030914, -0.07222814857959747, 0.08842787146568298, 0.05090300366282463, -0.05399663373827934, 0.013556008227169514, 0.09598835557699203, 0.06580958515405655, 0.04601476341485977, 0.043622590601444244, -0.07432115077972412, -0.0554879792034626, 0.02977141924202442, -0.1139579638838768, 0.05759093537926674, -0.07121384143829346, 0.012749959714710712, -0.02626408450305462, -0.006005772389471531, -0.028661644086241722, 0.08350350707769394, 0.038032688200473785, 0.022709988057613373, -0.1131078228354454, -0.03510524705052376, 0.015280768275260925, 0.06714779138565063, 0.0480363629758358, 0.0908006951212883, -0.03608933836221695, 0.021788187325000763, -0.046532679349184036, -0.05415787920355797, 0.025030653923749924, 0.11894921958446503, 0.03644109144806862, 0.0344647578895092, 0.08937434107065201, -0.09903325140476227, -0.004851754754781723, 0.04321669414639473, 0.0015330314636230469, -0.06724333763122559, -0.09947369247674942, -0.05273608863353729, -0.06844673305749893, -0.057159118354320526, 0.05299963429570198, 0.08989252150058746, -0.08932417631149292, -0.057964351028203964, 0.09601234644651413, 0.08118792623281479, -0.08763285726308823, 0.04261429235339165, 0.039926014840602875, 0.005351725034415722, 0.016372904181480408], [0.010541475377976894, 0.043725643306970596, 0.032603539526462555, -0.05716751888394356, 0.07776746153831482, 0.04930351674556732, -0.035177361220121384, 0.035052504390478134, -0.0849456787109375, -0.08441316336393356, 0.0657917782664299, -0.01505549531430006, -0.036018598824739456, -0.079221710562706, 0.02278546243906021, 0.022459818050265312, -0.08223215490579605, -0.08468502759933472, -0.005824828054755926, 0.014306413941085339, -0.06050906330347061, 0.04317143186926842, 0.025889206677675247, 0.039973195642232895, 0.01096693892031908, 0.09183904528617859, -0.0019605113193392754, -0.04977140575647354, 0.0573108084499836, 0.09118758887052536, -0.05905257537961006, 0.06291660666465759, -0.05220825597643852, 0.020099617540836334, -0.08355006575584412, -0.08098526298999786, -0.09321147203445435, 0.06953791528940201, -0.0241701602935791, 0.04767423868179321, -0.09010576456785202, 0.0020329426042735577, -0.05298760160803795, -0.05994628742337227, -0.05018763616681099, 0.0029276935383677483, -0.025870315730571747, -0.06323648244142532, 0.08673878759145737, 0.03381890058517456, 0.0769898071885109, -0.04054918512701988, 0.054366957396268845, -0.08419352769851685, -0.0918552502989769, -0.06801526248455048, -0.08252276480197906, -0.04758714511990547, -0.012583139352500439, 0.0016685724258422852, -0.08982572704553604, 0.06164008378982544, 0.02298208512365818, -0.024811340495944023, -0.06958837062120438, -0.08519713580608368, -0.08131927251815796, 0.03772895410656929, -0.048442307859659195, 0.040479566901922226, 0.08155560493469238, -0.0797598734498024, 0.003987503238022327, -0.030159497633576393, 0.05136144906282425, -0.06963259726762772, 0.03410511463880539, -0.04058518260717392, 0.060004670172929764, -0.07747616618871689, 0.09180007129907608, 0.08977895975112915, -0.06720311939716339, 0.04189435392618179, 0.09240348637104034, -0.08609487116336823, -0.0224018394947052, -0.055903103202581406, -0.05370820313692093, -0.0515369176864624, -0.04524458572268486, 0.050952840596437454, -0.09844952076673508, -0.042637743055820465, -0.00011252165131736547, -0.049899663776159286, 0.03482235223054886, -0.09096038341522217, 0.07551847398281097, -0.040069662034511566], [0.035150885581970215, 0.06166870892047882, -0.004178089089691639, 0.08780993521213531, -0.06825391203165054, 0.017843736335635185, -0.014958989806473255, 0.07969579845666885, -0.008564675226807594, -0.07772757112979889, -0.012727118097245693, -0.01842494122684002, 0.01138579286634922, 0.10019320994615555, 0.03454592078924179, -0.08620519936084747, 0.05558755621314049, 0.08707275241613388, 0.07630180567502975, 0.026356792077422142, -0.008240330964326859, -0.04713105037808418, -0.07946618646383286, 0.03597688674926758, -0.031559981405735016, 0.08244351297616959, -0.05716449022293091, 0.09748365730047226, 0.005983889102935791, -0.04418431594967842, -0.06609006971120834, 0.052438829094171524, -0.05329161882400513, -0.0802631601691246, -0.02708752267062664, 0.04543943330645561, -0.03234544023871422, 0.020614398643374443, 0.09300511330366135, -0.08647545427083969, 0.015595417469739914, -0.007958615198731422, -0.03319656848907471, 0.033233802765607834, 0.03219722583889961, 0.044114015996456146, -0.00853805337101221, -0.08633039146661758, -0.03292519971728325, 0.06651109457015991, -0.0667957216501236, 0.07151853293180466, -0.007295286748558283, 0.06994263082742691, -0.028409145772457123, -0.02738579735159874, 0.003048270009458065, 0.0364694781601429, -0.0052557350136339664, 0.09628725051879883, -0.07342959940433502, -0.09266217052936554, 0.08837123960256577, -0.050835706293582916, -0.04204150661826134, -0.02404310181736946, 0.052868206053972244, 0.09673672914505005, 0.09608520567417145, -0.00547107495367527, -0.0021026493050158024, -0.06191331148147583, -0.007350605446845293, -0.09702558815479279, 0.0969998836517334, -0.05536691099405289, 0.04278586804866791, 0.08976602554321289, -0.08567337691783905, 0.027094963937997818, -0.02627512253820896, -0.046182598918676376, 0.004759442992508411, 0.04442724213004112, 0.032522138208150864, 0.019238615408539772, 0.023329729214310646, -0.0844864472746849, -0.07377296686172485, 0.03867439553141594, -0.08356614410877228, 0.02064114809036255, 0.02842130698263645, 0.07885034382343292, 0.09292014688253403, 0.014859846793115139, -0.017864728346467018, -0.11644958704710007, -0.07730748504400253, 0.01711743138730526], [-0.08817501366138458, 0.09421103447675705, -0.002304244088009, 0.047774624079465866, 0.08253353834152222, 0.01472616195678711, 0.06963557004928589, -0.09363796561956406, 0.00654791621491313, -0.08912859112024307, -0.06743152439594269, -0.07520800828933716, 0.08976320177316666, 0.019404996186494827, 0.061635006219148636, 0.08700530976057053, -0.05392186716198921, -0.060577262192964554, -0.09660866111516953, -0.0499706044793129, 0.05393774062395096, 0.01605433225631714, 0.0068863630294799805, -0.06576061248779297, -0.01956120692193508, -0.03489197418093681, -0.0327967070043087, 0.032816171646118164, 0.03691929578781128, 0.08102802187204361, -0.07207930088043213, 0.060164060443639755, 0.07346954941749573, 0.021910905838012695, -0.08127810060977936, -0.07010543346405029, -0.03108503855764866, -0.07954978197813034, 0.02297680452466011, -0.08117254823446274, -0.07352674007415771, 0.0827295333147049, -0.0988263487815857, -0.02484029345214367, 0.10699183493852615, -0.013782924041152, -0.09354259073734283, -0.003530982881784439, -0.002731108805164695, 0.08372703939676285, -0.08690252155065536, 0.09973295032978058, -0.09150245040655136, 0.059089403599500656, 0.07312339544296265, -0.059412792325019836, -0.021258855238556862, -0.09690870344638824, -0.0664743110537529, 0.0655357837677002, -0.09444709867238998, 0.003358101937919855, -0.041938915848731995, -0.0440044067800045, -0.06249557062983513, 0.012026303447782993, -0.007983705028891563, -0.033473603427410126, 0.005974709987640381, -0.02726421318948269, -0.09630956500768661, 0.06979914754629135, -0.08228462934494019, 0.008067111484706402, 0.05936647579073906, 0.062241651117801666, -0.01014721393585205, 0.09370604902505875, 0.0851929783821106, -0.09156198799610138, -0.04738716036081314, -0.028409123420715332, 0.007831978611648083, -0.05480311065912247, 0.0761382132768631, -0.016934454441070557, 0.044386185705661774, -0.07952389866113663, -0.053571153432130814, -0.05528830364346504, 0.03548293188214302, -0.003275799797847867, 0.0888410210609436, 0.09414155781269073, -0.03367644548416138, 0.06788630783557892, 0.06896475702524185, 0.10000897198915482, -0.09887415170669556, -0.0436822883784771], [-0.021284867078065872, 0.05533229187130928, -0.07561095058917999, -0.07221454381942749, 0.08121895790100098, -0.039345633238554, -0.03971964120864868, 0.02125791274011135, -0.0628134161233902, -0.01294398307800293, -0.0069374325685203075, -0.05197548866271973, -0.0037949944380670786, -0.07860813289880753, 0.029638394713401794, 0.048669684678316116, 0.06051570177078247, -0.09447713941335678, 0.00655519962310791, 0.026267779991030693, 0.017070820555090904, 0.038972146809101105, -0.035568010061979294, -0.08478038758039474, 0.05879092216491699, 0.07764347642660141, 0.01027306355535984, -0.011641979217529297, 0.07211568206548691, -0.08030064404010773, -0.026754021644592285, -0.025723207741975784, -0.008442772552371025, -0.032134048640728, 0.11608026921749115, -0.00504359370097518, 0.07179669290781021, 0.018911374732851982, 0.03567342832684517, -0.08255857229232788, -0.08589216321706772, 0.03646612539887428, 0.03488799184560776, 0.08281944692134857, -0.03954491764307022, 0.036460936069488525, -0.013606424443423748, -0.021045666188001633, -0.016221439465880394, -0.007927489466965199, -0.09795272350311279, -0.04577777534723282, 0.0710063949227333, 0.06545469164848328, 0.0956229716539383, 0.10439953953027725, -0.05167575180530548, 0.029071923345327377, -0.03067042864859104, 0.08410205692052841, 0.06850086897611618, -0.0811256691813469, 0.08098980039358139, -0.016840888187289238, -0.05285750329494476, -0.006085527129471302, 0.06579363346099854, 0.024486077949404716, -0.03636215254664421, -0.054574642330408096, -0.050053250044584274, -0.07236963510513306, -0.0021856555249542, 0.06170928478240967, 0.08617285639047623, -0.06689778715372086, -0.03345264494419098, -0.09233963489532471, -0.03887659311294556, 0.02397242933511734, -0.09613118320703506, -0.09817494451999664, 0.05271616205573082, -0.04655745252966881, 0.04003527760505676, 0.05684390291571617, 0.10214631259441376, 0.0694022849202156, 0.0357075110077858, 0.03265488147735596, 0.06424672901630402, 0.07750927656888962, -0.05468101426959038, 0.057606637477874756, 0.026215840131044388, -0.054657310247421265, -0.10489537566900253, 0.02279396913945675, -0.015352297574281693, 0.01577233523130417], [-0.04134643077850342, 0.06539378315210342, -0.09272970259189606, -0.049366019666194916, -0.03874773159623146, -0.08511443436145782, 0.04050004482269287, 0.018724024295806885, 0.0584995411336422, -0.011181426234543324, -0.02450566366314888, 0.07652594149112701, -0.013067346066236496, 0.06086306646466255, -0.04550549015402794, 0.07239126414060593, -0.06711339205503464, -0.08910351991653442, -0.03954952955245972, -0.08421977609395981, 0.05349138379096985, 0.041488368064165115, 0.009267098270356655, -0.018706679344177246, 0.060271624475717545, 0.08678422123193741, -0.02629082277417183, -0.056772615760564804, -0.05590308830142021, -0.043910469859838486, 0.0059821424074471, -0.1005168929696083, 0.04298054054379463, -0.0870790109038353, -0.018279671669006348, 0.0012760043609887362, -0.01716805063188076, -0.08458808064460754, 0.0902600809931755, -0.053112078458070755, 0.03825823590159416, -0.006497268099337816, -0.09598389267921448, 0.042250532656908035, 0.05671144649386406, 0.005085111130028963, 0.024468155577778816, 0.02607312984764576, 0.09169503301382065, -0.04103816673159599, 0.06253568083047867, 0.03867451101541519, 0.02085447870194912, -0.10601217299699783, -0.0018960570450872183, -0.0036515018437057734, 0.08241354674100876, 0.0563109926879406, -0.013946235179901123, 0.06251420825719833, -0.006067049689590931, 0.014083397574722767, 0.02772674523293972, 0.011975182220339775, -0.08006808161735535, 0.053105149418115616, -0.03196854889392853, 0.10208521783351898, -0.031767338514328, -0.016034966334700584, -0.0008863449329510331, -0.03661873936653137, -0.08828087896108627, 0.033594172447919846, -0.04136592149734497, -0.042622074484825134, 0.03424128144979477, -0.020311716943979263, 0.026751967146992683, 0.059316858649253845, 0.0286774393171072, 0.03834579885005951, 0.06679508835077286, -0.07087152451276779, -0.0637907162308693, -0.06453289836645126, -0.09498008340597153, 0.016784466803073883, -0.0683242529630661, 0.013910186477005482, 0.04608211666345596, 0.05620637163519859, -0.0032394647132605314, 0.02506249025464058, -0.01650986634194851, 0.02063051238656044, 0.1224268451333046, 0.007883829064667225, 0.0010089032584801316, -0.006051499862223864], [-0.0070009115152060986, -0.09280957281589508, -0.025518711656332016, -0.02927897498011589, -0.0011394355678930879, -0.0699501782655716, -0.041596245020627975, 0.05220891162753105, -0.06518912315368652, 0.09152870625257492, -0.07933270186185837, 0.05962248519062996, 0.09757466614246368, 0.09348586201667786, 0.09290600568056107, 0.06687847524881363, -0.05261659622192383, 0.07047990709543228, 0.02124311961233616, 0.09080260992050171, -0.00716114928945899, 0.05612270161509514, -0.08528067916631699, -0.08780011534690857, 0.02752305567264557, 0.06085992604494095, 0.046730369329452515, 0.07416404783725739, -0.0013595700729638338, -0.05971178039908409, 0.001052641891874373, -0.04566963016986847, 0.051780883222818375, -0.09704071283340454, -0.03478106111288071, 0.029715336859226227, 0.0209419634193182, 0.06693479418754578, -0.07325585931539536, -0.0677771121263504, 0.023982608690857887, -0.05146244540810585, -0.01895906776189804, 0.0964636504650116, -0.01357330847531557, 0.09104333072900772, -0.029673635959625244, -0.049283672124147415, 0.013544917106628418, 0.09166238456964493, -0.08117543160915375, 0.027421701699495316, -0.05395571142435074, -0.07926105707883835, 0.07481839507818222, 0.06428986042737961, -0.06669776141643524, 0.04981193691492081, 0.09850125759840012, 0.053812336176633835, -0.07617372274398804, -0.07261653244495392, -0.0019170523155480623, -0.07174009084701538, 0.06628721952438354, -0.03273279592394829, -0.011647488921880722, 0.0654783844947815, 0.054209332913160324, 0.040251102298498154, -0.07482905685901642, -0.030731627717614174, 0.04127674177289009, -0.09102153778076172, 0.046803805977106094, 0.01344149000942707, -0.15111057460308075, -0.07776577025651932, -0.027897419407963753, 0.09019899368286133, -0.08152591437101364, 0.08409783244132996, -0.05889098718762398, 0.02544560469686985, 0.0226858239620924, -0.08431936800479889, -0.06606811285018921, 0.044202547520399094, 0.02712254598736763, 1.108639935409883e-06, -0.08064531534910202, -0.037667930126190186, -0.05779379606246948, 0.06213196739554405, -0.01543517131358385, -0.032048676162958145, 0.08327949792146683, 0.05593741685152054, 0.07821599394083023, -0.06900785118341446], [-0.008180618286132812, -0.009135711006820202, 0.024704014882445335, 0.06711870431900024, 0.001152966171503067, 0.014158427715301514, -0.058688391000032425, -0.04769636318087578, 0.08051504194736481, -0.09931247681379318, 0.01229560375213623, 0.003736054990440607, -0.05616198852658272, -0.01970219984650612, 0.10346821695566177, 0.04633578285574913, -0.03534892946481705, 0.029664361849427223, -0.03613764047622681, 0.017497360706329346, 0.0572889968752861, -0.09108447283506393, -0.008944070897996426, -0.04542429372668266, -0.0015172680141404271, 0.1077534556388855, 0.010338256135582924, 0.059561192989349365, 0.03593562915921211, -0.07694520056247711, 0.04145979881286621, 0.011631953530013561, 0.07248712331056595, -0.06703443825244904, -0.08558335155248642, 0.04671771079301834, 0.03979989513754845, -0.03947638347744942, 0.04635763168334961, -0.08154231309890747, 0.062175530940294266, 0.03058762475848198, -0.01583198830485344, -0.08841174840927124, -0.07786847651004791, -0.09368128329515457, 0.062138840556144714, -0.09211196005344391, -0.08567573875188828, 0.008370804600417614, 0.10078004747629166, 0.02670302428305149, -0.06959322094917297, -0.0753854364156723, -0.023345395922660828, -0.0076148370280861855, -0.0042127505876123905, -0.07139112800359726, -0.008082997985184193, -0.034833457320928574, 0.07978937029838562, -0.014833390712738037, 0.024156831204891205, 0.008225525729358196, -0.07765688002109528, -0.03626110777258873, 0.05698181688785553, -0.023442823439836502, 0.08392520248889923, 0.010158121585845947, -0.04396789148449898, -0.03569117933511734, -0.050821855664253235, 0.0829939916729927, -0.04604031890630722, -0.032286643981933594, 0.014989356510341167, -0.007852566428482533, 0.02713925950229168, 0.03725243732333183, -0.0998794436454773, 0.009726024232804775, 0.021009230986237526, 0.021176254376769066, -0.0002235651045339182, -0.041545476764440536, 0.03878972679376602, 0.009135699830949306, -0.06831580400466919, -0.062134113162755966, -0.08108668774366379, -0.05017242580652237, 0.03981497511267662, -0.022796059027314186, -0.06869375705718994, 0.089460089802742, -0.04576833173632622, -0.06528794020414352, -0.036842431873083115, 0.08111923933029175], [0.08379532396793365, -0.023107195273041725, 0.04029896482825279, 0.010123591870069504, -0.08213921636343002, -0.05752608925104141, 0.07994901388883591, -0.0881192684173584, -0.06778820604085922, 0.039197422564029694, 0.0743178278207779, -0.018802404403686523, -0.052405085414648056, -0.082241952419281, -0.028292467817664146, -0.058151211589574814, 0.026201630011200905, 0.050172626972198486, -0.042277347296476364, -0.007165324874222279, -0.07751896977424622, 0.03076021745800972, -0.06901019811630249, -0.09474390745162964, 0.06614156812429428, -0.061586517840623856, 0.006181173957884312, -0.037395548075437546, -0.0872117280960083, 0.06117737293243408, 0.030010057613253593, 0.07476070523262024, -0.08893269300460815, -0.09651477634906769, 0.01412359531968832, -0.03872755914926529, -0.0016608822625130415, 0.09735605865716934, 0.051052749156951904, 0.08960192650556564, 0.05546090379357338, -0.008353948593139648, -0.06942469626665115, 0.06990675628185272, 0.01075719017535448, -0.04667585715651512, 0.06507834047079086, -0.09031323343515396, 0.09560122340917587, -0.029509592801332474, 0.0848785787820816, -0.019716644659638405, -0.09188737720251083, -0.08976884931325912, 0.016477391123771667, 0.07876650989055634, 0.01448826864361763, -0.09429744631052017, 0.07998357713222504, -0.04734771326184273, -0.09403137117624283, 0.0986984372138977, 0.09418508410453796, -0.029405320063233376, -0.06233353912830353, -0.1296868622303009, -0.0836850106716156, 0.05810627341270447, 0.027646925300359726, 0.0022394268307834864, 0.027748679742217064, -0.09939275681972504, -0.06106291711330414, -0.0781433954834938, 0.001203546766191721, 0.0007916416507214308, 0.06910385191440582, 0.06504252552986145, 0.06290140748023987, -0.07361479848623276, 0.039771582931280136, -0.005948206409811974, -0.0655437484383583, 0.09259597212076187, -0.004780769348144531, -0.07591366767883301, -0.06614463031291962, -0.07315109670162201, -0.09705370664596558, -0.058641791343688965, 0.09021337330341339, 0.0027011155616492033, 0.023268019780516624, 0.06995190680027008, 0.016802562400698662, -0.09052182734012604, 0.04088591784238815, -0.051099058240652084, -0.05504830554127693, 0.02236117422580719], [0.010056043043732643, 0.08954603224992752, -0.03939522057771683, 0.04384033754467964, 0.053329527378082275, -0.04394754022359848, -0.03380552679300308, 0.012171745300292969, 0.09593792259693146, 0.018947971984744072, -0.09696166962385178, 0.010195924900472164, 0.08471415936946869, -0.0942051038146019, -0.044298045337200165, -0.06942007690668106, -0.052091408520936966, 0.004145765211433172, 0.08166265487670898, -0.05794839933514595, 0.008829115889966488, 0.08616331964731216, 0.032904766499996185, -0.04152163118124008, 0.016346486285328865, -0.061820682138204575, -0.011987773701548576, 0.008100616745650768, 0.006354427430778742, 0.06859218329191208, 0.06717005372047424, 0.10544446110725403, -0.04511051997542381, 0.0033435197547078133, 0.07913250476121902, 0.06246315315365791, -0.06434696912765503, -0.013492458499968052, -0.007734191603958607, -0.06999047100543976, 0.035817451775074005, -0.00398406945168972, 0.025714512914419174, -0.046443551778793335, 0.050723277032375336, -0.08842061460018158, 0.08017757534980774, -0.02001962810754776, -0.09043122828006744, 0.09870951622724533, -0.0210312120616436, -0.0575842522084713, -0.0009775161743164062, -0.030210407450795174, -0.02974815107882023, -0.030204443261027336, -0.06161898002028465, -0.024339964613318443, 0.0652240738272667, -0.04729509353637695, 0.004005820490419865, -0.025099074468016624, -0.0676073431968689, 0.005827987100929022, -0.039993640035390854, 0.03254237398505211, -0.09820061922073364, 0.07462463527917862, 0.01764686033129692, -0.06964098662137985, 0.01657639443874359, -0.08515232056379318, -0.004391568712890148, -0.020339537411928177, 0.09336749464273453, 0.08097298443317413, -0.03934037685394287, -0.0061152419075369835, -0.06456796079874039, 0.08877620100975037, -0.08216220140457153, 0.11019857227802277, 0.0782478079199791, 0.09227627515792847, 0.01659749262034893, -0.050408851355314255, 0.014410773292183876, 0.010019644163548946, -0.023919813334941864, -0.035821784287691116, -0.08079365640878677, -0.06464342027902603, 0.006542837712913752, -0.07961026579141617, 0.07662510871887207, 0.09623216837644577, -0.07805724442005157, -0.018402578309178352, 0.08585015684366226, 0.05490318685770035], [0.07878686487674713, 0.0891185849905014, 0.045469291508197784, 0.015174814499914646, 0.06305254250764847, -0.03352119401097298, -0.053414907306432724, -0.0486285574734211, -0.06451550871133804, 0.0677969679236412, 0.0921168103814125, 0.1068815141916275, 0.020141834393143654, 0.02816462330520153, 0.03186986595392227, 0.06721629947423935, -0.023393142968416214, -0.04654720053076744, 0.08236914128065109, -0.0324043408036232, -0.01793738082051277, -0.04213670641183853, 0.007147765252739191, 0.06863733381032944, -0.030412986874580383, -0.027594158425927162, 0.09627646207809448, 0.011396348476409912, -0.08364500850439072, -0.03327591344714165, -0.037723470479249954, -0.02383086271584034, -0.008411109447479248, 0.03654571622610092, 0.09349900484085083, -0.0814107358455658, 0.009570430964231491, 0.09357134252786636, 0.08848654478788376, -0.09046223014593124, 0.07901587337255478, -0.11920330673456192, 0.11403976380825043, -0.06959468871355057, 0.03650439903140068, 0.03960885480046272, -0.055655915290117264, 0.007682239171117544, -0.061720848083496094, -0.0017290115356445312, -0.085471011698246, -0.07252871245145798, 0.019388651475310326, 0.02118370682001114, 0.12389994412660599, 0.12255540490150452, -0.037688158452510834, 0.02593989670276642, -0.01642012782394886, 0.023295819759368896, -0.06734804064035416, -0.0633864775300026, 0.050657156854867935, 0.009358668699860573, 0.010805262252688408, -0.09580215066671371, -0.10237868130207062, 0.09990175813436508, 0.023170696571469307, -0.061696138232946396, -0.095222607254982, -0.05163758620619774, 0.0771569311618805, 0.05549374967813492, 0.052510976791381836, 0.06951568275690079, 0.02769484743475914, -0.023917770013213158, 0.06904936581850052, -0.01844748668372631, -0.09155761450529099, -0.09977717697620392, 0.05294637754559517, -0.055501341819763184, 0.028454262763261795, 0.08529724180698395, 0.02959812805056572, 0.03664514049887657, 0.11439201980829239, -0.08112822473049164, -0.027332425117492676, -0.016930950805544853, -0.09814466536045074, -0.021843183785676956, 0.045679736882448196, 0.05312107875943184, -0.0615261048078537, 0.08399350941181183, 0.06549271941184998, -0.034790150821208954], [-0.08365780115127563, 0.10430406033992767, 0.04838739335536957, -0.03977265954017639, 0.028918510302901268, 0.08869767934083939, -0.01771599054336548, -0.04842327907681465, -0.054508816450834274, 0.012469303794205189, 0.005053830333054066, 0.05879368633031845, -0.0789131298661232, 0.014860762283205986, -0.024326371029019356, -0.025323284789919853, -0.00474505452439189, 0.02370009385049343, 0.017057979479432106, 0.06396346539258957, -0.08535229414701462, -0.06796716898679733, -0.020601866766810417, -0.012147685512900352, 0.04519498348236084, 0.0697994977235794, -0.037035226821899414, -0.030205965042114258, 0.05438026413321495, 0.05836527422070503, 0.0818837583065033, 0.06520256400108337, -0.009337014518678188, 0.06187628582119942, 0.06249678134918213, -0.007408766075968742, 0.003336337162181735, -0.01008062157779932, -0.08917917311191559, -0.08629951626062393, -0.02827834151685238, 0.021891586482524872, -0.035407714545726776, -0.08933793008327484, -0.08854313939809799, 0.06267066299915314, -0.09700553864240646, 0.004349956754595041, -0.029803717508912086, 0.036002229899168015, -0.010596448555588722, 0.05310425907373428, 0.03537340462207794, 0.038513146340847015, -0.001970853190869093, 0.022118739783763885, -0.08154503256082535, -0.025462079793214798, -0.02913597784936428, -0.0007687091710977256, 0.030688682571053505, -0.09621494263410568, 0.020079685375094414, 0.09148907661437988, -0.08826667070388794, 0.062370941042900085, 0.034066032618284225, 0.003479106118902564, 0.008738475851714611, -0.06782351434230804, -0.09023492783308029, 0.07105053216218948, 0.051197946071624756, -0.0683869943022728, -0.07535947114229202, -0.018806707113981247, 0.038824234157800674, 0.04983023554086685, -0.014751953072845936, 0.09835829585790634, 0.007488894741982222, 0.053872741758823395, 0.009801280684769154, 0.0385497584939003, -0.057596635073423386, 0.025848671793937683, 0.058452848345041275, -0.08854047954082489, -0.01212752889841795, -0.06288691610097885, 0.018937397748231888, 0.022366583347320557, -0.023776305839419365, -0.01981654204428196, 0.002517402172088623, -0.07251103222370148, 0.06483080238103867, -0.004392135888338089, -0.02136196196079254, 0.022285137325525284], [-0.021589552983641624, -0.019406724721193314, 0.068027064204216, -0.029316013678908348, -0.04558545723557472, 0.0023047805298119783, 0.033146489411592484, 0.004238415043801069, -0.06703341007232666, -0.03620896488428116, 0.0007193207857199013, -0.01096811331808567, 0.015340305864810944, -0.04861282557249069, 0.07326164096593857, -0.010147488676011562, 0.06941130012273788, 0.05570635944604874, 0.02983499877154827, 0.04853339120745659, -0.047237128019332886, 0.012808090075850487, 0.09750866889953613, -0.07127328217029572, -0.0035423310473561287, 0.08416180312633514, -0.07582193613052368, 0.07430406659841537, -0.008196616545319557, 0.046976685523986816, 0.06571779400110245, 0.03558044508099556, -0.0005261015030555427, -0.09384217113256454, -0.08033740520477295, 0.09522271901369095, 0.00965880323201418, -0.061948586255311966, 0.03687828779220581, -0.021872831508517265, -0.029717154800891876, 0.08755962550640106, -0.01591324433684349, -0.048526737838983536, 0.05823411047458649, 0.019869662821292877, 0.07082755863666534, -0.06646803766489029, -0.08948817104101181, -0.05057423189282417, -0.07902581989765167, 0.073502317070961, 0.04490244388580322, 0.06639063358306885, -0.047704100608825684, -0.05717257782816887, -0.02003656141459942, -0.0458950512111187, -0.007281363010406494, -0.09233957529067993, -0.0623815655708313, -0.04684572294354439, 0.06189104914665222, 0.03066517785191536, 0.030991310253739357, 0.08115489035844803, -0.07543828338384628, 0.028644217178225517, -0.07889360189437866, 0.009591029025614262, -0.05047750473022461, 0.03885652869939804, -0.004705449566245079, 0.07266466319561005, -0.02312062866985798, 0.048554468899965286, 0.032015424221754074, -0.04230974614620209, 0.03765478357672691, 0.06382997334003448, -0.005450201220810413, 0.06584149599075317, 0.09444331377744675, 0.03675346449017525, -0.0864630714058876, 0.0619320385158062, -0.08691485971212387, 0.04732685163617134, -0.006878832820802927, 0.07956404983997345, -0.04571809992194176, -0.020800841972231865, -0.08615308254957199, 0.03850151225924492, -0.041820086538791656, -0.04909222200512886, 0.09210725873708725, 0.07793838530778885, -0.05059170722961426, 0.0942191481590271], [-0.07739637047052383, -0.0036648751702159643, 0.03665117919445038, -0.02685406245291233, 0.021140439435839653, 0.06908459961414337, -0.06819307059049606, -0.05179882049560547, -0.013147509656846523, -0.06538864225149155, -0.08730717748403549, -0.0511246919631958, 0.05774250254034996, 0.061704717576503754, -0.0450974702835083, 0.07209459692239761, 0.09022662788629532, -0.06881916522979736, 0.023306502029299736, 0.04577716812491417, 0.05665293708443642, 0.04696536064147949, 0.07603776454925537, -0.029528845101594925, 0.05954926088452339, 0.004435205366462469, 0.015116619877517223, -0.06245267391204834, 0.06262201070785522, -0.04901467636227608, -0.05810194090008736, -0.0089776162058115, 0.026613086462020874, -0.08297045528888702, 0.09806769341230392, 0.029664790257811546, -0.06451129168272018, -0.024571849033236504, 0.0004823923227377236, -0.07353147119283676, 0.0172063410282135, 0.05623641610145569, -0.0678754523396492, 0.04615147411823273, 0.06164948642253876, 0.006089396774768829, -0.05166748911142349, -0.0904531478881836, 0.007328331470489502, 0.007775104139000177, -0.042320527136325836, 0.08887525647878647, -0.06551149487495422, -0.034038882702589035, -0.07852661609649658, -0.06940610706806183, -0.002753114327788353, -0.03978708013892174, -0.09678646177053452, 0.04951176792383194, -0.07439418882131577, 0.06182055547833443, 0.030670857056975365, 0.09971516579389572, 0.05341554060578346, 0.09267531335353851, -0.010414249263703823, -0.06192607805132866, 0.08314014226198196, 0.05414107069373131, -0.048388004302978516, 0.0939374640583992, 0.02496284991502762, 0.05609237775206566, 0.03551821410655975, 0.05375570058822632, -0.07923495024442673, 0.008830489590764046, 0.05338018760085106, -0.061445560306310654, 0.07919688522815704, -0.04491182789206505, 0.05928615480661392, -0.025429654866456985, 0.05117698758840561, -0.03708517551422119, 0.12098684906959534, -0.03274301439523697, -0.07948329299688339, 0.07323168963193893, 0.028105033561587334, -0.09852925688028336, -0.033079613000154495, -0.06704310327768326, 0.08903471380472183, -0.029562437906861305, 0.004988444037735462, -0.09500902146100998, -0.09382116794586182, 0.07749392092227936], [0.06125279888510704, 0.045818161219358444, 0.08063476532697678, -0.04344601556658745, -0.015639090910553932, -0.06796401739120483, -0.017119277268648148, 0.04723142459988594, 0.08951418846845627, 0.0837203785777092, 0.07450293749570847, 0.027673710137605667, 0.0022935152519494295, 0.07640204578638077, -0.0500391460955143, 0.08320803940296173, 0.01773548126220703, -0.08969765901565552, -0.011869573965668678, -0.0944557785987854, -0.01501700934022665, 0.018688930198550224, -0.09069442003965378, -0.04758995771408081, 0.0045629581436514854, -0.07470323145389557, -0.0797194391489029, 0.021252382546663284, -0.06360018253326416, 0.0036266923416405916, -0.07839372009038925, 0.04013989120721817, -0.0705181285738945, 0.09136182814836502, 0.024903392419219017, 0.027753842994570732, 0.07233090698719025, -0.08165206760168076, -0.0815466046333313, 0.08230208605527878, 0.07561568170785904, -0.02230159007012844, 0.0014539009425789118, -0.038296401500701904, 0.07163095474243164, 0.040735725313425064, -0.0020020606461912394, -0.022139744833111763, 0.02465650998055935, -0.07934849709272385, -0.02476421557366848, -0.08630430698394775, -0.06388350576162338, 0.04048887640237808, 0.020587923005223274, 0.031150374561548233, 0.10642002522945404, 0.034724779427051544, -0.00939091481268406, 0.09745053201913834, -0.060025133192539215, -0.08197704702615738, 0.04866122826933861, 0.06979915499687195, -0.09288638830184937, -0.0148527966812253, -0.03555864095687866, -0.08380752801895142, -0.015937229618430138, -0.07337996363639832, -0.07308638095855713, -0.000866441463585943, -0.017383545637130737, -0.006771993823349476, 0.019068535417318344, 0.06350839138031006, -0.047290313988924026, -0.09365876019001007, 0.02928963303565979, 0.013836254365742207, 0.034619130194187164, 0.05840099975466728, 0.05487258359789848, -0.0243119727820158, 0.05931910499930382, -0.0763096809387207, -0.07198599725961685, -0.05269507318735123, -0.09751105308532715, -0.02545790746808052, 0.0245612021535635, 0.04806464910507202, -0.04899953678250313, -0.025404274463653564, 0.013988208957016468, -0.06478861719369888, 0.0974302589893341, -0.055173929780721664, -0.0697619691491127, 0.002970390720292926], [-0.03994201496243477, 0.015035486780107021, -0.03792121633887291, 0.02712174691259861, -0.0831487774848938, 0.027712607756257057, 0.039525356143713, 0.03361546993255615, -0.07751450687646866, -0.009077978320419788, -0.06430383771657944, -0.05738724395632744, -0.05636090040206909, -0.07409989088773727, -0.05239858850836754, -0.09574481099843979, 0.009961867704987526, 0.013989842496812344, -0.030925536528229713, -0.0866408571600914, -0.008495709858834743, -0.011303653940558434, -0.010991115123033524, -0.0710461288690567, 0.05155257508158684, 0.002999722957611084, 0.021269822493195534, -0.0026106000877916813, 0.09902536123991013, 0.05232816934585571, 0.07193193584680557, -0.09213928133249283, -0.05867459997534752, -0.04925268888473511, 0.03862681984901428, 0.03263980150222778, -0.04005516692996025, -0.07820393890142441, 0.059376444667577744, -0.01496653538197279, -0.10636278986930847, 0.06899888813495636, 0.06656496226787567, 0.01003703847527504, -0.01274518296122551, -0.05375784635543823, 0.08456367254257202, 0.010566567070782185, -0.0952899232506752, -0.08257042616605759, 0.05113490670919418, 0.060302820056676865, -0.028923287987709045, -0.06514368206262589, -0.018372641876339912, 0.014330842532217503, -0.05479968711733818, -0.07890694588422775, 0.09436363726854324, -0.08568444103002548, 0.052882373332977295, -0.004508781712502241, -0.026832839474081993, 0.013453442603349686, -0.033555541187524796, 0.0349612720310688, 0.003825235413387418, 0.022922147065401077, 0.003558182856068015, -0.026463234797120094, 0.08477632701396942, 0.0946977511048317, -0.02510649524629116, 0.014103575609624386, 0.05503617599606514, 0.0976676270365715, 0.05029790475964546, 0.014919948764145374, -0.08378978073596954, 0.07060448825359344, -0.09922224283218384, -0.014304102398455143, 0.02664133347570896, -0.056176211684942245, -0.06277956068515778, -0.03455919027328491, -0.05274956300854683, -0.05645636469125748, -0.022970890626311302, 0.07628492265939713, 0.09912482649087906, 0.06156238541007042, 0.003135037375614047, -0.08242211490869522, -0.042158402502536774, 0.01800704002380371, 0.032346855849027634, 0.057832349091768265, 0.07529550045728683, 0.020537519827485085], [0.08653509616851807, 0.009425144642591476, 0.04472901299595833, -0.004298578016459942, -0.08797445148229599, 0.05740153044462204, -0.09364932030439377, 0.052372004836797714, -0.01966078393161297, -0.017773164436221123, -0.03420213609933853, -0.030568275600671768, 0.0516015961766243, -0.06184248998761177, -0.03728447109460831, 0.019699109718203545, -0.01981072500348091, 0.08102524280548096, 0.058368753641843796, 0.04360799863934517, 0.06613717973232269, 0.019019365310668945, 0.02190709114074707, -0.004946086555719376, 0.06499045342206955, -0.07886232435703278, -0.09970754384994507, 0.07127213478088379, 0.09267466515302658, -0.08965974301099777, -0.03924132511019707, 0.04365919902920723, -0.09324369579553604, 0.06560253351926804, -0.04874923452734947, -0.04657865688204765, 0.0010218110401183367, 0.0307858195155859, 0.06344147771596909, -0.09363316744565964, -0.04617428407073021, -0.05915854498744011, -0.10851646959781647, 0.0772869735956192, -0.07601437717676163, -0.0820440948009491, 0.04969452694058418, -0.08049376308917999, -0.06351333856582642, -0.019989658147096634, 0.030663294717669487, -0.08308609575033188, -0.04245555400848389, -0.09364404529333115, -0.08738521486520767, -0.051023226231336594, -0.0016093560261651874, -0.07973146438598633, -0.04123558849096298, 0.03183164820075035, -0.08209136873483658, -0.007140076253563166, -0.0832323208451271, 0.04003724083304405, -0.05410543456673622, 0.0060373758897185326, 0.07985642552375793, -0.017638633027672768, -0.03067493811249733, 0.035232000052928925, 0.021346667781472206, -0.01992223598062992, 0.04850900173187256, -0.0009797931415960193, 0.03513508662581444, 0.08362920582294464, -0.0036642614286392927, -0.01843205839395523, -0.04268369451165199, 0.012029620818793774, 0.007965922355651855, 0.0044664908200502396, 0.06632838398218155, 0.07875620573759079, 0.03738793730735779, -0.03891298919916153, -0.09953580051660538, -0.010868770070374012, -0.052318722009658813, 0.016387993469834328, -0.05990255996584892, 0.04474543407559395, -0.04843083769083023, 0.09709971398115158, 0.08232754468917847, -0.010855532251298428, -0.046104561537504196, -0.07373940199613571, 0.07884926348924637, -0.0860590860247612], [0.09654644876718521, 0.04827018454670906, -0.11651205271482468, 0.05988142266869545, 0.025365198031067848, 0.05132695287466049, 0.030036641284823418, 0.031753718852996826, -0.030487060546875, 0.047541406005620956, 0.09411628544330597, 0.03761593997478485, -0.05783037468791008, 0.063478484749794, 0.04055964574217796, 0.010190737433731556, -0.02322920598089695, -0.026420652866363525, 0.048198748379945755, -0.03412840515375137, 0.1138061061501503, -0.021088654175400734, -0.07858534902334213, 0.03627016395330429, 0.000462818774394691, 0.05144884064793587, 0.012997211888432503, 0.09711933135986328, -0.04891211912035942, -0.003133928868919611, -0.0021949780639261007, -0.03883844241499901, 0.0011330593843013048, -0.12826576828956604, -0.0715329721570015, 0.03070363774895668, -0.06275981664657593, 0.07185616344213486, 0.08937963098287582, 0.09787948429584503, -0.047460202127695084, 0.03029528632760048, -0.05946585163474083, 0.06680350005626678, 0.07541855424642563, 0.012643542140722275, -0.061953697353601456, 0.0347135029733181, 0.05720848962664604, 0.0521915927529335, 0.07058973610401154, -0.02037062682211399, -0.024341557174921036, -0.08230242133140564, -0.030217884108424187, 0.07228410989046097, 0.04597395285964012, -0.11590930074453354, -0.079539954662323, 0.029115116223692894, -0.09955330938100815, -0.0256738793104887, 0.01758052408695221, -0.11372436583042145, -0.039003051817417145, -0.1317429393529892, 0.01691153086721897, 0.006120048929005861, -0.04311157763004303, -0.014791070483624935, -0.04721808806061745, 0.043698105961084366, 0.0053753019310534, 0.06921928375959396, -0.018683159723877907, -0.01869034953415394, -0.007949735969305038, -0.11972686648368835, 0.04908832162618637, 0.007222394924610853, 0.048271335661411285, -0.021808970719575882, -0.021996593102812767, 0.08690830320119858, -0.026969587430357933, 0.09482258558273315, -0.028313225135207176, -0.1174667626619339, -0.07849502563476562, -0.010715337470173836, 0.04842512682080269, -0.022321928292512894, -0.0816989541053772, 0.0066944002173841, -0.01656174659729004, 0.031704146414995193, 0.043693963438272476, 0.011727659031748772, -0.008478955365717411, -0.03365735709667206], [0.05853395536541939, 0.02849254570901394, 0.000559531501494348, -0.07044681161642075, -0.051954735070466995, -0.034092772752046585, 0.045133233070373535, 0.023093843832612038, 0.08565018326044083, 0.013541663065552711, -0.032244086265563965, 0.028568590059876442, -0.04485762119293213, 0.056679338216781616, -0.0563959963619709, 0.04342779144644737, 0.06550353020429611, 0.07343962043523788, -0.05537853389978409, -0.0578739307820797, -0.021525589749217033, 0.050052471458911896, 0.0656365156173706, -0.08709254115819931, 0.0191049687564373, 0.03052399307489395, -0.023659177124500275, -0.0988868847489357, 0.046374380588531494, -0.032735325396060944, 0.008199443109333515, 0.055255986750125885, -0.04782973974943161, 0.04757262021303177, 0.08979258686304092, 0.019458388909697533, -0.04465293884277344, 0.038803454488515854, -0.09730236977338791, -0.07358156889677048, 0.06036575883626938, 0.10765079408884048, -0.10385101288557053, -0.0400085523724556, -0.11577588319778442, 0.05335599184036255, -0.10065566748380661, 0.05394434928894043, -0.008762574754655361, -0.07238262891769409, -0.04976186901330948, 0.01037832535803318, -0.03303259611129761, 0.11120434105396271, 0.0597650408744812, 0.04207078367471695, 0.006710082292556763, -0.03975791484117508, -0.08660680055618286, 0.016201794147491455, 0.07733243703842163, -0.07036634534597397, 0.06265689432621002, -0.014859898015856743, -0.07679606974124908, -0.10214906930923462, -0.0885234847664833, -0.0174978356808424, -0.04389336332678795, -0.03002801351249218, -0.07931187003850937, -0.045321956276893616, -0.09125546365976334, -0.07163764536380768, 0.022715499624609947, 0.09720074385404587, -0.04146116226911545, -0.017019258812069893, 0.004017659928649664, -0.07934325933456421, 0.0583932064473629, 0.08851832896471024, -0.08348207920789719, -0.05157506465911865, -0.0733107253909111, -0.06824573129415512, 0.036179445683956146, 0.016639964655041695, 0.040458451956510544, 0.021102357655763626, 0.07384175062179565, -0.06574232876300812, 0.003968036267906427, -0.05619779974222183, 0.09309364855289459, 0.08238255977630615, 0.0966290533542633, 0.04413317143917084, 0.08588137477636337, 0.056016676127910614], [-0.018815983086824417, -0.07748531550168991, -0.07172421365976334, -0.07908153533935547, 0.07654423266649246, -0.00250059156678617, 0.029851699247956276, 0.026425672695040703, -0.001184058259241283, -0.08948866277933121, 0.09276781231164932, 0.1031704843044281, -0.08063095062971115, -0.07080454379320145, 0.033724021166563034, 0.005998277571052313, 0.09542687237262726, -0.0024215697776526213, 0.07549450546503067, 0.09750894457101822, 0.07896655797958374, 0.01926605775952339, -0.08723608404397964, 0.0845155343413353, 0.09047310054302216, 0.11787957698106766, -0.07423863559961319, -0.07688094675540924, 0.056685030460357666, -0.08510073274374008, 0.05211787670850754, -0.04562081769108772, 0.10997724533081055, 0.07273640483617783, -0.08404828608036041, -0.09417556971311569, -0.050240788608789444, 0.03644192963838577, -0.06450076401233673, -0.05511711910367012, -0.009844713844358921, 0.07915057986974716, 0.05367470905184746, -0.0896303728222847, 0.05218683183193207, 0.04569733142852783, -0.08545925468206406, 0.008676258847117424, 0.04076134040951729, 0.04798847436904907, 0.05692717432975769, 0.03352390602231026, -0.03249919414520264, -0.056551333516836166, -0.020597996190190315, -0.07970286160707474, 0.049870096147060394, 0.07795432209968567, 0.08853033185005188, -0.035845305770635605, -0.08427788317203522, 0.02497871033847332, 0.018939003348350525, -0.0033973113168030977, -0.07447539269924164, -0.03712483495473862, 0.12770439684391022, 0.07077919691801071, 0.031680524349212646, -0.0662655457854271, 0.05068892985582352, 0.07224893569946289, 0.09195283055305481, 0.08537545800209045, -0.0961955189704895, -0.07657382637262344, 0.07715790718793869, 0.07169662415981293, 0.06658026576042175, -0.062241945415735245, -0.0030735016334801912, -0.05028223618865013, -0.0024878145195543766, -0.020351624116301537, -0.09181462973356247, 0.07906217873096466, -0.008512642234563828, 0.09324073791503906, 0.13048692047595978, 0.04784742370247841, -0.06125464662909508, -0.025661742314696312, 0.028060246258974075, 0.03119567595422268, 0.09058865159749985, 0.06987916678190231, -0.06286164373159409, 0.043894700706005096, -0.08606598526239395, -0.046766944229602814], [-0.08880668133497238, 0.07325004786252975, 0.10922820121049881, 0.08407709747552872, -0.06641751527786255, -0.010732472874224186, 0.007466912269592285, -0.09801498800516129, 0.09317290037870407, 0.09991791099309921, -0.02532367780804634, -0.014861522242426872, -0.08898945152759552, 0.051415372639894485, 0.03446485847234726, -0.01442652940750122, -0.04118269681930542, -0.017732108011841774, -0.03194325044751167, 0.05091867595911026, 0.03476255014538765, 0.06075450778007507, -0.08409412205219269, 0.005660437047481537, 0.05592350661754608, -0.03740044683218002, 0.024081924930214882, -0.06818103790283203, 0.09233720600605011, -0.018309295177459717, -0.010121501050889492, 0.0461173839867115, 0.044803377240896225, -0.009837058372795582, 0.040712110698223114, 0.07708952575922012, -0.008466627448797226, -0.003440427826717496, -0.09923666715621948, -0.06324943155050278, -0.088069848716259, -0.07166080921888351, -0.04607183858752251, -0.01704331487417221, 0.049006812274456024, 0.05458391085267067, -0.058484338223934174, -0.01549054216593504, -0.03372550010681152, 0.08938942104578018, -0.00653025833889842, 0.0038742423057556152, -0.008331183344125748, -0.008740936405956745, 0.056317802518606186, 0.10090599954128265, -0.042453519999980927, -0.07584843784570694, -0.0012338110245764256, 0.08430736511945724, 0.0694204792380333, 0.03398188576102257, -0.02129967324435711, -0.02053559198975563, 0.06530871987342834, -0.12299249321222305, -0.02611081302165985, 0.005293883383274078, 0.09835895895957947, 0.04046289995312691, -0.08559256792068481, 0.07822169363498688, 0.07209834456443787, 0.09701137244701385, 0.028030220419168472, -0.033816225826740265, -0.09338763356208801, 0.07968804240226746, -0.05963804945349693, -0.046991847455501556, 0.08966892212629318, 0.015178976580500603, -0.02378631941974163, -0.0001842260389821604, -0.08197597414255142, -0.08336838334798813, 0.00395232904702425, 0.0911322683095932, -0.014821956865489483, 0.01943035237491131, 0.058139752596616745, 0.014911079779267311, 0.007297265809029341, -0.01191866397857666, -0.06971374899148941, -0.06917384266853333, 0.09161680936813354, 0.034077927470207214, -0.01974673382937908, -0.07189809530973434], [0.011712145991623402, 0.00016055232845246792, -0.052998319268226624, -0.08975155651569366, -0.06587342917919159, -0.02356809191405773, -0.06473358720541, 0.0017248749500140548, 4.4465064092946704e-06, 0.0011992097133770585, -0.06461255997419357, 0.05142168328166008, 0.06748555600643158, 0.019713178277015686, 0.008907089941203594, 0.051400937139987946, 0.010204577818512917, 0.016498221084475517, 0.0946703776717186, -0.08407079428434372, 0.026681574061512947, -0.06182308495044708, -0.06942033022642136, 0.01801471970975399, -0.04655938595533371, -0.030224651098251343, 0.05832028388977051, 0.013161278329789639, -0.06504230946302414, 0.04197344928979874, -0.01479144487529993, 0.024269936606287956, -0.0896948054432869, 0.020241297781467438, -0.04719998314976692, 0.07016116380691528, 0.05982248857617378, 0.009493974037468433, -0.05657630041241646, 0.07067912817001343, 0.08646047860383987, -0.05542672798037529, -0.04354694485664368, 0.0039033314678817987, -0.045673128217458725, 0.03408174589276314, -0.08775699138641357, 0.06660661846399307, -0.07453980296850204, -0.0006747841835021973, -0.020639019086956978, 0.066371850669384, 0.01827058382332325, -0.035129792988300323, -0.02452806569635868, -0.0779140293598175, 0.09971872717142105, -0.049977902323007584, 0.01903846673667431, 0.015114450827240944, 0.10273773223161697, -0.07500540465116501, 0.08086109161376953, -0.021618008613586426, -0.004094225820153952, 0.10117625445127487, -0.0426645502448082, 0.010539245791733265, 0.1061641201376915, -0.050918906927108765, -0.08021123707294464, 0.01813908852636814, 0.06208581477403641, 0.022262388840317726, 0.08801804482936859, 0.07561589777469635, -0.07467786967754364, 0.0856681689620018, 0.06834113597869873, 0.005084554199129343, -0.09566705673933029, 0.0016852410044521093, -0.08098621666431427, 0.01407997589558363, 0.032676246017217636, -0.02060132473707199, 0.08244721591472626, 0.11660241335630417, 0.08863218128681183, 0.004982316866517067, -0.027230406180024147, -0.09834358841180801, 0.09376849979162216, 0.06714484840631485, -0.0202347282320261, 0.037881456315517426, -0.12145902216434479, 0.05833475664258003, -0.09851635247468948, 0.09764508157968521], [-0.07344850152730942, 0.0323551781475544, -0.006713449954986572, 0.013853013515472412, 0.002315688179805875, -0.05839482694864273, 0.03186368942260742, -0.08180918544530869, -0.025881553068757057, 0.09780700504779816, 0.06825318187475204, 0.08063606172800064, 0.01861121691763401, 0.0005188226932659745, -0.05914682149887085, -0.010530996136367321, 0.07930731773376465, -0.019181763753294945, 0.005249917507171631, 0.07540380209684372, 0.0293808002024889, -0.09386241436004639, 0.0524442084133625, -0.08448498696088791, 0.06184952333569527, -0.05259460210800171, 0.07258591800928116, 0.06452734768390656, -0.050399091094732285, -0.007599747274070978, -0.026229167357087135, 0.01691199652850628, 0.08310044556856155, 0.007856595329940319, 0.05922844633460045, -0.07101172208786011, -0.012740504927933216, -0.09543398767709732, 0.0677218958735466, 0.031086837872862816, -0.05014767870306969, -0.061795152723789215, -0.07239172607660294, -0.02824883535504341, -0.02951573207974434, 0.016826359555125237, -0.04297071695327759, -0.0696779116988182, 0.05187554284930229, 0.02596946991980076, -0.06640111654996872, -0.045652080327272415, -0.054820310324430466, -0.05062383413314819, 0.04576682299375534, -0.0017739924369379878, -0.08547019958496094, -0.003731417702510953, 0.0004478454648051411, 0.009088587947189808, 0.0876912996172905, 0.059886373579502106, -0.09766978025436401, 0.07743166387081146, -0.020417559891939163, -0.005319273564964533, 0.004894258454442024, -0.05087876319885254, -0.04012322425842285, 0.02613244205713272, 0.07845804840326309, 0.00041650471393950284, 0.015447893179953098, -0.021426821127533913, -0.027258718386292458, -0.026477694511413574, 0.014140589162707329, 0.06937966495752335, -0.05103721842169762, -0.03946400806307793, 0.03673027828335762, -0.030823564156889915, -0.03830573707818985, -0.05081593990325928, 0.0569063201546669, -0.07610609382390976, -0.029507840052247047, -0.01755775325000286, -0.003323450218886137, -0.0422205813229084, 0.06673126667737961, -0.04587376117706299, -0.03814974054694176, 0.08432815223932266, -0.0447530634701252, -0.0854688435792923, 0.05498624965548515, 0.050813302397727966, 0.02463982068002224, -0.008694480173289776], [0.01938042603433132, -0.001858781441114843, 0.06003600358963013, -0.08630234003067017, -0.028080640360713005, -0.03047197312116623, -0.008646738715469837, -0.06643053144216537, 0.0031005502678453922, -0.07489091157913208, 0.03528451919555664, 0.008731049485504627, 0.054112497717142105, 0.09568525105714798, -0.024797845631837845, 0.00829381961375475, 0.056449174880981445, -0.09566354006528854, 0.020615601912140846, 0.018751872703433037, -0.06561613827943802, -0.04301353171467781, 0.020115621387958527, 0.04356874153017998, -0.09604015201330185, 0.019785240292549133, -0.08184917271137238, 0.033157359808683395, -0.0734320804476738, 0.007077956106513739, 0.0667598694562912, -0.06874480843544006, -0.08972766250371933, 0.05184249207377434, 0.013205872848629951, -0.027285605669021606, 0.07028096169233322, 0.051614370197057724, -0.05891425535082817, -0.0030392648186534643, -0.09594066441059113, 0.07437550276517868, -0.06887747347354889, -0.01020470168441534, 0.008317514322698116, 0.07252126187086105, 0.09462124109268188, 0.06441249698400497, 0.09684518724679947, 0.06720896065235138, 0.03887183591723442, 0.04025019332766533, 0.08726959675550461, 0.05435919016599655, 0.03901055455207825, -0.0668734610080719, -0.0034832193050533533, 0.06548315286636353, 0.015153923071920872, 0.05285470560193062, 0.014030065387487411, 0.020142043009400368, -0.059725116938352585, 0.0069099427200853825, 0.03611169382929802, -0.0009857466211542487, -0.04276268184185028, -0.02341429516673088, -0.09842907637357712, -0.09532901644706726, -0.086367666721344, -0.04072403907775879, 0.061043012887239456, -0.0998733639717102, 0.07587723433971405, -0.0260525681078434, -0.09571988880634308, -0.08694639056921005, 0.04612865298986435, -0.09375162422657013, 0.035216737538576126, 0.003614417975768447, 0.07723013311624527, -0.05345379188656807, -0.06955070793628693, -0.047175414860248566, -0.07238692790269852, -0.016554145142436028, -0.0681205615401268, 0.07974300533533096, -0.032753657549619675, 0.07238709181547165, 0.09100303798913956, -0.03480391576886177, 0.06211379915475845, 0.0887639969587326, 0.07947351038455963, -0.08401789516210556, -0.08706368505954742, 0.07593096047639847], [0.08196643739938736, -0.09371429681777954, 0.02745107375085354, 0.025666117668151855, -0.053384434431791306, -0.0007756591076031327, -0.06938885897397995, 0.02493203990161419, 0.01852816343307495, 0.03300255537033081, 0.08884173631668091, 0.08700382709503174, 0.07823564112186432, -0.06964632123708725, -0.0006070017698220909, -0.028200650587677956, -0.0908379778265953, -0.06185993179678917, -0.09277305752038956, -0.06659447401762009, 0.10638590157032013, -0.023028552532196045, 0.07115127146244049, -0.05697904899716377, 0.03298889473080635, 0.0758434310555458, 0.05457397922873497, 0.07648774236440659, 0.07678832858800888, -0.05831856653094292, 0.03812288120388985, -0.035984765738248825, -0.019967151805758476, 0.07995913177728653, -0.08832605183124542, 0.057770997285842896, 0.05294746905565262, -0.025472356006503105, 0.057325102388858795, -0.06677090376615524, -0.02244013547897339, 0.08445020020008087, -0.05337708070874214, 0.09893953800201416, 0.01985642872750759, 0.027723418548703194, -0.04317442327737808, -0.03574979305267334, 0.08812669664621353, -0.026855409145355225, -0.048613499850034714, -0.013402950949966908, -0.03202151134610176, 0.024862825870513916, 0.030228588730096817, -0.0853826254606247, -0.06131809949874878, -0.09935488551855087, 0.03182436153292656, 0.006647825241088867, -0.03201570734381676, -0.07098853588104248, -0.048121072351932526, -0.012505817227065563, 0.11587391048669815, -0.08754175901412964, 0.03816492110490799, -0.06444628536701202, 0.010404753498733044, 0.09335781633853912, 0.08084948360919952, -0.09028162062168121, -0.029453162103891373, -0.04621253162622452, 0.04263164848089218, -0.004724403843283653, -0.040384214371442795, -0.06535805016756058, -0.000677555100992322, 0.05489012971520424, 0.08863947540521622, -0.05256066471338272, -0.04355468973517418, 0.012382484041154385, 0.028380732983350754, 0.0316801555454731, -0.005304188467562199, 0.03480852395296097, 0.036496616899967194, -0.07093790918588638, 0.08512746542692184, -0.07970698922872543, 0.0022421241737902164, 0.013716018758714199, -0.0010222196578979492, 0.020473377779126167, -0.014413545839488506, -0.0849205031991005, -0.10613574832677841, -0.08138975501060486], [-0.08613454550504684, -0.014346354641020298, -0.0661856159567833, 0.0321267768740654, 0.08597729355096817, -0.09643848985433578, -0.04779250547289848, -0.004748225212097168, 0.04347965866327286, -0.07494141906499863, -0.03520229086279869, -0.08146428316831589, 0.0939209908246994, -0.08241072297096252, -0.0159616619348526, -0.05327676609158516, 0.08813148736953735, -0.052281249314546585, -0.0015823483699932694, -0.08148669451475143, -0.08212185651063919, 0.06524720788002014, 0.04686332121491432, -0.02484930120408535, 0.06618320196866989, 0.07330732047557831, 0.11365554481744766, -0.030611766502261162, -0.04775073751807213, -0.0447792187333107, 0.023643769323825836, -0.025676481425762177, 0.08778144419193268, 0.03227555751800537, -0.09088412672281265, -0.039447713643312454, -0.006148357875645161, 0.041015006601810455, 0.07355853170156479, 0.023780250921845436, -0.05010533332824707, -0.059618640691041946, 0.008291873149573803, 0.0817064568400383, 0.06093956157565117, 0.05864547938108444, 0.019362837076187134, 0.05272575467824936, 0.004714846611022949, 0.029125381261110306, -0.09595558792352676, -0.09866515547037125, -0.09294090420007706, 0.010214172303676605, 0.07618861645460129, 0.11551235616207123, -0.07951319962739944, 0.00463012233376503, 0.08948419988155365, -0.02047750912606716, 0.07428629696369171, -0.04249626398086548, 0.04127167537808418, -0.09774816036224365, 0.03643056005239487, 0.10712737590074539, -0.08404216170310974, 0.02292283996939659, 0.05215386301279068, -0.013344822451472282, -0.07690538465976715, -0.10479007661342621, -0.030489059165120125, -0.013789677992463112, -0.022889209911227226, 0.02714644744992256, 0.058499693870544434, 0.06990731507539749, -0.02446765825152397, 0.0465865321457386, 0.05940517410635948, -0.07856246083974838, -0.03306926414370537, -0.02436208724975586, 0.02707289718091488, -0.0448150709271431, -0.004206474404782057, 0.027560148388147354, 0.11683482676744461, -0.0016580496449023485, 0.029584050178527832, 0.07394017279148102, 0.09604581445455551, 0.06177119165658951, 0.077064648270607, -0.048841387033462524, -0.09700097143650055, 0.0911102220416069, 0.08101920783519745, 0.10841277986764908], [-0.006905734539031982, 0.01893690414726734, -0.022007744759321213, -0.001846745377406478, -0.08738081157207489, 0.04131191223859787, -0.0188668854534626, 0.042680490761995316, 0.05219851806759834, -0.09435056895017624, 0.054153360426425934, -0.04370356351137161, -0.07411743700504303, 0.08889146149158478, -0.06724503636360168, 0.03401198610663414, -0.014777041040360928, -0.029510987922549248, 0.09837307035923004, -0.0757567286491394, 0.09677938371896744, -0.11107844859361649, -0.027967803180217743, 0.049593109637498856, -0.07401860505342484, -0.0028209371957927942, 0.018405867740511894, 0.026469266042113304, -0.057239364832639694, -0.025262093171477318, -0.008230161853134632, 0.033818088471889496, -0.08130275458097458, -0.04598231986165047, -0.017925789579749107, 0.06808958202600479, -0.06441546976566315, 0.03539980575442314, 0.08982213586568832, -0.08523880690336227, -0.09630341082811356, 0.01587008684873581, 0.05065794661641121, -0.008083542808890343, -0.07139677554368973, -0.012498412281274796, -0.03201606869697571, -0.0014544996665790677, -0.09810761362314224, 0.021310150623321533, 0.05916536971926689, 0.004032886121422052, -0.0639125257730484, -0.08695754408836365, -0.05640869215130806, 0.01849227026104927, -0.009305133484303951, -0.01816227100789547, -0.08194155246019363, 0.010288620367646217, -0.09687850624322891, 0.028669072315096855, -0.06573093682527542, 0.0471581406891346, 0.08504358679056168, 0.02781989797949791, -0.01391319278627634, -0.07493166625499725, -0.01358259841799736, 0.0003402650181669742, -0.03267727419734001, 0.004259284120053053, -0.024290895089507103, -0.09022966772317886, 0.07310555875301361, 0.0021992577239871025, -0.009842410683631897, 0.0062459842301905155, -0.08003777265548706, -0.08647896349430084, 0.0651511698961258, 0.028556039556860924, -0.04182938486337662, 0.045829977840185165, -0.03248344734311104, -0.09285374730825424, -0.0666704997420311, -0.040740735828876495, -0.07633442431688309, -0.014060188084840775, 0.055810846388339996, -0.0471002459526062, 0.013686621561646461, 0.08241323381662369, -0.0668877586722374, 0.02224803902208805, 0.08541590720415115, 0.045488424599170685, -0.08099671453237534, -0.0405539907515049], [0.040367044508457184, -0.054527007043361664, -0.061894118785858154, -0.06343519687652588, 0.08634085953235626, -0.10416769236326218, -0.014952040277421474, -0.022432291880249977, 0.09299501031637192, 0.02411757782101631, -0.056950390338897705, -0.10791879892349243, -0.024511922150850296, 0.07889916747808456, 0.022768503054976463, 0.014256096445024014, -0.022697925567626953, 0.045274268835783005, 0.08164558559656143, 0.049146462231874466, 0.09511972963809967, -0.07903159409761429, 0.0018591564148664474, 0.031976375728845596, 0.04576568305492401, -0.0836530476808548, 0.054487742483615875, -0.09803193062543869, 0.009535551071166992, -0.058220651000738144, -0.04422980546951294, 0.0032048732973635197, -0.04698725417256355, 0.0655985102057457, -0.059495966881513596, -0.10221820324659348, 0.03408362343907356, -0.07582154124975204, -0.07951100915670395, 0.04843185096979141, -0.06087105721235275, -0.0625082328915596, 0.03668493404984474, -0.010027891024947166, 0.02609953284263611, 0.06609561294317245, -0.060554590076208115, -0.0004618112579919398, 0.019441699609160423, -0.08684144169092178, -0.06250938028097153, -0.08917452394962311, 0.02651849389076233, 0.023725613951683044, -0.10393691062927246, 0.02237006463110447, 0.10830831527709961, -0.08596505224704742, 0.08382435888051987, -0.06978287547826767, 0.025652378797531128, 0.007593750953674316, -0.008203651756048203, -0.09084701538085938, -0.09361495822668076, 0.04678073897957802, -0.10032780468463898, -0.1225229799747467, -0.0526752695441246, -0.03149992600083351, 0.014310866594314575, 0.0012708286521956325, 0.0320921316742897, -0.0236916895955801, -0.019043732434511185, -0.050136711448431015, -0.08015086501836777, -0.05851658061146736, 0.007610899396240711, 0.08869186043739319, 0.07036148756742477, 0.050970688462257385, -0.0916234627366066, -0.047457218170166016, 0.06427978724241257, 0.013054365292191505, 0.021690938621759415, -0.04417644441127777, -0.05421680212020874, -0.011733360588550568, -0.034788038581609726, 0.0408933162689209, -0.04594949632883072, -0.05902814865112305, -0.004484164994210005, -0.10405100882053375, -0.03345515578985214, 0.05012604594230652, 0.05773169547319412, 0.006418800912797451], [-0.0943339392542839, 0.07144246250391006, 0.022588910534977913, 0.07069338858127594, 0.0844559371471405, 0.029041636735200882, -0.08403792232275009, -0.06744974106550217, 0.04813354089856148, 0.0006064653280191123, 0.003977858927100897, 0.013242221437394619, -0.09093083441257477, 0.04837813973426819, -0.06054433062672615, 0.07598765194416046, -0.03294419124722481, -0.06869695335626602, -0.08030042797327042, 0.02900015190243721, 0.0042924825102090836, -0.04762761667370796, 0.05120420455932617, 0.0229482538998127, -0.0006924273329786956, 0.03119976818561554, -0.026158729568123817, 0.09798264503479004, 0.056165661662817, -0.08279877156019211, -0.012838280759751797, 0.044836461544036865, -0.04648317024111748, -0.09651171416044235, 0.01871464215219021, 0.0774545669555664, 0.026118941605091095, 0.05925649031996727, -0.013064813800156116, 0.05082368850708008, -0.012962735258042812, -0.0757393166422844, 0.02764812856912613, -0.01638399437069893, -0.011367673054337502, -0.01092226430773735, -0.013409426435828209, -0.07002902030944824, -0.02235896699130535, 0.09530182927846909, -0.030277729034423828, 0.00648123025894165, 0.018764806911349297, -0.0960235446691513, 0.02691417559981346, -0.09843886643648148, 0.037403035908937454, -0.06971224397420883, -0.04010133817791939, 0.06541576236486435, 0.06464412063360214, 0.008977437391877174, 0.018309473991394043, 0.09682897478342056, 0.08094896376132965, 0.03844841942191124, -0.037821535021066666, -0.0870324894785881, -0.13498248159885406, -0.08778586983680725, 0.09226677566766739, -0.09281568974256516, -0.06108212471008301, 0.07319577038288116, 0.07877033203840256, 0.006034971214830875, -0.03254994750022888, 0.05309046432375908, 0.040959108620882034, 0.023394040763378143, 0.03280261904001236, 0.06067198887467384, -0.03633688762784004, -0.07625595480203629, 0.05370901897549629, 0.03278828039765358, 0.0181090347468853, 0.013756753876805305, 0.017599739134311676, 0.0009978770976886153, 0.016866767778992653, 0.01645614020526409, 0.052358951419591904, 0.05708710104227066, 0.0526573546230793, 0.09940065443515778, 0.07128043472766876, -0.01190443616360426, -0.0747445598244667, 0.05929136276245117], [0.0025928260292857885, 0.048765551298856735, -0.09407682716846466, -0.048336874693632126, 0.07610948383808136, -0.06965470314025879, -0.06445231288671494, 0.06039097532629967, -0.06970313936471939, 0.05422933027148247, 0.08645694702863693, -0.059754740446805954, -0.009497309103608131, 0.08240736275911331, -0.06798817217350006, -0.020807946100831032, 0.04713980108499527, -0.02830592356622219, -0.06890636682510376, 0.06321169435977936, -0.009424461983144283, 0.09033365547657013, 0.035189975053071976, 0.057342030107975006, 0.07591046392917633, -0.0006270408630371094, 0.04062454774975777, 0.030704712495207787, -0.08819472789764404, 0.0335807204246521, -0.08331914246082306, -0.06490951776504517, 0.09373656660318375, -0.0057042320258915424, 0.038651227951049805, 0.018184959888458252, 0.059432268142700195, -0.09645041078329086, -0.08156116306781769, -0.0029556991066783667, 0.058419838547706604, -0.0003946661890950054, -0.09342218935489655, -0.015553189441561699, 0.005255192518234253, 0.017737464979290962, 0.0464954748749733, 0.05390731990337372, 0.057297516614198685, 0.028673840686678886, 0.0009154796716757119, 0.042222559452056885, 0.06130645051598549, 0.011307716369628906, 0.0887441635131836, 0.08078031986951828, 0.01628820039331913, -0.008828878402709961, -0.05398951843380928, 0.0010445117950439453, -0.009524965658783913, -0.04320044443011284, -0.0007466912502422929, 0.007945227436721325, -0.07185810804367065, 0.07306507229804993, -0.04243273660540581, -0.03129340335726738, -0.07506634294986725, 0.06453324109315872, -0.03461454063653946, 0.008047586306929588, -0.08277111500501633, 0.08020363003015518, -0.08132370561361313, -0.058911241590976715, -0.061204470694065094, -0.0484849214553833, 0.04331110417842865, 0.02436317689716816, -0.0708240419626236, 0.012125123292207718, -0.04501234367489815, -0.07418704032897949, 0.006315946578979492, -0.0644998699426651, -0.0743347629904747, 0.03190283104777336, 0.029512090608477592, -0.09716286510229111, 0.006235349457710981, 0.07081400603055954, -0.054822005331516266, -0.026711393147706985, 0.06519448757171631, 0.04751453176140785, 0.028267554938793182, -0.06850346177816391, 0.02977157197892666, 0.03161483630537987], [0.0641702339053154, 0.08059155941009521, 0.03035607747733593, -0.015302210114896297, -0.07796552777290344, 0.051944583654403687, 0.09994473308324814, -0.016278207302093506, 0.02147301472723484, 0.06965012848377228, -0.048255205154418945, -0.06392791122198105, -0.046795912086963654, 0.02586991712450981, 0.03491153195500374, 0.00023020505614113063, 0.059845902025699615, -0.07581106573343277, -0.039474714547395706, 0.05387990549206734, 0.039606973528862, -0.05241847038269043, -0.03455265983939171, 0.08137501031160355, -0.06589800864458084, 0.02379421330988407, 0.03540821745991707, 0.074138343334198, -0.05994584783911705, -0.08556541055440903, -0.09115319699048996, -0.008855107240378857, 0.06164781376719475, 0.04051101580262184, 0.07929054647684097, -0.06017954275012016, -0.010995951481163502, -0.0587969534099102, 0.048021089285612106, -0.09631776064634323, 0.04821700602769852, -0.018113063648343086, -0.06144104152917862, -0.07765966653823853, 0.01797754317522049, -0.026616884395480156, 0.002747840713709593, -0.02802404947578907, -0.053208447992801666, 0.0013980746734887362, -0.0034540891647338867, 0.047915663570165634, 0.02828713320195675, -0.013121750205755234, 0.007627834565937519, -0.08365017920732498, -0.0014973401557654142, -0.03195227310061455, -0.004832116886973381, 0.0802302360534668, -0.016772760078310966, -0.02566218376159668, 0.052463073283433914, -0.016111891716718674, 0.11197642982006073, 0.028802789747714996, 0.08908624202013016, 0.051806818693876266, -0.058633364737033844, 0.05584288761019707, 0.042895037680864334, -0.02436201460659504, -0.06108802929520607, -0.011034710332751274, -0.09766730666160583, -0.051014091819524765, -0.008805676363408566, -0.0521940253674984, -0.07433376461267471, -0.0645953118801117, -0.08183614164590836, 0.07435101270675659, 0.0004497528134379536, -0.0860823392868042, -0.022590314969420433, -0.032304201275110245, -0.07064080983400345, -0.09080487489700317, 0.03574981912970543, 0.05972762033343315, 0.03184784576296806, -0.02699883095920086, 0.06260450184345245, -0.016348982229828835, 0.00870671309530735, 0.06900449097156525, -0.06635606288909912, -0.0021736768539994955, -0.037727825343608856, -0.03774728626012802], [0.09995954483747482, 0.07382466644048691, 0.06251663714647293, 0.08060669898986816, 0.03370482847094536, 0.02121340110898018, -0.045151662081480026, -0.04354986175894737, 0.07543273270130157, -0.039030637592077255, -0.07040947675704956, 0.021496547386050224, 0.00467374362051487, -0.060584571212530136, 0.025534212589263916, -0.0781116858124733, 0.01250371988862753, 0.035821568220853806, 0.021934783086180687, -0.09492137283086777, -0.014334387145936489, -0.03498689457774162, -0.057365018874406815, 0.017629969865083694, -0.07260953634977341, 0.05951740965247154, -0.0814799815416336, -0.07503342628479004, 0.015890324488282204, 0.05085397884249687, 0.07820481806993484, 0.06473837792873383, 0.10207498073577881, -0.01100529171526432, 0.06691563129425049, 0.04080395773053169, 0.05953921377658844, 0.08092641085386276, -0.02190350368618965, 0.017166484147310257, 0.05251457914710045, -0.09075944870710373, -0.04877251759171486, 0.03133532777428627, -0.007155107334256172, -0.07966432720422745, -0.019202081486582756, 0.06713492423295975, 0.042464565485715866, 0.057476188987493515, -0.01890738122165203, -0.08001846075057983, 0.010445821098983288, -0.05792498588562012, 0.00010982475942000747, 0.01108996570110321, -0.012794763781130314, 0.043623387813568115, -0.06720036268234253, 0.0846037045121193, 0.007851362228393555, -0.06634420156478882, 0.00214746012352407, 0.027143193408846855, 0.06697062402963638, -0.09411322325468063, -0.0005321740754880011, 0.058881599456071854, -0.04245637729763985, -0.028629397973418236, -0.07609112560749054, -0.09460265934467316, -0.07475946098566055, 0.07673289626836777, -0.09320322424173355, -0.08923111110925674, 0.033295970410108566, -0.0860060378909111, 0.08942767232656479, 0.02339499071240425, 0.016112685203552246, -0.09595441818237305, -0.0982014462351799, 0.002849328564479947, -0.02462977170944214, 0.004154825117439032, -0.009312188252806664, 0.020238608121871948, -0.04303168132901192, -0.08719073981046677, 0.0379672646522522, -0.05910384654998779, 0.07116134464740753, 0.03679709509015083, -0.055924415588378906, -0.021479178220033646, -0.03606858476996422, -0.08647459000349045, -0.014231967739760876, -0.033181082457304], [0.02536083571612835, -0.008159756660461426, -0.08760903030633926, 0.06814183294773102, -0.035334743559360504, -0.07190003246068954, -0.09241801500320435, -0.087190642952919, 0.09171698242425919, -0.07586979120969772, -0.04025290161371231, -0.010970497503876686, -0.07639850676059723, 0.00044414232252165675, 0.0896366685628891, -0.03564493730664253, -0.022626185789704323, -0.0917433649301529, 0.03453879430890083, -0.010560941882431507, -0.08872602880001068, 0.003793066367506981, 0.04477706924080849, -0.08984208106994629, -0.03325159102678299, -0.0862874835729599, -0.09836741536855698, 0.03946206718683243, 0.013583851046860218, -0.06291335821151733, 0.05392071232199669, 0.10342777520418167, 0.09900617599487305, -0.07452933490276337, 0.009448396973311901, -0.032858170568943024, -0.04321081563830376, 0.10892252624034882, -0.08808279037475586, 0.07227630913257599, 0.010469639673829079, -0.01720537059009075, 0.11839107424020767, -0.004201107658445835, -0.015978632494807243, 0.03369394317269325, 0.013451470993459225, 0.06455973535776138, 0.01693977229297161, -0.047651257365942, 0.09382458031177521, -0.03076704777777195, 0.01984703540802002, 0.06325307488441467, 0.0741625651717186, 0.010020986199378967, -0.02337895706295967, -0.07388543337583542, -0.002116978168487549, 0.08305156230926514, -0.06107758358120918, -0.02622675895690918, -0.042818617075681686, -0.061872269958257675, -0.033767856657505035, -0.01605880632996559, -0.024434033781290054, -0.040960922837257385, 0.10495113581418991, 0.03746042773127556, -0.056565191596746445, -0.08919751644134521, -0.04666151478886604, -0.0020896911155432463, -0.047266434878110886, -0.10598865896463394, 0.08497820049524307, 0.048423882573843, 0.03053063340485096, 0.004479177296161652, -0.06491868942975998, 0.03168855607509613, 0.002857935382053256, 0.08325552940368652, -0.06974319368600845, -0.08599246293306351, -0.0363570898771286, -0.0007992189493961632, 0.07467099279165268, 0.018505096435546875, 0.04591121897101402, 0.08463408052921295, -0.08959491550922394, 0.05104536935687065, 0.0927097350358963, -0.035134270787239075, -0.10266221314668655, 0.012602628208696842, -0.07666398584842682, 0.045892078429460526], [0.05024999380111694, -0.07173342257738113, 0.09671774506568909, 0.006565537303686142, 0.028316060081124306, -0.006668468937277794, 0.018490362912416458, -0.02697908878326416, -0.013020730577409267, -0.0045722248032689095, 0.07288184016942978, 0.060115765780210495, -0.016590848565101624, -0.059311140328645706, 0.04103320091962814, -0.07542047649621964, -0.0957985520362854, 0.0969768762588501, -0.02905055321753025, -0.06795550882816315, -0.11069300025701523, -0.042949121445417404, 0.06115545704960823, -0.030639246106147766, -0.07159844785928726, -0.07996470481157303, 0.10071852803230286, 0.014640986919403076, 0.06276190280914307, -0.06335822492837906, -0.09046290814876556, -0.09142181277275085, -0.018597522750496864, -0.11327751725912094, -0.05613231658935547, 0.014527624472975731, -0.014617749489843845, -0.039420533925294876, -0.025210881605744362, 0.03153664991259575, -0.09309542179107666, 0.026877807453274727, -0.07835683226585388, 0.07244181632995605, -0.0007202615961432457, 0.002820798195898533, 0.08376586437225342, 0.00956805795431137, 0.002551877638325095, 0.027247954159975052, 0.08334867656230927, -0.0689629539847374, 0.016907060518860817, -0.05391165241599083, 0.08873459696769714, 0.09693129360675812, -0.05520138517022133, 0.10638350993394852, 0.021512337028980255, 0.023888850584626198, 0.045309267938137054, -0.052430808544158936, -0.04953083023428917, -0.08902481943368912, -0.001244302955456078, 0.08919268101453781, 0.016811441630125046, -0.052191417664289474, 0.058050911873579025, -0.005211221519857645, 0.013017157092690468, -0.09597821533679962, 0.017056871205568314, 0.04248872026801109, -0.012963266111910343, -0.05249945446848869, 0.09584188461303711, 0.10689227283000946, 0.06697088479995728, 0.07448187470436096, 0.07369696348905563, -0.057499051094055176, -0.06269039213657379, -0.04522494226694107, 0.09313773363828659, -0.094695083796978, 0.01391509547829628, 0.12887762486934662, -0.000546894094441086, 0.09797448664903641, 0.004261148162186146, 0.03064878098666668, -0.04977387189865112, 0.047704245895147324, 0.01673377864062786, -0.05695217847824097, -0.09097766131162643, -0.07994450628757477, 0.03713903948664665, 0.1019192487001419], [-0.007097387220710516, -0.08004679530858994, -0.007489658892154694, 0.05093206837773323, -0.08641189336776733, 0.06270085275173187, 0.007758450694382191, -0.07860938459634781, 0.08763241022825241, -0.01007299404591322, -0.035466086119413376, 0.0881040021777153, -0.09053581953048706, 0.019089285284280777, 0.07928179949522018, -0.03180680423974991, -0.0838015004992485, -0.0333089604973793, -0.011739278212189674, -0.05235152319073677, 0.02005692757666111, -0.029468465596437454, -0.08799751847982407, -0.03088080883026123, -0.0664418563246727, 0.04064519330859184, -0.07264699041843414, 0.054242171347141266, -0.056526314467191696, -0.061070431023836136, -0.0024975419510155916, -0.09297960251569748, -0.08152985572814941, -0.08903773874044418, 0.01959536224603653, -0.09796817600727081, -0.09339741617441177, 0.09724634885787964, -0.01475150603801012, 0.014449131675064564, 0.005602226126939058, 0.016572607681155205, 0.007744574453681707, -0.047862399369478226, -0.001309136743657291, 0.07534217089414597, -0.06146668270230293, -0.0011538895778357983, 0.025679314509034157, 0.07110470533370972, -0.08409493416547775, -0.08367431163787842, 0.01722635142505169, 0.048010051250457764, -0.005287932697683573, 0.03394518420100212, -0.023580258712172508, -0.018042998388409615, -0.08244603127241135, 0.019265389069914818, 0.07830160856246948, -0.04001152515411377, 0.04015040397644043, -0.038569238036870956, -0.04189758375287056, -0.004473575856536627, -0.06462517380714417, -0.06811412423849106, 0.006952543742954731, -0.07584299147129059, -0.07260151952505112, -0.05677694082260132, 0.001770640374161303, 0.08344632387161255, -0.03712105751037598, -0.07461854070425034, -0.04992954432964325, -0.06391109526157379, -0.059878814965486526, 0.09144167602062225, 0.04063063859939575, -0.06271914392709732, -0.03996283933520317, 0.08475244045257568, -0.0034033895935863256, 0.09598072618246078, -0.07535009831190109, 0.03674620762467384, -0.10487300902605057, -0.06559436768293381, 0.0008549690246582031, 0.046957340091466904, 0.0937429890036583, -0.041421543806791306, -0.04222673177719116, 0.03215263411402702, 0.1309720128774643, 0.04870516434311867, 0.004480891395360231, -0.04455777630209923], [0.008319891057908535, 0.08030222356319427, 0.007392374332994223, -0.06852357089519501, 0.08207827806472778, -0.05588945746421814, -0.030867159366607666, 0.0016201854450628161, 0.05105118826031685, 0.03967250511050224, -0.08853612095117569, 0.029558831825852394, -0.036713678389787674, -0.011238613165915012, 0.03229294717311859, 0.02325528860092163, 0.0011980414856225252, -0.06477990001440048, -0.003311634063720703, 0.08768842369318008, 0.09951608628034592, 0.024181662127375603, 0.0065332441590726376, -0.07939720153808594, -0.051094550639390945, -0.040521349757909775, -0.07487432658672333, 0.06578320264816284, 0.011026966385543346, -0.08893837779760361, 0.08731044083833694, 0.007625602185726166, 0.05773964896798134, 0.07391439378261566, 0.05074554681777954, -0.048389237374067307, -0.059097688645124435, 0.058047790080308914, -0.04519451782107353, -0.009716451168060303, 0.11183342337608337, -0.04541667550802231, -0.06005321443080902, -0.0683564767241478, 0.04503348842263222, -0.09006796777248383, 0.04868818819522858, 0.060653313994407654, -0.004011094570159912, 0.052017390727996826, 0.10178651660680771, 0.008134174160659313, 0.08010774850845337, -0.04594433307647705, -0.06492423266172409, -0.03506188467144966, 0.0820162370800972, -0.0002519584959372878, -0.029113244265317917, -0.04211781173944473, 0.03678225353360176, -0.04431027173995972, -0.017374902963638306, -0.020622076466679573, -0.09460179507732391, 0.0650235116481781, 0.04983862116932869, 0.020642628893256187, -0.03748847916722298, 0.08040952682495117, 0.029659323394298553, 0.06889291107654572, 0.011560572311282158, 0.021826855838298798, -0.06501399725675583, -0.014442850835621357, 0.04845359921455383, -0.011003565974533558, -0.04258604347705841, 0.0511881448328495, -0.02873067930340767, 0.0549997054040432, -0.06619151681661606, 0.0511615164577961, 0.044074445962905884, 0.024599863216280937, 0.08355814218521118, -0.08841084688901901, -0.07162879407405853, -0.008122329600155354, -0.03886059671640396, 0.07874917984008789, 0.0796855092048645, 0.07868112623691559, -0.0802532210946083, 0.0021713494788855314, 0.06223577260971069, 0.0439780130982399, 0.04899049550294876, -0.06335418671369553], [0.0517965666949749, 0.046374283730983734, 0.008404610678553581, 0.09530816972255707, 0.08208291232585907, -0.08583735674619675, 0.05839308723807335, 0.09423821419477463, -0.06014294549822807, -0.06200676038861275, 0.028093338012695312, -0.06478418409824371, -0.09674834460020065, 0.027209851890802383, 0.0910719484090805, 0.02144460752606392, 0.0564468614757061, -0.06300310045480728, 0.025600064545869827, 0.009106802754104137, 0.08189772069454193, -0.09922092407941818, -0.020364154130220413, -0.010593259707093239, -0.041218604892492294, 0.10329639166593552, 0.0773407518863678, 0.044311512261629105, 0.09317111223936081, -0.037517763674259186, -0.036774635314941406, -0.03227982670068741, 0.08464665710926056, -0.06594481319189072, -0.05815490707755089, -0.04540547356009483, -0.03523296117782593, -0.08959237486124039, 0.09722258150577545, 0.09426025301218033, 0.06733827292919159, -0.09285654127597809, 0.016558224335312843, -0.052334532141685486, 0.0789564698934555, 0.050061602145433426, -0.058181073516607285, -0.005709259305149317, -0.052414584904909134, -0.060492098331451416, 0.022572828456759453, 0.08627122640609741, -0.06494040787220001, 0.004658630583435297, 0.014852139167487621, 0.02221519500017166, 0.04131956025958061, -0.0908171534538269, 0.07315938919782639, -0.03879309818148613, 0.027236228808760643, 0.01292733009904623, 0.028651608154177666, 0.020020866766572, -0.05044815316796303, -0.014012599363923073, 0.048190850764513016, 0.007365359924733639, -0.0076020644046366215, 0.014008826576173306, -0.08027175813913345, -0.059459149837493896, -0.00011202313180547208, 0.04233945533633232, 0.07690839469432831, 0.07898302376270294, 0.060281116515398026, 0.0945180356502533, -0.08191078901290894, -0.09392887353897095, 0.03325085714459419, -0.0025282949209213257, -0.014564168639481068, 0.09787066280841827, 0.033822525292634964, -0.025432469323277473, 0.09109631180763245, 0.02549729123711586, -0.020195288583636284, 0.019512921571731567, -0.09717201441526413, 0.025670183822512627, 0.007726311683654785, -0.04295414686203003, 0.05053451284766197, 0.01987530291080475, -0.09595232456922531, -0.09429464489221573, -0.08361615240573883, 0.04486045241355896], [0.07724539190530777, 0.0672919973731041, -0.052758969366550446, -0.0911361575126648, -0.08384957164525986, 0.07180565595626831, 0.04750777408480644, 0.07323115319013596, 0.09553036838769913, 0.09050625562667847, -0.03534602001309395, -0.04002971574664116, 0.0602567158639431, 0.04967183247208595, 0.06954997032880783, -0.09588899463415146, -0.005350578110665083, 0.02667534351348877, -0.09683507680892944, -0.08343076705932617, -0.08865596354007721, -0.007266944739967585, 0.07546181976795197, 0.04896106943488121, 0.026573985815048218, 0.020319785922765732, -0.05539858341217041, -0.021817421540617943, -0.044032514095306396, -0.07350187748670578, 0.05240272358059883, -0.020375216379761696, 0.07312852889299393, 0.08341794461011887, -0.07150943577289581, -0.061271775513887405, 0.055663034319877625, -0.0482480525970459, -0.004096329212188721, -0.09461355209350586, 0.003708314849063754, -0.031501829624176025, 0.05613534525036812, 0.07144743949174881, -0.018271110951900482, -0.06596250832080841, -0.070881187915802, 0.040649618953466415, 0.08727027475833893, 0.07813053578138351, 0.05368465185165405, 0.035729385912418365, 0.06091395765542984, 0.03383510559797287, 0.07167422771453857, 0.00270629208534956, 0.01961987279355526, 0.09313837438821793, 0.0913635641336441, -0.03998173400759697, -0.013450694270431995, 0.08624844998121262, -0.06537768989801407, 0.025744784623384476, 0.08527544140815735, -0.05484932288527489, 0.04394429922103882, 0.08839533478021622, 0.10748812556266785, -0.09272579103708267, -0.0014701843028888106, -0.039991747587919235, -0.08694177120923996, -0.09344036877155304, -0.0003718972147908062, 0.027710463851690292, -0.026771677657961845, 0.008827227167785168, 0.06821971386671066, -0.07506116479635239, -0.041720639914274216, 0.042385540902614594, -0.037013567984104156, 0.09454667568206787, -0.09915506839752197, -0.0254022479057312, 0.052318450063467026, 0.016504967585206032, 0.02571769990026951, -0.04918953403830528, 0.012982750311493874, -0.018622446805238724, -0.09951139986515045, 0.004127883818000555, -0.08419428020715714, 0.0012204170925542712, 0.07921452820301056, -0.05803464725613594, 0.034382689744234085, 0.022911442443728447], [-0.005576610565185547, 0.0013109362917020917, 0.038175057619810104, 0.03849238157272339, 0.045862048864364624, 0.019678078591823578, 0.05142777040600777, 0.09889540821313858, 0.04988588020205498, 0.02715989388525486, -0.07361958175897598, 0.06437528133392334, -0.04632125049829483, 0.04213771969079971, -0.02778913453221321, 0.054528702050447464, -0.0793694257736206, -0.06825325638055801, -0.010611891746520996, 0.0662984848022461, 0.0038901169318705797, 0.0857439860701561, -0.07207149267196655, 0.03341236710548401, 0.09913807362318039, 0.05204182490706444, 0.08014435321092606, 0.07906242460012436, -0.07788591831922531, -0.09564005583524704, -0.08467070013284683, 0.03226880729198456, 0.10565412789583206, 0.056253690272569656, 0.0348866730928421, 0.08743460476398468, 0.07968614250421524, 0.09122300893068314, -0.01125261839479208, 0.09973485767841339, 0.07779254019260406, 0.07275888323783875, 0.042267248034477234, -0.09254197776317596, -0.07724397629499435, -0.08264981210231781, -0.010524258017539978, 0.05205264687538147, 0.01667696237564087, -0.09241615980863571, -0.04732818529009819, -0.08541969209909439, -0.06171543523669243, 0.07389649748802185, 0.006265551317483187, 0.03409438207745552, -0.008867142722010612, 0.1170668825507164, 0.08845383673906326, -0.09275833517313004, 0.05296947807073593, 0.07469972223043442, -0.03229572996497154, 0.09539220482110977, 0.08902869373559952, -0.09617730975151062, -0.09045697748661041, -0.00351402023807168, 0.09514705091714859, -0.09913907200098038, 0.028527632355690002, -0.08490271866321564, 0.018408600240945816, 0.03523848205804825, 0.03361436724662781, 0.06970818340778351, -0.024991178885102272, -0.07323558628559113, 0.07426232844591141, -0.08520835638046265, 0.0925537720322609, 0.01535722240805626, 0.09265493601560593, -0.0715569257736206, 0.06679325550794601, -0.04727410152554512, -0.08009322732686996, 0.08341832458972931, -0.09955614060163498, 0.029242001473903656, 0.09798230975866318, 0.06102508306503296, -0.017946815118193626, 0.004865217488259077, -0.025026608258485794, 0.027277100831270218, -0.057052839547395706, -0.07982565462589264, 0.06861352920532227, -0.013488483615219593], [0.0011029363377019763, -0.0775742158293724, -0.015060796402394772, 0.04409991204738617, -0.08492554724216461, 0.07719869166612625, -0.09917797148227692, 0.027050066739320755, 0.021371591836214066, 0.05087239667773247, 0.0752967968583107, 0.0777626559138298, -0.07842902094125748, -0.040864232927560806, -0.021749651059508324, 0.07722856104373932, -0.030105281621217728, -0.017173195257782936, 0.09025167673826218, -0.055643677711486816, 0.04499104246497154, -0.010846500284969807, 0.023029349744319916, 0.00531878462061286, 0.038177490234375, -0.01625225506722927, -0.06965150684118271, -0.0972575694322586, 0.06065188720822334, -0.031150758266448975, -0.0022226013243198395, 0.013302847743034363, -0.02906252257525921, -0.07165467739105225, 0.056580550968647, -0.039667584002017975, -0.04184035211801529, -0.06267674267292023, 0.048580776900053024, 0.03862262889742851, -0.06336664408445358, 0.0456865131855011, -0.025921473279595375, -0.089057058095932, -0.06886015832424164, -0.014816489070653915, 0.054936282336711884, -0.044957637786865234, 0.04983555153012276, 0.04709361866116524, 0.010789978317916393, 0.02604684792459011, 0.02803761325776577, 0.04627365991473198, 0.05711080878973007, 0.03508384898304939, 0.015337715856730938, 0.03519488126039505, -0.035234060138463974, 0.030239438638091087, 0.08149562031030655, -0.05039038881659508, 0.0032386763487011194, -0.03105601668357849, -0.10230201482772827, 0.04182000830769539, 0.046641185879707336, 0.01798206940293312, -0.03751761093735695, 0.06928098201751709, 0.05064889416098595, -0.03584333136677742, -0.060562703758478165, -0.07402956485748291, -0.03584076091647148, 0.07500017434358597, -0.009630999527871609, 0.052823543548583984, 0.10021425783634186, -0.0869707390666008, -0.02067972533404827, -0.06829056888818741, -0.0857260450720787, -0.03743556886911392, -0.05962890386581421, 0.10251197218894958, -0.06631231307983398, -0.09417127817869186, -0.07524308562278748, -0.0436137318611145, 0.044422637671232224, -0.07198517769575119, -0.05267775058746338, 0.0016841412289068103, -0.02450397051870823, -0.02158036082983017, 0.002469543367624283, 0.06617721170186996, -0.016383778303861618, 0.04223954677581787], [-0.047322191298007965, 0.0488811731338501, 0.025031037628650665, -0.011912345886230469, -0.017408668994903564, -0.07499042898416519, -0.05102065950632095, 0.08132215589284897, -0.01607220247387886, -0.009776211343705654, 0.09274076670408249, -0.02280125580728054, -0.0711846575140953, 0.022200461477041245, -0.08624931424856186, -0.09324604272842407, 0.030726348981261253, 0.04772491380572319, -0.04047379642724991, -0.06612445414066315, -0.001771758310496807, 0.001017316128127277, -0.02603396400809288, -0.007543134968727827, -0.002282161731272936, -0.06647809594869614, -0.056772660464048386, 0.06690919399261475, -0.05875668674707413, 0.0653623566031456, -0.06390701979398727, 0.0797649696469307, 0.013962987810373306, 0.004396351985633373, -0.09882350265979767, -0.03569808229804039, 0.10388214141130447, 0.07448242604732513, 0.053098466247320175, 0.09019666165113449, -0.07850983738899231, -0.08371984213590622, 0.04610561579465866, 0.08447614312171936, 0.028043825179338455, 0.04032967612147331, -0.03598489612340927, -0.020509323105216026, 0.08548169583082199, 0.03681514412164688, -0.05163644626736641, 0.08237650245428085, 0.0651688277721405, -0.017766203731298447, 0.09610565751791, -0.1336447298526764, -0.03784102946519852, 0.04693751782178879, 0.06698346883058548, 0.006846308708190918, -0.09859053045511246, -0.026670968160033226, -0.06375042349100113, 0.05596119165420532, 0.02775576151907444, 0.03438841924071312, 0.05342840403318405, -0.10225261002779007, 0.08179917931556702, 0.018168339505791664, -0.027440965175628662, 0.07938861846923828, -0.030974924564361572, 0.03440812975168228, -0.07512950152158737, 0.02572379820048809, 0.07690265029668808, -0.007978687062859535, -0.04027969390153885, 0.10514579713344574, -0.02495267428457737, 0.014787898398935795, -0.0976048931479454, -0.010976827703416348, 0.05081024393439293, 0.01373303309082985, 0.026333283632993698, -0.024871844798326492, -0.0002949803601950407, 0.08038336038589478, -0.026033377274870872, -0.02726212702691555, -0.007058513350784779, -0.04485533386468887, 0.07278764247894287, -0.05927026644349098, -0.10569464415311813, -0.11465132236480713, 0.014873925596475601, -0.032475657761096954], [-0.06713046133518219, -0.07164069265127182, -0.004907154478132725, -0.06486659497022629, 0.04232223331928253, 0.08946753293275833, -0.028430307283997536, -0.03740643337368965, -0.09988267719745636, 0.0337979681789875, -0.02101801708340645, -0.02882460504770279, -0.029240919277071953, -0.011470125056803226, 0.023932095617055893, -0.02416822873055935, 0.09835859388113022, 0.02604442834854126, -0.0972549319267273, 0.06422888487577438, -0.08698264509439468, -0.06578650325536728, -0.025731153786182404, 0.06169576197862625, 8.244518539868295e-05, 0.054013293236494064, -0.05963703617453575, -0.03004072979092598, -0.005792021751403809, -0.054261233657598495, -0.0886756181716919, -0.037931520491838455, -0.04611058905720711, -0.04042051360011101, 0.07820115983486176, 0.06956614553928375, -0.021825646981596947, -0.008458638563752174, -0.06292041391134262, 0.02911900356411934, 0.017377248033881187, -0.0813974067568779, -0.03460205718874931, -0.0006317709339782596, 0.036770209670066833, -0.03501807153224945, 0.06182510033249855, -0.006684789899736643, -0.042732395231723785, -0.000742495059967041, -0.06417958438396454, -0.06727126985788345, 0.03179597109556198, 0.007985935546457767, -0.10362455248832703, -0.040874652564525604, 0.08617652952671051, 0.05364903062582016, -0.05751597136259079, 0.09328533709049225, 0.028645146638154984, 0.06343387812376022, 0.09441052377223969, 0.04231740161776543, -0.09737295657396317, 0.06428423523902893, -0.06197316572070122, 0.08521914482116699, -0.0889265164732933, -0.06998776644468307, 0.09371581673622131, 0.02978144772350788, 0.05004725977778435, 0.07038652151823044, 0.053825248032808304, -0.08334864675998688, -0.03168957307934761, 0.0620572455227375, -0.09368828684091568, 0.04970903322100639, -0.06651943176984787, -0.06800409406423569, -0.05639723688364029, 0.07115105539560318, 