{"1.weight": [[0.07455126941204071, -0.07481884211301804, 0.00614283187314868, -0.06696669012308121, 0.06086079403758049, 0.07104459404945374, 0.026183834299445152, -0.054274000227451324, 0.029918162152171135, -0.08099910616874695, 0.01046699658036232, -0.04332803189754486, 0.06226951256394386, -0.099709652364254, -0.020146118476986885, -0.03825775161385536, -0.04868123680353165, -0.09306187927722931, 0.09912153333425522, 0.038383860141038895, -0.04920182377099991, -0.06801050901412964, -0.07775261253118515, 0.03941240534186363, 0.021316878497600555, -0.03290361911058426, 0.019012873992323875, -0.09707380831241608, -0.021195435896515846, -0.08185777813196182, 0.10529016703367233, -0.06421154737472534, -0.0645492747426033, 0.020812207832932472, 0.05173896253108978, 0.058266397565603256, -0.006353224627673626, -0.0816342756152153, 0.07072684168815613, -0.049289438873529434, 0.08064842224121094, -0.030440831556916237, 0.046820517629384995, 0.07111380994319916, 0.10785580426454544, -0.011935623362660408, -0.03687984496355057, -0.007473316043615341, 0.06026974320411682, -0.021465769037604332, -0.019852042198181152, 0.03259684145450592, 0.04320339486002922, 0.03839907795190811, 0.020291335880756378, 0.06680282205343246, 0.04607117921113968, 0.0013774707913398743, -0.014758629724383354, 0.08857473731040955, 0.03036557510495186, -0.05310461297631264, 0.10127345472574234, 0.08875242620706558, 0.006564626935869455, 0.09536415338516235, 0.07498569786548615, -0.057892464101314545, -0.021532202139496803, 0.020626891404390335, -0.09215666353702545, -0.07860779762268066, -0.061408888548612595, 0.09941448271274567, 0.013564763590693474, 0.010948548093438148, -0.04249252378940582, -0.02539139986038208, 0.026061134412884712, 0.07460492104291916, -0.010089507326483727, -0.046522144228219986, -0.05887976288795471, -0.01962549053132534, -0.07865798473358154, 0.052084051072597504, 0.09270404279232025, 0.07172664999961853, -0.08293464034795761, 0.06124936789274216, 0.09448491781949997, 0.0863836258649826, 0.029139569029211998, -0.030185211449861526, -0.09798932820558548, 0.06855280697345734, -0.08365950733423233, 0.08023202419281006, 0.07853511720895767, 0.07501401752233505], [-0.021604500710964203, 0.028677355498075485, -0.039466485381126404, -0.03565620630979538, 0.022784806787967682, 0.018785029649734497, -0.04781264811754227, 0.0008379596984013915, 0.06933904439210892, 0.016046233475208282, 0.049241673201322556, -0.06507137417793274, -0.02359033189713955, -0.07850303500890732, -0.12011918425559998, 0.05284323915839195, -0.010945798829197884, 0.03928392007946968, 0.08925355225801468, 0.04125257581472397, -0.01672252267599106, -0.05606219545006752, 0.06891345977783203, 0.00480278255417943, 0.03514055907726288, 0.005914102774113417, -0.00953835528343916, 0.004572760779410601, 0.014793597161769867, 0.05822642520070076, 0.05228229984641075, -0.07878317683935165, 0.025801539421081543, -0.01302288006991148, -0.05062127113342285, 0.03631625697016716, -0.06327121704816818, -0.014309024438261986, -0.00507362699136138, -0.11205718666315079, 0.06778682768344879, 0.02001403085887432, 0.009394088760018349, -0.09716112911701202, -0.03780565410852432, 0.012083821929991245, -0.06314071267843246, -0.0910460501909256, 0.09320904314517975, -0.07143584638834, -0.0034892780240625143, 0.1009850800037384, -0.08037898689508438, 0.0310397706925869, 0.035443294793367386, -0.027736593037843704, 0.004224953707307577, -0.08220057934522629, -0.04865686222910881, 0.07617470622062683, 0.0373118631541729, -0.10635057836771011, 0.025179971009492874, -0.01922001503407955, 0.010942632332444191, -0.03813910484313965, 0.05476439371705055, -0.07918718457221985, 0.060144394636154175, -0.09485215693712234, -0.08448394387960434, 0.04814288765192032, -0.018023202195763588, 0.0698658674955368, -0.004760916344821453, 0.03755437582731247, -0.08093305677175522, 0.0705556720495224, -0.01611986756324768, -0.05790886655449867, -0.04438278079032898, -0.06690844148397446, -0.009122633375227451, -0.0652216449379921, -0.01575111597776413, 0.016228096559643745, -0.04172380641102791, -0.08037709444761276, -0.007404115982353687, 0.04013829305768013, -0.063898004591465, 0.023628810420632362, 0.0047019110061228275, -0.05484272539615631, -0.04817228764295578, 0.07314427196979523, -0.078158438205719, 0.05370957776904106, -0.016466032713651657, -0.06768641620874405], [0.016064340248703957, 0.04527249187231064, 0.05566484481096268, 0.07836493849754333, -0.09986399859189987, 0.04376143962144852, -0.030315833166241646, 0.0065879421308636665, -0.019466668367385864, -0.0831431970000267, -0.10573772341012955, -0.06715114414691925, -0.05457361787557602, -0.013304417952895164, 0.04889053851366043, 0.004690483212471008, -0.004069364629685879, -0.05130255967378616, 0.03464844077825546, 0.06952022761106491, 0.0806562602519989, -0.07104083895683289, 0.032960791140794754, -0.0991007387638092, -0.021163206547498703, -0.03939150273799896, -0.08834169059991837, -0.044715821743011475, -0.08076507598161697, -0.022313542664051056, 0.0012937731808051467, -0.08082368224859238, 0.07350367307662964, -0.044051643460989, 0.030809447169303894, 0.09233375638723373, 0.12183064222335815, 0.02386416681110859, 0.06263937801122665, -0.024377860128879547, -0.036923907697200775, -0.025157194584608078, -0.014157292433083057, -0.09693461656570435, 0.0675668939948082, 0.04468604922294617, 0.038428276777267456, -0.07462519407272339, 0.005404613446444273, -0.03168935328722, -0.003308194922283292, 0.04609522968530655, 0.069878950715065, 0.019464997574687004, -0.1078731119632721, -0.004596682731062174, -0.08934896439313889, -0.0023445356637239456, 0.03316284343600273, -0.007149833720177412, 0.07390128076076508, -0.004198628477752209, 0.0499725267291069, 0.10519535094499588, -0.006669266149401665, -0.041582100093364716, 0.059475142508745193, -0.08523943275213242, 0.002766292542219162, 0.06343288719654083, 0.05208734795451164, -0.05922141671180725, -0.06780489534139633, -0.08965297043323517, -0.07325603067874908, -0.060033444315195084, 0.0502488873898983, 0.06083286553621292, -0.014088659547269344, -0.036866288632154465, -0.04041602835059166, -0.0060227238573133945, -0.07082172483205795, 0.09299261122941971, -0.08009874820709229, -0.015967244282364845, 0.06186820566654205, 0.11182374507188797, -0.0448010191321373, -0.06584208458662033, 0.018883388489484787, -0.04786647483706474, -0.10267765820026398, -0.08799060434103012, -0.0248127244412899, 0.012414000928401947, -0.051558613777160645, 0.06017765775322914, -0.050631534308195114, 0.09050216525793076], [-0.08151495456695557, 0.0826224535703659, 0.03200202435255051, -0.009881985373795033, 0.05133533477783203, 0.07458760589361191, -0.01787397265434265, 0.09554284811019897, 0.00011446847929619253, 0.018709322437644005, -0.09145171195268631, 0.020070482045412064, 0.08237297832965851, 0.006497455760836601, 0.0008303563226945698, -0.06842704117298126, -0.03160775825381279, -0.0778520256280899, 0.050208352506160736, -0.08538670837879181, 0.05726763233542442, -0.04089883342385292, 0.04497334733605385, -0.09574892371892929, -0.016106607392430305, -0.005218242760747671, -0.003429293865337968, 0.054345857352018356, 0.0836445614695549, 0.07299383729696274, 0.006129677873104811, 0.0168580561876297, -0.026543376967310905, 0.08886638283729553, -0.071607805788517, 0.04369382932782173, 0.054817285388708115, -0.01642904244363308, 0.005770922172814608, 0.050404395908117294, -0.012131933122873306, 0.0954199731349945, -0.03662070259451866, 0.07101230323314667, 0.061882857233285904, 0.054547373205423355, -0.05109895393252373, 0.05249708518385887, -0.011997603811323643, -0.030945567414164543, 0.08667408674955368, -0.06269607692956924, -0.017786908894777298, 0.07967948168516159, -0.012220200151205063, -0.07504943758249283, -0.07468757778406143, 0.1087942123413086, 0.09845459461212158, 0.04436582326889038, 0.06442040205001831, -0.056604791432619095, 0.08930806815624237, -0.09575808048248291, -0.07320065796375275, -0.04594331607222557, -0.03427226468920708, 0.04246729612350464, 0.003675972344353795, 0.07156497985124588, 0.06846395134925842, 0.026166653260588646, -0.006072149146348238, 0.06263946741819382, 0.012337524443864822, -0.09060677140951157, -0.025436654686927795, -0.01193022821098566, -0.08372817188501358, -0.05974552407860756, -0.03368427976965904, -0.038148123770952225, -0.06072290986776352, 0.0369003601372242, -0.06673585623502731, 0.08333206921815872, 0.03380364552140236, 0.09383741021156311, 0.04302055016160011, 0.1042838767170906, 0.014111674390733242, 0.04386050999164581, 0.0037204809486865997, -0.05468181148171425, 0.008934691548347473, -0.03070186823606491, 0.04159297049045563, 0.0780852809548378, 0.08611275255680084, -0.036155153065919876], [-0.07948588579893112, -0.05677535757422447, -0.053900089114904404, 0.026394499465823174, -0.019146978855133057, 0.01476992480456829, -0.05089489743113518, 0.053277742117643356, 0.05066986009478569, -0.035082973539829254, 0.026900725439190865, -0.050808198750019073, 0.03359084948897362, -0.05665935203433037, 0.07829102128744125, 0.06617274135351181, 0.011060463264584541, -0.017998842522501945, -0.05759504437446594, 0.06918562203645706, -0.04453549534082413, 0.09815885126590729, 0.08343390375375748, -0.07823213189840317, -0.07639952003955841, -0.01595749892294407, 0.07253418117761612, 0.09411072731018066, 0.07022912800312042, -0.018096892163157463, 0.06157100945711136, 0.0022945161908864975, 0.005556774325668812, 0.04774040728807449, 0.09352947771549225, 0.08629760891199112, -0.06161234527826309, -0.09295129030942917, -0.02304987795650959, -0.07056450843811035, -0.09127931296825409, -0.08739639073610306, -0.0666579008102417, 0.12191790342330933, 0.055870421230793, 0.06488547474145889, 0.056888025254011154, -0.027263369411230087, 0.012931632809340954, 0.10357923060655594, 0.06590051203966141, 0.09020543098449707, -0.10723305493593216, 0.06506665050983429, 0.0607636384665966, -0.011307629756629467, 0.0007390520768240094, -0.03238271549344063, -0.002222013659775257, 0.0018448763294145465, -0.07163725048303604, -0.11311076581478119, 0.02492990903556347, 0.025829317048192024, 0.0056704874150455, 0.021639768034219742, -0.039795227348804474, -0.024491002783179283, -0.09550537914037704, 0.020520729944109917, 0.011732994578778744, -0.06121528148651123, 0.09546349197626114, -0.01131114549934864, -0.03274852782487869, 0.01453906949609518, 0.030313776805996895, -0.05345432832837105, -0.002460064832121134, -0.024136735126376152, 0.08406998217105865, -0.027759386226534843, 0.0860060378909111, -0.027005063369870186, 0.007604468613862991, -0.07562621682882309, -0.032385922968387604, 0.023318404331803322, 0.027229400351643562, 0.019952543079853058, 0.09626507014036179, 0.048031434416770935, 0.07603293657302856, 0.059050776064395905, -0.036297958344221115, 0.08845208585262299, 0.07100744545459747, -0.03397190943360329, -0.02840687893331051, -0.04293311759829521], [-0.04207328334450722, 0.03944797441363335, 0.06460795551538467, 0.034072570502758026, -0.08705469220876694, 0.031645238399505615, -0.033406417816877365, -0.10771362483501434, 0.00689378147944808, -0.08843433111906052, 0.09462864696979523, 0.0813065767288208, 0.09407145529985428, 0.06337999552488327, -0.09000052511692047, -0.04827506095170975, -0.06785088032484055, 0.06890356540679932, -0.02967066317796707, 0.08927269279956818, -0.004435471259057522, 0.03693988546729088, 0.04865811765193939, -0.04754634574055672, 0.03646087273955345, 0.07075273990631104, 0.004054822959005833, 0.07292743027210236, -0.032947201281785965, 0.06199067831039429, 0.00838684942573309, 0.008604354225099087, 0.025328682735562325, -0.024643560871481895, -0.0561172291636467, -0.07151179760694504, 0.02633131667971611, -0.07024094462394714, 0.07060454040765762, -0.037083085626363754, -0.04347238317131996, 0.07392176985740662, -0.10995728522539139, -0.09965665638446808, 0.0031012538820505142, 0.011262407526373863, 0.026042962446808815, -0.09362044185400009, -0.08563387393951416, -0.011707395315170288, -0.03876420855522156, 0.06467892974615097, -0.06870543956756592, -0.021049588918685913, -0.08996506035327911, -0.056635782122612, -0.07521525025367737, -0.0919654592871666, -0.0012860809220001101, 0.09201174974441528, -0.03138234466314316, 0.1280677616596222, 0.031230948865413666, 0.03074578382074833, 0.10137216001749039, -0.047417622059583664, 0.11381220817565918, -0.06714331358671188, -0.02138630673289299, -0.08247504383325577, 0.05083906650543213, -0.08605655282735825, 0.012315729632973671, -0.09416449815034866, 0.10368070006370544, 0.11358985304832458, -0.017678087577223778, -0.04159325733780861, -0.02611790969967842, -0.06929218024015427, 0.07277188450098038, 0.08932752907276154, -0.09253765642642975, -0.08443962782621384, 0.030067410320043564, -0.08401702344417572, 0.017662297934293747, 0.10157525539398193, 0.06936869770288467, 0.02681984379887581, 0.048790279775857925, -0.058473967015743256, -0.0521116629242897, 0.040366098284721375, -0.06768622249364853, -0.06748863309621811, 0.12188161164522171, 0.06494908034801483, 0.11556784808635712, -0.027654660865664482], [-0.031156595796346664, -0.03287120908498764, 0.02707711234688759, -0.009519862942397594, -0.08749152719974518, 0.0924268588423729, -0.03497849777340889, -0.09801002591848373, 0.10541374981403351, 0.07186239212751389, 0.05007362738251686, -0.05829977989196777, 0.0130873778834939, -0.045527782291173935, 0.07461098581552505, 0.04270634055137634, -0.024361848831176758, -0.018688984215259552, 0.009378639049828053, -0.024081584066152573, 0.010704373009502888, 0.007890602573752403, -0.04401059448719025, -0.03805065527558327, -0.06202883645892143, -0.03261742740869522, 0.09503453224897385, -0.00665215402841568, 0.00807421188801527, -0.10269501060247421, 0.04348008707165718, 0.03207775577902794, 0.057607609778642654, -0.08228152990341187, 0.06872205436229706, 0.07309291511774063, 0.09261591732501984, 0.07824734598398209, 0.08241531252861023, 0.10898154973983765, -0.04093907028436661, 0.025719009339809418, 0.01415607426315546, -0.08141884952783585, 0.01586231030523777, -0.02583440952003002, 0.008022896945476532, 0.07225670665502548, -0.050833191722631454, -0.04469045251607895, 0.07846669107675552, -0.03674011304974556, 0.06162363663315773, 0.051808882504701614, 0.029027078300714493, -0.09815746545791626, 0.06316645443439484, -0.06305249780416489, 0.06947245448827744, 0.05727506801486015, 0.0768347680568695, 0.05825792998075485, -0.03613318130373955, -4.062673542648554e-05, -0.09757478535175323, -0.07607543468475342, -0.06706513464450836, -0.06917916983366013, -0.012530867010354996, 0.005867683794349432, -0.09296426922082901, -0.0607585571706295, 0.005814849399030209, -0.04084153100848198, -0.08434122055768967, -0.07366657257080078, 0.08529137074947357, 0.0833328366279602, -0.0410807728767395, -0.013130933977663517, 0.0035115003120154142, 0.03302488476037979, 0.05193035304546356, 0.053316425532102585, -0.019893968477845192, 0.03731080889701843, 0.02711343951523304, -0.09989438205957413, -0.08044929057359695, 0.039261408150196075, 0.06846150010824203, 0.016104472801089287, -0.005551214795559645, 0.060278356075286865, 0.08035286515951157, 0.03740926831960678, -0.05520550161600113, 0.0529550276696682, 0.11006446182727814, 0.09439762681722641], [0.01496102288365364, -0.018213963136076927, -0.017900263890624046, -0.02765519730746746, -0.07831940799951553, 0.06100326403975487, 0.07956406474113464, 0.089649498462677, -0.05244625732302666, 0.08663079887628555, -0.09090888500213623, -0.0366380475461483, -0.03174981102347374, -0.018257223069667816, 0.0372106172144413, 0.07310382276773453, 0.0601339191198349, -0.01916026696562767, 0.056280091404914856, 0.09668254107236862, 0.07508736848831177, 0.01591181941330433, 0.01694680005311966, -0.0016926979878917336, -0.012285801582038403, -0.010765827260911465, -0.030302677303552628, 0.06106972321867943, -0.09488042443990707, -0.0413241870701313, -0.07036011666059494, -0.03410639986395836, -0.06715855747461319, -0.016649829223752022, 0.08868053555488586, -0.0977863296866417, 0.07155279815196991, -0.019449347630143166, -0.024572361260652542, -0.039930809289216995, 0.013153759762644768, 0.03571478649973869, 0.028407666832208633, -0.05211501568555832, 0.09139083325862885, 0.061514489352703094, -0.003130638739094138, 0.06240499019622803, 0.03782910108566284, -0.09729166328907013, -0.09457714855670929, -0.08791190385818481, -0.06881771236658096, 0.01871379092335701, 0.10765599459409714, -0.024093439802527428, -0.03444548323750496, 0.07072032243013382, 0.05780653655529022, -0.003429591655731201, 0.05003960430622101, 0.016456592828035355, 0.00432697543874383, -0.07058947533369064, 0.00047696326510049403, -0.03870195150375366, -0.05420501157641411, -0.07795180380344391, -0.08115887641906738, -0.00593612203374505, 0.05908479169011116, -0.0029068731237202883, -0.022588957101106644, -0.010917230509221554, 0.08568842709064484, -0.08077329397201538, 0.005623996257781982, -0.02426905743777752, -0.08373408764600754, -0.04549248144030571, 0.05517963320016861, -0.0651082918047905, 0.041839856654405594, 0.06331300735473633, -0.02894192561507225, -0.057259779423475266, 0.025340011343359947, -0.03188042715191841, -0.03550669178366661, 0.03127279132604599, 0.06970369070768356, -0.05885875225067139, 0.06110896170139313, 0.032856766134500504, -0.03999605402350426, -0.03535718470811844, 0.053779907524585724, -0.08029699325561523, 0.029677614569664, 0.031527843326330185], [0.024465544149279594, -0.05948558822274208, -0.005697721615433693, -0.011925029568374157, -0.09735961258411407, -0.06081501394510269, -0.04025866463780403, -0.07927291840314865, 0.03378618508577347, 0.04173969477415085, 0.0841783955693245, -0.05711734667420387, -0.08978281915187836, 0.05115159973502159, -0.0420432910323143, 0.013263918459415436, 0.07684218883514404, -0.11750806868076324, 0.02271243929862976, -0.025095585733652115, -0.07325819134712219, -0.04964924231171608, 0.00023602982400916517, 0.0853286162018776, 0.004716767929494381, 0.03399869054555893, -0.06032002717256546, 0.07760684937238693, -0.0747511237859726, 0.03077811188995838, -0.09218753129243851, -0.06790728867053986, -0.012430121190845966, -0.0503753125667572, 0.019409585744142532, -0.08644116669893265, 0.04169891029596329, -0.07663969695568085, 0.07115119695663452, -0.05176930874586105, 0.030461514368653297, -0.0038728583604097366, 0.03156881406903267, 0.09371214359998703, 0.07497250288724899, 0.02121918462216854, -0.01536407507956028, -0.07337283343076706, -0.06701482087373734, -0.06615661084651947, 0.05130152776837349, -0.006105099339038134, -0.049406278878450394, -0.07588781416416168, 0.03443616256117821, 0.10594355314970016, 0.13219992816448212, -0.04377894476056099, -0.024590598419308662, -0.07611562311649323, -0.06905462592840195, 0.012674501165747643, -0.0019507089164108038, -0.06461263447999954, -0.054739851504564285, -0.006679799407720566, 0.027621250599622726, 0.06941623985767365, 0.0004114924813620746, -0.046669065952301025, -0.061512336134910583, -0.085645392537117, 0.06034807860851288, -0.01409432478249073, -0.046975936740636826, 0.031649306416511536, 0.058381933718919754, 0.1006210669875145, 0.10141310840845108, -0.08336319029331207, 0.0032073133625090122, 0.01537467259913683, 0.06684060394763947, -0.11111044138669968, -0.07624038308858871, 0.06357216089963913, -0.03545865789055824, 0.06661758571863174, 0.09613635390996933, 0.07665105164051056, 0.03948739171028137, 0.02660597674548626, 0.03250526264309883, 0.0014514327049255371, 0.03233887255191803, -0.0993238314986229, -0.08972811698913574, -0.017216673120856285, 0.07275278121232986, 0.0765657052397728], [-0.08365488052368164, 0.0028691496700048447, -0.0619010403752327, 0.05908555909991264, -0.00019817611610051244, 0.03920130059123039, -0.02502298541367054, 0.006833940744400024, -0.1047615334391594, -0.11545661836862564, -0.07933493703603745, -0.0918775200843811, 0.013071608729660511, -0.09414897859096527, -0.052952200174331665, -0.019011085852980614, -0.03667398542165756, -0.10184340178966522, 0.05567513406276703, -0.008834682404994965, -0.002563856542110443, 0.02366480603814125, -0.0646233931183815, -0.04824874922633171, -0.021553630009293556, 0.06726686656475067, 0.022892514243721962, 0.03885939344763756, -0.11047657579183578, 0.01005182508379221, -0.0424656979739666, 0.059176646173000336, 0.06159190461039543, 0.03352072462439537, 0.04269159212708473, 0.03310847282409668, 0.062078285962343216, -0.1119007095694542, 0.03197745233774185, 0.088192880153656, 0.012692078948020935, -0.005477686412632465, -0.019511612132191658, -0.01465013436973095, -0.021742038428783417, -0.07183072715997696, 0.08346664905548096, 0.009763156063854694, 0.07522618025541306, 0.08495953679084778, -0.07313394546508789, -0.034558963030576706, -0.08332717418670654, -0.012431063689291477, -0.06984112411737442, 0.06765497475862503, 0.02370244450867176, -0.050748929381370544, 0.07941494137048721, 0.06600569933652878, 0.002163049066439271, -0.08722017705440521, -0.012085512280464172, 0.08341209590435028, -0.05211402103304863, 0.07011166214942932, 0.041357412934303284, 0.09104704111814499, 0.08625314384698868, 0.07056194543838501, -0.07983258366584778, 0.0028630089946091175, -0.08724705874919891, 0.13500936329364777, -0.0713600218296051, 0.09465909749269485, -0.08820842951536179, 0.07927228510379791, 0.011675084941089153, -0.02025003544986248, -0.06354973465204239, -0.03361866623163223, 0.025877395644783974, 0.010934283956885338, 0.00872925203293562, 0.051927514374256134, 0.013358375988900661, 0.05487731471657753, -0.08809296041727066, -0.0015741093084216118, -0.07215115427970886, -0.07301656901836395, 0.09577745944261551, -0.09637326747179031, -0.02754753828048706, 0.0005951835191808641, -0.06281523406505585, -0.06990206241607666, -0.004066392779350281, -0.035092949867248535], [-0.09885551035404205, -0.01962418481707573, -0.021139657124876976, 0.06931686401367188, 0.0742536410689354, -0.0793306976556778, -0.03885490819811821, 0.024119436740875244, 0.07962328940629959, 0.057499825954437256, -0.0829131230711937, 0.01087839063256979, -0.09803909063339233, 0.08609560877084732, 0.06404189765453339, -0.06899596750736237, -0.07940163463354111, -0.07672106474637985, -0.0975094810128212, -0.06627310812473297, -0.06675209105014801, -0.017269473522901535, -0.08945067971944809, 0.03381846100091934, -0.0280021782964468, 0.024004654958844185, -0.09734643995761871, -0.005433452315628529, -0.03726799041032791, -0.026663893833756447, 0.01524422224611044, 0.0799616128206253, -0.02117457427084446, -0.00830842275172472, 0.048980891704559326, -0.005882090423256159, 0.030640769749879837, -0.0413840189576149, -0.009009580127894878, 0.02756977081298828, -0.019524741917848587, 0.06401462852954865, -0.02983405627310276, -0.07205947488546371, -0.040233682841062546, 0.03862318396568298, 0.0641254186630249, -0.044409193098545074, 0.022324372082948685, 0.07372509688138962, -0.04742467403411865, 0.055982280522584915, 0.048777882009744644, 0.09459982812404633, -0.07225499302148819, 0.051791492849588394, -0.04626498371362686, -0.007368261460214853, 0.008574847131967545, 0.030157161876559258, 0.005435930099338293, 0.03555149957537651, 0.034922923892736435, 0.0009787846356630325, 0.08403836190700531, -0.026993298903107643, 0.04438202828168869, 0.09264983236789703, -0.039108049124479294, -0.06462433189153671, 0.0050318362191319466, -0.06846795231103897, 0.002369845053181052, 0.09956749528646469, 0.08333948254585266, 0.07145743817090988, -0.02425534836947918, -0.09949883073568344, 0.018605656921863556, -0.03568742051720619, 0.003386259078979492, 0.04143388196825981, 0.023654021322727203, -0.057488083839416504, 0.019851768389344215, 0.04177364334464073, 0.06470365822315216, 0.05876597389578819, 0.06657450646162033, -0.028526410460472107, -0.02799287997186184, -0.017688680440187454, -0.03687001392245293, -0.08713947981595993, -0.0717773586511612, 0.08946599066257477, 0.05090903118252754, -0.06791608780622482, 0.02368086948990822, 0.06214446946978569], [-0.05589340627193451, 0.006359490100294352, 0.0695992261171341, 0.03433900699019432, -0.035031914710998535, 0.010890130884945393, -0.00965460017323494, -0.0012911782832816243, -0.03126418590545654, 0.04808279499411583, 0.1108592301607132, 0.06990309059619904, 0.08417567610740662, -0.05950739607214928, 0.11261063069105148, -0.056100308895111084, 0.10505352914333344, -0.06500551104545593, -0.09264322370290756, -0.010869388468563557, 0.016882190480828285, -0.07301471382379532, -0.06297565251588821, 0.015750806778669357, -0.027783216908574104, 0.04676063731312752, 0.10493437945842743, -0.012094384990632534, -0.02449905127286911, 0.04797833040356636, -0.09172380715608597, 0.07100224494934082, 0.03789300099015236, -0.025255680084228516, -0.042731873691082, 0.08566837757825851, -0.04764650762081146, 0.07332541793584824, 0.0650862529873848, -0.0078080520033836365, 0.0537974089384079, 0.060834795236587524, 0.0470227412879467, 0.11203140765428543, 0.004890913609415293, -0.05594267323613167, -0.1006082072854042, -0.0035582983400672674, 0.04792201891541481, 0.02547585591673851, 0.028465470299124718, -0.07586550712585449, 0.09671942889690399, -0.0026033581234514713, 0.08350762724876404, 0.02002907358109951, 0.007701106369495392, 0.04227365180850029, -0.04320826381444931, 0.055094096809625626, 0.04600949212908745, -0.07973393052816391, -0.00225892779417336, -0.08306708931922913, -0.06312837451696396, 0.008890381082892418, 0.02549903653562069, -0.04199141636490822, 0.030078135430812836, 0.022370466962456703, 0.004850329831242561, 0.00483867060393095, 0.026778561994433403, -0.007176834624260664, 0.041540198028087616, 0.09881093353033066, -0.050651151686906815, -0.08935284614562988, -0.0826205387711525, 0.05048534274101257, 0.10678593814373016, -0.0031535520683974028, -0.07337876409292221, -0.07349107414484024, 0.08495141565799713, 0.050095587968826294, -0.013446802273392677, 0.02016308717429638, -0.08044581115245819, -0.04218278452754021, -0.06890179216861725, 0.06763589382171631, -0.10052621364593506, -0.09359210729598999, -0.06541164964437485, -0.007912136614322662, -0.0056645688600838184, 0.041473761200904846, -0.0844888985157013, -0.012224244885146618], [0.07779723405838013, -0.07304403930902481, -0.054821379482746124, 0.04357003793120384, -0.05624788627028465, -0.07716880738735199, 0.05722683668136597, 0.07169865071773529, 0.0368821807205677, 0.021313831210136414, 0.055365122854709625, 0.10784076899290085, 0.06961450725793839, -0.06886884570121765, 0.023905087262392044, 0.06927657127380371, -0.030846863985061646, 0.06773706525564194, 0.09416820108890533, 0.008690696209669113, 0.10333628207445145, -0.021889328956604004, 0.05128449201583862, -0.03977779671549797, 0.06198626011610031, -0.07938004285097122, -0.0235604140907526, -0.05896134302020073, -0.06702488660812378, -0.11413499712944031, -0.05851435288786888, -0.013953820802271366, 0.043532855808734894, 0.0829494372010231, -0.06482596695423126, -0.019792508333921432, -0.04727226123213768, -0.09345689415931702, 0.0752156600356102, -0.023903632536530495, -0.006186588667333126, -0.06008375808596611, 0.09862801432609558, -0.058641739189624786, 0.05633379891514778, -0.0061879632994532585, 0.00707080727443099, 0.08022574335336685, 0.09433890134096146, -0.05669761449098587, -0.015175741165876389, 0.07717638462781906, -0.029287051409482956, -0.011776664294302464, 0.025318019092082977, 0.005898642353713512, -0.07838912308216095, 0.010510257445275784, -0.09665898233652115, 0.026438318192958832, 0.05014298856258392, -0.019420918077230453, 0.012712285853922367, 0.009559627622365952, -0.025777800008654594, 0.03391427919268608, -0.059515923261642456, -0.10880959779024124, 0.0033885720185935497, -0.0841526985168457, -0.004675336182117462, -0.057479675859212875, -0.02750510722398758, 0.06283338367938995, 0.1110290139913559, 0.005278423428535461, 0.0779450535774231, -0.01640705205500126, 0.013489865697920322, 0.06750563532114029, 0.03688228502869606, 0.036585304886102676, -0.009798867627978325, 0.041413165628910065, -0.025856152176856995, -0.05342821776866913, 0.022698422893881798, -0.03825680539011955, -0.0782226026058197, 0.08981236070394516, -0.008839854039251804, -0.04746934026479721, -0.08680206537246704, 0.010419839061796665, -0.11376776546239853, 0.07642810046672821, 0.09445513784885406, -0.007578525226563215, 0.011191749013960361, -0.07033924013376236], [0.10533690452575684, -0.01127611380070448, 0.026615189388394356, -0.03315751627087593, -0.09134335815906525, 0.01241307146847248, -0.05468595772981644, -0.02394256740808487, -0.052310097962617874, -0.043392863124608994, -0.04838475584983826, 0.06512581557035446, -0.014260154217481613, 0.049998730421066284, -0.012943003326654434, -0.06210488826036453, -0.01360789593309164, 0.021767407655715942, 0.038683198392391205, -0.05404965579509735, -0.08594036102294922, 0.032051313668489456, 0.04083964228630066, -0.04166927933692932, 0.031294964253902435, 0.04802960157394409, -0.04944707453250885, -0.07087381929159164, -0.08830322325229645, 0.02399209327995777, -0.019970592111349106, 0.0005856166826561093, 0.06754061579704285, 0.06724662333726883, 0.04125756025314331, 0.04257703945040703, -0.05050871893763542, 0.01632995717227459, 0.038088783621788025, -0.031201738864183426, -0.09112109243869781, 0.010658101178705692, 0.08234939724206924, -0.09222182631492615, 0.03801719844341278, 0.016387946903705597, -0.09315796941518784, 0.05124691128730774, 0.11009741574525833, 0.10523513704538345, 0.0012436897959560156, -0.018553247675299644, -0.03018232434988022, 0.05447262153029442, 0.011596226133406162, 0.03559495508670807, -0.08914090692996979, 0.0035974138882011175, 0.01348308939486742, -0.07929471880197525, 0.041361309587955475, -0.007229459006339312, -0.05937829241156578, 0.03294398635625839, -0.018200011923909187, -0.006778468377888203, -0.021706707775592804, -0.03308933600783348, 0.07649077475070953, -0.06292492151260376, -0.024926094338297844, 0.06371603906154633, 0.05449328199028969, 0.10025660693645477, 0.08452092856168747, -0.09843945503234863, -0.06263615190982819, -0.01655561663210392, -0.02824222669005394, 0.06549423187971115, -0.010860532522201538, -0.04824475198984146, -0.018344324082136154, -0.0015927522908896208, 0.03269219771027565, 0.01079728826880455, -0.08302171528339386, -0.0428009070456028, 0.0694541186094284, 0.03700358048081398, -0.021380027756094933, -0.010446743108332157, 0.06181700900197029, 0.06608801335096359, -0.010027622804045677, -0.07860113680362701, 0.02576131373643875, -0.025838017463684082, 0.07471992820501328, 0.02745053730905056], [0.09097296744585037, 0.023269543424248695, -0.06411675363779068, -0.08871833235025406, 0.08647327125072479, -0.033928949385881424, 0.006774610839784145, 0.008818873204290867, 0.09911134839057922, -0.016862303018569946, -0.09676943719387054, 0.028227971866726875, -0.07472024857997894, 0.0564642958343029, -0.0037070473190397024, 0.08200854063034058, -0.04263490438461304, 0.09579918533563614, 0.0006991842528805137, -0.01140399370342493, 0.09639842063188553, -0.09104909002780914, -0.030732402577996254, -0.04807082936167717, -0.06387313455343246, 0.08949002623558044, -0.03911944851279259, 0.06791684031486511, -0.03522935137152672, -0.03627864643931389, -0.09273548424243927, 0.007688537705689669, -3.09941970044747e-05, 0.040995366871356964, 0.08119224011898041, -0.0656530112028122, -0.018900636583566666, 0.08976450562477112, -0.006343736778944731, 0.09784344583749771, 0.02735750749707222, 0.05436810851097107, -0.0016302823787555099, 0.09810890257358551, 0.08474048227071762, 0.019880764186382294, 0.05496447905898094, 0.05014384165406227, 0.10063659399747849, -0.043932028114795685, 0.06598437577486038, -0.07942260056734085, -0.0067560928873717785, -0.06619637459516525, 0.038584135472774506, 0.0699368417263031, -0.010853416286408901, -0.08775431662797928, -0.09416606277227402, -0.05437371879816055, -0.0864880234003067, -0.06043976545333862, -0.024841394275426865, 0.09479064494371414, 0.06006094813346863, 0.06605448573827744, 0.0794181302189827, 0.08453883230686188, 0.08896549046039581, -0.01717410981655121, -0.027648283168673515, 0.08190380781888962, 0.056599412113428116, -0.006921334657818079, 0.08603423088788986, 0.07721026241779327, 0.07875882089138031, 0.01376589946448803, -0.015272712334990501, -0.07088989019393921, -0.05242908000946045, -0.05243707448244095, -0.07320530712604523, 0.012856648303568363, -0.002712002955377102, -0.08628823608160019, -0.022214554250240326, 0.005317202303558588, -0.07729698717594147, -0.07345116138458252, -0.04041052982211113, -0.08327815681695938, 0.033218611031770706, -0.055193256586790085, 0.00588129460811615, 0.059798840433359146, 0.05924035608768463, -0.025658661499619484, 0.1046828180551529, -0.09210636466741562], [0.08016714453697205, -0.06164975091814995, 0.04556259140372276, 0.04946233332157135, 0.04135391116142273, -0.09787052869796753, 0.05963102728128433, 0.01783350296318531, -0.06640559434890747, 0.06397087872028351, 0.0021764831617474556, -0.01143595390021801, 0.006062110885977745, 0.024475712329149246, 0.02847418747842312, -0.01012495532631874, 0.06767945736646652, 0.042558930814266205, 0.015977079048752785, -0.02499907650053501, -0.04405629262328148, -0.08993318676948547, -0.09935314953327179, -0.09735145419836044, -0.019259188324213028, -0.024929801002144814, -0.037774842232465744, -0.07796088606119156, 0.0929277092218399, -0.025147927924990654, -0.026722799986600876, 0.029228171333670616, 0.034417372196912766, -0.06811405718326569, 0.0003002671874128282, -0.04075641557574272, -0.09678103774785995, -0.017794163897633553, -0.03305106982588768, 0.041529331356287, -0.09532544761896133, 0.07653748244047165, -0.008650696836411953, -0.02153554931282997, -0.03217741474509239, -0.031016655266284943, -0.050064265727996826, 0.04201746731996536, -0.01082413550466299, -0.045189570635557175, -0.024233410134911537, 0.021730439737439156, 0.03804498910903931, 0.0014864198165014386, 0.04713835567235947, 0.00486398208886385, 0.08883847296237946, -0.05012983828783035, 0.05830029398202896, -0.07076646387577057, -0.04881543293595314, 0.06225194036960602, -0.050749897956848145, -0.03479525074362755, 0.02851312980055809, 0.03447671979665756, 0.07234667986631393, 0.09066464006900787, 0.07158105075359344, 0.02630504220724106, 0.066341333091259, 0.041487809270620346, -0.012272668071091175, -0.018799221143126488, 0.06194395571947098, -0.051773037761449814, -0.0375247485935688, 0.08886384963989258, 0.03249333053827286, 0.010435173287987709, -0.04689408466219902, -0.02600170485675335, 0.06236086040735245, 0.06900311261415482, -0.028966879472136497, -0.09511425346136093, 0.061181508004665375, -0.027739275246858597, 0.0850633755326271, 0.022861314937472343, 0.0039497786201536655, -0.020806608721613884, -0.03339648246765137, -0.05367962270975113, 0.09910960495471954, 0.015823131427168846, 0.03666121885180473, 0.011358983814716339, 0.022012898698449135, 0.0882548913359642], [-0.008094938471913338, -0.05704440921545029, 0.013027295470237732, -0.06992074102163315, -0.0918048843741417, 0.04236495867371559, -0.0850747749209404, -0.05435613542795181, 0.01349278911948204, 0.014855407178401947, 0.0317365862429142, -0.09493765980005264, 0.024683240801095963, -0.03763394057750702, -0.06137165427207947, -0.06688637286424637, -0.08359446376562119, 0.06570541113615036, -0.0803624615073204, 0.07851225882768631, 0.05053674429655075, 0.06065370514988899, -0.0014575915411114693, 0.0543300062417984, -0.0167334396392107, 0.11556044220924377, -0.07024313509464264, -0.03912634775042534, -0.07556576281785965, 0.04344142973423004, 0.03432049974799156, 0.0014198657590895891, -0.06861071288585663, 0.06377547979354858, 0.061828527599573135, -0.04141358286142349, 0.031169168651103973, 0.048747625201940536, -0.045740775763988495, -0.02701713517308235, 0.04586925730109215, 0.038770828396081924, -0.0874667689204216, -0.07060974091291428, -0.06469477713108063, -0.013201260939240456, -0.033313948661088943, 0.06086412072181702, 0.041741855442523956, 0.13471220433712006, 0.008491228334605694, 0.06265817582607269, 0.05192367359995842, -0.045859213918447495, -0.09886617213487625, -0.04190964996814728, -0.07921651750802994, 0.06329067051410675, 0.011631906032562256, -0.050544414669275284, -0.048524510115385056, -0.024117719382047653, 0.0794629156589508, -0.09605283290147781, 0.018228916451334953, -0.06528722494840622, -0.024255650117993355, 0.015497593209147453, -0.10958309471607208, -0.02799026295542717, -0.058861829340457916, -0.0014167643385007977, -0.08186233788728714, 0.09820393472909927, -0.01903463341295719, -0.04102983698248863, 0.07053809612989426, 0.012258639559149742, -0.06261316686868668, -0.013192998245358467, -0.06804149597883224, 0.05764063820242882, 0.07560327649116516, -0.024628594517707825, 0.02696526236832142, 0.05102488771080971, -0.06216985359787941, 0.09284011274576187, -0.07567714899778366, -0.0858515128493309, -0.04357893019914627, 0.07471069693565369, -0.02817457914352417, -0.06436406821012497, -0.09066914767026901, 0.024336062371730804, -0.06767524778842926, -0.03445945307612419, 0.07061278820037842, -0.051029469817876816], [-0.02970581129193306, 0.011286366730928421, -0.007808157242834568, 0.03770477697253227, 0.0030141074676066637, -0.004325340501964092, 0.002369591500610113, -0.018757188692688942, 0.07277270406484604, -0.04226997122168541, 0.052717071026563644, -0.08733692020177841, -0.033289834856987, -0.08737202733755112, 0.028695126995444298, 0.06257413327693939, 0.061487745493650436, 0.014987390488386154, -0.07466446608304977, 0.005726923234760761, 0.08758166432380676, -0.08796212822198868, 0.0727713480591774, -0.040855228900909424, -0.09129204601049423, -0.059870947152376175, 0.03882340341806412, 0.02002095803618431, -0.07803962379693985, -0.03837304189801216, 0.006571102421730757, 0.04603533819317818, -0.0540519617497921, -0.08209448307752609, -0.06951101869344711, -0.04327542707324028, 0.034698355942964554, 0.08732844144105911, 0.0005328188417479396, -0.06371749937534332, -0.015457654371857643, -0.06971186399459839, 0.07245741039514542, -0.07610954344272614, -0.08755674213171005, 0.06101522222161293, 0.09658695012331009, -0.02108251303434372, -0.026646269485354424, -0.04673182964324951, 0.06066018342971802, -0.09756938368082047, -0.05537596717476845, 0.03546654060482979, 0.08955113589763641, -0.07140245288610458, -0.05375271663069725, 0.00973145104944706, -0.02728566713631153, -0.09695255011320114, -0.04279879480600357, 0.05122833698987961, -0.07179377228021622, 0.014813284389674664, -0.011100403033196926, -0.010762142948806286, 0.03872081637382507, -0.008945506997406483, -0.01781371608376503, -0.014436579309403896, -0.03396972641348839, 0.06245347484946251, 0.037992727011442184, -0.06255783885717392, -0.025892484933137894, -0.0004832148551940918, -0.051835156977176666, 0.07390973716974258, 0.07394472509622574, -0.09846591204404831, 0.04246131330728531, 0.06679289788007736, -0.0002911567862611264, 0.10152143239974976, -0.01113689411431551, -0.03751502186059952, -0.025964772328734398, -0.017596280202269554, 0.05282587930560112, 0.05139455571770668, -0.02210407331585884, 0.030848974362015724, -0.008113575167953968, 0.059752676635980606, 0.05913560464978218, -0.07584883272647858, -0.0019518733024597168, -0.08012622594833374, -0.020397577434778214, -0.04255526140332222], [0.08178899437189102, 0.04323940351605415, -0.0274700615555048, -0.03849243372678757, 0.008886498399078846, 0.06867039948701859, 0.037920527160167694, -0.09500999003648758, -0.03793759644031525, 0.023467157036066055, -0.019080324098467827, -0.014221376739442348, 0.099588543176651, -0.006822102703154087, 0.02950446307659149, 0.04237480089068413, 0.06678550690412521, -0.09717807918787003, -0.07690218091011047, 0.029486699029803276, 0.07364504784345627, -0.07032441347837448, -0.08260287344455719, 0.038910411298274994, 0.01765320636332035, 0.04135489836335182, 0.046485815197229385, 0.05996330454945564, -0.043074026703834534, 0.12847362458705902, 0.1004575788974762, -0.09087396413087845, -0.0240361075848341, 0.03918716683983803, -0.09383409470319748, -0.028015950694680214, 0.05701851099729538, 0.030126985162496567, 0.10335402935743332, 0.006347235292196274, 0.09207688271999359, 0.01137401070445776, 0.0862485021352768, -0.029631691053509712, 0.042903248220682144, 0.0030796765349805355, -0.006057118531316519, -0.029797444120049477, 0.07817535102367401, 0.05939777195453644, 0.006339877378195524, -0.06464850157499313, 0.009610895998775959, -0.041362907737493515, 0.0014298807363957167, 0.0624941885471344, -0.010079791769385338, -0.03850170224905014, 0.04213675856590271, 0.035479772835969925, 0.08532589673995972, -0.07929173856973648, 0.02260018326342106, -0.031969815492630005, 0.0887371227145195, 0.0666479542851448, -0.019856255501508713, 0.0699857771396637, 0.029729709029197693, -0.04443085566163063, -0.036103393882513046, -0.09453409910202026, -0.05665355175733566, 0.0670827180147171, -0.048692382872104645, -0.03762384504079819, -0.005477555096149445, 0.10554402321577072, 0.0006068318616598845, 0.07326745241880417, 0.03628205135464668, -0.08134344220161438, 0.0402500294148922, -0.027262521907687187, 0.0024442956782877445, 0.08763935416936874, -0.005516382399946451, -0.043260518461465836, -0.058538228273391724, 0.0865580141544342, -0.042864978313446045, 0.05867309868335724, -0.026618245989084244, -0.0742909163236618, 0.07577134668827057, -0.07841769605875015, -0.06688991189002991, -0.011081001721322536, -0.0726102888584137, -0.03798734024167061], [-0.06405570358037949, -0.03946276381611824, -0.08219710737466812, 0.023902632296085358, 0.058232322335243225, 0.024420112371444702, -0.06883405148983002, -0.034099601209163666, 0.06273474544286728, 0.10438476502895355, 0.0801398828625679, 0.03588811680674553, 0.06050547957420349, -0.07950865477323532, -0.0308225154876709, -0.09538907557725906, 0.024566391482949257, -0.048594456166028976, 0.0011178359854966402, 0.05973121523857117, -0.010955645702779293, -0.039913713932037354, 0.021268397569656372, 0.0789683386683464, 0.06129062920808792, -0.012141973711550236, 0.04548858478665352, -0.05284566804766655, -0.07742737233638763, -0.02820947952568531, 0.013062085956335068, 0.017772629857063293, 0.08336332440376282, -0.037939611822366714, 0.05914689227938652, -0.014288938604295254, -0.07995753735303879, 0.013942745514214039, -0.06160372495651245, 0.08698855340480804, -0.018499551340937614, 0.07851587980985641, -0.00658527621999383, -0.0031745752785354853, -0.020663445815443993, -0.05834192410111427, -0.03324483707547188, 0.09225127846002579, -0.05557003989815712, 0.11667776852846146, 0.06920834630727768, 0.005820595193654299, 0.03656679019331932, 0.025324134156107903, -0.02616823837161064, -0.02616475149989128, 0.07443688809871674, -0.06157338619232178, 0.09634803980588913, -0.09164591133594513, -0.0706978514790535, 0.09430977702140808, -0.09450045973062515, -0.026591183617711067, 0.06663739681243896, 0.0293255802243948, 0.07191123068332672, -0.03133354336023331, 0.022063789889216423, -0.018209535628557205, 0.07993647456169128, -0.01934850960969925, -0.07021418958902359, 0.012891187332570553, -0.031927600502967834, -0.05856208875775337, -0.031185973435640335, -0.0063874246552586555, 0.08615085482597351, -0.07194840908050537, -0.062088847160339355, 0.061233896762132645, 0.06243642419576645, -0.08196544647216797, 0.07260508835315704, 0.060945820063352585, 0.09270531684160233, -0.06371939182281494, 0.08575142920017242, -0.07825592905282974, -0.017457835376262665, 0.02598493918776512, 0.08480282127857208, -0.029090171679854393, 0.003512311028316617, -0.059039607644081116, 0.09728403389453888, 0.09505201876163483, 0.043003179132938385, -0.05510306358337402], [-0.025127461180090904, 0.09311825782060623, -0.09139370173215866, 0.0336499959230423, -0.03632590174674988, -0.045517321676015854, 0.017501171678304672, 0.043081335723400116, -0.09408362954854965, -0.09188693016767502, -0.06152559816837311, 0.010173690505325794, 0.02023155242204666, 0.002075903583317995, -0.04817350581288338, -0.05668051168322563, 0.03360872343182564, 0.011656660586595535, -0.09711647033691406, -0.057997386902570724, -0.029366299510002136, 0.06575953960418701, -0.08372382819652557, 0.034875012934207916, 0.025667829439044, 0.054752085357904434, 0.07927325367927551, -0.08166401833295822, -0.012838366441428661, -0.0961158499121666, 0.08329799026250839, -0.09911628067493439, -0.10272431373596191, -0.006601131521165371, 0.09774306416511536, 0.03231801837682724, 0.09902790188789368, -0.03438811004161835, 0.008157491683959961, -0.05151301622390747, 0.0190489012748003, -0.011174949817359447, 0.10548821836709976, 0.050318267196416855, 0.10576745867729187, -0.07861337810754776, -0.08806893974542618, 0.03474041447043419, 0.05280584469437599, 0.058359574526548386, 0.015209241770207882, -0.04558638483285904, -0.05788755789399147, -0.09771313518285751, 0.045980699360370636, 0.08075076341629028, 0.040383920073509216, 0.0720851793885231, 0.09410100430250168, -0.06293387711048126, -0.07125823199748993, 0.058414872735738754, 0.11475946009159088, -0.05232669785618782, 0.05428840592503548, -0.02366810105741024, -0.030744099989533424, -0.05738015100359917, -0.08996164798736572, -0.01251158770173788, 0.01753927953541279, 0.06891769915819168, -0.0943223237991333, 0.08535715937614441, -0.08241017907857895, 0.03594889119267464, -0.021333130076527596, 0.05617264658212662, -0.03797217085957527, 0.06389422714710236, 0.05206199362874031, 0.014787938445806503, -0.04919908195734024, -0.04518066719174385, 0.03547917306423187, 0.07192525267601013, -0.06519126147031784, -0.01855778694152832, -0.029909199103713036, -0.07520782202482224, 0.049455706030130386, -0.09961771965026855, -0.013083720579743385, 0.07316802442073822, 0.08179379999637604, 0.0625670850276947, 0.10952439159154892, 0.05447251722216606, -0.07565708458423615, 0.08072048425674438], [0.031033363193273544, -0.08738280087709427, 0.11241617053747177, 0.022524116560816765, 0.10648112744092941, -0.05846180021762848, 0.014838483184576035, -0.03793634474277496, -0.00786861963570118, -0.09922271221876144, -0.06450016796588898, -0.004376859869807959, 0.017594754695892334, 0.07113604992628098, -0.003865126520395279, -0.01976676471531391, -0.010446551255881786, 0.034035347402095795, 0.09731771051883698, 0.09888152033090591, -0.07949067652225494, -0.07656791061162949, -0.09244732558727264, -0.052772633731365204, 0.06543488800525665, 0.057298872619867325, 0.06799578666687012, 0.06682693958282471, 0.011495486833155155, 0.011127645149827003, -0.0663001537322998, -0.08487600088119507, 0.030500181019306183, 0.04939829185605049, -0.07051828503608704, -0.0802767425775528, -0.0652388408780098, -0.09883401542901993, 0.013225775212049484, -0.054394982755184174, 0.012602622620761395, 0.022998424246907234, -0.03734901174902916, -0.040198832750320435, 0.07244957238435745, 0.05688349902629852, 0.08489184081554413, 0.07826355844736099, -0.0586889274418354, 0.07290852814912796, -0.09739905595779419, 0.015551512129604816, -0.012120891362428665, -0.025047535076737404, 0.07244893908500671, -0.0684841126203537, -0.034833215177059174, -0.052957333624362946, 0.07740476727485657, -0.05968489870429039, 0.01332161296159029, -0.0386168509721756, -0.05249298736453056, -0.028792113065719604, -0.040827471762895584, 0.07023941725492477, 0.002048756694421172, -0.0510866641998291, -0.06860591471195221, 0.05105730891227722, 0.059146713465452194, 0.03880127891898155, -0.04794975742697716, -0.01576421782374382, 0.05463109537959099, -0.030038869008421898, 0.0430397167801857, -0.037848424166440964, 0.04137697443366051, -0.059736382216215134, 0.08398235589265823, 0.06899773329496384, -0.06024761497974396, 0.012843359261751175, -0.02653663605451584, 0.06358072906732559, -0.04888884350657463, 0.10153508186340332, 0.020706281065940857, -0.04420134052634239, 0.08950278162956238, 0.02148502506315708, 0.0036189795937389135, -0.04568198323249817, -0.039390742778778076, 0.07844827324151993, 0.019474375993013382, 0.04259929805994034, -0.025722896680235863, 0.0677068755030632], [-0.08822787553071976, -0.08824201673269272, -0.012559875845909119, 0.018793698400259018, -0.04538881778717041, -0.05839044228196144, -0.07625462114810944, 0.06977702677249908, -0.003525181207805872, 0.08106592297554016, 0.058800868690013885, 0.06508228182792664, -0.06842058151960373, 0.031006159260869026, -0.06460567563772202, -0.01017626654356718, 0.011819408275187016, 0.020937297493219376, 0.013684524223208427, -0.08381540328264236, -0.015061027370393276, 0.08952262252569199, 0.10011113435029984, 0.040709465742111206, -0.007339229341596365, -0.06641718000173569, -0.028027283027768135, -0.07276681065559387, -0.10482265055179596, -0.03394986316561699, 0.10293681919574738, 0.09312748163938522, -0.0618453286588192, 0.07081969827413559, -0.03943081200122833, 0.05478547513484955, 0.016473200172185898, 0.010472104884684086, -0.0027915374375879765, -0.062161993235349655, 0.045661814510822296, -0.052923984825611115, -0.07251062989234924, -0.0432300791144371, 0.021237585693597794, 0.04318086430430412, 0.014187213964760303, -0.08783925324678421, 0.004174745175987482, 0.020643774420022964, 0.0749606192111969, -0.07470288872718811, 0.07977897673845291, -0.0016078157350420952, -0.08022024482488632, -0.018680019304156303, 0.07989217340946198, -0.03943518549203873, -0.00492422329261899, -0.07922135293483734, -0.02474314719438553, 0.011973950080573559, -0.025254951789975166, 0.07430999726057053, 0.05751590058207512, -0.011166681535542011, 0.05078718811273575, -0.05805034562945366, -0.058152198791503906, 0.034699905663728714, 0.07526595145463943, 0.10556786507368088, -0.08416619896888733, -0.08590061962604523, 0.03172517567873001, -0.08246288448572159, -0.05603591725230217, -0.02958053909242153, -0.09124886244535446, -0.030384043231606483, 0.022777533158659935, -0.017272397875785828, -0.0007332816021516919, 0.04977068305015564, 0.06396028399467468, 0.08120176196098328, 0.05968080833554268, -0.07249095290899277, 0.07433438301086426, 0.07080310583114624, -0.028587138280272484, 0.02303990162909031, 0.0644984096288681, -0.05706247314810753, -0.015992039814591408, -0.05651036649942398, 0.07558784633874893, 0.06269824504852295, -0.009002760984003544, -0.06525855511426926], [-0.001611387706361711, 0.1066928282380104, 0.016359219327569008, 0.08608086407184601, 0.002508575329557061, 0.08452507853507996, -0.08590410649776459, -0.06026768311858177, 0.011085844598710537, -0.10150876641273499, 0.0559387281537056, -0.03484813868999481, -0.07828709483146667, -0.08566378057003021, -0.034963831305503845, -0.08649769425392151, -0.10139771550893784, 0.1035551205277443, -0.09205950051546097, -0.07397705316543579, -0.021841341629624367, 0.052678972482681274, 0.000835426792036742, 0.058172572404146194, 0.07513605803251266, 0.1062818318605423, -0.054651036858558655, -0.025661448016762733, -0.06948548555374146, -0.06952421367168427, -0.01752173714339733, -0.039576198905706406, -0.044304609298706055, -0.05529747158288956, -0.03887438774108887, -0.08562197536230087, -0.0343172512948513, -0.007866769097745419, 0.019201509654521942, 0.03946734964847565, -0.012275836430490017, -0.0034106867387890816, 0.05697211995720863, -0.05766730383038521, -0.07428774237632751, -0.04258674010634422, -0.042243219912052155, -0.015030487440526485, -0.07785067707300186, 0.04601612687110901, -0.09534548968076706, -0.03603387996554375, -4.787173020304181e-05, 0.1052362397313118, 0.05985895171761513, 0.05191810801625252, 0.06822898983955383, 0.012371338903903961, 0.01790217123925686, 0.013636469841003418, -0.09371145814657211, -0.10117794573307037, -0.03210480138659477, 0.004158142488449812, -0.0941268801689148, 0.03974790498614311, -0.004555846098810434, -0.027616918087005615, -0.07133995741605759, 0.09270744770765305, -0.022887572646141052, 0.02139768935739994, -0.09378807991743088, 0.04805426299571991, -0.09484966099262238, -0.04095654934644699, -0.09765709936618805, -0.045387815684080124, 0.0007541298982687294, -0.024217654019594193, -0.06672649085521698, -0.044371724128723145, 0.08266244828701019, -0.013792802579700947, 0.048787619918584824, -0.006114096846431494, 0.04432053491473198, -0.09451881796121597, -0.09100116789340973, 0.003375101136043668, -0.04300558939576149, 0.021912096068263054, 0.04547691345214844, -0.093392014503479, 0.01816720701754093, -0.009000464342534542, 0.06605794280767441, -0.09829868376255035, 0.07457955181598663, 0.03708146885037422], [0.10079120099544525, 0.03697888180613518, 0.07677517086267471, -0.04445475712418556, -0.017011011019349098, -0.06695673614740372, -0.01779024861752987, 0.03399002552032471, 0.0391659215092659, -0.008658329024910927, 0.12192824482917786, -0.08357159048318863, -0.03882021829485893, 0.008539172820746899, 0.020187024027109146, 0.012018079869449139, -0.052414506673812866, 0.008355959318578243, 0.045695964246988297, 0.0811711996793747, -0.07372205704450607, 0.001949896919541061, -0.011255818419158459, 0.06513302028179169, 0.04357384517788887, 0.02659589983522892, -8.940888801589608e-05, -0.09077642858028412, 0.0031936056911945343, 0.08578965812921524, -0.008688178844749928, 0.014690113253891468, -0.03066082112491131, 0.07648350298404694, 0.007033974397927523, 0.021697156131267548, 0.1124664843082428, -0.0338139683008194, 0.039981868118047714, 0.05493771657347679, 0.07162327319383621, 0.10119796544313431, -0.07756491750478745, -0.044995248317718506, -0.012341434136033058, 0.0905878022313118, 0.052079446613788605, 0.0763368010520935, -0.06447936594486237, -0.016207300126552582, -0.0027439154218882322, -0.014468466863036156, -0.0625162124633789, -0.07225329428911209, -0.04940365254878998, 0.08701591193675995, 0.016702914610505104, 0.07795395702123642, -0.055799663066864014, -0.02187306061387062, 0.0046078856103122234, 0.06068715080618858, -0.08360537141561508, -0.00641173729673028, 0.01236964575946331, -0.11200391501188278, -0.01972707360982895, 0.05874074622988701, 0.027546772733330727, 0.052279140800237656, 0.029952436685562134, -0.07434159517288208, 0.061255939304828644, -0.05927644297480583, 0.09545787423849106, -0.10266593098640442, 0.11712343245744705, 0.06289578974246979, -0.029375046491622925, 0.05516494810581207, 0.06820787489414215, -0.08127132803201675, 0.1153547614812851, 0.03783538565039635, 0.037459537386894226, 0.03211572766304016, -0.012264257296919823, 0.08812549710273743, -0.10106378048658371, -0.08851782232522964, -0.003242007689550519, 0.07209864258766174, 0.09813646972179413, -0.03510455787181854, 0.052427440881729126, -0.07015341520309448, -0.006007938180118799, -0.016520099714398384, 0.05318589508533478, 0.03397775813937187], [0.07405959814786911, 0.07053810358047485, -0.040180619806051254, 0.07922101020812988, 0.09805223345756531, -0.08887840807437897, -0.029115060344338417, -0.0999118834733963, 0.027046000584959984, 0.0765320211648941, -0.05259065702557564, 0.07638980448246002, -0.07821603119373322, -0.06416147947311401, -0.09278007596731186, -0.04869981110095978, -0.0037711304612457752, -0.06178342178463936, 0.079308420419693, -0.07729941606521606, 0.03367896005511284, 0.02339305728673935, 0.011736830696463585, 0.062057700008153915, 0.028138233348727226, -0.06997431814670563, 0.06939416378736496, -0.0573149137198925, 0.022287758067250252, 0.006356044206768274, 0.0016484911320731044, 0.09404934197664261, -0.004472923465073109, -0.03679084777832031, 0.0870594009757042, -0.03002377785742283, -0.08460994809865952, -0.07236313074827194, -0.04226357489824295, -0.025553392246365547, -0.08078929781913757, 0.008066628128290176, 0.021580342203378677, -0.04197075217962265, -0.01143135316669941, -0.017186956480145454, 0.032818444073200226, -0.09815247356891632, -0.017473353073000908, 0.049825269728899, 0.012247991748154163, -0.023137923330068588, 0.085893914103508, 0.0760255753993988, -0.0677090436220169, 0.0556345209479332, -0.09740938246250153, 0.07572048157453537, -0.04147025942802429, 0.08760147541761398, -0.048888567835092545, -0.029993856325745583, 0.03200046345591545, 0.045079126954078674, -0.04381709173321724, 0.05991838127374649, -0.01896526850759983, 0.011972581967711449, -0.08378683030605316, -0.027448290959000587, 0.09897451847791672, 0.10443054884672165, -0.028328126296401024, -0.08105651289224625, -0.07582364231348038, -0.06475132703781128, 0.07368532568216324, -0.046211790293455124, -0.10041427612304688, -0.02104325033724308, -0.04420816898345947, -0.06406459957361221, -0.0022181605454534292, -0.059496138244867325, 0.00623968243598938, -0.027790717780590057, 0.08074802160263062, 0.04153977334499359, 0.09963898360729218, -0.0998375192284584, 0.0389949195086956, -0.07138022035360336, -0.05998537689447403, 0.06304876506328583, 0.03746507689356804, -0.021308131515979767, 0.09173547476530075, -0.05984809622168541, -0.052319612354040146, -0.06931666284799576], [-0.016496164724230766, -0.048004891723394394, 0.08191096037626266, 0.04493003711104393, 0.06390496343374252, 0.05799694359302521, 0.0636080652475357, 0.0617399588227272, -0.05220501124858856, 0.07838483154773712, 0.055381033569574356, -0.0924791693687439, 0.07252893596887589, 0.04819390922784805, -0.021070441231131554, 0.028880024328827858, -0.06760244071483612, 0.043588828295469284, 0.014376874081790447, -0.09039480984210968, -0.005389638710767031, 0.041791923344135284, 0.00573951518163085, 0.053853195160627365, -0.022121591493487358, -0.08904794603586197, -0.09904039651155472, 0.06628604233264923, 0.013228921219706535, 0.06155192106962204, 0.04766574129462242, 0.006677902303636074, -0.04644816741347313, 0.04935288056731224, -0.015576230362057686, 0.06650703400373459, 0.03616199642419815, -0.021739976480603218, 0.03811980038881302, -0.0809464156627655, 0.09073583781719208, -0.011102044023573399, 0.05352760851383209, -0.11369838565587997, 0.0203618835657835, -0.03318353742361069, -0.0902109369635582, -0.08110260218381882, 0.10221252590417862, 0.10276557505130768, -0.02063133753836155, -0.012761375866830349, 0.01085639838129282, 0.061464112251996994, 0.048370543867349625, -0.019787516444921494, 0.0941733568906784, -0.08576758205890656, 0.06673543155193329, 0.02421535737812519, 0.06478098779916763, -0.0886307880282402, 0.041907377541065216, -0.0641554594039917, 0.030747493728995323, -0.099004827439785, -0.07761722058057785, -0.050313305109739304, -0.029876144602894783, -0.0007318881689570844, 0.08079253882169724, -0.04023139551281929, 0.040115658193826675, -0.015065697021782398, 0.04535197839140892, -0.035036422312259674, 0.005145073402673006, -0.046801429241895676, 0.029205532744526863, -0.09818778932094574, -0.09349273890256882, -0.028493816033005714, 0.030611446127295494, 0.10385095328092575, -0.02066979929804802, 0.07765728235244751, -0.009842373430728912, -0.029761312529444695, -0.0019203292904421687, 0.034748625010252, -0.016993451863527298, -0.07394804805517197, -0.03382040187716484, -0.023884691298007965, -0.026835843920707703, -0.09344317764043808, 0.03231741860508919, -0.061730459332466125, -0.008765358477830887, 0.020306218415498734], [-0.09218340367078781, -0.03934021294116974, -0.03649691864848137, -0.09894295036792755, -0.08188048750162125, -0.055810075253248215, -0.0291559137403965, -0.08081519603729248, -0.034041717648506165, -0.09484437853097916, -0.02068931795656681, 0.06268858164548874, -0.02943482995033264, -0.0936155691742897, -0.03128030523657799, 0.021272387355566025, -0.003109296318143606, -0.07866699993610382, 0.07300280034542084, -0.06107410788536072, -0.04792847856879234, -0.023694338276982307, 0.0075035132467746735, 0.0768122673034668, 0.0885370671749115, 0.06987795233726501, -0.007543402723968029, -0.07893779873847961, 0.08760594576597214, 0.054236892610788345, 0.0660897046327591, 0.01525130309164524, 0.037818823009729385, 0.01924852281808853, 0.07109914720058441, 0.04219251871109009, 0.06398915499448776, -0.07481248676776886, 0.09556757658720016, 0.05506441742181778, 0.03837757185101509, 0.0367586575448513, 0.020308470353484154, -0.07283958792686462, -0.06671661883592606, 0.07063326984643936, 0.028043007478117943, -0.011651687324047089, -0.02119327150285244, -0.018122036010026932, -0.08922427147626877, -0.08248655498027802, 0.034403860569000244, -0.09471558034420013, 0.05431327596306801, -0.07490017265081406, 0.11651457101106644, -0.07612941414117813, 0.07910726219415665, 0.07880297303199768, -0.07143301516771317, 0.039033807814121246, -0.06687065213918686, -0.09905499964952469, -0.03180724382400513, 0.052611399441957474, 0.014627773314714432, -0.01107182726264, 0.07369416952133179, 0.018107924610376358, 0.009636826813220978, 0.05458984151482582, -0.03882531076669693, 0.0918518677353859, -0.012081366032361984, -0.05904817208647728, -0.013498453423380852, 0.0544491671025753, 0.036783549934625626, 0.05818164721131325, 0.03991483896970749, -0.025307798758149147, -0.014806677587330341, -0.05675579607486725, 0.009367980994284153, 0.09129484742879868, 0.035544030368328094, 0.07485261559486389, 0.03682025521993637, -0.016503460705280304, 0.0005958346300758421, 0.09380432218313217, 0.0067231059074401855, -0.07011492550373077, 0.09614960849285126, 0.07686762511730194, 0.0004746229969896376, 0.10317166894674301, 0.04219512268900871, -0.07526355981826782], [0.0660114660859108, 0.003437068546190858, -0.08793949335813522, -0.0952201634645462, 0.07052730768918991, 0.010867515578866005, -0.006827422883361578, 0.010779526084661484, -0.04749187082052231, -0.06894638389348984, -0.05938682332634926, -0.04305913671851158, -0.09174459427595139, 0.0009436535183340311, -0.07638579607009888, 0.04962103068828583, 0.03396224603056908, 0.09443654865026474, -0.06511033326387405, -0.08110587298870087, 0.013659927062690258, -0.08924900740385056, -0.0743597149848938, 0.07333321124315262, 0.006586138624697924, 0.008389171212911606, -0.01798609457910061, 0.040977396070957184, 0.06525183469057083, -0.016049310564994812, 0.09867950528860092, -0.04906443506479263, 0.09635312110185623, -0.09167902916669846, -0.09149353951215744, 0.024229254573583603, -0.04542665556073189, 0.06429368257522583, 0.07848064601421356, -0.07929074019193649, 0.04947942495346069, -0.09306111186742783, -0.06852910667657852, 0.08125203102827072, 0.054454196244478226, -0.008888984099030495, 0.033164132386446, 0.08411355316638947, -0.018727120012044907, -0.07239999622106552, 0.07635167241096497, 0.032797422260046005, 0.03513699024915695, 0.08380965888500214, -0.053983114659786224, -0.03237740695476532, -0.021816063672304153, 0.08763038367033005, 0.07093435525894165, -0.01742265187203884, 0.06739738583564758, -0.09853805601596832, -0.032752275466918945, -0.01824110746383667, -0.042144011706113815, -0.004658981692045927, -0.08833527565002441, -0.08070522546768188, 0.03286367654800415, 0.024038244038820267, -0.0593060739338398, 0.005345539655536413, 0.04719109460711479, 0.04247061535716057, 0.056183893233537674, 0.005280939396470785, -0.06512802839279175, 0.03910332918167114, 0.00016183852858375758, -0.043491389602422714, -0.09057914465665817, 0.028179088607430458, -0.031192222610116005, -0.013345329090952873, 0.053003884851932526, 0.06610111892223358, -0.05813422426581383, -0.047573696821928024, -0.05527153238654137, -0.05497260019183159, -0.07140860706567764, 0.0010048133553937078, -0.04932517930865288, -0.026065707206726074, 0.0008765047532506287, 0.005617173854261637, 0.06730888038873672, -0.01311495341360569, 0.007038450334221125, 0.04070329666137695], [0.01534479483962059, -0.07225342839956284, 0.08101076632738113, 0.0071854363195598125, -0.08219541609287262, -0.01219929475337267, 0.09822448343038559, 0.005848065949976444, -0.08804161846637726, -0.03708108887076378, 0.02286119945347309, -0.07060735672712326, -0.023487910628318787, -0.05768653377890587, 0.06999793648719788, -0.058070242404937744, -0.09597364813089371, 0.061338745057582855, -0.024537814781069756, -0.07084804028272629, -0.0425647497177124, -0.09948498010635376, -0.02691667154431343, -0.08227168768644333, -0.009958162903785706, 0.10432175546884537, -0.03316815569996834, -0.07321669161319733, 0.018315546214580536, -0.03843430057168007, 0.02006901614367962, -0.03710589557886124, -0.02155851572751999, -0.08764928579330444, -0.008033919148147106, -0.05270795896649361, 0.04547380656003952, 0.028467431664466858, 0.04186655953526497, -0.0458257794380188, 0.09702041000127792, 0.07534609735012054, 0.08858330547809601, -0.047399479895830154, -0.08352139592170715, -0.024462280794978142, -0.06477519869804382, 0.059958092868328094, 0.05578719824552536, -0.0785076841711998, -0.07523959875106812, 0.08027323335409164, -0.055019721388816833, 0.028724657371640205, -0.01204562745988369, 0.05597561597824097, 0.012343687936663628, -0.10182419419288635, 0.019186576828360558, 0.051135845482349396, 0.005937069654464722, 0.00025933829601854086, -0.012518392875790596, -0.10245504975318909, -0.10080799460411072, 0.0788206234574318, 0.013772586360573769, 0.09225592762231827, 0.10070208460092545, -0.05867009237408638, -0.014123380184173584, -0.09352093189954758, 0.01856435090303421, -0.0669151172041893, 0.02642149105668068, -0.007306170649826527, 0.00738573120906949, -0.07875006645917892, 0.09409275650978088, -0.08911936730146408, -0.04267774894833565, 0.026987051591277122, -0.07493845373392105, 0.05827661231160164, -0.0049376096576452255, -0.07356293499469757, -0.029883436858654022, 0.08003420382738113, -0.08000748604536057, 0.06016223877668381, 0.04154355823993683, -0.054680705070495605, 0.07279311120510101, -0.026891494169831276, -0.08603306859731674, 0.06919531524181366, -0.05324297025799751, 0.060328159481287, -0.03496013209223747, -0.0410502552986145], [0.04653073847293854, -0.055692918598651886, 0.029282916337251663, 0.08219388127326965, -0.07269250601530075, -0.04200034961104393, -0.0728423222899437, -0.05478040128946304, 0.1109209880232811, -0.023933451622724533, -0.06700746715068817, 0.07076828181743622, 0.01165720447897911, -0.05651022866368294, 0.05455203726887703, -0.09157180786132812, -0.03321754187345505, 0.03685374930500984, -0.039384860545396805, 0.013268092647194862, -0.0623462088406086, -0.048428334295749664, -0.060145653784275055, 0.03077850118279457, 0.0453825518488884, 0.05492241680622101, 0.07011907547712326, 0.09169352054595947, 0.032550133764743805, -0.08460962027311325, -0.07604793459177017, 0.040352094918489456, -0.08866627514362335, -0.0734097883105278, 0.05492011457681656, -0.06352150440216064, -0.03374902158975601, 0.010019593872129917, -0.002667535562068224, -0.06025109440088272, 0.04983330890536308, -0.06801681965589523, 0.029978860169649124, 0.012274338863790035, -0.05335278436541557, 0.05870261415839195, -0.09458724409341812, 0.06918666511774063, 0.0209096297621727, -0.08914081007242203, 0.018590664491057396, -0.0350492000579834, 0.052260756492614746, -0.06553584337234497, -0.03860630467534065, -0.014563782140612602, -0.019350383430719376, 0.07500828057527542, -0.014102698303759098, 0.07104615122079849, -0.06609099358320236, 0.03919839486479759, 0.0424073189496994, -0.08638093620538712, -0.08904160559177399, 0.07563165575265884, -0.09489798545837402, 0.019731411710381508, -0.050260044634342194, -0.06185963377356529, 0.09633108228445053, 0.10419951379299164, 0.08469387143850327, -0.07756062597036362, -0.09978129714727402, -0.09156347811222076, -0.005112743470817804, -0.06036210060119629, -0.07884079217910767, 0.008490748703479767, -0.0057259416207671165, 0.04934439808130264, 0.03207850456237793, -0.0375613234937191, 0.08309586346149445, -0.02592301368713379, -0.08755874633789062, 0.00694266939535737, 0.0451119989156723, -0.08256011456251144, 0.07486528903245926, 0.06791567802429199, -0.03161969408392906, 0.09007766842842102, -0.0996956005692482, 0.026645315811038017, 0.03607910871505737, -0.03635535389184952, -0.0003053220279980451, -0.0441383495926857], [-0.029419874772429466, 0.02226749248802662, -0.07999547570943832, -0.0885956808924675, -0.050748229026794434, 0.0762908086180687, -0.009969854727387428, 0.03917323052883148, -0.04646936058998108, -0.003642451949417591, 0.004170071799308062, -0.057217568159103394, 0.004703635349869728, -0.05950983613729477, -0.07387518882751465, 0.08077634125947952, -0.021391501650214195, -0.037964705377817154, 0.01414050068706274, -0.017188027501106262, -0.04579489678144455, -0.0832027941942215, -0.09116155654191971, -0.03862282261252403, -0.11299349367618561, -0.05032113566994667, 0.0625133216381073, 0.020378202199935913, -0.0272025465965271, 0.011984792537987232, 0.023980386555194855, 0.0008851782768033445, 0.06831270456314087, 0.0015307500725612044, 0.011379269883036613, -0.018728317692875862, 0.07375416904687881, -0.019541863352060318, -0.0040965392254292965, 0.02456163428723812, -0.035810135304927826, 0.06646118313074112, -0.08664291352033615, -0.056118641048669815, -0.11116215586662292, -0.05407748743891716, -0.08454509824514389, -0.006074045319110155, -0.04016944766044617, -0.04595485329627991, 0.08955284208059311, 0.08248400688171387, 0.07862677425146103, 0.03451942652463913, -0.03772525489330292, 0.011792958714067936, 0.06475111842155457, 0.054867763072252274, 0.049128465354442596, 0.0005531088681891561, 0.03142855316400528, -0.0781918540596962, 0.06956887245178223, -0.06681787967681885, -0.10140250623226166, -0.06377574056386948, -0.020564287900924683, -0.06820351630449295, -0.024118153378367424, -0.0794966071844101, -0.0946638211607933, -0.07306405156850815, 0.07849013805389404, -0.06824176013469696, 0.03263190761208534, 0.05461866036057472, -0.10714548826217651, -0.014866068959236145, 0.04889247566461563, 0.04350221902132034, 0.08526543527841568, -0.01892002299427986, -0.09532464295625687, 0.08504653722047806, -0.012721528299152851, 0.028417637571692467, -0.04105198383331299, 0.07004305720329285, -0.09243586659431458, 0.03393182158470154, -0.0502639077603817, -0.06713231652975082, -0.07390300929546356, -0.042808789759874344, -0.020309515297412872, -0.10216095298528671, 0.08814404159784317, 0.026308244094252586, -0.041551727801561356, 0.07162312418222427], [-0.030939828604459763, 0.05417316406965256, -0.03968918323516846, 0.07488451153039932, -0.07907354086637497, -0.07863550633192062, 0.06806767731904984, 0.04832030087709427, -0.06217164918780327, -0.0013842463959008455, 0.02524663135409355, 0.060063686221838, -0.06801917403936386, 0.001670953119173646, -0.008706186898052692, -0.00715313944965601, 0.07101906090974808, 0.032914336770772934, -0.09267381578683853, -0.031163174659013748, 0.04060976207256317, -0.02806566096842289, 0.08155358582735062, 0.05921132490038872, -0.08722155541181564, 0.10945013165473938, -0.02230476401746273, -0.07729905098676682, -0.024092506617307663, 0.031998153775930405, 0.07026774436235428, -0.05456612631678581, -0.06195027753710747, 0.07716529071331024, -0.03404631465673447, -0.0752401277422905, -0.06295011192560196, 0.04934949427843094, 0.02073354460299015, -0.023101244121789932, 0.05438268184661865, 0.003666776930913329, -0.09365393966436386, 0.049259915947914124, 0.03447520360350609, 0.02225247211754322, -0.07745910435914993, -0.07167816907167435, 0.03759421780705452, -0.0748695358633995, -0.0003167390823364258, -0.08189345896244049, 0.003459563013166189, 0.04131271690130234, -0.09535875171422958, 0.09322503954172134, -0.0434563010931015, -0.07591302692890167, 0.049495499581098557, -0.0557449534535408, -0.08850544691085815, -0.09776951372623444, -0.06840458512306213, 0.019410477951169014, 0.05239789932966232, -0.04385959729552269, 0.11734345555305481, 0.041335880756378174, 0.016925089061260223, 0.016483785584568977, 0.05995538458228111, 0.02418818324804306, -0.09746106714010239, 0.08593589812517166, -0.03554394468665123, -0.06005054712295532, 0.08820831775665283, -0.020606040954589844, 0.0262856874614954, 0.04242262989282608, -0.07513552904129028, 0.012026090174913406, -0.08497977256774902, 0.05360359326004982, -0.016393855214118958, 0.006963880266994238, 0.06799156963825226, -0.06311877071857452, 0.04823896288871765, 0.08271420001983643, -0.0863647386431694, 0.06306692212820053, -0.06799253076314926, -0.078896664083004, 0.07778340578079224, -0.06728001683950424, 0.08731016516685486, -0.07082029432058334, 0.033027052879333496, -0.04348776489496231], [0.087107814848423, -0.02668023481965065, -0.09816411137580872, 0.008638213388621807, 0.02845759503543377, -0.04716950282454491, -0.01659999042749405, 0.056381143629550934, -0.04653439298272133, -0.02812267653644085, -0.00932169146835804, -0.09453710913658142, 0.03641509264707565, -0.06609319895505905, 0.11244446039199829, -0.04046529904007912, -0.031342219561338425, -0.08063075691461563, -0.07133848965167999, 0.045495014637708664, 0.04630168154835701, 0.017307108268141747, 0.03595496714115143, 0.08038567006587982, -0.03809164837002754, 0.010630321688950062, 0.043089427053928375, 0.057617831975221634, 0.04973885416984558, 0.06899610161781311, 0.013013752177357674, 0.059173330664634705, 0.018672894686460495, 0.0103260213509202, 0.05287885665893555, -0.017841394990682602, -0.0523281991481781, 0.049175068736076355, -0.088991679251194, 0.054346974939107895, 0.047161757946014404, -0.11007804423570633, -0.03338170424103737, 0.016933828592300415, 0.008949319832026958, 0.08262311667203903, -0.015478791669011116, -0.009139424189925194, -0.08816660940647125, 0.04026052728295326, 0.007967413403093815, 0.05847819894552231, -0.054182153195142746, -0.10830177366733551, -0.07478964328765869, -0.06325409561395645, 0.07563379406929016, 0.013481792993843555, 0.06098247319459915, 0.05431557446718216, 0.06200670078396797, -0.00025759165873751044, -0.09277511388063431, 0.010961974039673805, -0.05036882311105728, -0.0547662116587162, 0.019432108849287033, -0.04027441516518593, -0.018169768154621124, 0.02358909137547016, -0.037007544189691544, -0.10501396656036377, -0.0821639895439148, -0.12289336323738098, 0.044885002076625824, -0.028251711279153824, 0.03470832481980324, 0.038611382246017456, -0.011192122474312782, 0.0849604383111, -0.0015488920034840703, 0.06492122262716293, -0.09503120929002762, 0.021427588537335396, -0.08607084304094315, 0.03558110445737839, 0.035068027675151825, -0.06901493668556213, 0.06259402632713318, -0.10999298095703125, -0.011490182019770145, 0.003236986929550767, -0.01161734014749527, -0.06239127367734909, 0.09052824974060059, -0.03292194753885269, -0.047565758228302, -0.060442183166742325, 0.09584192931652069, 0.03678833320736885], [-0.038265228271484375, 0.04991081357002258, 0.03442112356424332, -0.05372929945588112, -0.024304158985614777, -0.034030791372060776, 0.12004189193248749, -0.05085698887705803, 0.09010393917560577, -0.04014241322875023, -0.05634143203496933, -0.006315197329968214, -0.05140544846653938, 0.040072061121463776, 0.012799790129065514, 0.08796124160289764, 0.060698144137859344, 0.06260691583156586, 0.06912940740585327, -0.08109802007675171, 0.06817283481359482, -0.06408592313528061, -0.05766727775335312, 0.022772865369915962, -0.022495649755001068, -0.03504243865609169, -0.07536698132753372, -0.03758765757083893, -0.057032544165849686, -0.0796305388212204, 0.05278792977333069, -0.09710301458835602, 0.10033690184354782, 0.011916271410882473, -0.055667027831077576, -0.09457433223724365, -0.01224560383707285, -0.08587449789047241, -0.04421791806817055, 0.06334754079580307, -0.04326587915420532, 0.039017435163259506, -0.05248858034610748, -0.09655066579580307, 0.0036453346256166697, -0.010616579093039036, 0.05917524918913841, 0.017392169684171677, -0.015583014115691185, -0.07394615560770035, -0.0680631548166275, 0.031767185777425766, -0.03563273698091507, -0.033404599875211716, -0.03554461523890495, -0.0007902407087385654, -0.07387732714414597, 0.07919330149888992, -0.028641996905207634, 0.051767852157354355, 0.007089079823344946, -0.03620006889104843, 0.008072741329669952, 0.05220211669802666, 0.014970379881560802, -0.06427324563264847, -0.05901282653212547, -0.05444809049367905, 0.09561073035001755, -0.011797643266618252, -0.03767729550600052, -0.01880376599729061, 0.00424181716516614, -0.09996620565652847, -0.02993970736861229, -0.09644033759832382, -0.0027547874487936497, -0.037637531757354736, 0.018176639452576637, -0.03246750310063362, 0.04658495634794235, 0.07986383885145187, 0.012747912667691708, -0.029966237023472786, -0.0017644299659878016, 0.0065760305151343346, 0.05114046484231949, -0.01755114644765854, -0.043305207043886185, -0.013620851561427116, -0.017220389097929, -0.08424365520477295, 0.026988916099071503, 0.028028693050146103, -0.07787282764911652, -0.028042210265994072, 0.0036486219614744186, 0.10439731180667877, 0.0679175853729248, 0.07878851890563965], [-0.00890458282083273, 0.03961788862943649, 0.04961346834897995, -0.03891071304678917, 0.004744239617139101, -0.01687467470765114, -0.0922088697552681, 0.0763050988316536, -0.08300556987524033, -0.0955219641327858, 0.10260294377803802, 0.00033145141787827015, -0.04826934635639191, 0.06183718889951706, -0.026621142402291298, 0.07326402515172958, 0.08930704742670059, -0.04281710460782051, 0.05309831351041794, -0.08740275353193283, -0.04675284028053284, -0.05233810096979141, 0.005029889754951, 0.09573812037706375, -0.020848233252763748, 0.06196224316954613, 0.03820182755589485, -0.04037908464670181, 0.07831171154975891, -0.00791233591735363, -0.01221243105828762, 0.04456580430269241, -0.004315156489610672, -0.02057943493127823, -0.06443256884813309, 0.06699413806200027, 0.05194003880023956, 0.0970115065574646, -0.052640825510025024, 0.06306806951761246, -0.0727212056517601, 0.045480068773031235, -0.04643453285098076, -0.09813788533210754, -0.029467623680830002, -0.057597097009420395, -0.009936712682247162, 0.02022160030901432, -0.09317157417535782, -0.027879655361175537, 0.017425287514925003, -0.08791173994541168, 0.05184706673026085, 0.049398042261600494, -0.013130891136825085, -0.038800738751888275, 0.022017352283000946, -0.031672462821006775, -0.07512273639440536, -0.0075995661318302155, -0.034976642578840256, 0.1281202733516693, -0.08729316294193268, 0.08057761937379837, -0.049568384885787964, 0.021710284054279327, -0.051323302090168, -0.05537378415465355, -0.07903880625963211, 0.11307953298091888, -0.08302988111972809, -0.019788667559623718, 0.10781542956829071, -0.10028523206710815, -0.029400160536170006, -0.09359350055456161, 0.0928247943520546, 0.03763449192047119, 0.019628459587693214, -0.08077730238437653, -0.05666842684149742, 0.09351331740617752, -0.023805581033229828, -0.067838653922081, 0.013256985694169998, -0.07139852643013, -0.06465401500463486, 0.10521001368761063, -0.01258010882884264, 0.010139568708837032, -0.027089856564998627, 0.004273089114576578, 0.021291472017765045, -0.0229767095297575, 0.037838585674762726, 0.07114136964082718, 0.0496470145881176, -0.09697427600622177, 0.06918559223413467, -0.09104255586862564], [0.050760768353939056, -0.0023361227940768003, 0.04823489114642143, -0.05897388607263565, -0.08448455482721329, -0.024675333872437477, 0.08062227070331573, 0.014835071749985218, 0.015150010585784912, 0.005366099067032337, 0.044035907834768295, -0.044707346707582474, -0.057859767228364944, -0.004864049144089222, 0.02195492386817932, 0.07158506661653519, 0.0014088749885559082, 0.027319515123963356, 0.06327923387289047, 0.0654236227273941, 0.059212565422058105, 0.07786863297224045, -0.0226400475949049, -0.07067667692899704, -0.026827072724699974, -0.06092347949743271, -0.03361033275723457, -0.09084846824407578, -0.07218404114246368, 0.07217898219823837, 0.06555713713169098, -0.06804171949625015, 0.014345991425216198, 0.059463050216436386, -0.02147560566663742, -0.09735981374979019, -0.02006400004029274, -0.0702618956565857, -0.028308246284723282, -0.03872521221637726, -0.004297712352126837, -0.08486153930425644, -0.09879529476165771, -0.017991675063967705, -0.07026513665914536, 0.06225801259279251, 0.00607455987483263, -0.04064294323325157, -0.0033973618410527706, -0.0724901631474495, 0.032086245715618134, 0.04478197917342186, 0.10615633428096771, 0.08596015721559525, 0.06584709137678146, -0.03950775787234306, -0.05455416440963745, 0.08401171863079071, -0.0009467186173424125, 0.006972202565521002, -0.05300253629684448, -0.07435136288404465, -0.08871394395828247, 0.05402141809463501, 0.10505875200033188, -0.07878255099058151, 0.06579416245222092, -0.061344340443611145, 0.021709494292736053, -0.027663415297865868, -0.023120833560824394, -0.01336132362484932, -0.03300360217690468, -0.09168662130832672, -0.05841289460659027, 0.02981930784881115, -0.09857683628797531, 0.010288371704518795, -0.10227211564779282, -0.05534703657031059, 0.07039771974086761, 0.06188270077109337, 0.03560624644160271, 0.025618182495236397, 0.02663598768413067, 0.10306677967309952, -0.0712810680270195, 0.06744484603404999, 0.04494787007570267, 0.0280691497027874, 0.02286677435040474, 0.037579428404569626, 0.08124544471502304, 0.08255636692047119, -0.04845241457223892, 0.08566141873598099, 0.0882929265499115, -0.043211571872234344, 0.003250514157116413, 0.07316335290670395], [0.029655572026968002, -0.008091075345873833, 0.00045279867481440306, -0.06981664896011353, 0.03409338742494583, 0.03222077712416649, 0.010313741862773895, 0.005031486041843891, -0.08299031108617783, -0.05466574802994728, -0.06725587695837021, -0.040033407509326935, -0.06130398437380791, 0.007008439861238003, 0.0011858914513140917, -0.0032679850701242685, 0.11375889182090759, -0.09711406379938126, -0.07168454676866531, 0.09443412721157074, -0.06778576970100403, -0.09047561883926392, -0.07282703369855881, 0.07518333941698074, -0.0037933960556983948, 0.047997768968343735, -0.07862100750207901, 0.045316703617572784, 0.056687332689762115, -0.08531052619218826, 0.04122772067785263, -0.06769081205129623, -0.08080446720123291, -0.0018344842828810215, 0.09204568713903427, 0.03780997917056084, -0.09519390016794205, 0.08449734002351761, -0.022768257185816765, 0.046870797872543335, 0.022075818851590157, 0.019643399864435196, 0.07532097399234772, 0.012158604338765144, 0.05280962213873863, 0.06398970633745193, 0.04469529166817665, 0.06899082660675049, -0.02410622127354145, -0.07762310653924942, 0.0834161639213562, -0.08134972304105759, 0.09317177534103394, 0.05913369730114937, 0.05776095762848854, 0.03562317416071892, -0.02580592781305313, 0.06302252411842346, -0.03132172301411629, 0.08258801698684692, 0.005507889203727245, 0.05034654214978218, 0.02905486710369587, -0.03802836686372757, 0.08350074291229248, 0.04535764083266258, 0.08220957219600677, 0.022897550836205482, -0.025828145444393158, 0.06376569718122482, -0.07273322343826294, 0.046017423272132874, -0.01631174236536026, 0.057415422052145004, 0.037695012986660004, -0.011216097511351109, -0.08077364414930344, 0.017714805901050568, -0.01895316131412983, 0.035109855234622955, 0.01988142356276512, -0.05534027889370918, -0.03393443673849106, 0.10345618426799774, -0.05975872278213501, 0.009423545561730862, -0.04464670643210411, 0.022950349375605583, 0.007272856775671244, 0.10230701416730881, -0.003788299160078168, -0.027422720566391945, 0.05053826794028282, -0.07472557574510574, -0.06600352376699448, 0.05819248780608177, 0.07427265495061874, -0.02741636335849762, -0.016316937282681465, 0.05240122228860855], [-0.08719884604215622, 0.02738036960363388, -0.08150594681501389, 0.04351000115275383, 0.05333203449845314, -0.06048381328582764, -0.023203205317258835, 0.013755026273429394, 0.0638127252459526, 0.07621005177497864, 0.013355087488889694, 0.016016408801078796, 0.08037704974412918, -0.01193604152649641, -0.09154362976551056, 0.05504466965794563, -0.035141292959451675, 0.09779622405767441, -0.08940638601779938, 0.0416007898747921, -0.03803671896457672, -0.05142001062631607, -0.06997276842594147, 0.04804409295320511, 0.05765288695693016, -0.02155071124434471, -0.09763925522565842, -0.09268400073051453, 0.0834142193198204, -0.06418740749359131, -0.0975247323513031, -0.07124599069356918, 0.004367923829704523, -0.01772294007241726, -0.049563705921173096, 0.022622788324952126, -0.013123074546456337, -0.011395019479095936, 0.04419177398085594, -0.020245138555765152, 0.053256191313266754, -0.03564279526472092, -0.0407283790409565, 0.014041404239833355, -0.09169568121433258, 0.03745996952056885, -0.09120722115039825, -0.0792493149638176, -0.07729639858007431, -0.055158086121082306, 0.010874318890273571, 0.03914614021778107, 0.028722213581204414, -0.053285740315914154, -0.013960284180939198, -0.012319575063884258, 0.007446718402206898, -0.0653465986251831, -0.0810825377702713, 0.048275113105773926, -0.02570558339357376, 0.04873856157064438, -0.03478769212961197, 0.05249945819377899, -0.07659008353948593, -0.027547014877200127, -0.09164754301309586, 0.053487326949834824, -0.08665388077497482, 0.018428156152367592, 0.025092927739024162, -0.031174933537840843, 0.06673789024353027, 0.04082407057285309, 0.024455178529024124, 0.04156968742609024, -0.08722566813230515, 0.0490497462451458, 0.07803686708211899, 0.02771209552884102, -0.021670186892151833, -0.09520044177770615, 0.056674566119909286, 0.08925153315067291, -0.09298360347747803, -0.05868789181113243, 0.03465947136282921, -0.08441700786352158, 0.033733971416950226, -0.003322780132293701, 0.034779973328113556, 0.09945695102214813, -0.03088238276541233, 0.08668257296085358, 0.05321797728538513, 0.027610111981630325, 0.03152667358517647, 0.010916734114289284, -0.02009958028793335, -0.09825616329908371], [-0.017026878893375397, 0.026845714077353477, -0.046534668654203415, -0.05443422868847847, -0.04788637161254883, -0.062246594578027725, 0.00011598999844864011, 0.09387106448411942, -0.06301774084568024, -0.05508963018655777, 0.008335544727742672, -0.006551044527441263, 0.007297287695109844, -0.07804255932569504, -0.056758712977170944, -0.047527264803647995, -0.009629698470234871, 0.019241515547037125, 0.026199504733085632, 0.036970894783735275, 0.009225849993526936, -0.05240350961685181, 0.05001002922654152, 0.07372394949197769, -0.07057664543390274, -0.08502177149057388, -0.07521077245473862, -0.01016595121473074, 0.04030068591237068, -0.057589441537857056, 0.03406188637018204, 0.08844904601573944, -0.05723915249109268, 0.04730749875307083, -0.062011562287807465, -0.00596723472699523, 0.02641192637383938, -0.02904409170150757, -0.029854068532586098, -0.041500337421894073, -0.009372822009027004, -0.024633781984448433, 0.030953658744692802, 0.06916996836662292, -0.025498438626527786, -0.033872317522764206, -0.06371495127677917, 0.06278850138187408, 0.07597866654396057, -0.081380195915699, -0.014925742521882057, -0.07237216830253601, -0.05092760920524597, 0.0307948999106884, -0.09834480285644531, 0.04792251065373421, -0.005960394628345966, -0.022413870319724083, 0.00963082816451788, 0.06144169345498085, -0.09504631906747818, -0.010309452190995216, -0.07712888717651367, -0.002360206563025713, -0.07906658202409744, 0.05268359184265137, 0.09498156607151031, -0.04072709009051323, -0.027940215542912483, -0.04023794084787369, 0.07641928642988205, -0.026021752506494522, -0.023929476737976074, 0.09213902801275253, 0.035293810069561005, -0.022097086533904076, -0.08085425943136215, -0.03018791787326336, -0.010481655597686768, 0.021348441019654274, -0.07442104071378708, 0.05075749382376671, -0.02536625973880291, -0.02347283437848091, -0.08704431354999542, -0.06782809644937515, 0.01542363315820694, 0.019749833270907402, -0.0914667621254921, 0.07400809973478317, -0.07368254661560059, -0.09239785373210907, -0.06852902472019196, 0.08970032632350922, 0.03955573961138725, -0.059470534324645996, -0.07354629039764404, -0.00408824672922492, 0.07408250868320465, 0.02821218967437744], [-0.06993531435728073, 0.02669593133032322, -0.054160162806510925, -0.02117816172540188, 0.011013216339051723, 0.07084984332323074, -0.032255806028842926, 0.013608579523861408, 0.06467903405427933, 0.02523869462311268, -0.028703585267066956, 0.019695185124874115, -0.04598133638501167, -0.07464034855365753, 0.014553031884133816, 0.039576951414346695, 0.1185615286231041, -0.023160144686698914, -0.07226467877626419, 0.028944047167897224, 0.02562769502401352, 0.01567489095032215, -0.023588329553604126, -0.0767446905374527, 0.020800694823265076, 0.016516145318746567, -0.041730884462594986, -0.003343130461871624, -0.008728552609682083, -0.03891808167099953, 0.060861390084028244, -0.07298244535923004, -0.00047347546205855906, -0.07117538899183273, 0.015134991146624088, 0.09619983285665512, -0.05821938440203667, 0.013576566241681576, -0.012484146282076836, 0.0560171939432621, -0.06130664423108101, -0.014660060405731201, 0.0973484143614769, -0.08277028053998947, 0.04334854707121849, 0.05256323888897896, -0.018991876393556595, 0.0454251803457737, -0.040494274348020554, -0.055227916687726974, -0.07511544227600098, 0.026515429839491844, 0.12291117012500763, 0.04078279063105583, -0.04904698207974434, -0.07803678512573242, -0.04573516920208931, 0.08085807412862778, 0.011760895140469074, 0.07698637247085571, 0.03183818235993385, -0.07085367292165756, 0.07228714972734451, 0.0953398048877716, -0.04112908989191055, -0.05212769657373428, -0.028840338811278343, -0.007495009806007147, -0.020794128999114037, 0.0428956039249897, -0.0579327829182148, -0.029704857617616653, 0.1270076185464859, -0.061417367309331894, 0.042682159692049026, -0.05864070728421211, -0.006011688616126776, 0.07329332083463669, 0.07874379307031631, 0.04571802541613579, -0.0027078669518232346, 0.056653883308172226, 0.06900850683450699, 0.015159279108047485, -0.06318791955709457, -0.06297343224287033, 0.0317063108086586, 0.0018609166145324707, -0.09629076719284058, -0.028225887566804886, 0.012308533303439617, -0.0416949987411499, 0.048011887818574905, 0.08104994148015976, 0.06008177250623703, 0.04961169883608818, 0.06682129949331284, 0.021510040387511253, -0.04262484237551689, -0.03509623929858208], [0.022860145196318626, 0.07532989233732224, 0.06647191196680069, 0.01829853095114231, -0.029605114832520485, 0.006671135313808918, -0.01474691554903984, -0.00019872245320584625, 0.07861755043268204, -0.07687224447727203, -0.05709215626120567, 0.0427536703646183, -0.008191336877644062, -0.06132921203970909, -0.057733919471502304, 0.01805092766880989, -0.08725535124540329, -0.06037101894617081, 0.04308551922440529, 0.05773976445198059, -0.07108314335346222, -0.025035560131072998, 0.042157355695962906, 0.04321397468447685, -0.015148156322538853, -0.07013410329818726, -0.017772246152162552, -0.07358560711145401, -0.07663434743881226, 0.09079749137163162, -0.013065379112958908, 0.042344629764556885, -0.09521341323852539, -0.03412216901779175, 0.09586130827665329, 0.03180503845214844, 0.05373773351311684, -0.04476580768823624, -0.0038336205761879683, -0.08429340273141861, -0.07943518459796906, -0.0838804841041565, 0.05246541649103165, 0.09311039000749588, -0.07399957627058029, 0.05499300733208656, 0.06424933671951294, 0.013893558643758297, -0.0856013149023056, 0.10245050489902496, -0.06629934161901474, -0.04895429685711861, -0.009590372443199158, -0.06834082305431366, -0.02507912367582321, -0.0017368681728839874, -0.014451118186116219, 0.017904609441757202, 0.03146951273083687, 0.027919918298721313, -0.04908083751797676, 0.03421282395720482, 0.024933254346251488, 0.07237004488706589, -0.08849947154521942, 0.05039793625473976, 0.04378063231706619, -0.08830928802490234, -0.08135504275560379, -0.10056395828723907, 0.012434828095138073, 0.0628325343132019, -0.06005410850048065, -0.02015264332294464, -0.009358398616313934, 0.05958139896392822, 0.0679202601313591, -0.043941035866737366, 0.05977315455675125, -0.06020567566156387, 0.050681907683610916, 0.020472871139645576, -0.07342777401208878, -0.08532198518514633, 0.016684439033269882, -0.012910950928926468, 0.05198012292385101, -0.013286858797073364, -0.06424888223409653, 0.021899159997701645, -0.034564148634672165, -0.003914575558155775, 0.09763878583908081, 0.05765325948596001, -0.004008521791547537, -0.030927617102861404, 0.09124285727739334, -0.01733478531241417, 0.06280398368835449, -0.030700314790010452], [-0.024897608906030655, 0.060245659202337265, -0.02548849768936634, 0.02254735305905342, 0.05505739897489548, -0.08666563034057617, 0.06975088268518448, -0.012816466391086578, 0.11946111172437668, -0.021716952323913574, 0.04060312360525131, 0.030639486387372017, 0.01042248960584402, 0.03293008357286453, 0.13068486750125885, -0.08278559148311615, -0.002987702377140522, -0.0015962483594194055, -0.07425595074892044, -0.04789217934012413, 0.07732579857110977, -0.042802147567272186, 0.0441427007317543, -0.07985108345746994, -0.08288182318210602, 0.02387571893632412, -0.0593586266040802, 0.08787186443805695, -0.006895835045725107, -0.06011096015572548, -0.04878789559006691, 0.07631053030490875, 0.01749633252620697, -0.02311619557440281, 0.06450998783111572, 0.004551403224468231, -0.007875666953623295, 0.040973830968141556, 0.04022403806447983, 0.01552191749215126, 0.03716311231255531, 0.006891533266752958, 0.07332709431648254, -0.07196477055549622, -0.043690185993909836, 0.03501839563250542, -0.026668252423405647, -0.10099701583385468, 0.07932788133621216, -0.020882731303572655, -0.10362976044416428, -0.03258577361702919, 0.034435562789440155, -0.06844057142734528, -0.0072954632341861725, 0.03362232446670532, 0.032022327184677124, -0.07024627923965454, 0.02142459712922573, 0.06931008398532867, -0.015889545902609825, -0.04676147550344467, 0.11434229463338852, -0.037292495369911194, 0.03737954422831535, -0.030496608465909958, -0.051872070878744125, 0.04518422484397888, 0.06444402039051056, -0.025205977261066437, -0.07424549013376236, 0.021867403760552406, -0.0808374360203743, 0.020316679030656815, -0.08728368580341339, -0.09901733696460724, -0.023956693708896637, 0.006570869591087103, -0.00016466564557049423, 0.009160245768725872, 0.03340674564242363, 0.014203125610947609, 0.034715816378593445, 0.024138610810041428, -0.05723511800169945, -0.04615488275885582, 0.03770224750041962, -0.050263479351997375, 0.013602453283965588, -0.02745286375284195, -0.003204858396202326, 0.05601441115140915, 0.07423867285251617, -0.010490412823855877, 0.0634273886680603, -0.06396783888339996, 0.07751253992319107, 0.05392792820930481, 0.08378992229700089, 0.09608212858438492], [0.08996860682964325, 0.04281947761774063, -0.015062558464705944, -0.06476937979459763, -0.03405578061938286, -0.015479935333132744, -0.07107982039451599, 0.03577346354722977, -0.06254187971353531, -0.021072296425700188, -0.07609541714191437, 0.029368096962571144, 0.09493139386177063, -0.062711700797081, -0.005698096938431263, 0.034621547907590866, 0.08004206418991089, 0.0746113583445549, -0.01904299296438694, 0.024880511686205864, 0.05137750878930092, 0.02610575594007969, 0.015459137037396431, 0.046238675713539124, -0.0342353954911232, 0.0329054594039917, -0.06752002239227295, 0.025137469172477722, 0.04302637279033661, -0.04558670520782471, 0.05662914365530014, 0.08401845395565033, 0.03371409326791763, 0.10879136621952057, -0.06852419674396515, -0.02818896435201168, -0.061474572867155075, -0.004650007002055645, 0.012790974229574203, -0.009331612847745419, 0.07195419818162918, 0.0068775080144405365, 0.04912826418876648, 0.0214960016310215, 0.03723929822444916, -0.08521206676959991, -0.05101870000362396, 0.012369530275464058, 0.026580648496747017, 0.09204612672328949, -0.03237834572792053, -0.05655571073293686, -0.06353169679641724, 0.013504431582987309, 0.013406401500105858, 0.034340374171733856, 0.02974688448011875, -0.021152719855308533, -0.02894212119281292, 0.0825008675456047, -0.08477634936571121, -0.0009783589048311114, 0.08257440477609634, -0.09902816265821457, -0.029157763347029686, -0.03485555201768875, -0.018493903800845146, -0.10977578163146973, -0.06223021820187569, -0.08852507919073105, 0.032712776213884354, 0.060235992074012756, -0.002644543768838048, 0.03389611095190048, -0.013112598098814487, -0.05872397869825363, -0.03608861193060875, 0.05815654247999191, -0.027814630419015884, 0.03342464938759804, 0.07559642195701599, -0.10542811453342438, -0.0370425283908844, 0.050960782915353775, -0.0959939956665039, -0.07058113813400269, -0.013139921240508556, 0.0428273044526577, -0.06411492079496384, -0.08900630474090576, -0.008289092220366001, 0.04438716173171997, -0.016938282176852226, 0.020857414230704308, -0.07985853403806686, -0.022035107016563416, 0.006557083688676357, 0.04160395264625549, 0.060372062027454376, -0.058524299412965775], [-0.05867501720786095, 0.024460921064019203, 0.05571674555540085, -0.0057963477447628975, 0.015774037688970566, 0.050893232226371765, 0.0534164160490036, 0.057709455490112305, -0.03703935444355011, 0.05431954190135002, 0.12984079122543335, 0.03880747780203819, -0.0013243029825389385, 0.09003870189189911, -0.03295547515153885, -0.004529808647930622, -0.05393196642398834, 0.07408067584037781, -0.018952324986457825, 0.03652624785900116, 0.025866538286209106, -0.013746405951678753, 0.01652408204972744, -0.03956441953778267, -0.014438627287745476, 0.08562581986188889, -0.10664749145507812, 0.10622727125883102, 0.04845701530575752, -0.09452264755964279, 0.06029349938035011, -0.04436764866113663, 0.0806332603096962, -0.058608528226614, 0.039487674832344055, -0.027118589729070663, 0.07977528870105743, -0.01133333332836628, -0.08717066794633865, -0.05446695536375046, -0.0757032036781311, -0.09108616411685944, -0.04871264100074768, -0.022274207323789597, -0.11593489348888397, -0.0051805125549435616, 0.04741041734814644, -0.011184679344296455, -0.06540762633085251, -0.02282392792403698, -0.04238506779074669, -0.08307923376560211, 0.08956066519021988, -0.07781479507684708, 0.015446338802576065, -0.067775659263134, 0.06384696066379547, -0.04686911404132843, 0.04017696529626846, -0.04503285512328148, 0.02109871432185173, -0.023037809878587723, 0.03529835492372513, 0.07916427403688431, -0.05613195151090622, -0.07369932532310486, -0.07546453177928925, -0.041939713060855865, -0.01261664554476738, -0.05223994329571724, 0.02797425352036953, -0.0019261481938883662, 0.07567346096038818, 0.08041034638881683, 0.08938311040401459, 0.08001270890235901, 0.028670670464634895, 0.04035225883126259, 0.047854747623205185, -0.00521864602342248, 0.016423970460891724, 0.00863074604421854, -0.032754309475421906, -0.043814171105623245, -0.10176093876361847, 0.1124114990234375, -0.005220719147473574, 0.025410814210772514, -0.06589847058057785, 0.04211828112602234, -0.026334965601563454, 0.029947204515337944, -0.07034603506326675, 0.08542369306087494, 0.002625194378197193, -0.08126647770404816, -0.0021204182412475348, -0.060735441744327545, -0.04807494208216667, -0.08000143617391586], [-0.027852462604641914, -0.066871777176857, 0.04056267812848091, -0.09601499140262604, 0.020686442032456398, 0.008219614624977112, -0.07729315012693405, -0.09117574989795685, 0.1036822572350502, 0.03278820961713791, -0.016016442328691483, -0.07336024940013885, -0.04720837250351906, 0.004519033711403608, -0.0391341857612133, -0.0012258489150553942, 0.09625192731618881, -0.08316828310489655, -0.07873141020536423, -0.025905808433890343, 0.049074869602918625, -0.07703850418329239, -0.07935482263565063, -0.03266222029924393, -0.0977516919374466, -0.023222245275974274, 0.06703602522611618, 0.10482867062091827, -0.09699046611785889, 0.03419546037912369, 0.0045641567558050156, -0.0639527440071106, -0.03747320547699928, 0.09183716773986816, -0.017632460221648216, 0.01437606941908598, -0.07472869008779526, 0.07267189025878906, -0.07968389987945557, -0.01360618881881237, 0.05596106871962547, -0.009528099559247494, 0.07704147696495056, -0.03339493274688721, 0.08853374421596527, -0.05651189014315605, -0.024784695357084274, 0.00027684593806043267, 0.07332778722047806, 0.04437139257788658, -0.020876696333289146, 0.020191047340631485, 0.06124192476272583, -0.02770775556564331, 0.07494980096817017, 0.007878162898123264, 5.546185639104806e-05, -0.028400450944900513, -0.10223816335201263, 0.03905836492776871, -0.005130591802299023, -0.019387317821383476, 0.0640089213848114, 0.031310565769672394, -0.00023773167049512267, -0.036215707659721375, -0.009651102125644684, -0.07087556272745132, 0.02948346547782421, 0.07989685237407684, 0.018121950328350067, -0.08404918015003204, 0.08860283344984055, -0.10152255743741989, -0.09021050482988358, -0.08909701555967331, -0.034881893545389175, -0.04097794368863106, 0.043773774057626724, -0.06398532539606094, -0.07068643718957901, -0.08276162296533585,