{"1.weight": [[0.019623467698693275, 0.11827078461647034, -0.011883123777806759, 0.09537549316883087, 0.07662778347730637, 0.1392064392566681, 0.024964893236756325, 0.037542544305324554, -0.023235023021697998, -0.043224092572927475, -0.08564817905426025, -0.06519459933042526, -0.06709235906600952, -0.006697855424135923, -0.11893833428621292, 0.04713780805468559, -0.006740089971572161, 0.029289335012435913, -0.07990728318691254, 0.05226517468690872, -0.07569728791713715, -0.06744036823511124, 0.21697527170181274, 0.07818853110074997, 0.04349576309323311, -0.031348831951618195, 0.08050066232681274, -0.007302565034478903, -0.08598871529102325, -0.046126335859298706, 0.04938043653964996, -0.0017501707188785076, -0.13752630352973938, 0.09218748658895493, -0.08954210579395294, -0.03134490177035332, 0.01750054769217968, 0.0825285091996193, -0.06504307687282562, 0.12608245015144348, 0.17136377096176147, -0.05971008166670799, -0.0754140093922615, -0.15300440788269043, -0.08236410468816757, -0.04632852226495743, 0.2839064300060272, 0.17505104839801788, 0.07348193228244781, 0.3191375732421875, 0.13156870007514954, 0.25657662749290466, -0.041614238172769547, -0.1381889134645462, -0.10805030167102814, -0.1925627887248993, 0.030607495456933975, 0.021696677431464195, -0.08688358217477798, -0.052162256091833115, 0.01400074828416109, 0.21379029750823975, -0.052315033972263336, -0.058067336678504944, -0.13025543093681335, -0.17723433673381805, 0.12330254912376404, -0.08506330847740173, 0.008591899648308754, 0.11986076831817627, 0.05230279266834259, -0.12306074798107147, 0.022296983748674393, 0.1087290421128273, -0.0619979128241539, -0.16301706433296204, 0.08862367272377014, 0.020464181900024414, 0.008345654234290123, -0.10771457850933075, -0.14492827653884888, -0.09449263662099838, -0.08133043348789215, -0.02679997682571411, -0.05570308491587639, -0.12776044011116028, -0.012891292572021484, 0.06836675107479095, 0.10040777921676636, 0.11287567019462585, 0.11922678351402283, 0.12509523332118988, 0.12475993484258652, 0.007084750570356846, 0.021593395620584488, -0.12992140650749207, -0.11386638134717941, -0.14238619804382324, -0.03654756769537926, -0.07626236975193024], [-0.07765647768974304, -0.09745374321937561, 0.10957060754299164, -0.05226021632552147, -0.03957897052168846, 0.26339587569236755, -0.03453708440065384, -0.06535597145557404, -0.02418695203959942, 0.03440885245800018, -0.14443576335906982, -0.011659285984933376, -0.07582969963550568, 0.12805922329425812, 0.048922937363386154, -0.07998716831207275, 0.12106988579034805, -0.009898101910948753, -0.012128329835832119, -0.014642493799328804, -0.10338679701089859, -0.007276818156242371, 0.05061239376664162, 0.10070483386516571, -0.0858735516667366, 0.14530715346336365, -0.11100483685731888, -0.09601780772209167, 0.04210924729704857, -0.05211586132645607, -0.06358230859041214, -0.022876201197504997, -1.370333666272927e-05, -0.09818851202726364, 0.07331761717796326, 0.03371083363890648, -0.10583020746707916, -0.030367160215973854, 0.134301096200943, 0.03723669797182083, -0.0779958963394165, 0.03689569979906082, -0.0785328671336174, -0.11297875642776489, -0.017765499651432037, 0.057474493980407715, 0.0038645442109555006, 0.011407401412725449, 0.10681510716676712, -0.008453295566141605, -0.11714083701372147, -0.002303813584148884, -0.05371313542127609, -0.09288299083709717, -0.10859592258930206, 0.05958283692598343, 0.06884633749723434, -0.034452103078365326, -0.03187551721930504, 0.05809943005442619, -0.1009666845202446, -0.11465738713741302, 0.03400227800011635, 0.00774421077221632, 0.0412025973200798, 0.024339839816093445, -0.10014331340789795, 0.13418534398078918, 0.07804032415151596, -0.07770226150751114, 0.016537753865122795, 0.08015529066324234, 0.09766814857721329, -0.026814233511686325, -0.022611219435930252, -0.07170622050762177, -0.053253524005413055, 0.17196986079216003, 0.022697845473885536, 0.01321322936564684, -0.09289440512657166, 0.27371102571487427, 0.03163396567106247, 0.12001222372055054, -0.024895373731851578, -0.18315903842449188, -0.042887743562459946, -0.11450313776731491, 0.055450256913900375, -0.057662442326545715, -0.022183747962117195, -0.0427071638405323, 0.08434733003377914, -0.0879177525639534, -0.05630933865904808, -0.009703421965241432, 0.07017286866903305, 0.03313880413770676, -0.11233294755220413, -0.12629681825637817], [0.03318480774760246, 0.061960913240909576, 0.03243338316679001, 0.004311039578169584, 0.0015386713203042746, -0.05638664960861206, 0.10759593546390533, -0.06052710860967636, 0.013761586509644985, -0.04510870575904846, 0.028857078403234482, 0.006951920688152313, -0.05270329490303993, 0.13614238798618317, 0.15443426370620728, 0.09787123650312424, -0.04493560269474983, -0.051412709057331085, 0.07024198025465012, 0.15128116309642792, -0.013637477532029152, -0.12315870076417923, 0.04632760211825371, 0.03842904418706894, 0.08161138743162155, 0.112270288169384, 0.11759576946496964, 0.011583223938941956, 0.08316788077354431, 0.2702234983444214, -0.0328364335000515, -0.10581677407026291, 0.15675616264343262, 0.038551755249500275, 0.03518718108534813, -0.1650935411453247, 0.044121649116277695, -0.036770049482584, 0.13908104598522186, -0.0027163056656718254, -0.10379721224308014, 0.09984364360570908, 0.003947950899600983, -0.16149954497814178, 0.04016938805580139, 0.08641689270734787, 0.09021423757076263, 0.15830077230930328, -0.047279343008995056, 0.14347344636917114, -0.15281441807746887, -0.07149326801300049, -0.05481500178575516, -0.09984365105628967, -0.21364837884902954, -0.14872856438159943, 0.17712469398975372, -0.004173291381448507, -0.007565345615148544, 0.04569514840841293, -0.08603401482105255, -0.13776348531246185, -0.11284323036670685, 0.10411267727613449, -0.12781529128551483, 0.02821391262114048, 0.08904389292001724, -0.01692424714565277, 0.01380931306630373, 0.08412651717662811, 0.003652114188298583, 0.041103918105363846, -0.13845989108085632, 0.2999134063720703, -0.11775718629360199, -0.07086700201034546, -0.06295841932296753, 0.10883018374443054, -0.02754020132124424, 0.17010995745658875, -0.06636719405651093, -0.1495550572872162, -0.12490852922201157, -0.05083393678069115, 0.17727215588092804, 0.01943669654428959, 0.1260318011045456, -0.008420388214290142, 0.09828181564807892, 0.11356532573699951, -0.025711126625537872, -0.11431199312210083, -0.014294545166194439, 0.06261526793241501, -0.08026979118585587, 0.04033096134662628, -0.06076880544424057, -0.03514502942562103, 0.03103768080472946, -0.004495583008974791], [-0.12388581782579422, 0.029376797378063202, -0.07536887377500534, 0.10023344308137894, -0.06517656147480011, -0.14299292862415314, -0.10922566801309586, 0.07299751043319702, -0.09727626293897629, -0.031685322523117065, -0.05553942918777466, -0.004167841747403145, -0.067974753677845, 0.03911827132105827, -0.07080724090337753, 0.13166919350624084, -0.03735780343413353, -0.089605413377285, -0.027971118688583374, 0.06206614524126053, -0.057176392525434494, -0.13065844774246216, -0.09962634742259979, -0.10023602843284607, -0.04034305363893509, -0.045141588896512985, -0.12822532653808594, -0.09955031424760818, 0.04110150784254074, 0.03222670033574104, -0.04069248586893082, -0.11266057193279266, -0.03209112212061882, 0.011810463853180408, 0.13382190465927124, -0.10877779126167297, 0.012019834481179714, -0.0700451210141182, -0.02570025995373726, -0.0665912851691246, 0.11026319861412048, -0.08769890666007996, 0.04593789577484131, -0.052669357508420944, -0.1221582442522049, 0.19144563376903534, -0.09210799634456635, -0.17187276482582092, -0.04346756264567375, -0.054964207112789154, 0.33432596921920776, 0.18249770998954773, -0.09057973325252533, -0.05192592367529869, 0.06321540474891663, -0.11196128278970718, 0.016676751896739006, 0.08414103090763092, -0.019442420452833176, -0.12146002054214478, -0.10843703150749207, 0.1700465828180313, 0.028710659593343735, 0.004000591114163399, 0.026001228019595146, 0.24144698679447174, 0.0586908720433712, 0.02463272586464882, 0.012288550846278667, -0.05367164686322212, -0.029012134298682213, -0.00451500341296196, 0.18552638590335846, 0.05261977016925812, 0.1866365671157837, -0.019897175952792168, 0.12005174905061722, -0.07441530376672745, -0.06624580919742584, -0.10977298021316528, -0.0554598830640316, 0.03766092658042908, 0.009284362196922302, -0.09942936152219772, 0.03201356157660484, 0.019737083464860916, 0.11849475651979446, 0.07372871041297913, -0.04878469556570053, 0.0639229267835617, -0.08454979956150055, -0.033079128712415695, -0.006033970508724451, 0.031286515295505524, -0.04600116237998009, 0.04044393450021744, 0.00718000577762723, -0.012093456462025642, 0.040845006704330444, -0.0027281660586595535], [-0.025380892679095268, -0.1296541392803192, -0.12471873313188553, -0.046534594148397446, -0.09082907438278198, -0.12722544372081757, -0.052041828632354736, 0.02764141745865345, -0.045697472989559174, -0.09868226200342178, -0.015538277104496956, -0.06685934215784073, 0.017410103231668472, -0.07822942733764648, 0.08405352383852005, 0.12511906027793884, 0.05836592614650726, 0.13246826827526093, -0.012786243110895157, -0.05944409593939781, 0.026628898456692696, -0.015762876719236374, -0.015044876374304295, 0.017292270436882973, -0.13956871628761292, 0.07753264158964157, 0.12240704894065857, -0.09289445728063583, 0.029412079602479935, -0.20581573247909546, 0.024033084511756897, -0.0954628735780716, 0.18794496357440948, 0.13361243903636932, 0.014886364340782166, 0.18082749843597412, -0.10699146240949631, 0.05173007771372795, -0.044953230768442154, 0.004376039374619722, 0.013510172255337238, -0.0488952100276947, -0.06746596097946167, -0.03863256797194481, 0.26022204756736755, 0.005127588286995888, 0.07437808811664581, -0.012652050703763962, -0.007509234827011824, -0.06305784732103348, -0.0018800189718604088, -0.10650277882814407, 0.12550665438175201, -0.02480180375277996, 0.07598603516817093, 0.036725834012031555, -0.08076772838830948, 0.13871531188488007, -0.03405746817588806, 0.014918746426701546, -0.04932314157485962, -0.07194429636001587, 0.03465002402663231, 0.1215699091553688, 0.025304051116108894, -0.06448785960674286, 0.0848073810338974, -0.02700456976890564, 0.009572412818670273, 0.13388782739639282, -0.13327006995677948, 0.15127652883529663, 0.1371403932571411, -0.011671130545437336, 0.09586281329393387, -0.13873474299907684, -0.10042093694210052, -0.07048409432172775, 0.059504058212041855, -0.11271502077579498, -0.032163701951503754, -0.0662945881485939, 0.003069880185648799, 0.0628601685166359, 0.008495934307575226, 0.04193072021007538, 0.20587840676307678, -0.0010667754104360938, -0.05210152640938759, 0.06860166043043137, 0.009338775649666786, -0.06307518482208252, -0.10567167401313782, -0.010503635741770267, 0.1644962728023529, -0.0599449947476387, -0.005949057172983885, -0.08793722093105316, 0.1597651243209839, -0.010322271846234798], [0.14768339693546295, 0.06559231877326965, -0.18851099908351898, 0.02362927235662937, -0.12685416638851166, -0.05258742347359657, 0.1338653266429901, 0.23929360508918762, -0.09584660083055496, -0.1198083758354187, -0.003650047816336155, -0.05518799647688866, -0.0821879655122757, 0.006997791584581137, -0.053697407245635986, 0.1382271647453308, -0.1492140144109726, -0.028593488037586212, 0.1683664470911026, -0.08591489493846893, -0.008299744687974453, 0.011147502809762955, -0.036892350763082504, 0.11397881805896759, 0.14695322513580322, 0.17827634513378143, 0.11834006011486053, -0.07320129126310349, -0.06688756495714188, -0.05249134451150894, -0.05630658566951752, 0.0759335458278656, -0.0739130973815918, -0.027898920699954033, 0.048896659165620804, 0.06957010179758072, 0.17742817103862762, -0.11527305096387863, -0.028802089393138885, 0.06421935558319092, 0.021266112104058266, 0.1258627027273178, -0.03068949282169342, -0.012899797409772873, 0.024837985634803772, 0.04958800971508026, -0.03398902714252472, -0.10613635927438736, 0.07093632221221924, -0.1426132470369339, -0.051984697580337524, 0.31095513701438904, 0.10516086220741272, -0.11146137118339539, 0.2515886723995209, -0.013238778337836266, 0.33749309182167053, 0.19085627794265747, 0.0033571862149983644, -0.0009100169991143048, 0.02606835775077343, 0.006163697224110365, 0.014033797197043896, 0.13646458089351654, -0.06761371344327927, 0.1015625, 0.04411648213863373, -0.018032995983958244, 0.32339876890182495, -0.010341826826334, -0.08193714171648026, 0.013984798453748226, 0.057041771709918976, 0.036587074398994446, 0.04008693993091583, -0.12261167168617249, -0.03163986653089523, 0.05388620123267174, -0.029802536591887474, 0.05834731459617615, -0.08265364170074463, 0.0946376621723175, 0.03274694085121155, 0.04855579510331154, 0.07848328351974487, 0.03701840713620186, 0.18176570534706116, -0.03529046103358269, -0.11904407292604446, -0.08379850536584854, -0.08580673485994339, -0.06938415765762329, -0.04892001301050186, -0.08645588159561157, -0.09183923900127411, -0.08943883329629898, 0.05661822855472565, 0.09166201949119568, -0.018325135111808777, 0.09900349378585815], [-0.14161738753318787, -0.05720935016870499, 0.20826950669288635, -0.16212517023086548, -0.04958570376038551, -0.1012241467833519, -0.1706920713186264, -0.10348090529441833, 0.13354960083961487, -0.034069716930389404, -0.03178597614169121, -0.15127092599868774, 0.089753657579422, -0.10594423860311508, -0.05110127106308937, -0.01908491924405098, 0.12407179176807404, -0.05354040488600731, -0.0038806952070444822, 0.06291447579860687, -0.13794466853141785, 0.12799270451068878, 0.10798539966344833, -0.04909493401646614, 0.21049822866916656, 0.07061523199081421, 0.0710316002368927, -0.03928946331143379, -0.022181181237101555, -0.11979758739471436, -0.06843174993991852, 0.011072040535509586, -0.021387604996562004, -0.03174945339560509, 0.02741844952106476, 0.1114555150270462, 0.02262774296104908, -0.095002181828022, 0.028429267928004265, -0.057852111756801605, -0.05636071786284447, 0.162850484251976, -0.02771184965968132, -0.03975280001759529, 0.19955073297023773, 0.16932468116283417, 0.015150800347328186, -0.12965038418769836, -0.11823656409978867, -0.04442007094621658, 0.17761968076229095, 0.06593497097492218, -0.11820979416370392, -0.05636194348335266, 0.12460046261548996, -0.0720752403140068, -0.1492639183998108, 0.009347373619675636, 0.04076555371284485, 0.16741660237312317, 0.00398293137550354, 0.005175793543457985, 0.015875615179538727, -0.030810927972197533, 0.10328005254268646, 0.19031855463981628, -0.04217756912112236, -0.03058505989611149, -0.00571451336145401, 0.06338067352771759, -0.06393992900848389, -0.03179805353283882, 0.0014054302591830492, -0.03443971276283264, 0.12004899978637695, -0.06436052173376083, -0.0835084468126297, -0.0690365806221962, 0.034973397850990295, 0.10551897436380386, -0.03565939888358116, 0.06970789283514023, -0.11166104674339294, 0.06717140227556229, 0.08766315877437592, -0.11711405962705612, 0.006960198748856783, -0.08825863897800446, -0.1257908046245575, -0.11102300882339478, 0.1100316047668457, -0.06066807359457016, -0.04530663788318634, 0.1648888736963272, -0.019976267591118813, 0.25407734513282776, -0.04862062633037567, 0.01243946235626936, 0.061189811676740646, -0.009279659949243069], [-0.06870835274457932, -0.10872634500265121, 0.09456685930490494, -0.002263850998133421, -0.010257731191813946, -0.08056819438934326, -0.0693034827709198, -0.025030964985489845, 0.23398460447788239, -0.05647952854633331, -0.10192769020795822, 0.019793367013335228, -0.07296782732009888, 0.053010594099760056, -0.12299206107854843, -0.07051089406013489, 0.1888495534658432, 0.13231819868087769, -0.043780580163002014, -0.12777774035930634, -0.03559461236000061, 0.02310069091618061, 0.14101101458072662, 0.20751526951789856, -0.052493590861558914, 0.16082777082920074, 0.13889989256858826, -0.13503073155879974, 0.07611531019210815, 0.02902444452047348, -0.004631324205547571, 0.04069667309522629, -0.06158484145998955, -0.10757450014352798, -0.022648686543107033, -0.011179577559232712, -0.015423090197145939, 0.09002359956502914, 0.07989216595888138, 0.25303521752357483, -0.013982121832668781, -0.04431712627410889, -0.04936840012669563, -0.015613187104463577, -0.055980805307626724, 0.02464054711163044, 0.026519371196627617, -0.12698756158351898, -0.04167955368757248, 0.13759976625442505, -0.07255718857049942, -0.050605833530426025, -0.01730688475072384, -0.09713911265134811, -0.13054220378398895, 0.0241097342222929, -0.19933396577835083, 0.1422688513994217, -0.09540823101997375, -0.03474404662847519, 0.2006688416004181, -0.11349871009588242, -0.12900641560554504, -0.0887565165758133, -0.01319064386188984, 0.1325840950012207, -0.08384440839290619, -0.051123593002557755, 0.004059920087456703, 0.14057980477809906, -0.030796362087130547, 0.004034631419926882, 0.07944250106811523, 0.010717962868511677, 0.09027252346277237, -0.06012241169810295, -0.17421004176139832, 0.03380734473466873, 0.028814783319830894, 0.186818927526474, 0.15976834297180176, -0.03703422471880913, 0.014502758160233498, -0.005349453538656235, -0.03198745846748352, 0.026225382462143898, -0.09185225516557693, 0.05793250352144241, -0.03059808351099491, 0.06917216628789902, -0.02801108919084072, -0.09445228427648544, -0.06175491586327553, -0.02783261425793171, -0.04624700918793678, 0.035775136202573776, 0.054843720048666, -0.03518824651837349, -0.06800007075071335, 0.07364562153816223], [-0.017399022355675697, 0.10185269266366959, -0.12153318524360657, 0.02894381806254387, -0.07128715515136719, 0.11743123084306717, -0.11125808954238892, 0.2277602255344391, -0.06435222178697586, 0.06694820523262024, -0.1375872939825058, 0.1089094951748848, 0.09489195793867111, -0.0022836467251181602, -0.04492303356528282, 0.05337213724851608, 0.008254460990428925, -0.04719002917408943, -0.05976558104157448, 0.0031749189365655184, 0.03614870831370354, -0.16026334464550018, 0.06600907444953918, -0.01750895567238331, 0.046203844249248505, 0.0075743854977190495, 0.07715340703725815, 0.01266587432473898, -0.06228148192167282, -0.01109410636126995, -0.058029644191265106, 0.16277694702148438, -0.1091318354010582, 0.03876014053821564, -0.1757105439901352, 0.06347543001174927, -0.10213621705770493, -0.050949834287166595, 0.16623497009277344, -0.0008772938745096326, 0.030530327931046486, 0.027230877429246902, 0.045828282833099365, 0.03827224671840668, 0.11370326578617096, 0.02425076812505722, 0.025031885132193565, 0.07172175496816635, 0.06112845242023468, 0.04190036281943321, 0.08825334161520004, 0.007114543579518795, 0.04053105413913727, 0.02537105605006218, 0.036306362599134445, -0.13991886377334595, 0.2770597040653229, -0.0014599345158785582, -0.01919454149901867, -0.03382003307342529, 0.011179172433912754, -0.026647912338376045, -0.006824284791946411, -0.08788486570119858, -0.02891550585627556, 0.07257910817861557, -0.08841423690319061, -0.12105085700750351, -0.02812230959534645, 0.26693278551101685, -0.03408539295196533, -0.0544123537838459, 0.08371652662754059, -0.049687713384628296, -0.05851501226425171, 0.0937466025352478, -0.08319050818681717, 0.03904471546411514, 0.010933147743344307, -0.050637416541576385, 0.06246393173933029, 0.03565918281674385, -0.10117613524198532, -0.038121432065963745, -0.10182817280292511, -0.12081524729728699, -0.018307514488697052, -0.029103880748152733, 0.05723913758993149, -0.0021626371890306473, -0.05076536163687706, -0.10070905834436417, 0.04193149879574776, -0.07883339375257492, 0.09015301614999771, -0.029714802280068398, -0.07779514789581299, -0.11395428329706192, -0.0896148681640625, -0.05698801204562187], [0.017962662503123283, -0.042957983911037445, 0.05443365499377251, 0.002437782473862171, -0.09088948369026184, -0.10399297624826431, -0.198750838637352, -0.14422374963760376, -0.1923770308494568, 0.020535286515951157, -0.012547073885798454, 0.08346395939588547, 0.10665209591388702, 0.06297457218170166, 0.026300378143787384, 0.1524970531463623, 0.18394143879413605, -0.1872536987066269, -0.11130767315626144, -0.09208177775144577, 0.03860405460000038, -0.04035981371998787, -0.04692521691322327, 0.04369764402508736, 0.022006340324878693, 0.09165294468402863, -0.10884620994329453, 0.17949923872947693, 0.1439450979232788, 0.058444634079933167, -0.011197768151760101, 0.07289427518844604, 0.1441773772239685, -0.02407648414373398, -0.13533420860767365, 0.008011448197066784, -0.1441853642463684, -0.12035789340734482, -0.06375253200531006, -0.0974639281630516, 0.116114541888237, -0.0022638572845607996, -0.0863518938422203, -0.06435208022594452, 0.012778712436556816, -0.027999617159366608, 0.006731176748871803, 0.2838554382324219, 0.18358123302459717, -0.005367609206587076, 0.04857874661684036, 0.05361060053110123, 0.0085160406306386, 0.2277565598487854, -0.05983485281467438, -0.08833323419094086, 0.013251403346657753, 0.08772802352905273, -0.07696066796779633, 0.1880277842283249, 0.04591381177306175, 0.04980739951133728, -0.04215044900774956, -0.09984767436981201, -0.08171205222606659, -0.10468027740716934, -0.08903740346431732, -0.021690739318728447, -0.039173901081085205, -0.13599734008312225, 0.005937302950769663, 0.17049776017665863, 0.24724794924259186, 0.018294595181941986, 0.010672486387193203, 0.05536411330103874, -0.03298638015985489, -0.07572498917579651, 0.21555204689502716, -0.05853545665740967, 0.17913590371608734, 0.07470230013132095, 0.04526936262845993, 0.06976602971553802, -0.05482764542102814, -0.07808072865009308, 0.08983681350946426, 0.047718968242406845, 0.047736186534166336, -0.045752882957458496, -0.02496328391134739, -0.006252767518162727, -0.04093559458851814, 0.051588065922260284, 0.15764220058918, 0.017906121909618378, 0.14325983822345734, 0.22900164127349854, 0.03498793765902519, -0.01605798490345478], [-0.026567930355668068, 0.10559837520122528, -0.046579036861658096, 0.08185990899801254, 0.09573797136545181, -0.01441707368940115, 0.08076247572898865, 0.1854497343301773, 0.07830444723367691, -0.039331234991550446, -0.00787950400263071, -0.0302517618983984, 0.020983686670660973, -0.05417869985103607, -0.06692057102918625, 0.047970741987228394, 0.016044065356254578, -0.06827738136053085, -0.015412000007927418, 0.018904518336057663, -0.02386915311217308, 0.06094522774219513, -0.050215430557727814, 0.04388970881700516, 0.08318625390529633, 0.031700678169727325, 0.011749633587896824, 0.017385175451636314, -0.11622627079486847, -0.01703781820833683, 0.04793395847082138, 0.14848826825618744, 0.057472534477710724, 0.02872796356678009, -0.026957634836435318, 0.008163247257471085, -0.12056685984134674, -0.15205001831054688, -0.05266847461462021, -0.1134481281042099, -0.009745660237967968, -0.012308770790696144, 0.039175912737846375, -0.004358530510216951, -0.11655692756175995, 0.23564252257347107, -0.06587913632392883, -0.030820585787296295, -0.03665734454989433, -0.07028185576200485, 0.11920401453971863, 0.010923118330538273, -0.10284510999917984, 0.3409311771392822, -0.042104583233594894, -0.003316283691674471, -0.14467088878154755, -0.04731109365820885, 0.07895258069038391, -0.0047204699367284775, 0.01938297599554062, 0.11699314415454865, 0.10431961715221405, 0.004255206789821386, 0.0015664841048419476, -0.07031536847352982, 0.07373442500829697, -0.0004344758635852486, 0.01611846685409546, 0.03432460129261017, 0.04652659595012665, 0.3013613224029541, -0.10383426398038864, -0.053814612329006195, 0.16458313167095184, 0.07599306851625443, -0.05077804997563362, -0.06236974522471428, 0.03488607332110405, -8.165591862052679e-05, -0.1323861926794052, 0.08602995425462723, -0.10245629400014877, 0.03511924296617508, 0.06404503434896469, 0.048535287380218506, 0.022567596286535263, 0.0743848979473114, -0.04380333423614502, 0.0474400669336319, -0.03879591077566147, 0.12676067650318146, -0.04374482110142708, 0.06208542734384537, -0.02979283407330513, 0.0202078465372324, 0.06897073239088058, 0.24616160988807678, 0.057700447738170624, -0.011178714223206043], [-0.11459752172231674, 0.21178512275218964, 0.08764839917421341, -0.010735571384429932, -0.08321761339902878, -0.015043639577925205, -0.17684204876422882, -0.04741983488202095, -0.060867566615343094, -0.041196223348379135, -0.14559923112392426, 0.016528667882084846, -0.12076614052057266, -0.1071452796459198, -0.009860849939286709, -0.253013551235199, 0.1844112128019333, -0.0701427310705185, -0.08560983836650848, 0.13999104499816895, -0.07866601645946503, 0.09878390282392502, -0.11213036626577377, -0.04333984851837158, -0.08023330569267273, -0.04541647806763649, 0.06513752043247223, 0.027085602283477783, -0.06198230758309364, -0.0004245444433763623, -0.05893309786915779, 0.0071922484785318375, 0.12231574207544327, 0.062945656478405, 0.060064855962991714, -0.10950872302055359, 0.020310455933213234, 0.09293114393949509, -0.06100844219326973, -0.08252178877592087, 0.08077310770750046, -0.11633653193712234, 0.20013946294784546, -0.026583073660731316, -0.07141180336475372, 0.08465588092803955, 0.09795764833688736, -0.07600747793912888, 0.04142562672495842, -0.004290763754397631, -0.10927768051624298, -0.1343262791633606, -0.10978832840919495, -0.11335821449756622, 0.08858180046081543, 0.0026751807890832424, -0.1451234519481659, -0.0014011682942509651, -0.036164332181215286, 0.00999885518103838, -0.1557607203722, 0.09230043739080429, -0.16987521946430206, 0.04915463924407959, 0.0022518779151141644, -0.07515259087085724, 0.13376986980438232, -0.049061622470617294, 0.011099438183009624, -0.11121203750371933, -0.07900438457727432, -0.09124889224767685, 0.04977838322520256, -0.12338750064373016, -0.007777535822242498, 0.09154541790485382, -0.08310201019048691, -0.012148075737059116, 0.027758486568927765, 0.04553826525807381, 0.20442885160446167, -0.10361931473016739, 0.013989691622555256, -0.150373175740242, -0.00373984151519835, -0.1623227298259735, 0.0422685444355011, 0.06310857832431793, 0.13809902966022491, -0.035938527435064316, -0.0963159054517746, -0.06749033182859421, 0.09212663769721985, 0.13054215908050537, 0.05426178500056267, -0.09350688755512238, -0.07985790073871613, -0.05194386467337608, -0.03604545816779137, 0.2545129954814911], [-0.09057015180587769, -0.05938371270895004, -0.07821942865848541, -9.108855738304555e-05, 0.1310586780309677, 0.13212038576602936, -0.051402125507593155, 0.14059092104434967, -0.06768560409545898, 0.1617652028799057, -0.04843372479081154, -0.10451223701238632, 0.011337153613567352, -0.12026318162679672, 0.18491458892822266, -0.06846919655799866, 0.148372083902359, 0.19906145334243774, 0.005198123399168253, -0.03840826824307442, -0.0458083301782608, -0.016492702066898346, -0.015121632255613804, -0.05388728529214859, 0.010337550193071365, -0.03573574125766754, 0.021061256527900696, -0.05169515311717987, -0.0565670020878315, 0.06811519712209702, -0.024746527895331383, -0.08605223149061203, 0.00043072516564279795, 0.012488367035984993, 0.08705607056617737, -0.07388565689325333, 0.1338936686515808, 0.033445972949266434, -0.06709245592355728, -0.08889555186033249, -0.04810120537877083, 0.0007340593147091568, -0.08697761595249176, 0.07531741261482239, 0.10438522696495056, 0.07933814823627472, 0.15370206534862518, 0.14503459632396698, -0.054882753640413284, -0.028306150808930397, -0.062431126832962036, -0.0035450381692498922, -0.016538415104150772, -0.0955958142876625, 0.01382309477776289, 0.17666400969028473, 0.06139543652534485, -0.05925937369465828, -0.0487833246588707, 0.09814650565385818, 0.12855015695095062, 0.020692138001322746, -0.009699981659650803, -0.0013969069113954902, -0.0670401006937027, -0.05055280029773712, -0.03981570526957512, -0.04494832828640938, 0.09953479468822479, 0.036087516695261, 0.011635256931185722, -0.07026904821395874, -0.0656866580247879, 0.011004826985299587, -0.12996850907802582, 0.06084851175546646, -0.1055397018790245, 0.018752282485365868, -0.16803611814975739, 0.05980994924902916, -0.014448433183133602, -0.10212060064077377, -0.06940863281488419, -0.03967050462961197, 0.03772775083780289, -0.08794613927602768, -0.083750881254673, 0.055252041667699814, 0.01942335069179535, -0.13793610036373138, -0.022552572190761566, -0.09236067533493042, -0.04574797302484512, -0.037979938089847565, -0.0137373898178339, -0.06442594528198242, -0.07740157097578049, 0.06750831753015518, 0.06214369833469391, 0.01049987692385912], [-0.0981670394539833, 0.011056308634579182, -0.007090174593031406, 0.0032902753446251154, 0.023754863068461418, 0.07809137552976608, -0.06590922176837921, 0.0522133931517601, -0.08907946944236755, 0.05173879116773605, -0.0410509929060936, -0.05541801452636719, 0.07889711856842041, 0.0012905523180961609, 0.05532996729016304, -0.01377580314874649, 0.019620804116129875, 0.02602432109415531, 0.13416865468025208, 0.022161217406392097, -0.03284352645277977, -0.05936877802014351, -0.03632576763629913, -0.019151965156197548, 0.04972543567419052, -0.016557196155190468, 0.020717788487672806, -0.04989461600780487, -0.11063838750123978, 0.04929506406188011, -0.08201298117637634, -0.06020374223589897, 0.028591852635145187, 0.005223812069743872, -0.058860961347818375, -0.0707552433013916, -0.007331534754484892, 0.007696930784732103, -0.024059273302555084, -0.016640296205878258, -0.04876977577805519, 0.006062100175768137, 0.04126105457544327, -0.09547615796327591, 0.038133542984724045, -0.02825392782688141, -0.05518903210759163, -0.1023726761341095, -0.048667389899492264, -0.10997539758682251, -0.09291361272335052, 0.05826020985841751, 0.051969513297080994, -0.07987295836210251, 0.08962132781744003, 0.01768268086016178, -0.1276978999376297, 0.0048408410511910915, -0.08809825778007507, -0.09142251312732697, -0.07278665900230408, -0.004237172659486532, 0.022866617888212204, 0.017862027511000633, 0.09295598417520523, -0.05284219607710838, -0.07167666405439377, 0.2182435691356659, 0.19094949960708618, 0.051264334470033646, -0.022078245878219604, 0.07907455414533615, 0.17331518232822418, -0.082351915538311, -0.03830306604504585, -0.06600205600261688, -0.124779611825943, 0.1998840570449829, -0.08457701653242111, -0.08319733291864395, 0.08253474533557892, 0.11121523380279541, 0.0766495019197464, 0.05208571255207062, 0.04702083021402359, -0.17510166764259338, -0.05293547734618187, -0.12162061780691147, -0.029825245961546898, -0.031353145837783813, -0.07551810145378113, 0.13739357888698578, -0.11772824823856354, 0.21460135281085968, -0.11129916459321976, -0.012876086868345737, 0.17909373342990875, 0.08418290317058563, 0.10318037122488022, 0.02958814799785614], [0.025171296671032906, -0.048960551619529724, 0.03624564781785011, 0.09013451635837555, -0.05594871565699577, -0.03877811133861542, -0.12254848331212997, -0.031333036720752716, 0.13756725192070007, 0.14125074446201324, -0.045047830790281296, 0.083008773624897, -0.04321671277284622, -0.08671656250953674, -0.05200861766934395, 0.12283739447593689, -0.0053140041418373585, -0.006378619000315666, -0.06414718925952911, 0.022365720942616463, -0.05858362466096878, 0.046961620450019836, -0.07423391938209534, 0.043141771107912064, -0.0630774050951004, 0.06456054747104645, 0.15079398453235626, 0.005725468974560499, -0.08730612695217133, -0.09600075334310532, -0.08824187517166138, -0.1053902879357338, 0.005633501335978508, 0.05551083758473396, -0.008072448894381523, -0.009569467976689339, -0.01267638523131609, 0.03709321469068527, -0.12523457407951355, 0.03850787878036499, 0.013272390700876713, 0.044249527156353, 0.024233872070908546, 0.11677878350019455, 0.040992435067892075, 0.05287628248333931, 0.05004074424505234, -0.01592240110039711, 0.08288094401359558, -0.02433573268353939, 0.11100991815328598, 0.06273014843463898, 0.1927001029253006, -0.11047918349504471, -0.0630011260509491, 0.17347964644432068, -0.15127207338809967, -0.027653604745864868, 0.07016715407371521, -0.045140836387872696, -0.030715348199009895, 0.09373670071363449, 0.06833647936582565, 0.012692606076598167, 0.07276079058647156, -0.03283754363656044, -0.029073741286993027, 0.095797099173069, 0.05397042632102966, 0.06125712767243385, -0.06518182158470154, -0.106968455016613, -0.05015408992767334, 0.0206475667655468, 0.02304631657898426, -0.15651844441890717, 0.15420332551002502, 0.02529778704047203, 0.02642064169049263, -0.06250376999378204, -0.1239476352930069, -0.0057772486470639706, -0.007737454492598772, -0.06813560426235199, -0.07854339480400085, 0.05877897888422012, 0.04297281801700592, -0.07479557394981384, 0.2061445116996765, -0.09118759632110596, 0.03546977788209915, 0.17826595902442932, -0.1706065535545349, -0.04167560115456581, 0.09307573735713959, -0.04651573672890663, 0.06013999879360199, 0.012535112909972668, -0.14998432993888855, -0.1188635528087616], [-0.15059079229831696, 0.22776879370212555, -0.08597222715616226, -0.03400210291147232, 0.3044511079788208, -0.005158171057701111, 0.008521007373929024, 0.17615297436714172, -0.05354117229580879, -0.07321677356958389, -0.0037740860134363174, -0.06921105831861496, -0.039072006940841675, 0.07134994864463806, 0.021943792700767517, -0.09588402509689331, -0.042225975543260574, -0.031138896942138672, 0.10110307484865189, -0.013576826080679893, -0.10628603398799896, 0.14958739280700684, 0.05480663850903511, 0.02145502343773842, 0.24189676344394684, -0.08358035236597061, 0.07412000000476837, -0.033779095858335495, -0.051890779286623, -0.004199677612632513, 0.02606339193880558, -0.056631069630384445, 0.21056292951107025, 0.020966246724128723, 0.03579564392566681, -0.09991277009248734, 0.21379534900188446, 0.019698629155755043, -0.006543914321810007, -0.055801134556531906, -0.04654208570718765, -0.12790358066558838, -0.047731269150972366, 0.13962788879871368, -0.04079002887010574, 0.18837928771972656, -0.05974264815449715, 0.06302261352539062, 0.11731750518083572, 0.19065937399864197, -0.0863708034157753, 0.0288440752774477, 0.07210614532232285, -0.03651844337582588, 0.10816310346126556, -0.06116094812750816, 0.1084446981549263, -0.007922312244772911, 0.12228242307901382, -0.08456820994615555, 0.07415527105331421, -0.09099102020263672, 0.04759081453084946, -0.022178057581186295, 0.0139412060379982, 0.351467102766037, -0.02071642503142357, -0.03924429416656494, -0.04511406645178795, -0.07715944200754166, -0.07193208485841751, 0.22307617962360382, 0.1333090215921402, 0.010158434510231018, 0.08632031828165054, -0.010058444924652576, 0.12147484719753265, -0.08750905096530914, -0.08733291178941727, -0.09805895388126373, 0.0006091948016546667, 0.03751685842871666, -0.0651726946234703, 0.0266193225979805, -0.030783185735344887, 0.01186198927462101, -0.02730855531990528, -0.026162633672356606, 0.15078522264957428, 0.1609935164451599, -0.060608986765146255, -0.0743328407406807, 0.06433197110891342, -0.051899198442697525, 0.07608378678560257, 0.1216561496257782, -0.027029095217585564, 0.10426811128854752, -0.025026416406035423, 0.02443885989487171], [-0.038375768810510635, -0.07881275564432144, -0.07354065030813217, -0.0629444569349289, -0.040729913860559464, 0.20607826113700867, -0.14887623488903046, -0.08747947216033936, -0.05224083736538887, -0.08698336035013199, -0.07977794855833054, 0.03772308677434921, -0.06267866492271423, -0.012784426100552082, 0.08491547405719757, 0.015776965767145157, 0.16018564999103546, -0.04475550353527069, -0.051546793431043625, -0.08675094693899155, -0.07859980314970016, 0.1977539211511612, -0.04240664467215538, 0.04261663556098938, 0.2549009323120117, 0.06423719972372055, 0.13098567724227905, -0.018154218792915344, 0.005095251835882664, -0.03608414903283119, 0.12292701005935669, -0.09054767340421677, 0.05343636870384216, -0.0432869978249073, 0.052197784185409546, -0.22110210359096527, -0.04316267743706703, 0.033202964812517166, 0.12140616029500961, 0.01803153194487095, -0.019168991595506668, 0.08685864508152008, 0.002899792743846774, 0.014775545336306095, -0.03908742964267731, 0.017061598598957062, 0.00012128396338084713, 0.03655108064413071, 0.03129623457789421, 0.17935959994792938, -0.031898628920316696, 0.022562798112630844, -0.10403546690940857, -0.06708987057209015, -0.11213658004999161, 0.06844715029001236, 0.07822412252426147, -0.03568640723824501, -0.02879704348742962, 0.02861626259982586, 0.05343668535351753, -0.02253144234418869, 0.044142089784145355, 0.02949157916009426, 0.10866312682628632, -0.013383517041802406, -0.05069659277796745, 0.06590721756219864, 0.05238175019621849, -0.025552738457918167, -0.026963545009493828, 0.0566694401204586, 0.17177556455135345, -0.08959949761629105, 0.21986007690429688, -0.11849525570869446, -0.048901453614234924, 0.11885618418455124, 0.07346080243587494, -0.05047628656029701, 0.16827169060707092, 0.08153457194566727, -0.047236524522304535, -0.11006108671426773, -0.04552740231156349, 0.2689145803451538, 0.068438321352005, -0.10228649526834488, 0.0995895117521286, -0.03807765990495682, 0.14353463053703308, 0.19217848777770996, 0.14690400660037994, -0.04284455254673958, -0.11032570898532867, -0.14944611489772797, -0.1125185415148735, -0.11742723733186722, -0.10051978379487991, 0.09917855262756348], [-0.08906327933073044, 0.01095413975417614, -0.0652705729007721, 0.027229007333517075, -0.11405324190855026, 0.22323516011238098, 0.29846322536468506, -0.1330956071615219, -0.03505659103393555, -0.023097822442650795, 0.020570263266563416, 0.0073320213705301285, 0.10253345221281052, 0.037243809551000595, -0.018529638648033142, -0.12314346432685852, 0.046870309859514236, -0.02251860499382019, 0.08258034288883209, -0.03196641802787781, 0.07313370704650879, -0.05736212432384491, 0.015426699072122574, -0.026906872168183327, 0.011476623825728893, -0.11841432750225067, -0.08471392095088959, -0.03459779918193817, 0.2604730427265167, 0.09403256326913834, 0.008917410857975483, -0.11107907444238663, -0.10070610046386719, 0.006672166753560305, 0.033849526196718216, -0.0532887727022171, 0.015039410442113876, 0.06425178050994873, 0.10336489975452423, -0.09896498918533325, -0.04687468335032463, 0.027090225368738174, 0.04982244223356247, -0.020141039043664932, -0.02602531388401985, 0.0060439398512244225, 0.07008916139602661, 0.06889986991882324, -0.03406675532460213, 0.004986616782844067, -0.09420663863420486, 0.012517775408923626, 0.07172095775604248, -0.04795852676033974, 0.014401075430214405, 0.09784296900033951, 0.0367288663983345, -0.02143245004117489, 0.04332762584090233, 0.03059002384543419, -0.10155153274536133, -0.08238828182220459, 0.10927826166152954, 0.01987387239933014, 0.09628639370203018, 0.022421345114707947, 0.020704688504338264, 0.04376474395394325, 0.04884326830506325, -0.21743004024028778, 0.09884828329086304, -0.07693934440612793, 0.0232132188975811, 0.12216877192258835, 0.011506444774568081, 0.08180017024278641, -0.023934831842780113, 0.03476102277636528, 0.05361480638384819, -0.06857026368379593, -0.046267203986644745, -0.06967659294605255, 0.048808418214321136, -0.06364905089139938, -0.03597884252667427, -0.14585579931735992, 0.004184399731457233, 0.08330386877059937, -0.035367708653211594, -0.01908683404326439, 0.10436135530471802, -0.0744156613945961, -0.10217882692813873, -0.10481817275285721, 0.17187969386577606, 0.09798652678728104, -0.02159283496439457, 0.08187365531921387, 0.04400591552257538, 0.1020287275314331], [-0.0012840763665735722, -0.034316644072532654, -0.03822653740644455, -0.023552479222416878, -0.09790920466184616, -0.11276955902576447, -0.15196840465068817, -0.062456533312797546, 0.026522209867835045, 0.19072440266609192, 0.0971560850739479, 0.0004424240323714912, 0.1936042159795761, -0.07841136306524277, -0.19051386415958405, -0.08542473614215851, 0.12198291718959808, -0.09056464582681656, -0.051288504153490067, 0.15411707758903503, 0.06801456958055496, -0.0138093838468194, -0.04568076506257057, 0.06499221175909042, -0.08870700746774673, 0.0008500702679157257, 0.2005269080400467, -0.012607809156179428, 0.17740623652935028, 0.2451227903366089, 0.018438000231981277, 0.0900961384177208, 0.025050856173038483, -0.022600844502449036, 0.08091630786657333, 0.08149808645248413, -0.03200017288327217, -0.030564842745661736, -0.02127906121313572, -0.10706182569265366, -0.07534018158912659, -0.0034626999404281378, -0.01412179134786129, -0.05596085637807846, -0.06966149061918259, 0.09605655074119568, -0.015487711876630783, 0.005580075550824404, 0.03297663852572441, -0.07798188924789429, 0.030069319531321526, 0.0463687889277935, -0.09630997478961945, 0.029370266944169998, 0.0566226951777935, 0.12119031697511673, -0.010455594398081303, 0.08447063714265823, -0.10475660115480423, -0.05059206113219261, 0.03583825007081032, -0.06115438789129257, -0.021586937829852104, -0.008660792373120785, -0.08017551898956299, -0.07071498781442642, -0.010002566501498222, -0.011341826058924198, -0.04282671585679054, 0.0011946060694754124, 0.07300300896167755, -0.05579223111271858, 0.10451298207044601, -0.019712289795279503, -0.03495766595005989, -0.04790141060948372, -0.01877395622432232, -0.05785271152853966, -0.019526468589901924, -0.03146275877952576, 0.05913705378770828, -0.04489240050315857, -0.036620475351810455, -0.03523968905210495, 0.0007606822182424366, 0.09304499626159668, -0.03613046184182167, -0.030870117247104645, -0.007426053285598755, -0.09311866760253906, 0.049790672957897186, 0.005949307233095169, -0.050073765218257904, -0.10202780365943909, -0.08040829747915268, -0.017096025869250298, 0.0049208845011889935, -0.014687702991068363, -0.04310154169797897, 0.02436854876577854], [0.08045245707035065, -0.036108870059251785, -0.06795530766248703, 0.12102525681257248, -0.11356399208307266, -0.0465158075094223, -0.06032814830541611, 0.1686742752790451, -0.062119726091623306, 0.15659669041633606, 0.040681373327970505, -0.07416082918643951, 0.01645812951028347, -0.12142778187990189, 0.07449261844158173, -0.0564415380358696, -0.054231274873018265, -0.05841810256242752, 0.12754446268081665, -0.12186800688505173, -0.047479402273893356, 0.02181270159780979, 0.09117995947599411, -0.08425722271203995, 0.15939171612262726, -0.021664930507540703, -0.04397031292319298, 0.08652343600988388, -0.09049128741025925, 0.01805994287133217, -0.07062274217605591, 0.057336729019880295, -0.000507742166519165, 0.046016816049814224, -0.025914423167705536, 0.03227792680263519, -0.07932470738887787, 0.016248084604740143, 0.013043769635260105, -0.07937061041593552, -0.03417272865772247, 0.047453373670578, -0.075437031686306, 0.0705995112657547, -0.059964802116155624, 0.12936361134052277, 0.017655467614531517, -0.012283594347536564, -0.08457939326763153, 0.06379274278879166, -0.03717082738876343, 0.11326874047517776, -0.02146828919649124, -0.006877134088426828, -0.0521233044564724, 0.19730012118816376, 0.19175028800964355, 0.0703505277633667, 0.0012811633059754968, -0.05782607942819595, 0.09920245409011841, 0.1308046281337738, 0.03377954289317131, -0.005628098733723164, -0.019917499274015427, -0.10188333690166473, -0.012155905365943909, 0.0029690226074308157, -0.043132275342941284, 0.1410844475030899, -0.04635191708803177, 0.009199574589729309, -0.12754927575588226, 0.01165718398988247, -0.021219544112682343, 0.0009107171790674329, -0.02647775039076805, 0.0036486766766756773, 0.10585520416498184, -0.0015687269624322653, 0.2014138251543045, -0.0022406254429370165, 0.16729021072387695, -0.07432622462511063, -0.01805933751165867, -0.11081545799970627, 0.08203531801700592, -0.055716924369335175, -0.05713539943099022, -0.10825297236442566, 0.09660777449607849, -0.10163678973913193, -0.1139710396528244, -0.05487103760242462, -0.055775173008441925, -0.12581151723861694, 0.08800853043794632, -0.00879151001572609, 0.005579988472163677, 0.003070818493142724], [-0.0848316103219986, 0.17900240421295166, -0.003977969754487276, -0.03892476484179497, -0.08567649871110916, 0.014263467863202095, -0.032319702208042145, -0.01874290406703949, -0.020376799628138542, 0.12050359696149826, -0.016293345019221306, -0.1222856193780899, 0.2273997962474823, 0.09785672277212143, 0.11509952694177628, 0.03788290545344353, -0.07357609272003174, -0.057496123015880585, 0.00955258496105671, -0.0038557567168027163, -0.12866728007793427, 0.017139634117484093, 0.06616562604904175, 0.1755611151456833, -0.032351747155189514, 0.055377088487148285, 0.0021874806843698025, 0.020909501239657402, 0.0654052272439003, -0.020751118659973145, 0.07213390618562698, 0.03055409900844097, 0.12528491020202637, 0.10329966992139816, 0.29373258352279663, 0.03170230984687805, -0.06833504885435104, 0.07495757937431335, -0.03345416858792305, 0.002774854190647602, -0.0961536169052124, -0.1565869301557541, 0.17172613739967346, 0.10236626863479614, 0.11656584590673447, -0.08932633697986603, 0.037324801087379456, -0.012561657465994358, 0.2082246094942093, 0.006020111031830311, -0.003731966484338045, 0.04276956617832184, -0.023258620873093605, 0.047487735748291016, -0.12413457781076431, 0.005704512819647789, 0.10158698260784149, -0.01947697252035141, -0.015389603562653065, -0.00848355982452631, 0.13970765471458435, -0.18345871567726135, -0.05073225870728493, -0.02287614345550537, -0.039858315140008926, 0.10738860815763474, 0.08483609557151794, 0.15501028299331665, -0.0006453440291807055, 0.12839031219482422, -0.03688904643058777, -0.06531652808189392, -0.05299163982272148, -0.09392142295837402, -0.1291809231042862, -0.06625373661518097, 0.024589847773313522, 0.14439135789871216, -0.09381908923387527, 0.02595904842019081, -0.11542823165655136, -0.0589463897049427, -0.051439136266708374, -0.12413753569126129, -0.1013251394033432, 0.03714552894234657, -0.01547100767493248, -0.04561745747923851, -0.09571895748376846, 0.06415873020887375, -0.09509821981191635, 0.04883991926908493, -0.0238057728856802, 0.17005538940429688, -0.08268129825592041, 0.04449845477938652, -0.055488865822553635, 0.012738769873976707, -0.07221157103776932, 0.023554420098662376], [-0.05510827153921127, 0.050108104944229126, 0.24292100965976715, -0.05101897940039635, 0.21134121716022491, 0.04698612913489342, 0.21936216950416565, -0.14415721595287323, -0.03951391950249672, 0.08788063377141953, -0.014563694596290588, -0.06329083442687988, 0.009826195426285267, -0.02628043293952942, 0.1262231469154358, 0.07730492949485779, 0.19935210049152374, 0.07223793119192123, -0.009932562708854675, -0.005731847602874041, -0.07455259561538696, 0.0009173892904073, -0.03507760539650917, 0.059407174587249756, 0.08702550083398819, 0.09703674912452698, 0.11940766870975494, -0.012775098904967308, -0.04958619177341461, 0.009621325880289078, 0.05520825460553169, 0.1095496416091919, 0.18624119460582733, -0.029466841369867325, -0.17118272185325623, 0.04586236923933029, 0.04719816520810127, 0.061141133308410645, 0.16632080078125, 0.02060929499566555, -0.017492884770035744, -0.0641220435500145, -0.0030273774173110723, 0.08799303323030472, 0.24524153769016266, 0.007183687295764685, 0.24241766333580017, 0.23281918466091156, 0.1686880737543106, 0.003861441742628813, -0.08733424544334412, 0.05117597058415413, 0.062482964247465134, 0.02809191681444645, 0.09174506366252899, 0.10389938950538635, 0.01831877790391445, -0.030670804902911186, 0.060979876667261124, 0.01951981894671917, 0.10265818238258362, -0.04973101615905762, -0.0650300458073616, 0.035464514046907425, 0.03464869409799576, -0.11162403970956802, 0.021844124421477318, 0.04056930169463158, 0.024554358795285225, 0.1223042756319046, -0.05635594576597214, -0.022389160469174385, 0.0273907333612442, -0.04176853969693184, -0.02333543263375759, -0.028726130723953247, -0.046151284128427505, -0.07962387055158615, -0.05562387406826019, -0.049118176102638245, -0.09386303275823593, 0.00043973265565000474, 0.06267772614955902, -0.08834340423345566, -0.09482257068157196, -0.03574615716934204, 0.04690074548125267, -0.009383078664541245, -0.011504922062158585, 0.12438815832138062, -0.09302685409784317, -0.06511450558900833, 0.10946006327867508, 0.05068996548652649, 0.11399012804031372, -0.10533233731985092, -0.04432956874370575, 0.012313583865761757, -0.0827806368470192, -0.014701636508107185], [-0.08428946137428284, -0.03678286820650101, 0.038904786109924316, -0.05960914492607117, -0.18982380628585815, 0.17591819167137146, -0.051901835948228836, 0.17652127146720886, 0.04241975396871567, 0.009099454618990421, -0.14759716391563416, -0.0262701865285635, -0.08731687813997269, 0.057827603071928024, 0.07501192390918732, -0.10920689254999161, 0.08410272747278214, -0.06494586169719696, 0.04309462383389473, -0.08558197319507599, -0.002476469147950411, 0.034188415855169296, -0.05234834924340248, 0.02785247564315796, 0.059554118663072586, -0.03542803227901459, 0.001735453843139112, 0.30749428272247314, -0.043737806379795074, 0.034684740006923676, 0.0038715831469744444, -0.09128139913082123, 0.07734353095293045, -0.004647520836442709, 0.020545966923236847, -0.04222533106803894, 0.13772575557231903, 0.0704888179898262, -0.043072886765003204, 0.06286528706550598, -0.011820828542113304, 0.0492292083799839, -0.05261710286140442, 0.09429389983415604, 0.05894539877772331, 0.2916497588157654, -0.009255636483430862, -0.010560705326497555, 0.10573697835206985, 0.08705151826143265, -0.07487882673740387, 0.040066637098789215, 0.03519369289278984, 0.1385396271944046, 0.07095799595117569, -0.0694880485534668, -0.010275579057633877, 0.06832372397184372, -0.0446302592754364, -0.03602716326713562, 0.03864973410964012, -0.04073289409279823, -0.07060477882623672, -0.03147803992033005, 0.02722267061471939, 0.26620009541511536, 0.028022630140185356, -0.03410496562719345, 0.061292510479688644, -0.08046278357505798, -0.07137816399335861, -0.0020454793702811003, -0.054182521998882294, 0.026783891022205353, -0.017210692167282104, -0.024542609229683876, 0.09723002463579178, -0.04314770922064781, -0.02864321693778038, 0.004489234648644924, 0.0030187349766492844, 0.05279999598860741, -0.0637311115860939, -0.08390344679355621, -0.07000904530286789, -0.06548068672418594, 0.003125265473499894, 0.04537608101963997, 0.037825413048267365, -0.020637603476643562, -0.06625375151634216, -0.09010133892297745, 0.022862419486045837, 0.08888924866914749, 0.14476241171360016, 0.04161396250128746, 0.03625652194023132, 0.04655066505074501, -0.06868013739585876, -0.06371661275625229], [-0.006079334765672684, -0.05243724212050438, -0.02368953637778759, 0.11383255571126938, -0.12853959202766418, 0.264024943113327, -0.08912120759487152, -0.07821156084537506, -0.03568754717707634, 0.0796668604016304, -0.1188829243183136, -0.06259182095527649, -0.08261778205633163, 0.010029017925262451, -0.12995484471321106, -0.09238289296627045, -0.023717232048511505, 0.12129087746143341, -0.02266288734972477, -0.013952392153441906, -0.02061721868813038, -0.13640858232975006, -0.021036861464381218, -0.049285877496004105, 0.08023780584335327, 0.15858231484889984, 0.031010186299681664, -0.08328481763601303, 0.30033963918685913, -0.10241992026567459, -0.07636620849370956, 0.10045583546161652, -0.086138054728508, 0.14286422729492188, 0.02456825226545334, 0.01949276775121689, 0.10016055405139923, 0.03268171846866608, 0.21659207344055176, -0.06311354041099548, -0.02874995581805706, 0.027226323261857033, -0.0029945787973701954, -0.011517888866364956, 0.03553355112671852, -0.02188841998577118, 0.04215111956000328, 0.019612345844507217, 0.008618045598268509, 0.1880095899105072, -0.021693026646971703, 0.056060630828142166, 0.010722140781581402, -0.048381999135017395, -0.02751173824071884, -0.08371175080537796, -0.0742398127913475, -0.08652269840240479, -0.08010540157556534, -0.07926217466592789, 0.050850193947553635, 0.056900881230831146, -0.050294939428567886, -0.02158905565738678, 0.029141448438167572, -0.25015485286712646, 0.0370340533554554, -0.1104365661740303, 0.10061096400022507, 0.02524469420313835, -0.07337169349193573, -0.1366780400276184, 0.17514213919639587, 0.11680074781179428, -0.02093474380671978, -0.032134752720594406, -0.11160440742969513, -0.015579664148390293, 0.04609357938170433, -0.07702421396970749, -0.04785962030291557, 0.04888864606618881, 0.01337419729679823, 0.1490713208913803, 0.06594686210155487, -0.11344382166862488, 0.04325517266988754, -0.010302145034074783, 0.021282408386468887, -0.031056441366672516, -0.010439149104058743, -0.06528204679489136, 0.10215561091899872, 0.1849013864994049, -0.1388012170791626, -0.01736385188996792, 0.26688048243522644, 0.05950126796960831, 0.0006877901614643633, -0.09629731625318527], [0.06291466951370239, -0.061005834490060806, -9.70526016317308e-05, 0.07129687070846558, 0.0007797747966833413, -0.10389816015958786, -0.05385198816657066, -0.025472795590758324, -0.009551925584673882, 0.03920689597725868, -0.07647751271724701, 0.08118376135826111, -0.0012042195303365588, 0.004375826567411423, -0.030174314975738525, -0.016175176948308945, 0.04604103043675423, -0.028622321784496307, 0.08603545278310776, -0.0037891301326453686, -0.0632757619023323, -0.002273487625643611, 0.04860508069396019, 0.13940121233463287, 0.03764227405190468, 0.04261163994669914, 0.11405947804450989, -0.02571236342191696, -0.053251929581165314, -0.024436352774500847, 0.035376112908124924, -0.04674515500664711, -0.10421685874462128, -0.02553686872124672, -0.06617901474237442, -0.16288000345230103, -0.041947416961193085, 0.014703400433063507, -0.06217310205101967, 0.05936950072646141, -0.008808266371488571, -0.0045947483740746975, -0.0012453236849978566, -0.01268886961042881, 0.0036678400356322527, -0.13497230410575867, -0.09109818935394287, 6.678615318378434e-05, -0.0458051897585392, -0.0340808667242527, -0.12033963203430176, -0.054984211921691895, -0.06700266152620316, -0.0068686967715620995, 0.03233768418431282, -0.07005758583545685, -0.10234635323286057, -0.021206600591540337, -0.03127182647585869, -0.10852880775928497, -0.04163113608956337, -0.0035710574593394995, -0.04179037734866142, -0.11778426915407181, -0.08630969375371933, 0.07055202126502991, -0.014321641996502876, 0.20685455203056335, -0.032537057995796204, -0.08416961133480072, 0.09079745411872864, 0.09781484305858612, -0.11226482689380646, -0.02724025398492813, -0.12799076735973358, 0.2880193293094635, -0.11299630999565125, 0.018692122772336006, -0.07039320468902588, 0.11057084798812866, -0.02373419515788555, -0.04839075356721878, 0.08153960108757019, -0.05631543695926666, -0.0641532689332962, -0.1750444918870926, 0.016656702384352684, 0.07571925222873688, 0.1251254826784134, -0.13811850547790527, 0.11807912588119507, 0.12751387059688568, -0.08678024262189865, -0.025951620191335678, -0.08930870145559311, -0.012815947644412518, 0.24081610143184662, 0.1261950433254242, 0.12934772670269012, -0.09777788072824478], [-0.08865910768508911, -0.09290774166584015, 0.1388404816389084, -0.06816986948251724, -0.11241047829389572, -0.044428501278162, -0.06171709671616554, -0.004257611930370331, -0.010633802972733974, -0.04845823347568512, -0.09416858106851578, -0.028131376951932907, -0.12450756132602692, -0.09415020048618317, -0.02332318387925625, 0.00016410747775807977, 0.31842461228370667, -0.12786047160625458, -0.12925748527050018, -0.02051037922501564, -0.030640289187431335, -0.04479669779539108, -0.03171754255890846, 0.003827274776995182, -0.1706332564353943, 0.01653556153178215, 0.17734229564666748, -0.13397695124149323, -0.03656543418765068, -0.1177126094698906, -0.0006708758301101625, -0.0456666499376297, 0.13590984046459198, -0.05449627339839935, -0.05050443112850189, 0.2889164686203003, 0.1985698938369751, 0.15929828584194183, -0.03712150827050209, 0.014539151452481747, 0.04290195181965828, -0.0013485823292285204, 0.05302233248949051, -0.01115497201681137, -0.04782237857580185, -0.037928417325019836, 0.062496304512023926, 0.19811566174030304, -0.09303482621908188, -0.06150399520993233, 0.08887911587953568, 0.02338438108563423, -0.06142933666706085, -0.05214868113398552, 0.09994877874851227, -0.02359030395746231, -0.06641775369644165, -0.07709135860204697, -0.05398956313729286, 0.28695404529571533, 0.0880645141005516, -0.026453575119376183, 0.07228994369506836, -0.09888717532157898, -0.030912229791283607, -0.11592844873666763, 0.03298322483897209, 0.13990016281604767, -0.04945749416947365, -0.09249190986156464, 0.0993443951010704, 0.0900842621922493, 0.04890190437436104, -0.09918607771396637, -0.07472383230924606, 0.07309947907924652, -0.018705148249864578, 0.13825200498104095, -0.037087589502334595, -0.01603715680539608, 0.030380630865693092, -0.014028139412403107, -0.01776309683918953, -0.02843913994729519, 0.03837057575583458, -0.19251736998558044, 0.07160661369562149, -0.1552606076002121, 0.159563347697258, -0.02883082441985607, -0.010482736863195896, 0.01914633810520172, -0.022368259727954865, -0.010989268310368061, -0.05594593286514282, -0.07531790435314178, -0.05183430761098862, 0.03271500766277313, 0.02064763568341732, -0.06407181918621063], [-0.08748428523540497, -0.0924566239118576, -0.033179763704538345, -0.08793706446886063, 0.06258385628461838, -0.09939133375883102, 0.16975484788417816, -0.12504662573337555, 0.008678906597197056, -0.04298597574234009, -0.06606969237327576, -0.10988608002662659, -0.011292808689177036, -0.08709806203842163, 0.03249692916870117, -0.10945554822683334, 0.0492856502532959, -0.14249174296855927, 0.12029585987329483, 0.06037271395325661, -0.07169049233198166, -0.06030427664518356, 0.2224307507276535, 0.09176391363143921, -0.13625669479370117, -0.09545060992240906, -0.19509583711624146, 0.20370347797870636, -0.09661059826612473, -0.15391623973846436, -0.03504376858472824, 0.08059774339199066, 0.01777668669819832, 0.08000152558088303, 0.0026511766482144594, 0.31363746523857117, -0.08708988130092621, -0.05953526124358177, 0.06093580275774002, 0.06460732221603394, -0.05232671648263931, 0.006286286283284426, -0.12005883455276489, 0.002640774706378579, -0.0697086900472641, 0.05799059197306633, -0.06600179523229599, 0.16947293281555176, 0.1765294373035431, 0.005177858751267195, -0.07020056247711182, -0.09940259158611298, -0.06403332948684692, -0.07321389764547348, 0.12444383651018143, 0.05563259497284889, -0.0007271706126630306, -0.010935928672552109, -0.01519160158932209, 0.20124877989292145, 0.13159120082855225, -0.028437325730919838, -0.003261517034843564, 0.031047960743308067, 0.01629476435482502, -0.07367414981126785, 0.14335490763187408, -0.10601701587438583, 0.06743669509887695, 0.029902560636401176, 0.16847345232963562, 0.010561441071331501, -0.009533742442727089, -0.013795053586363792, 0.19828908145427704, -0.043611109256744385, -0.12747976183891296, 0.013538028113543987, 0.07477287948131561, 0.027796877548098564, 0.04817565530538559, -0.018491916358470917, 0.011414190754294395, -0.027101444080471992, 0.030937982723116875, -0.16016367077827454, -0.08904903382062912, -0.055765558034181595, -0.030346030369400978, -0.020683739334344864, -0.08190087229013443, -0.05780082195997238, 0.03709455952048302, 0.01696573570370674, -0.07779508084058762, 0.2561594247817993, 0.012374766170978546, 0.03757380321621895, -0.054056908935308456, 0.09302382171154022], [-0.04139786958694458, -0.09667760133743286, -0.0606621578335762, -0.0583677776157856, 0.04254266992211342, -0.13187173008918762, -0.1367705911397934, 0.020317431539297104, -0.09353724867105484, -0.050167616456747055, -0.047185931354761124, -0.07191646099090576, -0.01887626387178898, 0.007295904215425253, 0.026728862896561623, -0.07300844043493271, 0.08167973160743713, 0.025319082662463188, -0.07481195032596588, -0.02023659087717533, -0.05800221860408783, -0.044129952788352966, -0.005863516591489315, 0.14512385427951813, -0.07119880616664886, 0.1743275225162506, 0.15043646097183228, 0.07775471359491348, -0.08677548170089722, -0.062232762575149536, -0.11997794359922409, -0.08006306737661362, -0.02983871102333069, -0.039494987577199936, -0.08252900093793869, 0.01903526857495308, -0.0638822466135025, -0.056688591837882996, -0.04202073812484741, -0.061608731746673584, -0.09848302602767944, 0.11392367631196976, -0.006495751906186342, -0.08969482779502869, -0.037108611315488815, 0.04616674408316612, -0.040600769221782684, -0.12864583730697632, -0.04378466680645943, -0.020029328763484955, -0.12230578809976578, -0.0782235860824585, 0.014629215002059937, 0.18488697707653046, 0.08579420298337936, -0.03246133401989937, -0.13210847973823547, 0.19014295935630798, 0.02886098250746727, 0.04768883064389229, -0.096531443297863, -0.07521487027406693, 0.019697783514857292, -0.04325463995337486, 0.04429687559604645, 0.16543561220169067, 0.0057756658643484116, 0.030096856877207756, 0.014517763629555702, -0.09692417085170746, 0.03969013690948486, 0.15243078768253326, 0.04440278187394142, 0.012625345960259438, 0.06042681261897087, 0.12541039288043976, 0.07569233328104019, 0.07095622271299362, -0.08734944462776184, 0.13387520611286163, -0.05956783518195152, 0.04712306708097458, 0.058063387870788574, 0.10466999560594559, -0.098808653652668, 0.048288002610206604, 0.06156385689973831, -0.03760599344968796, -0.06922385096549988, -0.15299947559833527, 0.1279093623161316, 0.18132121860980988, 0.02835182100534439, -0.07745090872049332, 0.1264452189207077, 0.029760396108031273, 0.20541104674339294, -0.09843398630619049, -0.1139867752790451, 0.11387360095977783], [0.06754586100578308, -0.049059171229600906, -0.08398514240980148, -0.03277488797903061, -0.11182423681020737, 0.15007685124874115, 0.2876706123352051, -0.04168390482664108, 0.11087272316217422, 0.12978072464466095, 0.020905282348394394, 0.11016964167356491, 0.09284792840480804, 0.048854175955057144, 0.04892546683549881, -0.06002044305205345, -0.02658039890229702, -0.15580621361732483, -0.04549926891922951, -0.007166603114455938, -0.11046089977025986, 0.04425043985247612, 0.2030474841594696, -0.1053546667098999, -0.07473572343587875, 0.03524910286068916, 0.0778852254152298, 0.29148465394973755, -0.05475415289402008, -0.11998151987791061, 0.04188996180891991, 0.004933538381010294, 0.11956334859132767, 0.03621856868267059, 0.00039470475167036057, -0.07508055865764618, 0.06774965673685074, 0.037691131234169006, 0.04891454055905342, 0.12759704887866974, 0.17486631870269775, 0.008155596442520618, -0.07747703045606613, -0.04928147792816162, -0.012275004759430885, 0.015410220250487328, 0.48428580164909363, 0.12082932144403458, 0.034468624740839005, -0.06958235055208206, 0.26938843727111816, 0.15196216106414795, 0.02090362459421158, 0.05357574671506882, 0.043017420917749405, -0.06589335948228836, -0.11653760820627213, 0.13285402953624725, -0.06390999257564545, -0.09268830716609955, -0.02281212992966175, 0.0012534100096672773, -0.06457135081291199, 0.0036694901064038277, 0.002342779189348221, 0.1540629267692566, 0.1336134523153305, 0.041743580251932144, -0.023433294147253036, -0.13402020931243896, 0.011775366961956024, 0.013208501040935516, -0.02312231995165348, 0.11116566509008408, -0.09792876243591309, -0.10443413257598877, -0.06905441731214523, -0.1324004977941513, 0.13143402338027954, -0.03977823629975319, 0.03554007038474083, 0.01007226761430502, -0.03445861488580704, -0.04280530661344528, 0.01894947700202465, -0.11868257820606232, 0.16353794932365417, 0.010654163546860218, 0.04681604355573654, 0.04902807995676994, -0.05741479992866516, 0.023756995797157288, 0.020150629803538322, -0.1051919087767601, -0.018229156732559204, -0.09199672937393188, -0.006401281803846359, -0.09551747143268585, -0.035063888877630234, -0.13870221376419067], [0.020528681576251984, 0.03687417134642601, -0.06998094916343689, 0.0360061340034008, -0.010131698101758957, -0.0813121348619461, -0.028146451339125633, 0.021894944831728935, 0.11063854396343231, -0.08227752894163132, 0.05020443722605705, 0.18340958654880524, 0.0032824750524014235, -0.07010289281606674, 0.17792367935180664, 0.09794990718364716, 0.15710434317588806, 0.03051215037703514, -0.038511570543050766, 0.1126999706029892, -0.018104219809174538, -0.020946186035871506, 0.16101893782615662, -0.1016465574502945, -0.10504826158285141, -0.01344308815896511, -0.09967369586229324, 0.05948431044816971, 0.031175198033452034, 0.09711228311061859, -0.050418537110090256, -0.04659152403473854, 0.1163712739944458, 0.07216782867908478, -0.02014891617000103, -0.1031905934214592, -0.11576958745718002, -0.07707137614488602, 0.019811542704701424, 0.02784171886742115, 0.014128179289400578, 0.13291530311107635, -0.03336590155959129, -0.07401089370250702, -0.14994116127490997, -0.1959042102098465, -0.2162448912858963, -0.020740116015076637, -0.11025180667638779, -0.09558891505002975, -0.06089789420366287, 0.13495777547359467, 0.038474325090646744, -0.11519601941108704, -0.12584911286830902, -0.15830004215240479, -0.029105402529239655, -0.0985710546374321, -0.015422175638377666, 0.18476861715316772, -0.06269986927509308, -0.02008209191262722, -0.06188086420297623, -0.05536440759897232, 0.020438238978385925, 0.0430954210460186, 0.008106893859803677, 0.11912867426872253, -0.10701973736286163, -0.016718000173568726, -0.16542662680149078, -0.11127713322639465, -0.06315138936042786, -0.035093918442726135, -0.10047553479671478, -0.05388732627034187, -0.08738067001104355, 0.014858056791126728, -0.09053239971399307, -0.08697861433029175, 0.02604219876229763, 0.026175133883953094, 0.013674738816916943, 0.09508456289768219, -0.05661185458302498, -0.17793716490268707, 0.03800405561923981, 0.01920381933450699, 0.014792658388614655, -0.051166534423828125, 0.10346632450819016, -0.03633468970656395, 0.05724930390715599, -0.05252121016383171, 0.06383246183395386, -0.24127726256847382, -0.021649731323122978, 0.06739335507154465, 0.22456420958042145, -0.09045836329460144], [-0.041587505489587784, -0.022781977429986, -0.10510756820440292, -0.06505807489156723, 0.2072204202413559, 0.0030892284121364355, 0.20314982533454895, -0.07142464816570282, -0.08543899655342102, 0.21346837282180786, 0.11776363104581833, 0.010629615746438503, -0.07077573239803314, -0.04400402307510376, -0.03944580256938934, -0.09438791871070862, 0.0788712427020073, -0.11153992265462875, -0.15272927284240723, -0.07834965735673904, -0.07345154136419296, -0.004431802313774824, 0.22317931056022644, 0.15419164299964905, 0.2300710529088974, -0.01471494697034359, -0.06252477318048477, -0.11473078280687332, 0.2145414501428604, -0.005274797324091196, -0.024114185944199562, -0.10081852227449417, -0.054997168481349945, -0.06160019338130951, 0.08540759235620499, -0.07450934499502182, 0.010443500243127346, 0.15366852283477783, -0.06766819953918457, -0.03636358678340912, 0.015024018473923206, -0.042318060994148254, 0.16850495338439941, 0.13972941040992737, -0.028370346873998642, 0.24462614953517914, 0.09738127887248993, -0.018319742754101753, 0.038918036967515945, -0.03606822341680527, -0.07253669947385788, 0.0732516497373581, -0.03565017506480217, -0.002344511216506362, -0.028250431641936302, -0.07228878140449524, -0.09230653941631317, -0.031653087586164474, -0.07583659887313843, -0.032087620347738266, 0.07873369753360748, -0.10188561677932739, -0.016822412610054016, -0.030491257086396217, -0.04347696900367737, -0.042148903012275696, -0.026108134537935257, 0.07229312509298325, 0.028785523027181625, -0.10791025310754776, 0.23226958513259888, -0.03671099618077278, 0.019849423319101334, -0.08374545723199844, -0.1011500433087349, 0.10609541833400726, 0.09703507274389267, -0.06769053637981415, -0.1174606904387474, -0.0983571782708168, 0.0114802410826087, 0.022681426256895065, -0.05803408846259117, 0.06403939425945282, -0.11645332723855972, 0.14308366179466248, -0.00607550423592329, -0.011689545586705208, -0.013189257122576237, -0.06732659041881561, -0.004246246535331011, -0.0728745087981224, -0.04810405895113945, 0.16144505143165588, -0.0700659230351448, 0.12766636908054352, -0.025968490168452263, -0.07619864493608475, -0.12613746523857117, -0.0147924879565835], [0.12840791046619415, -0.04238558188080788, -0.01410602405667305, -0.07752584666013718, -0.15346160531044006, -0.033118393272161484, -0.10298548638820648, 0.07731595635414124, 0.040758587419986725, 0.17017439007759094, 0.11565478891134262, -0.11288607120513916, -0.09232846647500992, -0.16011083126068115, -0.025658514350652695, -0.19179852306842804, 0.1649785190820694, 0.12516766786575317, 0.18632180988788605, 0.14927732944488525, 0.04678040370345116, -0.03091678023338318, -0.05518372356891632, 0.027337372303009033, -0.16779206693172455, -0.058430302888154984, 0.09083881229162216, 0.15515068173408508, -0.15793432295322418, -0.03974546864628792, -0.08663517981767654, 0.026041895151138306, -0.06135380640625954, 0.03905416280031204, 0.13585340976715088, -0.08076896518468857, 0.16399288177490234, -0.017667576670646667, -0.02788914553821087, -0.0759081095457077, 0.016941871494054794, 0.03176001086831093, -0.0627560168504715, -0.12763376533985138, -0.1508130133152008, 0.07209113240242004, -0.06579911708831787, -0.1353340595960617, 0.1107519343495369, -0.14383576810359955, -0.05290859192609787, 0.10282370448112488, 0.02937156893312931, 0.03176949918270111, 0.2345825433731079, -0.015572253614664078, -0.09870949387550354, 0.013087273575365543, -0.159647598862648, 0.015060978010296822, 0.2943642735481262, 0.07005807757377625, -0.02704082429409027, -0.03128163516521454, -0.06650741398334503, -0.009004302322864532, -0.029810067266225815, 0.0658269003033638, 0.1548203080892563, -0.21002450585365295, 0.09510186314582825, -0.0766705796122551, 0.15998701751232147, -0.0631624087691307, 0.0662764459848404, 0.11249470710754395, -0.03433965519070625, -0.13606099784374237, -0.004041287582367659, 0.0866110548377037, 0.016248101368546486, -0.11675245314836502, -0.13630935549736023, -0.11424067616462708, -0.13026756048202515, 0.3307109773159027, -0.10920480638742447, -0.06299396604299545, -0.1311461180448532, 0.027543548494577408, -0.0027148756198585033, -0.07981504499912262, -0.0011807207483798265, -0.03460385277867317, -0.10273238271474838, -0.24481597542762756, -0.03287827596068382, -0.09938277304172516, -0.10944114625453949, -0.11900608241558075], [-0.13578054308891296, 0.3178686797618866, 0.10962601751089096, 0.01582622155547142, -0.0986747071146965, -0.15611477196216583, 0.0014491162728518248, -0.08968178927898407, -0.09296451508998871, -0.07134457677602768, -0.0675891637802124, 0.03339158743619919, 0.09122849255800247, 0.029109656810760498, -0.12238571047782898, 0.18254700303077698, 0.16460153460502625, -0.008629477582871914, 0.07621411234140396, 0.006510980427265167, -0.052752550691366196, 0.09230013191699982, -0.05366744473576546, -0.10857381671667099, -0.0527602881193161, 0.05698391795158386, -0.00824087392538786, 0.05196235328912735, -0.08129455894231796, 0.028097057715058327, 0.02084125578403473, -0.0354439876973629, 0.12012089043855667, 0.15899579226970673, 0.1175551638007164, 0.032515279948711395, -0.1305321753025055, 0.07787714153528214, 0.08961661159992218, 0.010621272027492523, 0.009268831461668015, -0.08213640749454498, -0.004098870791494846, -0.0903133824467659, 0.21866270899772644, 0.004203558899462223, 0.020746950060129166, -0.037009987980127335, 0.16637246310710907, -0.12573878467082977, -0.11842827498912811, -0.018136749044060707, 0.01193136628717184, -0.12473741173744202, -0.1391265094280243, 0.03296569734811783, 0.005045718979090452, -0.07767888903617859, -0.1325322538614273, -0.025421753525733948, 0.06205540522933006, 0.24007631838321686, 0.008461338467895985, 0.04654361307621002, 0.02855840139091015, 0.0607537142932415, 0.057150665670633316, -0.018109597265720367, -0.020599571987986565, -0.022163303568959236, 0.07691261172294617, 0.06110120192170143, -0.056704647839069366, -0.056294817477464676, 0.1573280692100525, 0.10858336091041565, 0.21718041598796844, -0.015360817313194275, -0.08782586455345154, -0.07002037763595581, -0.08398932963609695, -0.06117342785000801, -0.030775846913456917, -0.036582451313734055, -0.04341205954551697, -0.1265312135219574, 0.04075931757688522, -0.0805101990699768, -0.05614246800541878, -0.01080932654440403, 0.13190744817256927, 0.09164265543222427, 0.08884043991565704, -0.04339185357093811, 0.059536177664995193, 0.1478205919265747, -0.08501271903514862, 0.1303664892911911, 0.27858656644821167, 0.08820405602455139], [-0.07422304153442383, -0.041837964206933975, -0.02381225675344467, 0.04642947018146515, 0.05339555814862251, 0.38098984956741333, -0.054487694054841995, -0.09408507496118546, -0.09950843453407288, -0.024615086615085602, -0.025553060695528984, 0.03314472734928131, 0.16440002620220184, -0.09000422805547714, -0.033786188811063766, -0.16879671812057495, 0.042761631309986115, -0.03957636281847954, 0.047613777220249176, -0.09708873182535172, 0.045549120754003525, 0.21215598285198212, 0.007991692051291466, -0.023978376761078835, -0.002584692556411028, 0.030072860419750214, -0.12465054541826248, -0.12588344514369965, -0.0987507775425911, 0.0216886717826128, 0.11533091217279434, 0.07934340834617615, -0.03872201591730118, 0.046634189784526825, -0.020989811047911644, -0.045865800231695175, -0.09628907591104507, -0.04660588875412941, 0.01764506660401821, -0.004051524214446545, -0.08700935542583466, -0.013656035996973515, -0.14772522449493408, -0.12991760671138763, 0.03731057792901993, -0.16257742047309875, 0.09196192771196365, -0.11246087402105331, 0.13696426153182983, -0.07888198643922806, 0.11212196201086044, -0.0610731802880764, 0.005292532499879599, -0.06781179457902908, -0.04126296937465668, 0.2479034960269928, 0.028854623436927795, 0.007696952670812607, -0.0642453134059906, -0.10015105456113815, 0.005718402564525604, -0.11757253855466843, 0.21817940473556519, 0.010217662900686264, -0.06020438298583031, -0.005103471223264933, 0.13413448631763458, 0.02632477693259716, 0.07784448564052582, 0.024566087871789932, -0.09129807353019714, 0.12977750599384308, 0.04500666633248329, 0.08721606433391571, 0.14809376001358032, -0.12446878850460052, -0.16781778633594513, -0.013116360642015934, -0.08992888033390045, -0.03980376571416855, 0.043207187205553055, -0.05953003093600273, 0.0018126838840544224, 0.17623518407344818, 0.01821845769882202, -0.1981523185968399, -0.06400672346353531, 0.14108102023601532, -0.05378991365432739, -0.093300960958004, 0.08813776075839996, -0.09841461479663849, -0.1138853132724762, -0.010630088858306408, -0.094467893242836, -0.12100115418434143, -0.11887716501951218, -0.02451251819729805, -0.055195536464452744, -0.0007529532304033637], [-0.10152695327997208, -0.01303783617913723, 0.07507334649562836, 0.0003232647432014346, 0.01804943196475506, 0.25090092420578003, -0.089737169444561, -0.06058555468916893, -0.012730210088193417, -0.0782758891582489, -0.1208476573228836, -0.053313322365283966, 0.015980346128344536, -0.07383463531732559, 0.16728587448596954, -0.08227577805519104, -0.06834726780653, 0.1421082466840744, 0.03089926205575466, -0.14046183228492737, 0.06971444189548492, -0.05056587979197502, -0.06922215223312378, 0.15584637224674225, 0.10321185737848282, -0.06413944065570831, -0.09764634817838669, -0.03578273952007294, 0.053675390779972076, 0.050883349031209946, -0.012567340396344662, -0.019735774025321007, 0.029683927074074745, 0.01725894585251808, -0.02217588946223259, 0.011939380317926407, 0.01733526960015297, 0.014487003907561302, -0.05215553194284439, -0.014496944844722748, -0.017069384455680847, 0.05678291991353035, 0.1938408762216568, 0.0397477000951767, 0.055075496435165405, 0.012106639333069324, -0.058983251452445984, 0.08437582850456238, 0.16121356189250946, 0.10080060362815857, 0.18187186121940613, 0.09891006350517273, -0.01819869503378868, -0.05473073944449425, -0.048774417489767075, -0.012212222442030907, -0.11571532487869263, -0.03438674658536911, 0.07066945731639862, -0.06834344565868378, 0.2071101814508438, -0.0768446996808052, -0.07601521164178848, -0.0634414404630661, -0.0621890053153038, 0.12206366658210754, 0.09343567490577698, -0.05360764265060425, -0.012621910311281681, -0.10138330608606339, -0.0680861696600914, 0.11792005598545074, 0.0907517746090889, -0.0020892254542559385, 0.14549414813518524, 0.13121791183948517, -0.06289378553628922, 0.16483357548713684, 0.01293906569480896, -0.0987897515296936, 0.1585477739572525, -0.011646670289337635, 0.17010793089866638, 0.174086794257164, 0.1443067342042923, -0.0005685779033228755, 0.06004296615719795, 0.13707855343818665, 0.08185329288244247, 0.20529203116893768, -0.07636507600545883, 0.14449985325336456, 0.061859261244535446, 0.09358420968055725, 0.07327292859554291, -0.16826464235782623, -0.09575323760509491, -0.08710656315088272, -0.08786749839782715, 0.10152709484100342], [0.043688081204891205, -0.11965451389551163, 0.26184946298599243, 0.0052130818367004395, 0.20387579500675201, -0.07786761969327927, -0.06588086485862732, 0.0724915936589241, -0.05336279794573784, -0.07504446804523468, -0.043438684195280075, -0.015797659754753113, -0.015730654820799828, 0.04555694758892059, 0.07133292406797409, 0.1287524700164795, -0.09066056460142136, 0.027686934918165207, 0.05998161807656288, -0.06345474720001221, -0.0267333947122097, -0.0633585974574089, -0.10464635491371155, -0.05287966504693031, -0.049653951078653336, 0.04120280593633652, -0.08378865569829941, -0.01922793500125408, 0.12755779922008514, -0.031972210854291916, -0.020249707624316216, -0.0659993439912796, -0.04905453696846962, 0.09652747213840485, -0.056007131934165955, 0.08897436410188675, 0.04274732992053032, -0.012116186320781708, -0.032567691057920456, 0.015956629067659378, 0.012749324552714825, -0.05792650580406189, -0.01300920732319355, -0.02741084434092045, 0.03011305443942547, 0.014301339164376259, -0.08086934685707092, -0.009323383681476116, 0.0029721653554588556, 0.01252031046897173, -0.09351101517677307, -0.05354728549718857, -0.01975196599960327, 0.004807424731552601, 0.04944168031215668, -0.020832298323512077, 0.0076729487627744675, -0.08918303996324539, -0.060378558933734894, -0.0702742338180542, -0.07012496143579483, 0.04774949327111244, -0.04617087543010712, 0.03939732536673546, 0.03932919353246689, -0.1251915693283081, -0.024178827181458473, 0.262654185295105, 0.021070413291454315, -0.07122715562582016, -0.008103808388113976, 0.01951916702091694, -0.09272412955760956, 0.11575809866189957, 0.005567458458244801, -0.061822425574064255, -0.03671567887067795, -0.00517625268548727, -0.07643802464008331, 0.07190179079771042, -0.009809499606490135, -0.06005823612213135, 0.02503391169011593, 0.15033046901226044, -0.014892484992742538, 0.012857205234467983, -0.013216119259595871, -0.011969524435698986, -0.07001897692680359, -0.05616036802530289, 0.09949515759944916, -0.0333588533103466, 0.1232340857386589, -0.045334309339523315, 0.009437935426831245, -0.1369898021221161, -0.08239187300205231, -0.0510752871632576, 0.09685909748077393, 0.022937582805752754], [0.16760067641735077, -0.13153742253780365, -0.1117202565073967, -0.0470411516726017, -0.057658661156892776, -0.06863725185394287, -0.11893097311258316, 0.09234509617090225, -0.0391276553273201, -0.01576474867761135, 0.09617895632982254, 0.1715727597475052, -0.07437555491924286, 0.110602006316185, -0.07686380296945572, 0.2548358738422394, -0.0170536357909441, -0.07953117787837982, -0.08385717123746872, 0.05951988324522972, 0.022234151139855385, -0.05877300724387169, -0.06901436299085617, -0.12459274381399155, -0.04094746336340904, -0.02737446129322052, -0.04078739508986473, 0.005067835096269846, 0.027417516335844994, -0.13178908824920654, 0.00040926755173131824, -0.06938202679157257, -0.07086633890867233, -0.045920781791210175, -0.01016873400658369, -0.10728687047958374, 0.045788805931806564, 0.05672384053468704, -0.10362587869167328, 0.08942975103855133, -0.0925794318318367, -0.053695570677518845, 0.23879092931747437, 0.0023441584780812263, 0.19481727480888367, -0.015970198437571526, 0.007395223714411259, 0.12784476578235626, -0.03253598138689995, 0.02056230790913105, 0.011757610365748405, -0.07419618964195251, -0.039874475449323654, 0.08998680114746094, 0.014128081500530243, 0.02160544879734516, 0.2291632443666458, -0.0019004050409421325, 0.07003512233495712, -0.07527601718902588, -0.0989520251750946, -0.05837157368659973, -0.05131344869732857, 0.05849238112568855, 0.01570645533502102, 0.2080729752779007, 0.04693710803985596, -0.13937479257583618, -0.10882849991321564, -0.17386995255947113, -0.0728444755077362, -0.05622823163866997, -0.07060714811086655, 0.18734069168567657, 0.003248615190386772, 0.12380717694759369, -0.07395996153354645, 0.16060848534107208, 0.11080079525709152, -0.062073659151792526, -0.016582606360316277, -0.06364969909191132, 0.041857436299324036, -0.07830902934074402, -0.0346812941133976, 0.026890266686677933, 0.11212555319070816, -0.1346147358417511, -0.08409625291824341, 0.0249899011105299, -0.09985560178756714, -0.09005028009414673, 0.0014393300516530871, 0.14467434585094452, 0.023935236036777496, 0.02807607315480709, -0.07838060706853867, -0.07781442254781723, 0.02371068112552166, -0.03058365359902382], [-0.023005982860922813, 0.06645228713750839, -0.035394005477428436, 0.1494104117155075, 0.03820768743753433, 0.14213219285011292, 0.022270526736974716, -0.08655564486980438, -0.013932404108345509, -0.017690403386950493, -0.002573832403868437, 0.09125739336013794, 0.035844847559928894, 0.13769665360450745, -0.012367134913802147, -0.12190927565097809, -0.00227365642786026, -0.030539855360984802, 0.18357612192630768, -0.008617419749498367, 0.24132375419139862, -0.015823254361748695, 0.07067621499300003, -0.15384335815906525, -0.04175638034939766, -0.044420383870601654, -0.11092712730169296, 0.08607760071754456, 0.022914975881576538, -0.10728210210800171, 0.023975564166903496, -0.07537698745727539, -0.04078512638807297, -0.1302320510149002, -0.02622910775244236, -0.022098688408732414, 0.012781201861798763, -0.04008276388049126, 0.02360842376947403, -0.0071705421432852745, 0.0255233533680439, 0.01945505663752556, 0.0013276757672429085, 0.08290468901395798, -0.030278410762548447, -0.007145292591303587, -0.12659487128257751, 0.1161542683839798, 0.11502385139465332, -0.08857116848230362, -0.04067998006939888, 0.01972212642431259, -0.028262458741664886, -0.05994204804301262, 0.04386194422841072, 0.12622882425785065, 0.04612260311841965, 0.01230485551059246, 0.055079951882362366, -0.10525771230459213, 0.05685805901885033, -0.07025889307260513, -0.03875792399048805, 0.025705486536026, -0.1363087147474289, -0.041683491319417953, 0.08616343885660172, -0.06204927712678909, -0.01741265319287777, -0.1206887811422348, -0.0009248430724255741, -0.079522505402565, -0.12030617892742157, -0.07562913000583649, 0.21866533160209656, -0.06553826481103897, -0.10214372724294662, -0.04975590482354164, 0.11470827460289001, -0.04644714295864105, -0.07199129462242126, -0.09372849762439728, -0.09385933727025986, -0.07541438192129135, 0.01579967886209488, -0.1358514279127121, 0.0005973926745355129, 0.013548693619668484, -0.11461102962493896, -0.018284469842910767, 0.000511103542521596, 0.004438768140971661, -0.000957871088758111, -0.07359539717435837, -0.09345000237226486, -0.06866470724344254, 0.07368873059749603, 0.04211827740073204, -0.12227068096399307, 0.16227103769779205], [-0.07761877775192261, 0.2941265404224396, -0.0305422842502594, -0.1878693401813507, 0.23995989561080933, -0.1522555947303772, 0.03364289179444313, -0.09313582628965378, -0.10355708003044128, 0.09995104372501373, 0.15416178107261658, -0.0477268323302269, 0.10058066248893738, -0.14141987264156342, 0.013904228806495667, -0.1855342984199524, 0.10120382159948349, 0.031227830797433853, 0.028334328904747963, 0.10790333151817322, -0.13722991943359375, 0.01980701833963394, 0.16870078444480896, 0.19351963698863983, -0.036300260573625565, -0.02481362782418728, 0.17609946429729462, -0.04119710996747017, 0.06042255461215973, 0.1492045521736145, 0.09671298414468765, 0.13605716824531555, -0.07286681979894638, -0.06986937671899796, -0.05086567625403404, 0.0010577631182968616, 0.029305296018719673, 0.035738755017519, 0.15703612565994263, 0.03370880335569382, -0.06730952858924866, 0.025989461690187454, -0.012673010118305683, -0.03075389936566353, 0.18690498173236847, 0.15931575000286102, 0.01433909684419632, -0.018359312787652016, 0.10367119312286377, 0.08060892671346664, 0.21958167850971222, -0.0367417186498642, 0.07264229655265808, 0.11116063594818115, -0.01516612060368061, 0.3100208044052124, 0.08308523893356323, 0.08825933188199997, -0.024076785892248154, 0.04067366197705269, -0.06939088553190231, 0.11167901009321213, -0.009722108021378517, -0.07245168089866638, 0.1652223765850067, -0.03984479978680611, 0.21631231904029846, 0.008137191645801067, -0.038790713995695114, -0.03550524264574051, 0.02781544253230095, -0.022519055753946304, 0.10782647877931595, -0.015502611175179482, -0.015149316750466824, 0.009914686903357506, 0.0925004780292511, -0.0013046180829405785, -0.021193576976656914, 0.009946832433342934, 0.0861939936876297, 0.14635078608989716, 0.10047750920057297, 0.056025031954050064, 0.0471031591296196, 0.2770015001296997, -0.013612058945000172, -0.06467874348163605, -0.045460622757673264, -0.020392879843711853, 0.12850135564804077, -0.004139811731874943, -0.11341582983732224, -0.04416470229625702, 0.1357194036245346, -0.15357424318790436, -0.040500182658433914, -0.0020061105024069548, -0.05283740907907486, 0.03744048625230789], [-0.018266169354319572, -0.05395084246993065, 0.030009590089321136, -0.056850459426641464, -0.03605211153626442, -0.04618271812796593, 0.01033658068627119, -0.014746383763849735, -0.06126907840371132, 0.0532965324819088, -0.07143034785985947, 0.020314564928412437, -0.08450715243816376, -0.03773534670472145, -0.02548198401927948, -0.10514236241579056, -0.06951878219842911, 0.19339041411876678, 0.00932776927947998, -0.06143549829721451, -0.06720244139432907, -0.1261083483695984, 0.11556737869977951, 0.04618646204471588, -0.13624030351638794, 0.2981514036655426, -0.03714888170361519, 0.08210442215204239, 0.10194519907236099, -0.11540836095809937, 0.0034342012368142605, -0.012711213901638985, -0.12840895354747772, -0.10757502168416977, 0.0348481647670269, -0.03858231380581856, -0.028155047446489334, 0.000698103045579046, -0.0076790484599769115, -0.04709037393331528, -0.0778939425945282, 0.027591736987233162, -0.0030792909674346447, -0.10247872024774551, 0.1641852855682373, 0.03397034853696823, -0.05905081331729889, -0.010148826986551285, 0.07540099322795868, -0.1368529498577118, -0.036872413009405136, 0.08282648026943207, -0.023185860365629196, 1.415404403815046e-05, -0.08123385906219482, -0.01038780715316534, 0.0046471417881548405, -0.020450040698051453, -0.04155759513378143, -0.003026716411113739, 0.007479752879589796, 0.15626856684684753, -0.0882333442568779, 0.02760223113000393, 0.055020496249198914, 0.09441214799880981, 0.13449864089488983, -0.1336282640695572, -0.0213069599121809, -0.027715275064110756, -0.07028141617774963, 0.16194161772727966, -0.014841395430266857, -0.09792617708444595, 0.06782165914773941, -0.02423514425754547, -0.032300543040037155, 0.03636989742517471, 0.012660219334065914, -0.04107043892145157, 0.004665710031986237, -0.03304993733763695, 0.09274470061063766, 0.05654872953891754, 0.056728143244981766, -0.08837498724460602, 0.01104713510721922, 0.05638197064399719, -0.008291211910545826, -0.0444256030023098, -0.020360644906759262, -0.05880751460790634, 0.13864541053771973, -0.032592304050922394, -0.09836649894714355, -0.06004353612661362, -0.1015130952000618, 0.0411812849342823, -0.06547005474567413, 0.08383385092020035], [-0.09432803839445114, -0.09234635531902313, 0.13090412318706512, -0.1200236827135086, 0.15214917063713074, -0.032655615359544754, -0.15676574409008026, -0.034272029995918274, 0.027583394199609756, -0.08083564788103104, -0.1057937890291214, -0.09643090516328812, 0.04888486862182617, 0.08663345873355865, -0.08186183124780655, -0.07375594228506088, -0.10855179280042648, -0.0708884671330452, -0.05073339492082596, 0.04440976306796074, 0.10883355140686035, 0.11113884299993515, -0.13954369723796844, -0.09759264439344406, 0.168615460395813, -0.03672781586647034, 0.0542803555727005, 0.10897310823202133, 0.01143172662705183, -0.06869097054004669, 0.05660630390048027, -0.057137034833431244, 0.177439883351326, -0.1048523411154747, -0.10118287801742554, 0.00463118078187108, -0.040262382477521896, -0.03580426424741745, -0.08082695305347443, 0.025637026876211166, -0.020075924694538116, -0.14536727964878082, 0.01871095970273018, 0.10355471819639206, 0.004720494616776705, -0.04738891124725342, 0.02391023188829422, -0.02102217823266983, 0.21428599953651428, -0.03725269064307213, -0.16937685012817383, -0.07737231254577637, -0.0983567163348198, -0.05909978970885277, -0.07185002416372299, -0.10853502154350281, -0.06279681622982025, -0.05206570401787758, -0.06405322998762131, 0.08100150525569916, -0.05546768009662628, -0.1454036384820938, -0.06402771174907684, 0.034378815442323685, -0.06159156560897827, 0.025245390832424164, -0.05570008233189583, -0.05487031489610672, -0.06284122914075851, -0.01778579317033291, 0.008302271366119385, 0.055623289197683334, -0.004529631696641445, -0.03992616757750511, 0.001468291855417192, -0.11431873589754105, -0.004307279828935862, 0.03952036052942276, 0.047707028687000275, 0.00549881998449564, -0.1242070198059082, 0.06445535272359848, -0.11745782941579819, -0.08220946788787842, 0.0394606851041317, -0.028237635269761086, -0.09038969874382019, 0.013743077404797077, -0.04160477966070175, -0.024623550474643707, -0.06336493045091629, 0.08020751923322678, -0.016261911019682884, 0.19358830153942108, -0.1406305581331253, 0.2745687663555145, 0.005598679184913635, -0.028405748307704926, -0.03450910747051239, -0.07787968218326569], [-0.0047423564828932285, -0.014135058037936687, -0.05820083245635033, 0.19969680905342102, -0.1338411271572113, -0.11899930983781815, 0.15741661190986633, -0.1595093309879303, 0.04109539836645126, 0.005664610303938389, 0.11038722842931747, 0.1480133980512619, -0.11402588337659836, 0.12822239100933075, -0.02080962248146534, 0.033389825373888016, -0.06791827827692032, 0.10134153813123703, 0.02457466907799244, 0.07655082643032074, -0.05183285102248192, -0.1234714612364769, 0.008345415815711021, 0.0223016906529665, -0.06359941512346268, -0.12007511407136917, -0.061696384102106094, -0.11424874514341354, 0.1000497117638588, -0.09348396956920624, -0.027540775015950203, 0.06377025693655014, -0.0013375604758039117, 0.015301268547773361, -0.06051404029130936, -0.13731400668621063, -0.04496309533715248, 0.09873069822788239, -0.10771787166595459, 0.003858368843793869, -0.07765890657901764, 0.12540575861930847, -0.10091225802898407, -0.03752540051937103, -0.09930876642465591, 0.08075578510761261, -0.038903795182704926, -0.059536486864089966, 0.021272774785757065, 0.1389009803533554, -0.044727250933647156, 0.004226302728056908, 0.05158979445695877, -0.10874857008457184, -0.13099350035190582, -0.08542058616876602, -0.05164926126599312, 0.006483282893896103, 0.05400056019425392, 0.030305970460176468, 0.04033639654517174, 0.05874422937631607, -0.08315727114677429, 0.07141508907079697, -0.035075824707746506, 0.03054000623524189, -0.08654572814702988, -0.08489105105400085, 0.06229950487613678, 0.0038657260593026876, -0.06635937839746475, -0.12437862157821655, 0.1586882621049881, -0.08983831107616425, -0.0975257158279419, -0.09850821644067764, -0.019898969680070877, -0.06381235271692276, 0.07644803822040558, 0.07219073921442032, 0.0044042132794857025, -0.02003277651965618, 0.03807302936911583, -0.04203903302550316, 0.11381887644529343, 0.08275706321001053, 0.04741479828953743, -0.018743297085165977, -0.05378119274973869, 0.06089279428124428, -0.046133220195770264, -0.10743981599807739, -0.05246991664171219, -0.006292062811553478, -0.017869364470243454, -0.20140580832958221, -0.05840373784303665, -0.048041533678770065, 0.07910536974668503, -0.06212804839015007], [0.00904102809727192, 0.05252351611852646, -0.10174588114023209, -0.0436478890478611, -0.036670997738838196, -0.06332733482122421, 0.11573295295238495, -0.12275979667901993, 0.013253224082291126, -0.08143702149391174, -0.011970924213528633, -0.15051758289337158, -0.11649332195520401, -0.045460257679224014, -0.15158875286579132, 0.08388418704271317, -0.07755184918642044, -0.04541529715061188, 0.2088368982076645, -0.06547360122203827, 0.03787517547607422, 0.022645562887191772, 0.06736155599355698, -0.0747995600104332, -0.0724412128329277, 0.08860556036233902, 0.026926899328827858, 0.08615345507860184, -0.10327509045600891, 0.03745726868510246, -0.0013445514487102628, -0.012535900808870792, -0.005895933602005243, -0.0005141992587596178, -0.0432768389582634, -0.033489860594272614, -0.09389325976371765, -0.07598765939474106, -0.060125645250082016, -0.009959234856069088, 0.05013774707913399, 0.04245682433247566, 0.08106724917888641, -0.08487216383218765, -0.08997498452663422, 0.10029662400484085, -0.02961517684161663, -0.07630254328250885, -0.07801959663629532, 0.042357187718153, -0.014258059673011303, -0.0069237095303833485, 0.0704418197274208, 0.014276692643761635, -0.06512191891670227, -0.059885285794734955, -0.0672263577580452, 0.1432519406080246, -0.07107404619455338, -0.014009237289428711, -0.019087785854935646, -0.06312750279903412, 0.09257738292217255, 0.05368359759449959, -0.0332026444375515, -0.029886607080698013, 0.11053849756717682, -0.05711008980870247, -0.023945383727550507, -0.11690623313188553, 0.261312872171402, 0.008565053343772888, 0.18744021654129028, -0.009385497309267521, 0.13109485805034637, -0.038737379014492035, 0.0011235160054638982, -0.04048514366149902, 0.11840537190437317, 0.1663312464952469, -0.05812467634677887, -0.0008516035741195083, -0.10701634734869003, 0.05882425233721733, -0.08255456387996674, 0.16119466722011566, -0.04909605532884598, 0.07096397876739502, 0.036476410925388336, -0.13693124055862427, -0.07804480195045471, -0.01498173177242279, -0.015623404644429684, -0.07630956918001175, -0.0683797150850296, 0.18237502872943878, -0.062146686017513275, -0.050180766731500626, -0.01627817191183567, 0.05145014449954033], [-0.1216258704662323, -0.026708420366048813, -0.05013221129775047, 0.07951163500547409, -0.006358942948281765, -0.07320072501897812, -0.049522724002599716, -0.07395418733358383, 0.07340668141841888, 0.004669454414397478, 0.0528075248003006, 0.3288337290287018, 0.00452358927577734, -0.03233598172664642, 0.01367645338177681, -0.1494503766298294, 0.03952429071068764, -0.0487898550927639, -0.05322602391242981, 0.09701582044363022, -0.04432300850749016, -0.07259101420640945, -0.11070986092090607, -0.11566928774118423, -0.11069250106811523, -0.016358017921447754, -0.03736129775643349, -0.051714878529310226, -0.04041341692209244, -0.04433140903711319, -0.04828368127346039, -0.06048113480210304, -0.12693651020526886, -0.057767242193222046, 0.10071761161088943, 0.18994155526161194, -0.09351954609155655, -0.055599063634872437, 0.20534059405326843, -0.020672794431447983, 0.05096592381596565, -0.10591116547584534, 0.015903670340776443, -0.13218683004379272, 0.04874855652451515, 0.030539067462086678, -0.19250133633613586, 0.008836161345243454, 0.012380583211779594, -0.0024554121773689985, 0.020156200975179672, -0.009049832820892334, -0.017186544835567474, -0.024588825181126595, -0.10595624148845673, -0.22610069811344147, -0.09746155142784119, -0.09643306583166122, -0.09305758774280548, -0.03293907642364502, -0.01567818969488144, -0.02821030654013157, 0.113688163459301, 0.05122885853052139, -0.08616949617862701, 0.03395707532763481, -0.09916014969348907, -0.10470181703567505, 0.021599415689706802, 0.2282303422689438, 0.04540214687585831, 0.017697306349873543, -0.049178626388311386, -0.105246402323246, -0.07246199995279312, 0.22835154831409454, 0.09655646979808807, -0.033463288098573685, -0.013602009043097496, -0.007191200274974108, 0.1579461395740509, 0.015026074834167957, -0.010373761877417564, 0.05686550214886665, -0.09622711688280106, -0.0822293609380722, 0.05393886938691139, 0.12614400684833527, -0.08820624649524689, -0.030903348699212074, -0.008725833147764206, -0.02718786895275116, 0.009224703535437584, -0.0062681823037564754, -0.1441846489906311, -0.05461942031979561, -0.017207734286785126, -0.014133905991911888, 0.16896097362041473, 0.13258017599582672], [-0.1309712678194046, -0.05857253819704056, 0.0991244912147522, 0.11134613305330276, 0.00030464271549135447, -0.08091531693935394, 0.0037023937329649925, -0.05424834415316582, -0.09261469542980194, 0.008891929872334003, -0.08209063112735748, -0.06927360594272614, -0.11484136432409286, -0.026836873963475227, -0.05691063776612282, 0.0881471112370491, 0.265014111995697, 0.2144739031791687, 0.05897098034620285, -0.10510417073965073, -0.07372472435235977, -0.01922379806637764, 0.0818556696176529, 0.053131554275751114, 0.08000361174345016, -0.015619824640452862, 0.13648836314678192, -0.09015308320522308, -0.12087223678827286, 0.0036408891901373863, 0.06307704001665115, 0.029762281104922295, -0.0402047224342823, 0.09313630312681198, -0.08654876798391342, -0.019639398902654648, -0.0726906806230545, 0.05065774917602539, -0.0798552855849266, 0.058782629668712616, 0.019638387486338615, 0.08154184371232986, 0.23467008769512177, 0.030407285317778587, -0.05323583632707596, 0.1705484390258789, 0.14151063561439514, 0.047541797161102295, -0.010531086474657059, -0.08116721361875534, 0.1870051473379135, 0.031230105087161064, 0.11912521719932556, 0.22970649600028992, 0.04605897516012192, 0.06961390376091003, 0.020410766825079918, 0.1285645216703415, -0.03114859201014042, 0.007618747651576996, 0.020258333534002304, 0.10297824442386627, 0.018037885427474976, 0.2048322558403015, -0.12687239050865173, -0.1061709001660347, -0.08509510010480881, -0.09399059414863586, -0.08003001660108566, 0.24874474108219147, 0.006445456761866808, -0.05192163959145546, 0.00393740413710475, -0.04054264724254608, -0.10332662612199783, 0.11232411861419678, 0.12547439336776733, -0.06111282855272293, -0.084410659968853, -0.08398545533418655, -0.12937884032726288, 0.10003122687339783, 0.04634939134120941, -0.0027332589961588383, 0.018521970137953758, -0.09756734222173691, 0.033437490463256836, 0.04559101164340973, -0.05351337417960167, -0.07099253684282303, 0.2168475240468979, 0.01809816248714924, -0.021131416782736778, 0.20304952561855316, 0.1369781494140625, 0.30784574151039124, -0.032796576619148254, -0.009817256592214108, 0.0010012297425419092, -0.011016666889190674], [-0.010255975648760796, -0.10595981776714325, 0.07018259167671204, -0.08265134692192078, -0.10929680615663528, 0.008164091035723686, -0.1492268294095993, 0.003557611256837845, 0.01880919188261032, 0.0642738789319992, -0.12082931399345398, -0.028492705896496773, -0.05217279866337776, -0.10359030961990356, -0.07404538989067078, -0.13055329024791718, -0.07308223843574524, 0.031752169132232666, -0.04017411917448044, 0.13286691904067993, -0.09743998944759369, -0.01681668870151043, 0.08222632855176926, -0.025939637795090675, -0.05769871547818184, 0.034719180315732956, 0.06863431632518768, -0.11522696912288666, 0.2832004725933075, -0.06986966729164124, -0.0880889892578125, 0.03686217963695526, -0.016761844977736473, 0.10495134443044662, 0.08536996692419052, 0.09122051298618317, -0.0398041270673275, 0.0613088458776474, 0.0009900737786665559, -0.06548907607793808, 0.1713295876979828, -0.005418186075985432, -0.04700508713722229, 0.008648415096104145, -0.027930838987231255, 0.08958496898412704, 0.05383788421750069, -0.12156248837709427, 0.004109806846827269, 0.02270529232919216, -0.004373569507151842, 0.20202980935573578, 0.17660611867904663, 0.008144003339111805, 0.05560040473937988, 0.001009141793474555, -0.04989328980445862, 0.0051145185716450214, -0.03099045716226101, -0.09569830447435379, -0.01156929787248373, -0.06478426605463028, -0.053327035158872604, -0.08103285729885101, -0.2077174335718155, -0.14228592813014984, 0.09508572518825531, -0.13912071287631989, 0.14385561645030975, 0.05624479800462723, -0.10924216359853745, -0.10341910272836685, -0.01582840457558632, -0.05612270161509514, 0.09569043666124344, -0.021772615611553192, -0.03066636435687542, 0.04970162734389305, 0.021795226261019707, -0.06886681914329529, -0.08538269251585007, -0.0882188081741333, -0.08424510806798935, 0.04420185089111328, 0.0199210774153471, -0.1827743798494339, -0.09101154655218124, 0.017383288592100143, -0.014492211863398552, -0.06771139055490494, 0.03442354127764702, -0.05770089849829674, 0.01083653699606657, 0.029425712302327156, -0.018323246389627457, -0.11964723467826843, -0.10387097299098969, -0.11643411964178085, -0.07881353050470352, 