{"0.weight": [[0.07179943472146988, 0.030671285465359688, -0.07896073162555695, -0.05215336009860039, -0.07902470976114273, 0.07571153342723846, 0.06499015539884567, 0.07471831887960434, -0.036585818976163864, 0.051367904990911484, -0.03064432181417942, -0.040678054094314575, 0.06464217603206635, -0.07218017429113388, -0.04286235198378563, -0.01451641134917736, -0.053830329328775406, -0.020002329722046852, -0.08868509531021118, -0.008315110579133034, -0.05976912006735802, -0.10106472671031952, -0.047615256160497665, -0.03870746120810509, -0.07242133468389511, -0.09757502377033234, 0.04912639781832695, 0.09079048782587051, 0.06494581699371338, 0.0006537582958117127, 0.06968989223241806, -0.09154894948005676, 0.07743854820728302, -0.07373780757188797, 0.02430342137813568, 0.06481315195560455, 0.06063004583120346, 0.08221028000116348, 0.05585256591439247, -0.06559623777866364, 0.005628037732094526, 0.02464843913912773, -0.06828662008047104, -0.07594159990549088, 0.06405369192361832, 0.0020641102455556393, 0.00488053634762764, 0.07433857768774033, 0.011751520447432995, -0.05413297563791275, 0.05439211055636406, -0.08348126709461212, -0.01882760599255562, 0.09209565818309784, -0.042233869433403015, -0.07479403167963028, 0.04658658802509308, -0.06258144229650497, 0.029950056225061417, -0.07475882768630981, 0.10581464320421219, -0.017189670354127884, 0.07442258298397064, 0.0035624071024358273, 0.08010093867778778, 0.08272643387317657, -0.0354427695274353, -0.04003598168492317, -0.06372302025556564, -0.013006804510951042, -0.06027866527438164, -0.054042696952819824, 0.037979498505592346, -0.03493143245577812, 0.05647117272019386, 0.08920297026634216, 0.006191000808030367, -0.0682317391037941, -0.05410193279385567, -0.0093378322198987, 0.06257333606481552, -0.037729766219854355, 0.002140509895980358, -0.06497415155172348, 0.07280910760164261, -0.021185407415032387, 0.0007488132687285542, 0.03743114694952965, -0.03485485166311264, 0.08064649254083633, -0.02827388048171997, 0.023376166820526123, -0.013166427612304688, -0.015792859718203545, -0.06101445108652115, -0.08923210203647614, 0.051915135234594345, -0.0037665963172912598, -0.05647512897849083, 0.07158553600311279], [-0.0350140780210495, -0.05164507403969765, -0.0770697146654129, 0.008283532224595547, 0.08316715806722641, -0.08169620484113693, -0.07836423069238663, 0.015054452233016491, -0.08640722930431366, 0.11446639150381088, 0.08505183458328247, 0.0018999424064531922, -0.05718618631362915, -0.09939161688089371, -0.09434827417135239, 0.08005248755216599, 0.00025553195155225694, -0.05344174802303314, -0.02414381504058838, 0.04716622829437256, 0.02573416568338871, 0.04424716904759407, 0.05475270375609398, 0.00427098898217082, 0.036720335483551025, 0.037901245057582855, -0.10294283181428909, 0.08431413769721985, 0.032741934061050415, 0.055984947830438614, -0.06237228214740753, 0.021732525900006294, 0.040113355964422226, -0.05690145492553711, 0.12481021136045456, -0.08549550175666809, 0.032285504043102264, 0.013486282899975777, -0.0783073753118515, -0.051902711391448975, -0.06189466640353203, 0.08014389872550964, 0.06915955990552902, 0.04983218014240265, 0.06047170236706734, -0.04823046922683716, 0.07002029567956924, 0.01117760594934225, 0.033256933093070984, 0.04925363138318062, -0.07892178744077682, 0.007742499001324177, -0.05332493782043457, 0.06609451770782471, -0.06665351986885071, 0.0447501577436924, -0.02206498570740223, 0.023769278079271317, -0.018153084442019463, 0.06908167898654938, 0.07016338407993317, 0.10469003766775131, -0.028776364400982857, -0.07934483140707016, 0.1061137467622757, 0.008268957026302814, 0.0011439397931098938, 0.0630379393696785, 0.0013968587154522538, 0.038945965468883514, -0.07741594314575195, 0.04276173561811447, 0.09555257111787796, -0.011171884834766388, -0.11898346245288849, 0.0070183416828513145, -0.10411082208156586, -0.04457360506057739, -0.012586629949510098, -0.043154485523700714, 0.0017232723766937852, -0.07840757817029953, -0.013012398034334183, 0.07856720685958862, -0.018133364617824554, 0.07776246219873428, 0.047504082322120667, 0.05358172580599785, -0.09839095920324326, 0.005731677636504173, -0.030841801315546036, 0.00019760649593081325, -0.009983867406845093, 0.042053885757923126, -0.04412412270903587, 0.043269798159599304, 0.05581524968147278, 0.07910414040088654, 0.06215585395693779, -0.03773684427142143], [0.07465288043022156, 0.029859770089387894, -0.025621581822633743, -0.058700062334537506, 0.04787858948111534, 0.00847018975764513, -0.09476704895496368, -0.07151298969984055, -0.016272878274321556, 0.030541492626070976, 0.0731683224439621, -0.04890711233019829, 0.06527042388916016, -0.05108816549181938, 0.004732251167297363, 0.08880289644002914, -0.051339175552129745, 0.01676168479025364, -0.08522401005029678, 0.043531741946935654, -0.06344705820083618, -0.045907627791166306, 0.030078543350100517, -0.04794657975435257, -0.01518261432647705, -0.03214067220687866, 0.059289827942848206, 0.02406703121960163, 0.1101420447230339, -0.04872998222708702, 0.002236533211544156, -0.021066082641482353, 0.0019462639465928078, 0.004270825069397688, 0.11073482036590576, 0.030197609215974808, -0.03863959386944771, 0.02029719389975071, 0.09098093211650848, 0.050370682030916214, -0.08962402492761612, -0.05468178540468216, 0.06183307245373726, -0.022023046389222145, 0.054334163665771484, -0.011168158613145351, -0.04150925949215889, 0.030494138598442078, 0.09846366196870804, 0.051353368908166885, 0.08219271898269653, 0.0762859657406807, 0.029593337327241898, 0.06642180681228638, 0.03785907104611397, -0.06883861869573593, -0.04809257760643959, 0.009465275332331657, -0.04587827995419502, -0.05563931539654732, -0.022537291049957275, -0.08613602072000504, -0.021101798862218857, 0.030032897368073463, 0.036374058574438095, -0.04474281519651413, -0.07130995392799377, -0.029190946370363235, -0.08477504551410675, -0.07654571533203125, 0.006563353817909956, 0.06829012930393219, -0.0707939863204956, -0.003532361937686801, 0.048648253083229065, 0.07387852668762207, -0.05188577622175217, -0.0594724677503109, -0.04027614742517471, -0.09833385050296783, 0.01572594605386257, 0.0008077472448348999, 0.01008310355246067, -0.04590633139014244, -0.06137280538678169, -0.013286853209137917, 0.04902181774377823, -0.07509765774011612, 0.01652207411825657, 0.07466870546340942, -0.033833421766757965, -0.0526607520878315, 0.038432251662015915, -0.030565787106752396, -0.007307767868041992, 0.0985310897231102, -0.09038680791854858, 0.03714802488684654, -0.09584718197584152, -0.07351048290729523], [0.048101697117090225, 0.06392765045166016, -0.040365613996982574, -0.012769818305969238, -0.0375952385365963, -0.08676138520240784, 0.09132649749517441, -0.03236141428351402, -0.023136459290981293, -0.07994057238101959, -0.0700732171535492, 0.04178350418806076, 0.07710476964712143, 0.00747004384174943, -0.08538729697465897, 0.03950288146734238, 0.08512912690639496, 0.009135985746979713, -0.07547737658023834, -0.06596509367227554, 0.041251927614212036, 0.0147694181650877, -0.023068517446517944, -0.03899773210287094, 0.05306778475642204, -0.048023346811532974, -0.09463893622159958, -0.03306691721081734, 0.009068301878869534, -0.08234008401632309, 0.039332251995801926, 0.012809832580387592, 0.07288277894258499, 0.045918699353933334, 0.06569133698940277, 0.0463138148188591, 0.025063764303922653, -0.08594419807195663, 0.004337752237915993, -0.09988373517990112, 0.09122749418020248, -0.09714313596487045, 0.07251563668251038, -0.0889018326997757, 0.0794113501906395, 0.06976428627967834, -0.09385701268911362, -0.02135857380926609, 0.04435647651553154, 0.026256617158651352, -0.09532147645950317, 0.005879600066691637, 0.09920959174633026, -0.03045961633324623, -0.002753982087597251, 0.04016264155507088, 0.08901269733905792, -0.025557342916727066, -0.09577270597219467, -0.03400620445609093, -0.062560074031353, 0.03547064960002899, 0.005850673653185368, 0.0530070923268795, 0.015615496784448624, 0.02712707594037056, -0.07759718596935272, 0.005029081366956234, -0.038050293922424316, -0.08046221733093262, -0.03356429561972618, -0.08680818229913712, -0.06081670522689819, -0.04167911037802696, 0.007571726106107235, 0.06440585851669312, -0.09185025095939636, 0.0030601739417761564, -0.03652505949139595, -0.01772209443151951, 0.0039019943214952946, -0.08287671953439713, -0.07213962078094482, -0.08168957382440567, 0.03610316291451454, 0.05521221086382866, 0.020980197936296463, 0.0760270282626152, 0.07132746279239655, -0.004420303273946047, 0.04008985683321953, -0.0521550178527832, -0.021095145493745804, -0.0459044948220253, -0.05520913749933243, 0.06806480884552002, 0.01686033047735691, -0.06766148656606674, -0.010714340023696423, -0.036973752081394196], [0.07931091636419296, 0.08699139952659607, -0.0484214685857296, 0.023032356053590775, 0.011700237169861794, 0.04689352586865425, -0.006268280558288097, 0.007664493750780821, -0.024240855127573013, -0.10608626157045364, -0.03325017914175987, 0.022615507245063782, 0.04151874780654907, -0.07407297194004059, -0.04028141498565674, 0.04344677925109863, 0.10452381521463394, -0.04780678451061249, 0.04765884578227997, -0.08441489189863205, 0.05996968597173691, 0.01726141758263111, -0.020464539527893066, -0.0701594352722168, 0.09630772471427917, 0.05475198104977608, 0.017091907560825348, 0.045833613723516464, 0.01583837904036045, 0.002185629680752754, 0.06631011515855789, -0.012055063620209694, -0.07440544664859772, -0.09178676456212997, 0.04808974266052246, 0.0606798492372036, 0.0798405259847641, 0.052833691239356995, -0.0976516604423523, 0.05660126358270645, 0.10110938549041748, 0.08137410879135132, -0.045017242431640625, 0.04213158041238785, -0.0657174363732338, 0.040309201925992966, 0.1126030832529068, 0.07909536361694336, -0.011416847817599773, 0.08969119191169739, 0.01853654347360134, 0.002991608576849103, -0.06662198156118393, -0.09467848390340805, -0.01983049139380455, -0.07791908830404282, -0.06958886981010437, 0.08266175538301468, -0.0003048004291485995, 0.04205607250332832, -0.0045640491880476475, 0.10281532257795334, -0.07468178123235703, 0.009116185829043388, 0.0269320048391819, 0.08448195457458496, -0.08608820289373398, -0.06611216813325882, 0.07224609702825546, 0.0455113910138607, -0.08622050285339355, 0.0481376089155674, -0.039963431656360626, 0.07005001604557037, 0.027035564184188843, -0.06657946854829788, 0.06794826686382294, -0.03570225089788437, 0.05749155208468437, 0.0018898836569860578, 0.07555236667394638, 0.021459026262164116, 0.062022335827350616, 0.03433951362967491, -0.04045446217060089, -0.032803669571876526, 0.002643867628648877, -0.07143362611532211, -0.023146701976656914, -0.0332333967089653, -0.011415690183639526, 0.06380139291286469, 0.053735651075839996, -0.053507279604673386, -0.05580643564462662, 0.03295549005270004, -0.007193995639681816, 0.06506454199552536, -0.09031740576028824, -0.09209257364273071], [0.00404700031504035, -0.030843151733279228, 0.024148989468812943, -0.08976482599973679, -0.06862504780292511, 0.0833243802189827, 0.07941644638776779, -0.019723867997527122, 0.01848488859832287, 0.029605090618133545, 0.009604052640497684, 0.002642880193889141, 0.09495405852794647, -0.08632554113864899, -0.05822408199310303, 0.03266007825732231, -0.029249776154756546, 0.06530971825122833, -0.0670362338423729, -0.0312853567302227, -0.06684740632772446, -0.09795724600553513, 0.023443235084414482, -0.030693471431732178, 0.09155755490064621, -0.006303346250206232, 0.04963190481066704, -0.06683220714330673, -0.08246344327926636, 0.022517027333378792, 0.035030946135520935, 0.049102142453193665, 0.013152732513844967, -0.09095239639282227, -0.050944793969392776, 0.024498416110873222, 0.05929853767156601, 0.06020284816622734, 0.0319230742752552, -0.09740903228521347, -0.07903770357370377, 0.005844448693096638, 0.07538338005542755, 0.07119827717542648, -0.034822821617126465, 0.024768304079771042, -0.04548696428537369, 0.013598980382084846, -0.053662657737731934, -0.08844810724258423, 0.08314571529626846, -0.0737137719988823, 0.09974274039268494, 0.05292016267776489, -0.0803566724061966, -0.036497727036476135, 0.0932345986366272, 0.03593273460865021, 0.05003130063414574, 0.08068989217281342, -0.007285579573363066, -0.06076469644904137, -0.059510257095098495, -0.0398922823369503, 0.11176107823848724, -0.02143683284521103, 0.08706913888454437, -0.09289198368787766, 0.013173695653676987, -0.07483717054128647, -0.06473684310913086, -0.009467427618801594, 0.037428129464387894, -0.04016075283288956, 0.05223650857806206, 0.07325595617294312, 0.025967277586460114, 0.016757376492023468, 0.08141787350177765, 0.07316107302904129, -0.04652820900082588, -0.057752907276153564, 0.02436525747179985, -0.0871705412864685, 0.023312143981456757, -0.07486196607351303, -0.022663157433271408, 0.009134150110185146, 0.06635825335979462, 0.029471242800354958, 0.04326877370476723, -0.038292620331048965, -0.08770888298749924, -0.07673735916614532, -0.022061115130782127, 0.031201209872961044, -0.05400491878390312, -0.04176361486315727, -0.06752005964517593, -0.07267669588327408], [0.07032077759504318, 0.014941847883164883, -0.030077731236815453, 0.02764350175857544, 0.06582693010568619, 0.0004937887424603105, 0.06125502660870552, 0.027663588523864746, 0.05002090707421303, 0.04275337606668472, -0.0761498436331749, 0.07719146460294724, 0.009859645739197731, 0.04649416357278824, -0.05554698780179024, 0.007248199079185724, -0.08899093419313431, 0.08720412105321884, 0.01965237967669964, -0.01957777701318264, 0.06720054149627686, -0.0036928297486156225, 0.08249963819980621, 0.07073274999856949, -0.0700889453291893, 0.09142705053091049, 0.07007817178964615, 0.008811489678919315, 0.06570933759212494, -0.05428437143564224, 0.06381014734506607, -0.025151388719677925, -0.04354744032025337, 0.007769874297082424, 0.04524986818432808, -0.027940571308135986, 0.09965327382087708, -0.057734061032533646, -0.06684781610965729, -0.05429647117853165, 0.05318566784262657, -0.01501511875540018, 0.09615438431501389, 0.022180141881108284, -0.028298724442720413, -0.06015291437506676, 0.0635153129696846, 0.011001244187355042, -0.05829047039151192, 0.04930773004889488, -0.09573628008365631, -0.06958482414484024, 0.02376321516931057, -0.06937190145254135, 0.018873831257224083, 0.04881663620471954, 0.043147012591362, 0.05792926251888275, 0.04152484983205795, -0.047275349497795105, -0.03164806589484215, 0.03644721582531929, -0.06528960913419724, -0.04850834608078003, -0.007923252880573273, -0.06337981671094894, -0.08784009516239166, 0.05265171080827713, -0.04207964241504669, 0.045419227331876755, 0.011205220595002174, -0.06413690000772476, 0.05827019363641739, -0.0687088891863823, -0.04771997034549713, 0.03313266113400459, -0.024335885420441628, -0.02679910697042942, 0.02360459603369236, 0.08215121179819107, -0.08951918035745621, -0.026431988924741745, 0.08986533433198929, 0.02342839725315571, -0.023614324629306793, -0.04610548913478851, 0.011387944221496582, -0.017790496349334717, -0.026807105168700218, 0.052173130214214325, 0.06237166002392769, 0.0321950688958168, 0.08656878769397736, -0.05115760490298271, -0.08109606802463531, -0.005253529641777277, 0.009385287761688232, -0.034563492983579636, 0.028735613450407982, -0.019758975133299828], [-0.044095851480960846, -0.04781298711895943, -0.07744689285755157, 0.031624116003513336, -0.04926964268088341, 0.009262271225452423, -0.01989363320171833, -0.04482605308294296, -0.056201349943876266, -0.05870113521814346, 0.048653703182935715, -0.023822641000151634, -0.08430939167737961, 0.09421617537736893, 0.07567571848630905, -0.05528506264090538, 0.06621050089597702, 0.07136087119579315, 0.011173677630722523, 0.026048004627227783, -0.036149539053440094, -0.08037161827087402, -0.01396100502461195, 0.042031385004520416, -0.01856074295938015, 0.09592880308628082, 0.01868373341858387, -0.030954428017139435, -0.06898272037506104, 0.01876858063042164, -0.004672836512327194, 0.08415503799915314, 0.031183041632175446, 0.060746628791093826, -0.060108769685029984, -0.08585327863693237, 0.07419933378696442, -0.09053783863782883, 0.01616230234503746, 0.05953818932175636, 0.033646028488874435, 0.09926842898130417, 0.08155926316976547, 0.0137717854231596, 0.054359469562768936, -0.02483525685966015, -0.05062616243958473, 0.09654281288385391, 0.06937727332115173, 0.04759377986192703, 0.02677239291369915, -0.09819372743368149, -0.030524110421538353, 0.007738396059721708, 0.06664353609085083, 0.007811635732650757, -0.04500822350382805, -0.06626377254724503, 0.07858923077583313, -0.0854707732796669, -0.028110602870583534, -0.006315505597740412, -0.09507500380277634, -0.0929793119430542, -0.09655972570180893, -0.06709221750497818, 0.07253643870353699, -0.013539755716919899, -0.08548833429813385, 0.01599295064806938, 0.057060860097408295, 0.10058188438415527, 0.09973528236150742, -0.0009844981832429767, 0.03979787603020668, 0.007098719011992216, -0.08434062451124191, -0.07686715573072433, 0.06357624381780624, 0.04425857588648796, -0.011218154802918434, 0.04268864914774895, -0.05429898574948311, 0.02056446112692356, -0.0660872608423233, -0.022658610716462135, -0.06694775074720383, 0.0530913844704628, -0.018596196547150612, -0.012832761742174625, -0.005587935447692871, 0.043789975345134735, -0.0663154274225235, -0.09311976283788681, -0.08858269453048706, -0.060846008360385895, 0.0008982777944765985, -0.06570146232843399, 0.011928439140319824, 0.03636937215924263], [0.07028145343065262, -0.02595999650657177, -0.006978475954383612, 0.08284913748502731, 0.09198954701423645, 0.01784190721809864, 0.10254228860139847, 0.01196113508194685, 0.02310367487370968, 0.0441788025200367, -0.01574592851102352, 0.027744272723793983, 0.09037327021360397, 0.0314183235168457, 0.09446176886558533, 0.029323384165763855, -0.027054952457547188, 0.006943901069462299, -0.05783091112971306, 0.06277469545602798, 0.09000898897647858, -0.08029451966285706, -0.011480877175927162, 0.09149332344532013, 0.04210937023162842, 0.0019906186498701572, -0.03389797359704971, -0.08365499973297119, 0.034412629902362823, 0.006278113462030888, 0.004425092600286007, -0.0867796316742897, 0.030115313827991486, -0.10583668202161789, 0.04139407351613045, -0.09511065483093262, 0.03751077502965927, 0.03421733155846596, 0.07424728572368622, -0.05772892385721207, 0.09557502716779709, 0.023943882435560226, 0.026836270466446877, -0.08220583200454712, 0.06555179506540298, -0.07025384902954102, -0.09870748221874237, -0.021917328238487244, -0.040398888289928436, -0.061799973249435425, -0.02410154417157173, -0.0558515302836895, -0.02288835123181343, -0.022157160565257072, 0.0075469971634447575, -0.07271125912666321, 0.07528862357139587, -0.03870788589119911, 0.08152515441179276, -0.09183790534734726, -0.08949688822031021, -0.010010551661252975, -0.02704295888543129, 0.032049085944890976, 0.05331765115261078, -0.00675960723310709, -0.024472611024975777, -0.0860878974199295, -0.0975017175078392, -0.005916287656873465, -0.07478471845388412, 0.04751870408654213, 0.047526903450489044, 0.11321959644556046, 0.028179803863167763, 0.07095398753881454, -0.10500849038362503, 0.0899391919374466, 0.07042448967695236, 0.07042405009269714, 0.10245651751756668, 0.020193438977003098, 0.03304632380604744, 0.06339842081069946, 0.05986313149333, -0.07740666717290878, -0.011235073208808899, -0.07068470865488052, -0.09307952970266342, -0.023036040365695953, -0.023414960131049156, -0.056107040494680405, 0.1163976714015007, 0.08046409487724304, 0.07771836221218109, -0.08431196212768555, 0.06621761620044708, -0.08201348781585693, 0.09473507851362228, 0.023463964462280273], [0.03241707384586334, 0.02093379572033882, 0.0971333384513855, -0.07866152375936508, -0.057385124266147614, -0.09999825060367584, 0.03756195306777954, 0.015751218423247337, -0.046578943729400635, -0.03769952058792114, 0.059826161712408066, 0.02863783948123455, 0.02257104218006134, 0.0727434903383255, 0.04505630210042, -0.04381145164370537, -0.09505201131105423, -0.010300052352249622, 0.03923196718096733, 0.02253127098083496, 0.04040662571787834, -0.0861920714378357, -0.005177369806915522, -0.05636050924658775, -0.010202611796557903, -0.05769408866763115, 0.08291886001825333, -0.08784803003072739, -0.020494425669312477, -0.09476085752248764, -0.005442699417471886, -0.03095686435699463, -0.0741475373506546, 0.07789163291454315, 0.06547663360834122, 0.06806805729866028, -0.05444558337330818, -0.06035751476883888, 0.06680568307638168, 0.08456321805715561, -0.09760820120573044, 0.034275591373443604, -0.005021160934120417, -0.04019584879279137, 0.09112150222063065, -0.05016240105032921, -0.029255080968141556, 0.06451533734798431, 0.0032428058329969645, -0.07145699113607407, 0.07606836408376694, -0.030734706670045853, -0.021992672234773636, 0.09653142839670181, -0.047923970967531204, -0.0074535757303237915, 0.024395044893026352, -0.030561620369553566, -0.05590500682592392, 0.08133721351623535, 0.0434989333152771, 0.09494105726480484, 0.012096745893359184, 0.030755817890167236, 0.05365841090679169, 0.009280393831431866, -0.03763986751437187, -0.04995516687631607, 0.07692139595746994, 0.0730622187256813, -0.09231946617364883, -0.04224318265914917, 0.03510652482509613, 0.027157258242368698, 0.061263103038072586, 0.023345207795500755, -0.029985662549734116, 0.018458688631653786, 0.03611717373132706, -0.060295525938272476, 0.084205262362957, -0.06779012829065323, -0.062339890748262405, -0.07562029361724854, 0.02095707133412361, 0.059172339737415314, -0.008792197331786156, -0.027561426162719727, 0.03373633697628975, 0.008319802582263947, 0.09958833456039429, -0.08669839054346085, -0.0195809006690979, -0.05188630893826485, 0.021785128861665726, -0.0006008863565512002, -0.004886054899543524, -0.037658728659152985, 0.013397670350968838, 0.02624068222939968], [0.02391604334115982, -0.059894490987062454, -0.08008896559476852, 0.043421078473329544, 0.04270237684249878, 0.05109705403447151, 0.08802173286676407, 0.030481070280075073, -0.03350740671157837, -0.08565974235534668, 0.08024965971708298, 0.01788933202624321, -0.03988248109817505, -0.045429032295942307, -0.05060190334916115, -0.007595921866595745, 0.05034731701016426, 0.08966989070177078, -0.09345376491546631, 0.014265980571508408, -0.09154969453811646, -0.0635451003909111, -0.0005476958467625082, 0.04577072337269783, 0.05671786144375801, 0.043648626655340195, 0.06365549564361572, 0.018909165635704994, -0.06794314831495285, -0.02220894768834114, 0.0938013568520546, -0.06527631729841232, -0.08123739808797836, -0.035224549472332, 0.07259885221719742, -0.04606476053595543, 0.052667126059532166, 0.0742347240447998, -0.04452574625611305, 0.03147460147738457, 0.0195009708404541, -0.017328137531876564, 0.02913825586438179, 0.013534864410758018, 0.10593337565660477, -0.01863093487918377, -0.005147695541381836, 0.09159567207098007, 0.06955062597990036, -0.05426471307873726, 0.08236724138259888, 0.05262422561645508, 0.033824749290943146, 0.04063719883561134, -0.022403094917535782, -0.07258658111095428, -0.08009663969278336, 0.0020911109168082476, -0.054475344717502594, -0.014326632022857666, -0.06621298938989639, -0.009332037530839443, 0.06900576502084732, -0.08021774142980576, 0.08476218581199646, 0.0004388237721286714, -0.05266750976443291, -0.05840815231204033, 0.050227321684360504, 0.0899544358253479, 0.043025173246860504, 0.06321581453084946, 0.05022527277469635, -0.07232964038848877, -0.06932348757982254, 0.09324029088020325, -0.09870803356170654, 0.03808928281068802, 0.06270615011453629, -0.05113876238465309, 0.03259469196200371, 0.03476531803607941, -0.06590379774570465, -0.09026399999856949, -0.031653013080358505, 0.05917326733469963, -0.0037749402690678835, -0.0010471463901922107, 0.08181653171777725, 0.022448834031820297, -0.07323401421308517, -0.05824127420783043, 0.029730558395385742, 0.09590792655944824, -0.09536167234182358, -0.09856277704238892, -0.032724153250455856, -0.06587348133325577, -0.06487100571393967, -0.059880293905735016], [-0.020069003105163574, 0.05452801287174225, -0.08178051561117172, 0.0789700299501419, -0.08591103553771973, 0.09425906836986542, 0.06359326094388962, -0.07362991571426392, 0.03435899317264557, -0.06836787611246109, -0.031068291515111923, -0.02658017911016941, -0.026737023144960403, -0.002196884248405695, 0.0826321393251419, -0.09375590085983276, 0.029448743909597397, -0.014684164896607399, -0.06570569425821304, 0.031423427164554596, -0.09411575645208359, -0.01528751477599144, 0.006772858090698719, -0.020746031776070595, -0.02513721026480198, -0.04872269555926323, -0.049890171736478806, -0.09885702282190323, -0.078384630382061, 0.07583078742027283, -0.060165539383888245, -0.08663970232009888, -0.09360503405332565, 0.05854441598057747, -0.0729568749666214, 0.08766118437051773, 0.002239533234387636, -0.10148657113313675, -0.05703438073396683, -0.08393537998199463, 0.00881926715373993, 0.001146208494901657, 0.055141132324934006, -0.016767479479312897, 0.007047808263450861, -0.06838145852088928, 0.07222916185855865, -0.04514655843377113, 0.007483172696083784, -0.01888626627624035, -0.009430599398911, 0.03074728325009346, 0.01201681513339281, -0.053477074950933456, -0.04940470680594444, 0.10960717499256134, -0.028278730809688568, 0.1115199476480484, 0.11329303681850433, 0.00989468116313219, -0.0344904400408268, -0.09774422645568848, 0.020734192803502083, -0.05461277440190315, -0.0474676787853241, -0.050432171672582626, -0.0868862122297287, 0.0591161772608757, 0.015792781487107277, -0.08452890068292618, 0.014979002065956593, -0.0212024487555027, 0.06323036551475525, 0.10793917626142502, 0.10404884070158005, 0.0788092166185379, -0.01958533562719822, 0.055563103407621384, -0.03900203853845596, 0.013000845909118652, 0.018399694934487343, -0.022113967686891556, -0.09789861738681793, 0.0529891699552536, -0.018857315182685852, -0.03310787305235863, -0.0027751571033149958, 0.047177065163850784, -0.0968879982829094, 0.06534382700920105, -0.0016988703282549977, 0.08838291466236115, 0.08083287626504898, 0.018187452107667923, 0.12455500662326813, 0.08904140442609787, -0.07384192198514938, -0.09600739926099777, 0.02671576850116253, -0.050887204706668854], [-0.076473668217659, 0.0940379649400711, 0.031930577009916306, 0.023262549191713333, 0.09267184883356094, 0.09464716911315918, -0.05579284578561783, -0.019938969984650612, 0.07200492918491364, 0.03039003722369671, -0.08741170167922974, -0.03441784530878067, 0.03296336159110069, 0.08667074888944626, 0.09094690531492233, 0.03568151220679283, 0.06563448160886765, 0.05179569870233536, 0.009329902939498425, 0.09935195744037628, -0.08916107565164566, -0.07837026566267014, 0.08324112743139267, -0.0615793839097023, 0.0014920115936547518, -0.02728034369647503, -0.015946591272950172, 0.036866068840026855, 0.04782665893435478, -0.06977641582489014, 0.04316381365060806, 0.009552574716508389, -0.024860894307494164, 0.017750097438693047, 0.07873741537332535, -0.06088519096374512, 0.02830902300775051, -0.0043188948184251785, -0.019429292529821396, 0.006487954407930374, 0.07294829189777374, -0.05127131938934326, -0.05266686901450157, 0.06328888982534409, 0.06692752242088318, 0.06489033252000809, 0.010853627696633339, 0.030756743624806404, 0.06977581977844238, 0.030625876039266586, 0.08165823668241501, 0.021531473845243454, 0.068852998316288, 0.08705153316259384, 0.03744685649871826, 0.07206673920154572, 0.0553642213344574, -0.08434952795505524, -0.062232840806245804, 0.08539624512195587, -0.013163161464035511, 0.06918221712112427, -0.031458210200071335, 0.017431462183594704, -0.010480564087629318, -0.09981375187635422, -0.01518656313419342, 0.014247219078242779, -0.025339454412460327, -0.08930154889822006, -0.04574024677276611, 0.04803260415792465, 0.0403238907456398, 0.0472935326397419, -0.09512798488140106, -0.09077467769384384, 0.09032145142555237, 0.09852758795022964, -0.06269486993551254, 0.08938944339752197, 0.027170633897185326, -0.03950975835323334, -0.006301520392298698, 0.020361466333270073, 0.0631263256072998, -0.0665326938033104, 0.09107103198766708, 0.03841064125299454, -0.05753103643655777, -0.009260869584977627, 0.05094173178076744, 0.04093311354517937, 0.0161270909011364, -0.06606531143188477, -0.0704263225197792, -0.08811290562152863, 0.005650579929351807, 0.08785354346036911, 0.08163043111562729, -0.048014309257268906], [0.07719429582357407, -0.07834551483392715, 0.010975206270813942, 0.005302024073898792, 0.049872398376464844, -0.021647000685334206, -0.020454583689570427, 0.021447062492370605, -0.05358455330133438, -0.039881281554698944, -0.053196217864751816, 0.037306055426597595, 0.01715254969894886, 0.0533565953373909, -0.006890810560435057, -0.09637532383203506, -0.004887094721198082, -0.024734798818826675, -0.024435967206954956, -0.01970565877854824, -0.04063999652862549, -0.09803241491317749, 0.03402189165353775, 0.06393090635538101, -0.0518137589097023, -0.0281100794672966, -0.002424970967695117, -0.07238505035638809, -0.060358401387929916, -0.008352776058018208, -0.06733745336532593, -0.023695429787039757, 0.0033619205933064222, -0.009029528126120567, 0.029638130217790604, 0.0022511063143610954, -0.008510544896125793, 0.018709812313318253, -0.07837076485157013, 0.02880265936255455, 0.06637967377901077, -0.021690847352147102, -0.04871620237827301, -0.0775672122836113, -0.07535555213689804, -0.07720214128494263, 0.01933116838335991, -0.037051476538181305, -0.08315284550189972, -0.010920137166976929, -0.07059480249881744, -0.03208371624350548, -0.07390228658914566, -0.06321995705366135, -0.09375830739736557, -0.0860917940735817, -0.04707165062427521, 0.047730524092912674, 0.019143415614962578, -0.08885083347558975, -0.05738675594329834, 0.10698787868022919, -0.03546449542045593, 0.026155762374401093, 0.030251363292336464, -0.09849490225315094, 0.09220463037490845, 0.018427757546305656, -0.07013501226902008, 0.038185570389032364, -0.05054532364010811, -0.013614144176244736, 0.006373504176735878, -0.011889882385730743, -0.009534120559692383, -0.016556262969970703, -0.04041741415858269, 0.07839614897966385, 0.024346863850951195, 0.04020417109131813, 0.09938215464353561, 0.05344554781913757, 0.05646717548370361, 0.017590798437595367, -0.022856777533888817, -0.09776248782873154, -0.03667111322283745, -0.0327325239777565, -0.018274832516908646, -0.05909394472837448, 0.09804869443178177, -0.05487006902694702, 0.08639728277921677, 0.09114476293325424, 0.022792711853981018, -0.04070524126291275, 0.021962445229291916, -0.013041818514466286, 0.03854208067059517, 0.052280377596616745], [-0.06014757230877876, 0.06521272659301758, -0.05008843168616295, 0.05988900735974312, -0.06717326492071152, 0.08423817157745361, -0.0695297122001648, -0.0804460421204567, 0.0501835010945797, -0.03694223240017891, -0.09240663051605225, -0.04245147854089737, -0.06318087875843048, -0.08360499143600464, -0.061127353459596634, 0.00973731279373169, -0.07245717197656631, -0.09321241825819016, 0.0015186667442321777, 0.011863017454743385, 0.02992701530456543, 0.0519600547850132, -0.021867429837584496, 0.04773518070578575, -0.0799061581492424, 0.10128947347402573, 0.046079639345407486, 0.049352601170539856, -0.04707350209355354, -0.07573280483484268, 0.07250794768333435, 0.03268441557884216, 0.0011559275444597006, 0.03366272523999214, 0.09021882712841034, 0.05215173959732056, -0.011541466228663921, 0.026577584445476532, 0.009963693097233772, 0.08893538266420364, -0.02368035353720188, 0.06772831827402115, -0.0570431724190712, 0.07395937293767929, 0.10569608956575394, 0.005733422469347715, 0.027334339916706085, -0.0063636121340096, -0.0034786078613251448, 0.06176132708787918, 0.06896692514419556, -0.030248641967773438, -0.03394971042871475, -0.0817725881934166, -0.08971545845270157, 0.07149945199489594, 0.11329464614391327, 0.046323858201503754, 0.057708486914634705, -0.0562385693192482, -0.09838102012872696, -0.04507787153124809, -0.007244364358484745, 0.07836969196796417, -0.0008077925886027515, 0.0005716573796235025, -0.002223542658612132, -0.07056436687707901, 0.0707777813076973, 0.09365709125995636, 0.10821383446455002, 0.053662680089473724, -0.05908364802598953, -0.0856497660279274, 0.020036986097693443, -0.004792738240212202, -0.08752807229757309, 0.025674045085906982, 0.0817955732345581, -0.005131885409355164, 0.0319652333855629, 0.003032378386706114, 0.10318533331155777, -0.08858001232147217, -0.04289506748318672, -0.011137628927826881, 0.03261075168848038, 0.012208223342895508, -0.0709029957652092, -0.01843346282839775, 0.04504474624991417, -0.05530351400375366, 0.04084305092692375, 0.011954995803534985, 0.09658970683813095, 0.026610827073454857, 0.007970106787979603, -0.08854750543832779, -0.027315868064761162, -0.09612865746021271], [0.07720347493886948, 0.046523936092853546, 0.07199205458164215, 0.062239278107881546, 0.02357996068894863, -0.03548460453748703, 0.011399281211197376, 0.0989677906036377, 0.052876923233270645, 0.06754957884550095, -0.1045830026268959, 0.01961464062333107, 0.0945483148097992, -0.021490778774023056, 0.0002469983301125467, 0.07059285789728165, -0.04728199169039726, -0.06977658718824387, 0.052677907049655914, -0.0017171502113342285, 0.06986000388860703, 0.09014392644166946, -0.07936923950910568, 0.10568542033433914, -0.04768780991435051, -0.07660654932260513, -0.09354394674301147, 0.011648857966065407, 0.09964261204004288, 0.030250320211052895, 0.04108129441738129, -0.08001403510570526, 0.07418440282344818, -0.05515659973025322, 0.06064070388674736, -0.05385419726371765, 0.047781821340322495, 0.01871548965573311, -0.07589099556207657, 0.006089436821639538, 0.03227633982896805, -0.08050373196601868, -0.08547234535217285, 0.0734989270567894, 0.0698736384510994, -0.04631488770246506, -0.053395211696624756, 0.027423884719610214, -0.06596537679433823, -0.0573493167757988, 0.02690976858139038, 0.022146519273519516, -0.09888060390949249, -0.004359367303550243, -0.08748340606689453, -0.05070037394762039, 0.024600405246019363, 0.041261058300733566, 0.07766213268041611, -0.019079037010669708, 0.03453874960541725, 0.0664207711815834, -0.09736776351928711, -0.09415601193904877, -0.08007565140724182, -0.011058186180889606, 0.008571318350732327, 0.10276114195585251, 0.06404707580804825, -0.03334331139922142, -0.04764895141124725, 0.007109987549483776, 0.0464557521045208, 0.07726876437664032, -0.038289256393909454, 0.011938189156353474, 0.061648182570934296, 0.0037066915538161993, -0.06699655205011368, -0.019561821594834328, 0.04599573463201523, -0.06714759021997452, 0.014281912706792355, 0.0632389709353447, 0.0008882483234629035, 0.08321060985326767, -0.013387641869485378, 0.030076121911406517, 0.04267013072967529, 0.054442211985588074, 0.011080808937549591, 0.04245159029960632, -0.08917230367660522, -0.041588880121707916, -0.06862884759902954, -0.03801955282688141, -0.05958981812000275, 0.04234030470252037, 0.034505534917116165, 0.06316669285297394], [-0.03134109452366829, -0.02706083655357361, -0.0958285853266716, -0.008910822682082653, 0.03395535424351692, 0.07088375091552734, -0.07720694690942764, 0.06160192936658859, 0.060347236692905426, -0.03627444803714752, 0.09232747554779053, -0.032483287155628204, -0.061033234000205994, 0.032006293535232544, 0.09354448318481445, 0.0074943783693015575, 0.08071107417345047, 0.05610585957765579, -0.012186375446617603, 0.019370445981621742, 0.016422299668192863, -0.07414154708385468, -0.05719947814941406, 0.0307704359292984, 0.03032069467008114, 0.03680090978741646, -0.06545259058475494, 0.03585432842373848, 0.0015687679406255484, -0.014267847873270512, -0.06102191284298897, -0.007943511009216309, 0.07644287496805191, 0.040521781891584396, -0.027357695624232292, 0.018956050276756287, 0.02530883625149727, 0.08086809515953064, 0.031695034354925156, -0.047957949340343475, 0.0027534605469554663, -0.0952189713716507, 0.004494094755500555, 0.04273349791765213, -0.08987785875797272, -0.027065420523285866, 0.109873466193676, 0.044270388782024384, -0.04655340313911438, -0.0006341671687550843, -0.007912206463515759, -0.035806577652692795, 0.09407883882522583, 0.037668924778699875, 0.10401801764965057, -0.08610783517360687, 0.10508278012275696, 0.001018051989376545, -0.08667705208063126, 0.028574660420417786, -0.05422300100326538, -0.08757060021162033, -0.020564168691635132, -0.03402144834399223, -0.012084199115633965, -0.06633740663528442, 0.05152956768870354, -0.049421973526477814, 0.04180033132433891, -0.040072642266750336, -0.085875503718853, -0.05902434512972832, 0.04692220687866211, -0.06116572022438049, -0.0610683299601078, -0.059043753892183304, 0.05853007361292839, -0.055356577038764954, -0.0012879491550847888, 0.0759153887629509, -0.010394907556474209, 0.05766861513257027, -0.024549968540668488, 0.012514093890786171, -0.03424156457185745, -0.012498927302658558, -0.014309585094451904, 0.03348076343536377, 0.011526215821504593, 0.00997782964259386, 0.05969593673944473, -0.014998740516602993, 0.09990249574184418, 0.07052253931760788, -0.07315876334905624, 0.06798391044139862, -0.08282896131277084, -0.08659374713897705, -0.0010500788921490312, -0.005817866418510675], [-0.0462210550904274, -0.04365549236536026, 0.03580092266201973, 0.005220449063926935, -0.006487703416496515, -0.06729574501514435, 0.07601005584001541, -0.005382387433201075, -0.05325938016176224, -0.029329484328627586, -0.0888185128569603, -0.04528765752911568, 0.087362140417099, 0.10354697704315186, 0.028152180835604668, 0.07594729959964752, 0.06625057756900787, 0.08583880215883255, 0.023758504539728165, -0.020027227699756622, -0.03466982766985893, 0.07785826921463013, -0.07636070251464844, -0.008314669132232666, 0.030386853963136673, -0.02947009913623333, 0.03790072724223137, -0.038640450686216354, -0.030001038685441017, -0.08868283778429031, 0.03857635334134102, -0.033346034586429596, -0.009060009382665157, 0.024677742272615433, -0.025703275576233864, 0.012026774697005749, 0.010088617913424969, 0.035148315131664276, 0.05195828154683113, -0.09081750363111496, -0.045983921736478806, 0.015811271965503693, -0.04750548675656319, -0.03756285831332207, -0.06298845261335373, 0.08143748342990875, -0.10033568739891052, 0.1062944158911705, 0.07372193783521652, 0.019218606874346733, -0.00847846269607544, -0.0584171786904335, 0.023098958656191826, 0.08786732703447342, 0.1043870747089386, 0.06759200245141983, -0.07998285442590714, 0.016759010031819344, 0.08258374780416489, -0.09840930998325348, -0.07424087822437286, 0.014441633597016335, -0.05322680622339249, 0.0013820886379107833, -0.0894256979227066, 0.021727552637457848, 0.05195170268416405, -0.0533747673034668, 0.05364110693335533, -0.05531248077750206, 0.06711918115615845, 0.041060756891965866, 0.032398682087659836, 0.0516200065612793, 0.01765279285609722, 0.08005623519420624, 0.02491110935807228, 0.06885968893766403, 0.03594459220767021, 0.06403128802776337, 0.03915795311331749, 0.0616767555475235, -0.04816565662622452, 0.09542711824178696, 0.06377653032541275, -0.045504894107580185, 0.08221244812011719, 0.032025814056396484, 0.09429194033145905, -0.019778860732913017, 0.06618495285511017, 0.08634699881076813, 0.01752626895904541, 0.06551807373762131, -0.04434554651379585, -0.09790294617414474, -0.09593819826841354, -0.05961627885699272, -0.07429096847772598, -0.010477805510163307], [-0.021541250869631767, -0.07491359114646912, -0.07064221054315567, -0.08125823736190796, -0.047732140868902206, 0.05437479168176651, 0.09276522696018219, -0.03480244800448418, -0.010462245903909206, 0.0034904361236840487, 0.004039045423269272, 0.09138081967830658, -0.07193664461374283, 0.09168300777673721, 0.003360864706337452, -0.042985524982213974, -0.0870487168431282, -0.027669250965118408, -0.0778469666838646, 0.052678536623716354, -0.042984142899513245, 0.052121780812740326, -0.040235526859760284, 0.062257323414087296, -0.08939734846353531, 0.06367884576320648, 0.0496789775788784, -0.003517281962558627, -0.0285569429397583, -0.03548453375697136, 0.002503150375559926, -0.0663396343588829, 0.01242409460246563, 0.050466958433389664, 0.027137799188494682, -0.032110996544361115, 0.08095527440309525, -0.01945575326681137, 0.03211262449622154, -0.08162697404623032, 0.044499125331640244, 0.07260225713253021, -0.03388947248458862, -0.0013115722686052322, 0.05769968405365944, 0.032818879932165146, 0.05198230966925621, -0.07767558097839355, 0.026477230712771416, -0.06092296913266182, -0.02280334196984768, -0.003516590688377619, 0.06515098363161087, -0.0958278551697731, -0.10664889961481094, -0.06682224571704865, -0.038284312933683395, 0.09742341190576553, 0.10069791227579117, -0.06790968030691147, 0.045138243585824966, 0.042750004678964615, 0.03963371366262436, 0.05090517923235893, 0.06063743680715561, 0.025086650624871254, -0.05480337142944336, -0.0464245080947876, 0.06423687189817429, -0.0493331216275692, 0.07607796788215637, 0.025087222456932068, 0.0010315475519746542, 0.0027001583948731422, -0.03837566450238228, -0.023594394326210022, 0.09385962039232254, -0.06970232725143433, -0.02425375021994114, -0.08835313469171524, 0.035677719861269, -0.09018329530954361, 0.039630383253097534, 0.06367359310388565, 0.03809119388461113, -0.010317586362361908, 0.04268643260002136, -0.03257739543914795, -0.014362466521561146, -0.07258229702711105, 0.03079625405371189, 0.057116709649562836, -0.0594477653503418, -0.028913963586091995, -0.054620351642370224, 0.06584388017654419, -0.014989721588790417, -0.05244872719049454, -0.04617423936724663, 0.0464150570333004], [0.04267719388008118, -0.0330997109413147, -0.05859053134918213, -0.05779130384325981, 0.07413583248853683, -0.07146375626325607, -0.02238764800131321, -0.0719437375664711, -0.032366011291742325, -0.06018954515457153, -0.08938078582286835, 0.014739024452865124, 0.0687432587146759, 0.0015021004946902394, 0.049498237669467926, 0.06550426036119461, -0.03954954072833061, -0.057695019990205765, -0.019785571843385696, 0.02071143500506878, 0.024093735963106155, -0.06623891741037369, 0.06548658758401871, 0.058182474225759506, 0.04590616747736931, -0.09708603471517563, -0.011826187372207642, 0.01928114891052246, 0.024895358830690384, -0.0793609768152237, -0.0694219172000885, 0.04185734689235687, 0.0695081576704979, 0.07487513870000839, 0.04059477522969246, -0.03839517757296562, 0.04218306764960289, -0.04504585266113281, -0.04272240400314331, -0.0793125256896019, -0.009617924690246582, 0.07091798633337021, -0.066510871052742, -0.08487994223833084, 0.038138967007398605, 0.0993417501449585, 0.07968064397573471, -0.021678222343325615, -0.02352163754403591, 0.0685160756111145, 0.005941033363342285, -0.08144690841436386, 0.07639656960964203, -0.037888843566179276, 0.007475997321307659, 0.0891994908452034, 0.10245918482542038, 0.07576032727956772, -0.038324177265167236, 0.06072800233960152, -0.014658471569418907, -0.08807247132062912, 0.0843723863363266, 0.056372739374637604, 0.05919809639453888, -0.017276404425501823, 0.04050803184509277, 0.09239319711923599, 0.049135733395814896, -0.09188758581876755, -0.04538285732269287, 0.09514806419610977, -0.012870298698544502, 0.11355326324701309, -0.05717361345887184, -0.05942999944090843, -0.05288082733750343, 0.048270680010318756, -0.05221542343497276, -0.008881593123078346, 0.09090669453144073, -0.09769516438245773, 0.023587757721543312, -0.03857986629009247, -0.04552851989865303, 0.09592624008655548, -0.10337147116661072, 0.0209539532661438, 0.026049816980957985, -0.05907241255044937, -0.03155606985092163, 0.023962510749697685, 0.05891143158078194, 0.008314812555909157, 0.02489297464489937, 0.06552763283252716, -0.05762721225619316, -0.014998245052993298, 0.025773227214813232, -0.028169000521302223], [-0.004154944326728582, -0.004495956003665924, -0.04254636913537979, 0.07411610335111618, 0.01755828969180584, 0.055498771369457245, -0.08133318275213242, -0.04068981483578682, -0.020357301458716393, -0.024339770898222923, -0.04162559285759926, 0.06770206242799759, -0.009648121893405914, -0.03450582176446915, 0.05587834119796753, -0.006270741578191519, 0.08109301328659058, -0.0007312686648219824, -0.07823456823825836, -0.07855352014303207, 0.020694077014923096, -0.09105855226516724, -0.030849909409880638, -0.06383858621120453, 0.03509076312184334, 0.027628222480416298, 0.019199637696146965, -0.02569657936692238, 0.004459372255951166, 0.04037746042013168, -0.029024947434663773, 0.06760478019714355, -0.07063513994216919, -0.03864862769842148, -0.06596002727746964, -0.0438111312687397, -0.045546989887952805, -0.027653774246573448, 0.0786556527018547, 0.006547388155013323, -0.08151405304670334, -0.05775539204478264, 0.02340676076710224, 0.06535060703754425, 0.08259302377700806, 0.04960799589753151, -0.026365650817751884, -0.008809514343738556, 0.06550407409667969, -0.04935941845178604, -0.07595603913068771, -0.0894121453166008, 0.019125649705529213, -0.04862915351986885, -0.08736153692007065, 0.05338941887021065, 0.02351265959441662, 0.004880209919065237, -0.08584528416395187, -0.05328741297125816, -0.05978856235742569, -0.11141399294137955, -0.05765672028064728, 0.07779408991336823, -0.014668899588286877, -0.018082888796925545, -0.10027462244033813, 0.02185782790184021, 0.02448493242263794, 0.029955679550766945, -0.012948652729392052, 0.019435875117778778, -0.06501682847738266, 0.061158739030361176, 0.12765172123908997, -0.08588587492704391, -0.029622482135891914, 0.06480598449707031, 0.01515805721282959, 0.0618104450404644, -0.04771003872156143, -0.08673419058322906, 0.02120668813586235, -0.07391178607940674, 0.05537125840783119, -0.06405933201313019, -0.07473678886890411, 0.05185910686850548, -0.08641713112592697, 0.048563338816165924, -0.019534176215529442, -0.11004334688186646, -0.04121599718928337, -0.07778045535087585, 0.03433411195874214, -0.02396840788424015, -0.012959014624357224, 0.09467845410108566, 0.061668481677770615, 0.05875222757458687], [0.05589170753955841, 0.01969979889690876, -0.09767192602157593, 0.04168180376291275, -0.09404981136322021, 0.11475899070501328, 0.07869024574756622, 0.0593908429145813, 0.03798513859510422, -0.0019243455026298761, 0.09595722705125809, -0.02618591859936714, -0.03415404632687569, -0.00968384649604559, 0.0518660731613636, 0.022690284997224808, -0.11373274773359299, -0.058993514627218246, -0.007246037479490042, 0.025255504995584488, 0.025227835401892662, 0.002705790800973773, -0.027202410623431206, 0.10231222957372665, -0.08846716582775116, 0.029557397589087486, 0.02099597081542015, -0.054816316813230515, 0.0407792329788208, 0.011902887374162674, -0.03674810752272606, -0.040119994431734085, -0.0251407939940691, 0.04057643935084343, -0.005295870825648308, -0.045313794165849686, 0.03336053714156151, -0.03494768217206001, 0.07245950400829315, -0.05552239716053009, 0.044765230268239975, -0.0019295050296932459, 0.07900452613830566, 0.04104732349514961, 0.01799270138144493, 0.07803428173065186, -0.07348155230283737, 0.0663326159119606, 0.05933903157711029, -0.05841974914073944, -0.04250068590044975, -0.007376838009804487, 0.07184382528066635, 0.07463305443525314, 0.02574104815721512, 0.0403594896197319, 0.04658154025673866, -0.014609136618673801, -0.08946637064218521, -0.029454423114657402, -0.03526020795106888, -0.03934037685394287, 0.07025525718927383, -0.08498714119195938, -0.03893057629466057, 0.08750308305025101, 0.06661637872457504, 0.02604726515710354, -0.08662626892328262, -0.08361624926328659, 0.029189778491854668, 0.017697641626000404, -0.009098068810999393, 0.07940986007452011, -0.09165989607572556, -0.03516138717532158, 0.10379558056592941, -0.026472104713320732, -0.004406845662742853, -0.06494496017694473, 0.07453541457653046, 0.08636308461427689, -0.03944206237792969, -0.0014919780660420656, -0.030540138483047485, 0.06934500485658646, -0.07529205083847046, -0.04061153158545494, 0.011088574305176735, -0.08734545856714249, 0.07215164601802826, -0.020170940086245537, -0.009497548453509808, 0.0681585893034935, -0.07428661733865738, 0.0577603243291378, -0.09182262420654297, -0.08608996868133545, 0.07750910520553589, -0.06736346334218979], [-0.0191727876663208, -0.08488313108682632, -0.07425897568464279, -0.04620865732431412, -0.09449030458927155, -0.10317527502775192, 0.024995706975460052, -0.08043750375509262, 0.04631160944700241, 0.061522964388132095, -0.07547944039106369, -0.040895529091358185, -0.019618213176727295, -0.004845485091209412, 0.04215800762176514, -0.012506934814155102, 0.07343921065330505, -0.0029063494876027107, 0.06755512207746506, -0.03326108679175377, 0.007245984859764576, 0.0947008803486824, 0.05730685964226723, 0.07133501023054123, 0.08931522816419601, -0.08372365683317184, -0.08655362576246262, 0.06397736072540283, -0.09079533070325851, 0.014051881618797779, 0.02953219600021839, -0.031053775921463966, -0.09212972223758698, -0.015674808993935585, -0.10294566303491592, -0.05359312519431114, -0.038349706679582596, -0.08834962546825409, -0.01707707904279232, 0.02664267085492611, 0.07024893909692764, 0.035786520689725876, -0.07615180313587189, -0.08661764115095139, -0.10829400271177292, -0.07462234050035477, -0.07426813244819641, -0.07385531812906265, -0.07827697694301605, 0.009149262681603432, 0.09265178442001343, 0.05966683104634285, -0.09227155148983002, 0.08186472207307816, 0.019299685955047607, -0.10674349963665009, 0.008258205838501453, 0.10474689304828644, 0.015810808166861534, -0.059403687715530396, -0.03678116202354431, 0.09026725590229034, 0.06327391415834427, -0.006590369623154402, -0.07884199172258377, -0.056225184351205826, -0.08344903588294983, -0.012161831371486187, -0.01996232010424137, -0.021723512560129166, 0.01519120205193758, 0.04697072133421898, -0.02675721049308777, 0.10437048226594925, 0.00782109797000885, -0.027134548872709274, -0.1007155105471611, -0.0015948772197589278, -0.03005579672753811, -0.048454709351062775, -0.017095329239964485, -0.01168289128690958, -0.07441680878400803, 0.08494134247303009, -0.00045639765448868275, 0.0757998451590538, -0.08155970275402069, 0.005813968367874622, -0.062073636800050735, 0.03785988315939903, 0.048726197332143784, 0.004296084400266409, 0.042470600455999374, -0.08921486139297485, -0.015591289848089218, -0.09704899787902832, -0.06194552406668663, -0.03581557422876358, 0.048307012766599655, 0.02932717837393284], [0.019184362143278122, -0.031603433191776276, -0.011825740337371826, 0.07954823225736618, 0.0016488314140588045, 0.024656010791659355, 0.05526520311832428, 0.0639185905456543, 0.08656182885169983, -0.026112353429198265, -0.012681150808930397, -0.04831675440073013, -0.08201497048139572, -0.04094672203063965, 0.030209481716156006, -0.016702426597476006, 0.005202482920140028, -0.018063826486468315, -0.07236389070749283, -0.00014531047781929374, 0.05895957350730896, 0.11009451746940613, -0.018138229846954346, 0.08674805611371994, -0.055741310119628906, 0.024219049140810966, -0.027597544714808464, -0.01237449049949646, -0.09620516002178192, -0.0942932590842247, -0.032333578914403915, -0.08410325646400452, -0.09551270306110382, 0.015046367421746254, 0.08122189342975616, -0.0493987575173378, 0.09252874553203583, -0.06502828001976013, -0.06787947565317154, -0.007765110582113266, -0.0861649140715599, 0.03599539026618004, 0.022939790040254593, 0.025855829939246178, 0.07301782071590424, -0.08835931867361069, 0.06255541741847992, 0.05498190224170685, -0.007193112280219793, 0.03763698413968086, 0.03806570917367935, 0.02888152189552784, 0.0034857511054724455, -0.0884343758225441, 0.08802217245101929, 0.03777235001325607, 0.0387217253446579, -0.04069340229034424, 0.03618870675563812, 0.08396776765584946, -0.09314073622226715, -0.06988965719938278, -0.06952124089002609, -0.0798524022102356, 0.060052115470170975, -0.05905675143003464, -0.05758912116289139, 0.053042296320199966, 0.07601836323738098, 0.008774307556450367, 0.0918726995587349, 0.05823339521884918, 0.05068188160657883, -0.02851279452443123, 0.02713213674724102, -0.03408116102218628, -0.062470223754644394, 0.05599848926067352, -0.08618509769439697, -0.07028041034936905, -0.06514930725097656, -0.05851607769727707, -0.04416220635175705, 0.062462639063596725, 0.03691456466913223, -0.04202817380428314, 0.05629086494445801, 0.030119849368929863, -0.030193734914064407, 0.09246017038822174, -0.027228105813264847, -0.016053421422839165, 0.036830835044384, 0.09415242075920105, -0.003256544005125761, -0.09584621340036392, 0.032118059694767, 0.003889238927513361, -0.09481924027204514, 0.060551609843969345], [0.06472429633140564, -0.024846626445651054, -0.01120901107788086, -0.045929815620183945, -0.007422995753586292, 0.09509476274251938, -0.014974606223404408, 0.08957258611917496, 0.0885545015335083, 0.05438129976391792, -0.004324137698858976, 0.06945623457431793, 0.07751372456550598, -0.01178822759538889, -0.08423206955194473, 0.04324266314506531, 0.0314069539308548, -0.09402618557214737, 0.09735949337482452, -0.03976689651608467, 0.06891579180955887, 0.006685232277959585, -0.06256639212369919, -0.005818059202283621, -0.05499556288123131, 0.04489191994071007, -0.05816730484366417, 0.022689545527100563, -0.06335838884115219, 0.05632423982024193, -0.05271545797586441, -0.06555052846670151, 0.014748988673090935, -0.08904489129781723, -0.05796102434396744, -0.0021359736565500498, -0.004298822022974491, -0.04750492051243782, -0.09521400183439255, -0.018717531114816666, -0.09588803350925446, 0.058336518704891205, -0.03263271972537041, -0.00752205029129982, -0.06511899083852768, 0.07238487899303436, -0.05495268851518631, 0.05576959252357483, -0.05689765140414238, 0.05370037630200386, 0.03656003624200821, 0.11409632116556168, 0.049329765141010284, -0.04589585214853287, 0.021181784570217133, 0.024100227281451225, 0.04334809258580208, 0.05335632711648941, -0.056464020162820816, 0.10930749773979187, -0.05474302917718887, 0.00531842652708292, -0.018792834132909775, 0.07241733372211456, -0.012725519947707653, -0.11864114552736282, -0.02386849746108055, -0.06311817467212677, -0.06580184400081635, -0.02848687209188938, -0.01987408846616745, -0.07136964052915573, 0.006424130871891975, -0.07079112529754639, -0.09967580437660217, 0.019808528944849968, 0.01906462013721466, 0.06884236633777618, -0.08280861377716064, -0.02526714839041233, 0.0324932336807251, -0.06610631942749023, -0.06789983063936234, 0.06481949239969254, -0.021667305380105972, -0.06691686064004898, -0.0237396489828825, -0.09392330795526505, -0.07880282402038574, -0.06833106279373169, 0.08547095209360123, 0.03484433516860008, 0.05888473242521286, 0.09346277266740799, -0.004744333680719137, -0.027570458129048347, 0.03868555277585983, 0.03023925982415676, 0.022370493039488792, -0.03066403977572918], [-0.04066501185297966, -0.06860087811946869, 0.08175023645162582, 0.008696675300598145, 0.012710175476968288, -0.019337505102157593, -0.11879938095808029, 0.05978395789861679, -0.08384045213460922, -0.07121799141168594, -0.013163674622774124, 0.09297167509794235, -0.012117126025259495, -0.03182851895689964, -0.025883005931973457, -0.05017569288611412, -0.005203202832490206, 0.04643772169947624, -0.08377692848443985, -0.085893414914608, 0.024249359965324402, 0.09890855103731155, 0.011271154507994652, 0.08637885004281998, 0.00467309495434165, 0.054982155561447144, -0.045141685754060745, -0.04268746078014374, -0.0738905593752861, 0.08217715471982956, -0.06286439299583435, -0.030063102021813393, 0.11440529674291611, -0.05723074451088905, -0.06949332356452942, 0.031834494322538376, -0.03523578867316246, -0.07307244837284088, 0.015149230137467384, 0.0367807075381279, 0.04883416369557381, -0.02781888097524643, -0.0458725206553936, -0.022869570180773735, 0.042816467583179474, -0.03862477093935013, 0.028984978795051575, 0.07135089486837387, 0.041133809834718704, -0.09202475845813751, 0.09594868868589401, -0.038865745067596436, 0.04198898747563362, 0.021906878799200058, 0.025668544694781303, 0.03806082904338837, 0.06898485124111176, 0.08998549729585648, 0.0599978081882, -0.0820862203836441, -0.07328029721975327, 0.01655638962984085, 0.007095098961144686, -0.05414991453289986, -0.0736851692199707, 0.044680725783109665, -0.027364438399672508, -0.08591144531965256, 0.09996600449085236, 0.00042660333565436304, 0.07209642231464386, 0.06935456395149231, 0.04373877868056297, -0.0288217943161726, -0.05512160807847977, 0.024405375123023987, -0.05834619328379631, -0.0897708460688591, -0.01862701214849949, -0.07278824597597122, 0.010573872365057468, 0.07661113888025284, 0.066331647336483, -0.007681900169700384, 0.07864552736282349, -0.10438135266304016, -0.02049854025244713, -0.027586115524172783, 0.005798268597573042, -0.07460039108991623, -0.007558150682598352, 0.0768081545829773, -0.0699593722820282, -0.05401057004928589, 0.07280948013067245, 0.05262517184019089, 0.07153167575597763, 0.051735103130340576, 0.015080190263688564, 0.08323389291763306], [0.012074841186404228, 0.007391809951514006, -0.058154668658971786, -0.052810002118349075, 0.004713992588222027, 0.021599972620606422, 0.04073270037770271, 0.08710326999425888, 0.058033835142850876, -0.008784671314060688, 0.09473402798175812, 0.08193892240524292, -0.0019658554811030626, 0.065342478454113, -0.0015728906728327274, 0.08665405958890915, 0.04789159446954727, -0.06286118179559708, -0.08844270557165146, 0.09090355783700943, -0.0438246913254261, 0.0036984020844101906, 0.08460932224988937, 0.049240004271268845, 0.013833086006343365, -0.032589249312877655, 0.04965529590845108, 0.02497662790119648, -0.12299089133739471, -0.047618962824344635, 0.06055092066526413, 0.03340676799416542, 0.0642799511551857, -0.03846380487084389, -0.05148148536682129, 0.03324800729751587, -0.08739976584911346, -0.07851991802453995, 0.10195587575435638, -0.026451101526618004, -0.09348803758621216, 0.06936483830213547, 0.08426669985055923, 0.07376644015312195, -0.06630443036556244, 0.07528143376111984, -0.03261489421129227, -0.04904725030064583, 0.07990092039108276, -0.027870992198586464, 0.01177605427801609, 0.05215388908982277, -0.07921162992715836, 0.0866122618317604, 0.04860597103834152, -0.08369900286197662, -0.036216992884874344, -0.02393949404358864, 0.020201563835144043, 0.013294670730829239, 0.003040547715499997, 0.03963162750005722, 0.0817803293466568, 0.08902335166931152, -0.09990302473306656, 0.030819712206721306, -0.08325880765914917, 0.0449521504342556, 0.06494566798210144, -0.08981756865978241, -0.11013208329677582, -0.07998266816139221, 0.0004415325238369405, 0.012531946413218975, 0.022916465997695923, 0.019995560869574547, -0.06156164035201073, 0.09710798412561417, 0.08100330084562302, 0.06720734387636185, 0.05794515088200569, 0.05413060635328293, 0.038130298256874084, 0.08684881776571274, -0.07802356779575348, 0.03195520490407944, 0.0687422826886177, -0.014191115275025368, -0.008243965916335583, -0.030142225325107574, -0.05501386150717735, -0.0182405523955822, 0.017772670835256577, -0.08412531018257141, 0.014586272649466991, -0.0235147587954998, -0.07406684011220932, 0.03904484584927559, -0.03148704767227173, -0.025323843583464622], [0.09533526748418808, -0.07204992324113846, 0.050346195697784424, -0.09803082048892975, 0.10445816069841385, -0.0048110587522387505, -0.0027861855924129486, -0.030529474839568138, 0.061605364084243774, -0.039849769324064255, 0.037217188626527786, -0.07914463430643082, -0.07432041317224503, 0.053025707602500916, 0.010367631912231445, 0.014687861315906048, -0.035506755113601685, 0.051230475306510925, -0.025633402168750763, 0.06468488276004791, 0.06761850416660309, 0.03077504225075245, -0.06247440725564957, 0.05709533020853996, -0.04183252155780792, -0.10203365236520767, -0.04131053388118744, 0.02173857018351555, 0.08661743998527527, 0.019184308126568794, -0.008558603934943676, 0.023028992116451263, -0.012973337434232235, -0.01546505093574524, -0.08124684542417526, -0.10630891472101212, 0.003683987073600292, 0.019322775304317474, -0.0033450759947299957, 0.030385447666049004, 0.023497890681028366, -0.06798094511032104, -0.07275690883398056, -0.009612196125090122, 0.023826267570257187, -0.01306096650660038, 0.09646978974342346, -0.04295647144317627, 0.05044873431324959, -0.09843400120735168, 0.0033566951751708984, 0.0027720413636416197, -0.013030406087636948, -0.03698337450623512, -0.09692264348268509, 0.04549054428935051, -0.06403350830078125, 0.1296570748090744, -0.04013318195939064, 0.044033825397491455, 0.05349208414554596, 0.09002983570098877, 0.059434715658426285, -0.03622913360595703, -0.05926050618290901, -0.04983381927013397, -0.03201788663864136, -0.0871015191078186, 0.0352427139878273, 0.06802116334438324, -0.05867473781108856, -0.045735523104667664, 0.0010557840578258038, -0.03453980013728142, 0.04188636690378189, 0.05700433626770973, 0.0021831472404301167, -0.06280288100242615, -0.08333674818277359, -0.09330011904239655, 0.08590561896562576, -0.044593505561351776, -0.01819910667836666, -0.027172118425369263, 0.00524767255410552, -0.14132845401763916, -0.08902128785848618, -0.05811871215701103, -0.0990447998046875, -0.08982732892036438, -0.0191290695220232, -0.07269309461116791, -0.052279070019721985, 0.000710411521140486, 0.03867458179593086, -0.05083289369940758, -0.08099938184022903, 0.04572508484125137, -0.06947936862707138, -0.08029752969741821], [-0.03560471534729004, 0.08715958893299103, -0.09604620933532715, 0.06865739822387695, -0.0016358650755137205, -0.08121927827596664, -0.025819314643740654, 0.07322555035352707, 0.04776647686958313, -0.005586171057075262, -0.018432071432471275, -0.039254080504179, -0.10817910730838776, 0.02284478209912777, 0.050023626536130905, -0.09032877534627914, -0.046307098120450974, 0.016422851011157036, 0.07499711960554123, 0.0402127280831337, 0.06664577126502991, -0.07045870274305344, -0.022580301389098167, 0.05717543512582779, 0.0643705502152443, 0.06048278883099556, 0.061457373201847076, 0.0910813957452774, -0.07935474812984467, 0.06847772747278214, -0.02828635647892952, 0.08022300153970718, 0.06712060421705246, -0.08240783959627151, -0.01522157434374094, 0.021854035556316376, 0.008236674591898918, 0.005083171185106039, 0.013227278366684914, -0.0033651920966804028, 0.02180713415145874, 0.03212859109044075, -0.013976478949189186, 0.0010452267015352845, -0.005473325494676828, 0.07418759912252426, -0.00621189596131444, -0.07390961796045303, 0.011444195173680782, -0.0047173756174743176, -0.054495345801115036, -0.06480886042118073, 0.05437949672341347, 0.019637366756796837, 0.031866561621427536, 0.0962260290980339, -0.07067185640335083, 0.010221973061561584, 0.05860958993434906, -0.02953002229332924, -0.10629448294639587, -0.06111077591776848, -0.09960657358169556, 0.07312207669019699, 0.013419686816632748, 0.002485370496287942, -0.08713336288928986, -0.0018169621471315622, 0.06011669337749481, -0.07083630561828613, -0.010929622687399387, 0.09020538628101349, 0.08462030440568924, -0.0033341783564537764, -0.031610168516635895, -0.06576861441135406, -0.06945955008268356, -0.006769321393221617, -0.009191549383103848, -0.04707944765686989, -0.07405727356672287, -0.07789110392332077, -0.05912686139345169, -0.06777317821979523, -0.04761049151420593, -0.05764586478471756, -0.10054314136505127, -0.024554980918765068, 0.06619218736886978, 0.037644609808921814, 0.04633451625704765, -0.0478571280837059, -0.016149966046214104, 0.018103482201695442, -0.09747409075498581, 0.08393338322639465, -0.0879015401005745, -0.09027254581451416, 0.010144472122192383, 0.09766771644353867], [-0.014227619394659996, -0.048773765563964844, 0.03221435472369194, 0.05870940908789635, -0.009460686706006527, 0.060512881726026535, -0.09379944950342178, -0.050191640853881836, -0.05281313881278038, -0.06094735860824585, -0.027493730187416077, 0.07098572701215744, -0.09039326757192612, 0.03291335329413414, 0.018530793488025665, -0.02463228814303875, -0.044274426996707916, -0.06617081165313721, 0.08967267721891403, 0.08789033442735672, -0.058279406279325485, -0.017018254846334457, 0.06201395019888878, 0.09299300611019135, 0.0491592213511467, 0.09104591608047485, 0.023645782843232155, 0.09031935036182404, -0.07424362003803253, -0.05123109742999077, -0.08848325163125992, 0.098983533680439, 0.046316541731357574, -0.03349309414625168, -0.004257866647094488, 0.03678238391876221, -0.0814831405878067, -0.06217951700091362, -0.06791434437036514, 0.07873526960611343, -0.06828214973211288, -0.00646048691123724, -0.0682227835059166, -0.04279213026165962, 0.04096231609582901, 0.07972987741231918, -0.06578278541564941, -0.05792465806007385, -0.07240812480449677, 0.03518209606409073, -0.016694998368620872, 0.009418416768312454, -0.09763502329587936, 0.033825766295194626, -0.04161117598414421, 0.04114576056599617, -0.00623122975230217, 0.06805269420146942, -0.08658504486083984, -0.05431438609957695, -0.04644712433218956, -0.03122023306787014, -0.08187180757522583, -0.04256401211023331, -0.06273359060287476, -0.098204605281353, -0.05492476373910904, 0.00977481622248888, -0.07357382029294968, -0.000692689442075789, -0.030050350353121758, 0.009051918983459473, 0.02934415452182293, 0.09742585569620132, 0.015743160620331764, 0.059262026101350784, 0.031800296157598495, 0.024018025025725365, -0.031069351360201836, 0.04736241698265076, 0.019988013431429863, -0.010127989575266838, 0.09442098438739777, -0.026280058547854424, 0.02433115243911743, -0.04564846679568291, 0.0952320471405983, 0.05905580520629883, 0.04787534475326538, 0.0773233100771904, 0.0864056870341301, -0.023028863593935966, -0.008774745278060436, -0.01378945168107748, 0.06953644752502441, -0.04936423525214195, 0.0986773893237114, 0.051321305334568024, 0.06227414682507515, 0.09883475303649902], [-0.08600151538848877, 0.06159262731671333, -0.06511878967285156, 0.07209612429141998, -0.00726892938837409, 0.07011166214942932, 0.02383960597217083, -0.01234657783061266, -0.09851421415805817, -0.014267670921981335, 0.04215479642152786, 0.09023051708936691, -0.04113484174013138, 0.08057907968759537, 0.06115500628948212, -0.059813931584358215, -0.06420106440782547, -0.03616226837038994, -0.0775427371263504, -0.004320991225540638, -0.09955335408449173, -0.048230595886707306, -0.028905821964144707, -0.03541478514671326, 0.045220207422971725, -0.0696653425693512, -0.001637122593820095, 0.022625697776675224, 0.09127754718065262, -0.06879740953445435, -0.06702221930027008, -0.04141132906079292, -0.09365968406200409, -0.06117849051952362, -0.036663323640823364, -0.07228050380945206, -0.014107405208051205, 0.04283644258975983, 0.02727508172392845, -0.01606791839003563, 0.013482630252838135, -0.033050622791051865, 0.02549665793776512, -0.04401559382677078, 0.03288396820425987, 0.08038148283958435, -0.005708086770027876, 0.06356287747621536, 0.02887725830078125, 0.08932063728570938, 0.014073885045945644, -0.0778537392616272, 0.054889559745788574, -0.013559031300246716, -0.035884808748960495, 0.06553241610527039, -0.07401151210069656, 0.06265607476234436, -0.02650543488562107, -0.08529908955097198, -0.023662960156798363, -0.017122888937592506, 0.03664563596248627, -0.08372221142053604, -0.03249625489115715, -0.07342918962240219, -0.08745919167995453, -0.05288027599453926, 0.011103796772658825, -0.03648938238620758, -0.07747373729944229, -0.04273722320795059, 0.0330052375793457, -0.009252142161130905, 0.037978313863277435, 0.026953434571623802, 0.09522038698196411, -0.047960974276065826, 0.0015867709880694747, 0.017595741897821426, -0.07290542125701904, -0.04726075008511543, 0.05270904302597046, 0.06790421158075333, -0.08875954151153564, 0.03404083102941513, 0.09604470431804657, 0.05281125381588936, -0.0063272276893258095, 0.04196147620677948, -0.07952176779508591, -0.07769616693258286, -0.09484304487705231, 0.05508462339639664, 0.055842507630586624, -0.08991354703903198, -0.05240914970636368, 0.08319058269262314, -0.06368160247802734, -0.07770713418722153], [-0.0700487419962883, -0.059623461216688156, -0.07617246359586716, -0.0015231132274493575, 0.08370192348957062, 0.04720394313335419, 0.001977539388462901, 0.07986924797296524, -0.09184100478887558, -0.061009731143713, -0.010991659946739674, 0.06535729020833969, -0.03926744684576988, -0.0012415528763085604, -0.08561469614505768, -0.06998113542795181, 0.008535947650671005, 0.03992115706205368, 0.0218238215893507, -0.09244319051504135, 0.014302919618785381, -0.09062232822179794, -0.018025517463684082, -0.0075546265579760075, -0.02047877386212349, -0.02240145206451416, -0.09677371382713318, -0.03242052346467972, 0.05604802072048187, 0.04392362758517265, 0.009942645207047462, -0.08307913690805435, -0.05250360816717148, -0.0560816191136837, 0.028180137276649475, 0.05262627825140953, 0.03354041650891304, 0.09803755581378937, -0.028256235644221306, -0.0799340009689331, -0.09259297698736191, 0.008235032670199871, -0.0737449899315834, 0.05248061940073967, -0.006872832775115967, 0.07787490636110306, 0.07884710282087326, 0.06549108028411865, -0.07592487335205078, -0.021358966827392578, 0.034800220280885696, 0.021578801795840263, 0.06196815147995949, -0.06824809312820435, -0.027438128367066383, 0.05742456391453743, 0.05534042790532112, 0.013522529043257236, 0.05504011735320091, 0.025146782398223877, 0.07369279861450195, -0.0923469215631485, -0.042751070111989975, -0.05257011577486992, 0.06047990173101425, -0.05951587110757828, 0.04221990332007408, -0.04118596017360687, -0.0030520677100867033, 0.07114797085523605, 0.04881609231233597, 0.10110317915678024, -0.023436199873685837, -0.039910685271024704, 0.07456178218126297, -0.06409671157598495, 0.08800170570611954, -0.03524181991815567, 0.005744588561356068, 0.03459338843822479, 0.0724736899137497, 0.07766185700893402, -0.0615493506193161, -0.0015538216102868319, -0.032986413687467575, -0.05577123165130615, -0.042111776769161224, -0.04269474744796753, -0.07837559282779694, -0.08513478189706802, -0.08414310961961746, -0.05520493909716606, 0.016395365819334984, 0.03937481343746185, 0.09620147943496704, -0.06295962631702423, 0.06820204854011536, 0.0825214758515358, -0.07081779092550278, 0.09120208024978638], [0.040526602417230606, -0.041235219687223434, 0.030143607407808304, -0.067812480032444, 0.04647037014365196, 0.011515840888023376, -0.04396289587020874, 0.02390509843826294, 0.059432532638311386, -0.08633233606815338, -0.06487918645143509, -0.06047293543815613, 0.043555110692977905, 0.013129686005413532, -0.001741377403959632, -0.09231135994195938, -0.08164973556995392, 0.09156209230422974, -0.09354612976312637, 0.05748821422457695, -0.04771808534860611, -0.03073306195437908, -0.036473680287599564, -0.09079556167125702, 0.07060743868350983, 0.054749418050050735, -0.09550407528877258, 0.04453663155436516, -0.06375961750745773, 0.0022484767250716686, -0.0059025767259299755, -0.05228233337402344, 0.0826079472899437, 0.09393233060836792, 0.07121461629867554, 0.012181752361357212, 0.08559172600507736, -0.07706258445978165, -0.06690435856580734, 0.004296857863664627, -0.08124952763319016, -0.0009948118822649121, 0.023598719388246536, 0.054777778685092926, 0.018723975867033005, -0.015663502737879753, -0.021440450102090836, -0.018153754994273186, 0.03802300989627838, -0.035675354301929474, 0.06759770214557648, 0.058375034481287, -0.021501999348402023, 0.06054079160094261, 0.09957264363765717, 0.08773946762084961, -0.07878722250461578, -0.09238775819540024, 0.10019434243440628, 0.0033562397584319115, 0.010210337117314339, 0.05730376020073891, -0.07063012570142746, -0.02277541346848011, -0.01126769743859768, 0.07628203183412552, 0.07051859050989151, -0.04400736838579178, -0.06707024574279785, 0.029605377465486526, -0.08433540910482407, -0.03656897693872452, -0.0002889871539082378, -0.09161359071731567, 0.006038147956132889, 0.003765163943171501, 0.012498438358306885, -0.009914827533066273, 0.048762477934360504, 0.002661383245140314, 0.06079329922795296, -0.09334886074066162, 0.053070832043886185, -0.061274752020835876, 0.04160407930612564, -0.012053106911480427, -0.07987713068723679, -0.0020055414643138647, -0.06367446482181549, -0.08533213287591934, -0.05407993867993355, -0.03650250658392906, 0.06391729414463043, 0.0021171479020267725, -0.02843097411096096, 0.08174499869346619, 0.0969749316573143, -0.08603236824274063, -0.004899859428405762, -0.07463610172271729], [-0.07206093519926071, 0.06898398697376251, 0.06154453754425049, -0.034819841384887695, -0.0723966509103775, 0.06722946465015411, -0.07080745697021484, 0.030093614012002945, -0.04977147653698921, 0.046344172209501266, 0.10084927082061768, -0.05539749562740326, 0.11245117336511612, -0.030278021469712257, 0.05795075371861458, -0.057166825979948044, -0.004735007416456938, 0.015914548188447952, 0.05119585245847702, -0.0979272872209549, 0.08365389704704285, 0.0052771964110434055, -0.07031682878732681, -0.03204943984746933, -0.05105392262339592, 0.05349135771393776, 0.1108512207865715, 0.07239142060279846, 0.04037110134959221, 0.020717060193419456, 0.09033797681331635, 0.04893052577972412, 0.06852806359529495, 0.035739947110414505, 0.031863898038864136, 0.026643676683306694, 0.0980711355805397, -0.01592100039124489, 0.00457766791805625, -0.09270109981298447, 0.05629632994532585, 0.05200449004769325, 0.059271980077028275, -0.08196502178907394, -0.01272825337946415, -0.06870806217193604, 0.02868061140179634, 0.066871777176857, -0.07786766439676285, -0.05480356141924858, -0.0252059455960989, 0.06488712877035141, 0.1167999804019928, -0.09394027292728424, 0.05567938834428787, 0.0004987025749869645, -0.006160517688840628, 0.0530007928609848, -0.08224111050367355, -0.06817169487476349, 0.010049470700323582, -0.0961962342262268, 0.03843013942241669, 0.06459103524684906, -0.013991506770253181, 0.03714607656002045, -0.016183331608772278, 0.0772784948348999, -0.049431800842285156, -0.05550817400217056, -0.08238571137189865, 0.02858678065240383, 0.11286415904760361, -0.09490607678890228, 0.0766945406794548, -0.051128800958395004, 0.05373222753405571, 0.0076982141472399235, 0.09757205098867416, -0.0810404047369957, 0.005238411016762257, 0.03138474375009537, 0.04585295915603638, 0.012818241491913795, -0.021636363118886948, 0.02578144706785679, -0.05901885777711868, 0.09588432312011719, -0.006976795382797718, 0.04174531251192093, -0.015271294862031937, -0.06423886865377426, 0.030200336128473282, 0.09041951596736908, 0.02046152763068676, -0.07298748940229416, -0.020013444125652313, 0.026339149102568626, 0.03282598406076431, -0.01698404550552368], [-0.08059622347354889, 0.011728228069841862, 0.08953110128641129, 0.049384940415620804, 0.008700402453541756, 0.011270934715867043, -0.026685839518904686, -0.07739941030740738, -0.0001781289465725422, -0.06847730278968811, -0.011639716103672981, 0.060756489634513855, 0.06042008474469185, -0.014806822873651981, 0.061563894152641296, -0.046406567096710205, -0.0685734674334526, 0.027202902361750603, 0.06059371307492256, -0.04646226391196251, -0.0408734567463398, 0.08360274881124496, 0.03639986738562584, 0.07417645305395126, 0.04197598248720169, 0.0022405385971069336, -0.00827345997095108, -0.08036765456199646, 0.010249332524836063, -0.07620467990636826, -0.059670474380254745, 0.01021505892276764, 0.008988180197775364, -0.04018401354551315, -0.03797097131609917, -0.08807437866926193, -0.016436269506812096, -0.08592773973941803, -0.03654596582055092, -0.022794900462031364, 0.08315135538578033, 0.08625078201293945, -0.042726993560791016, -0.04113148897886276, 0.06012573465704918, -0.01995345950126648, 0.0694316104054451, -0.07599885761737823, -0.024729495868086815, -0.03676753491163254, 0.0676102414727211, 0.02008182182908058, -0.04042347893118858, -0.0018074741819873452, 0.033977754414081573, -0.07699675858020782, 0.0704498142004013, 0.09544369578361511, -0.033404767513275146, -0.09085916727781296, 0.07088544219732285, -0.027388250455260277, -0.061385251581668854, 0.015811163932085037, 0.018250256776809692, -0.018524255603551865, -0.07005880028009415, -0.014908403158187866, -0.042139649391174316, -0.06771677732467651, 0.021573450416326523, -0.06226795166730881, 0.08942577242851257, -0.03484148532152176, 0.07447247952222824, -0.06419310718774796, 0.09739536792039871, 0.03761858865618706, 0.006648683454841375, -0.004062402527779341, -0.04398630931973457, 0.015984324738383293, 0.05185537040233612, 0.04210946708917618, -0.060569263994693756, -0.0548660047352314, -0.08961500227451324, 0.023159921169281006, -0.06135094165802002, 0.04667981341481209, 0.010741925798356533, -0.05099019035696983, -0.02954862266778946, 0.023300979286432266, -0.038497865200042725, -0.028291786089539528, -0.08982320129871368, -0.047014202922582626, 0.061209168285131454, 0.014896559529006481], [0.04455510526895523, 0.0434972383081913, 0.003118884516879916, 0.06843797117471695, -0.037192679941654205, 0.01175534725189209, 0.09218396246433258, 0.06519278138875961, -0.050484538078308105, -0.010888755321502686, -0.07653683423995972, -0.01945325918495655, -0.04637124761939049, -0.038582660257816315, -0.03860330581665039, -0.0783713087439537, -0.05342921242117882, 0.09613453596830368, -0.020125914365053177, -0.007181942462921143, -0.09169330447912216, -0.0055818757973611355, -0.05864020809531212, 0.03884867578744888, -0.09482758492231369, -0.0147499805316329, 0.06810760498046875, -0.028635192662477493, -0.09138653427362442, 0.07092146575450897, -0.08376459777355194, 0.09555044025182724, -0.010171784088015556, 0.04597720131278038, 0.08275198191404343, 0.03992753103375435, -0.07564472407102585, -0.07839732617139816, -0.06430134922266006, -0.031356584280729294, -0.05440957471728325, 0.0858629047870636, 0.09834116697311401, -0.060272276401519775, 0.07586464285850525, 0.03761898726224899, 0.006873345468193293, 0.005297720432281494, -0.023688185960054398, -0.08591405302286148, 0.04928198084235191, 0.03530615568161011, -0.09705895185470581, -0.013910305686295033, 0.0478668212890625, -0.02001451700925827, -0.06083736568689346, 0.08880088478326797, -0.04858511686325073, -0.07254453003406525, -0.10365328192710876, 0.0561390295624733, -0.06300314515829086, -0.04465292766690254, -0.08848380297422409, 0.005678760353475809, 0.029329050332307816, -0.048749376088380814, -0.08740495890378952, -0.09328646957874298, -0.013571974821388721, 0.04552675411105156, -0.04956497624516487, -0.007968716323375702, -0.09023779630661011, -0.07600967586040497, -0.09319090843200684, -0.053530849516391754, 0.052143942564725876, -0.03474229574203491, 0.05537096783518791, -0.07987286895513535, 0.05297901853919029, -0.001084661460481584, -0.08070360869169235, -0.03195606544613838, -0.02517019771039486, -0.027578486129641533, 0.044943761080503464, -0.08491634577512741, -0.07393872737884521, 0.0623006746172905, -0.010203152894973755, 0.04435170814394951, -0.07963202148675919, 0.07525941729545593, -0.08346177637577057, 0.08455623686313629, -0.0714099332690239, 0.036984849721193314], [-0.020494932308793068, -0.019747881218791008, -0.034400034695863724, 0.0541875958442688, -0.044657740741968155, -0.04248832166194916, 0.07125037908554077, 0.07580782473087311, -0.043977927416563034, 0.025759661570191383, 0.012912030331790447, -0.08291751891374588, 0.07030173391103745, -0.08656257390975952, -0.0750184953212738, -0.0014639378059655428, -0.07988431304693222, 0.06080234423279762, -0.05715388059616089, 0.06606390327215195, 0.05694779381155968, 0.082097128033638, -0.09500199556350708, 0.0021729841828346252, 0.03273233026266098, -0.044927921146154404, -0.02370046079158783, 0.07020577788352966, 0.1052679494023323, -0.08129100501537323, -0.019626915454864502, -0.057796966284513474, 0.04903152957558632, 0.033122770488262177, -0.09278946369886398, -0.05277358368039131, 0.05640034377574921, 0.07449613511562347, 0.014005898497998714, 0.0669177994132042, -0.039363183081150055, -0.07997719943523407, -0.07103065401315689, 0.056885529309511185, -0.027392221614718437, -0.04898140951991081, 0.046507060527801514, 0.025049971416592598, -0.07717913389205933, 0.06459499895572662, -0.028080297634005547, 0.07893554866313934, -0.010113755241036415, 0.03381873667240143, 0.0007625021389685571, -0.016054745763540268, 0.07765910029411316, 0.026589564979076385, -0.08974436670541763, 0.09564345329999924, 0.015991127118468285, -0.03080143965780735, -0.05140405148267746, -0.0798044204711914, 0.04276568070054054, 0.024806389585137367, 0.08277003467082977, -0.08042262494564056, 0.09559072554111481, 0.09791091084480286, 0.0407145619392395, 0.026022672653198242, -0.023920953273773193, -0.09903029352426529, -0.002260174136608839, 0.0681314691901207, 0.0655529573559761, -0.07864619791507721, -0.0810147300362587, -0.035744164139032364, -0.03311506658792496, -0.07709886878728867, -0.0386522077023983, 0.027231944724917412, 0.017172707244753838, -0.06424807012081146, 0.0041072010062634945, 0.0805354118347168, -0.07356870919466019, -0.00045235268771648407, -0.05499180778861046, 0.056191276758909225, 0.07987824082374573, -0.005141425412148237, -0.04408245161175728, -0.11321984231472015, 0.03564343601465225, 0.040764402598142624, 0.06457586586475372, -0.05262594297528267], [0.04440934211015701, 0.006102318409830332, 0.04732945188879967, -0.05475134775042534, -0.05583801493048668, 0.08633027970790863, 0.11681795865297318, 0.07109323889017105, 0.004382487386465073, -0.06927969306707382, 0.055407699197530746, 0.08528369665145874, -0.006047395523637533, -0.05410507321357727, 0.06546608358621597, -0.07827239483594894, 0.06474412232637405, -0.05438166484236717, 0.0060831401497125626, 0.06042621657252312, -0.11140179634094238, -0.05976800620555878, -0.004375315271317959, 0.019723916426301003, 0.025437068194150925, 0.10036090016365051, -0.0545840784907341, 0.07246039807796478, 0.04292667657136917, -0.0774417296051979, -0.0675693079829216, 0.06995309144258499, 0.05474710464477539, 0.09825418889522552, 0.0009441142901778221, -0.043613530695438385, -0.031678877770900726, -0.0396747887134552, 0.09675827622413635, 0.07778561115264893, -0.01938835345208645, -0.05387911945581436, -0.012957233004271984, 0.037127017974853516, 0.02967141941189766, 0.010327782481908798, 0.0719040036201477, -0.06910647451877594, 0.021911555901169777, -0.06531327217817307, 0.015059865079820156, 0.05865011736750603, 0.07081224769353867, 0.08872219175100327, 0.00969730131328106, 0.04427984356880188, -0.0006392000941559672, 0.07046373933553696, -0.06878623366355896, -0.015011047013103962, -0.04116851091384888, -0.015115122310817242, 0.046362753957509995, 0.024402596056461334, -0.046799324452877045, 0.0994919091463089, 0.06851934641599655, 0.06541559100151062, 0.0079769566655159, -0.058084480464458466, 0.023590493947267532, 0.039016034454107285, -0.05509890988469124, 0.05191447213292122, -0.073655866086483, 0.022948628291487694, 0.00806649960577488, 0.048871055245399475, -0.05121474340558052, 0.08899205923080444, -0.007358765695244074, 0.06983693689107895, -0.07519380003213882, 0.12348941713571548, 0.08425106108188629, 0.10391811281442642, 0.06639356911182404, 0.07467247545719147, 0.07270547747612, 0.07032844424247742, -0.09044917672872543, 0.04432676360011101, 0.02987007051706314, -0.011480892077088356, -0.026218678802251816, -0.0422104112803936, -0.00364513392560184, -0.06490971148014069, 0.07342202961444855, 0.056831683963537216], [-0.056152332574129105, -0.058892346918582916, 0.010862982831895351, 0.05149517208337784, 0.06194156035780907, 0.0418519452214241, -0.01734113320708275, -0.09533528238534927, 0.004407625645399094, 0.058648545295000076, -0.07632483541965485, 0.0662398561835289, -0.011527585797011852, -0.025785982608795166, 0.0028704286087304354, -0.035803940147161484, 0.036830220371484756, -0.004284140188246965, -0.09281746298074722, 0.06468711048364639, -0.062309350818395615, 0.028794867917895317, -0.05304157733917236, 0.03525592386722565, 0.044363461434841156, 0.03698670119047165, 0.07623250037431717, 0.07168029248714447, 0.03163500875234604, -0.0015543970512226224, 0.0644497275352478, -0.036420583724975586, -0.027040617540478706, 0.02605137974023819, -0.056143809109926224, -0.030622590333223343, 0.10001890361309052, 0.08021865040063858, 0.037108004093170166, -0.03436494246125221, 0.0005548119661398232, -0.006395699921995401, 0.09202004969120026, 0.04919441044330597, 0.07282030582427979, -0.01752602867782116, -0.09126633405685425, 0.04904574900865555, 0.08586298674345016, -0.002422124845907092, -0.031563010066747665, 0.09630420804023743, 0.04221085086464882, 0.022772153839468956, -0.001804082770831883, 0.08087439835071564, 0.08738009631633759, 0.08603478968143463, 0.0994412824511528, 0.0034194104373455048, -0.0014748078538104892, 0.07956993579864502, -0.01543469075113535, -0.06699100881814957, 0.0235938411206007, -0.04691024497151375, 0.04774566739797592, 0.04047822952270508, -0.0623323917388916, 0.010005290620028973, -0.08043473958969116, -0.015924466773867607, 0.0045771426521241665, 0.06446996331214905, 0.03744243457913399, 0.08617645502090454, -0.08789480477571487, -0.051317717880010605, -0.062101151794195175, 0.038247622549533844, -0.09126993268728256, 0.01662551797926426, 0.018307289108633995, 0.04953455552458763, 0.003712540492415428, 0.01699509471654892, -0.005947983358055353, 0.056048788130283356, -0.005186174530535936, -0.06623312085866928, -0.019641732797026634, 0.03357809782028198, 0.0402936115860939, -0.028875796124339104, 0.09945649653673172, -0.05726614221930504, 0.0007519960636273026, -0.045930612832307816, 0.028205765411257744, -0.023485256358981133], [-0.050527870655059814, 0.024228552356362343, 0.03537200763821602, 0.06578274816274643, 0.07399339228868484, -0.06998229026794434, -0.05721943452954292, 0.11256164312362671, -0.02888575755059719, -0.054765570908784866, 0.034719277173280716, -0.08873827755451202, 0.03569520264863968, -0.06100901588797569, -0.0004105470434296876, -0.0018094063270837069, -0.018892545253038406, 0.08311688899993896, 0.010221870616078377, 0.01634242758154869, -0.0833045169711113, 0.08154422044754028, 0.0802980437874794, 0.055586207658052444, -0.061862338334321976, -0.057709455490112305, 0.061096128076314926, 0.03444075584411621, 0.0819755420088768, -0.07932797819375992, -0.04805504158139229, -0.021488213911652565, 0.024662230163812637, -0.026887547224760056, -0.030542243272066116, -0.04437455162405968, -0.03414802625775337, -0.04263851046562195, -0.09280431270599365, 0.053810905665159225, 0.013971054926514626, 0.00895181018859148, 0.0065718889236450195, -0.06146160513162613, 0.09320477396249771, -0.03210108354687691, 0.024417592212557793, -0.08588855713605881, -0.05887727439403534, -0.06780920177698135, -0.013083052821457386, -0.09075846523046494, 0.09681826084852219, 0.0405871607363224, -0.06505755335092545, -0.04044802114367485, 0.07833028584718704, -0.0110222939401865, -0.023024428635835648, 0.08740841597318649, -0.040351297706365585, -0.07121473550796509, -0.07052027434110641, -0.09662046283483505, 0.04789721965789795, -0.08183522522449493, 0.044943917542696, 0.06500043720006943, 0.08476153761148453, 0.08110418915748596, 0.0895480215549469, 0.04709042236208916, -0.06652683019638062, -0.05881308391690254, -0.09844192117452621, -0.036872994154691696, 0.09387119859457016, 0.030830705538392067, 0.08093754202127457, -0.03713066130876541, 0.01861124113202095, -0.005300620570778847, -0.044440269470214844, -6.986856897128746e-05, 0.04355720430612564, -0.05161546543240547, 0.05060768127441406, 0.09474214166402817, -0.08598023653030396, 0.022113094106316566, -0.04031297191977501, 0.05223815515637398, -0.03373012691736221, 0.04923131689429283, 0.012025594711303711, -0.030066395178437233, 0.05464809015393257, -0.07845550775527954, -0.03362790495157242, -0.021165598183870316], [0.06354177743196487, -0.0750502198934555, -0.07564789056777954, -0.07835697382688522, 0.05260113999247551, -0.08390249311923981, 0.06479176878929138, -0.04016302898526192, -0.09725034236907959, -0.008096570149064064, 0.0591895617544651, -0.038390159606933594, 0.0744192823767662, -0.09261252731084824, 0.03920692950487137, -0.058337755501270294, -0.09690582752227783, 0.048720136284828186, 0.07275491207838058, 0.04413492977619171, -0.06838584691286087, -0.07764966785907745, -0.033125270158052444, 0.02514747902750969, -0.06394720077514648, -0.0523684099316597, 0.06006881222128868, -0.03935371711850166, 0.09023796766996384, 0.010953281074762344, 0.016526127234101295, -0.03191918134689331, -0.019481677561998367, 0.010602941736578941, -0.04454578831791878, 0.061868973076343536, 0.044028643518686295, 0.0011377079645171762, 0.035770025104284286, 0.01638604886829853, 0.022553175687789917, 0.08290760964155197, -0.005856857169419527, 0.02650882489979267, 0.017500508576631546, 0.08550860732793808, -0.07950194180011749, -0.09055328369140625, -0.0759274810552597, 0.005886065308004618, -0.06993098556995392, 0.03113877773284912, 0.09303129464387894, 0.026212191209197044, -0.011395139619708061, 0.07841813564300537, 0.02611199952661991, -0.06713978946208954, 0.05666924640536308, 0.03883999586105347, 0.09145922213792801, 0.0973430797457695, 0.042768798768520355, -0.006423717364668846, 0.02594311349093914, -0.013992216438055038, 0.05382458493113518, -0.04421829432249069, 0.015443826094269753, 0.05283506587147713, 0.04711604118347168, -0.011703899130225182, -0.09081398695707321, -0.05540464445948601, -0.10142770409584045, -0.06534518301486969, 0.014259753748774529, 0.08137954771518707, 0.047597359865903854, 0.02308548614382744, 0.07782493531703949, -0.03399870917201042, -0.10555810481309891, 0.04744674265384674, 0.07040752470493317, 0.030042484402656555, 0.04282492399215698, -0.0070381760597229, 0.026918446645140648, 0.010912274941802025, 0.0810898169875145, -0.045807134360075, 0.016442330554127693, -0.07519147545099258, -0.05827467516064644, -0.09617017209529877, 0.0053921593353152275, 0.017876898869872093, 0.028437281027436256, -0.01801466941833496], [0.07266543060541153, -0.0064294240437448025, -0.06726517528295517, -0.06730399280786514, -0.09023990482091904, -0.01577216014266014, 0.029684778302907944, -0.03136487305164337, -0.059410590678453445, -0.024657243862748146, -0.06727597862482071, -0.04651983454823494, -0.010953137651085854, -0.011739070527255535, 0.03722980618476868, -0.03441566601395607, 0.06476323306560516, 0.012866128236055374, 0.06326206028461456, -0.055265992879867554, -0.06622706353664398, -0.0383048877120018, -0.04004022851586342, 0.02393210493028164, 0.01434975117444992, -0.015690693631768227, -0.1255125105381012, 0.02969460003077984, -0.04026642069220543, -0.04236351326107979, -0.03112548403441906, 0.00354598555713892, -0.08608526736497879, 0.10709666460752487, -0.04293019324541092, -0.017001431435346603, -0.014824124053120613, 6.122214836068451e-05, 0.026082012802362442, -0.05025128647685051, -0.05337930843234062, -0.08775211870670319, 0.05088530480861664, 0.02212580107152462, 0.07307805866003036, -0.021829754114151, -0.09115016460418701, -0.053502798080444336, -0.014869725331664085, 0.028383851051330566, -0.04142838716506958, 0.0018833756912499666, -0.0963830053806305, -0.0945802554488182, -0.09142562747001648, 0.07856527715921402, 0.0844457596540451, 0.043567974120378494, -0.082334965467453, -0.015406441874802113, -0.07049300521612167, 0.026713678613305092, 0.018437260761857033, 0.05051266402006149, 0.05257296934723854, 0.03145075961947441, 0.043196287006139755, -0.04641183093190193, -0.02254554070532322, 0.0908837765455246, -0.03789112716913223, 0.00590624799951911, 0.0019058379111811519, 0.04469606280326843, 0.1274762749671936, 0.037937164306640625, 0.029360413551330566, 0.025718463584780693, -0.037152696400880814, 0.0027202130295336246, -0.09093876928091049, 0.06864185631275177, 0.06563106179237366, 0.06826847046613693, 0.02972392924129963, 0.030612941831350327, 0.08049563318490982, -0.012318837456405163, -0.050824522972106934, -0.09578597545623779, 0.07896742224693298, 0.06724491715431213, 0.0830925777554512, -0.04938079044222832, -0.05225670337677002, -0.06740301847457886, 0.06569298356771469, -0.009217286482453346, 0.05476173385977745, -0.026367736980319023], [-0.07204924523830414, 0.04115757346153259, -0.022996043786406517, 0.007424354553222656, 0.02026914805173874, -0.047507353127002716, -0.04706661030650139, -0.026840709149837494, 0.005370864644646645, -0.07020987570285797, -0.10288969427347183, -0.08216195553541183, 0.04897454008460045, 0.04687318205833435, -0.010430674999952316, 0.04159614071249962, 0.07791472226381302, 0.07456442713737488, -0.05785849690437317, -0.034376390278339386, 0.06967110186815262, -0.07055769860744476, 0.04507339745759964, 0.06062263622879982, -0.0831153392791748, -0.02129395119845867, -0.09238501638174057, -0.06311506778001785, 0.07585805654525757, -0.025308437645435333, 0.03938920050859451, -0.07592111080884933, 0.08273006975650787, 0.07778821140527725, -0.07681026309728622, -0.0009161406196653843, 0.027651788666844368, 0.07751093059778214, -0.005416225641965866, 0.030292844399809837, 0.059774935245513916, 0.048202648758888245, -0.06368758529424667, 0.04669464752078056, 0.07291804999113083, -0.08985482156276703, -0.023419996723532677, -0.049037449061870575, -0.05830290913581848, -0.014467359520494938, 0.0419330969452858, -0.022002089768648148, -0.005090535152703524, -0.07015325129032135, 0.003342794254422188, 0.042369645088911057, 0.003886429127305746, 0.029816417023539543, -0.041878607124090195, -0.012031945399940014, -0.012744653038680553, -0.07057864964008331, -0.034027792513370514, -0.07406004518270493, -0.0015534417470917106, 0.028498530387878418, -0.09910188615322113, 0.04120850935578346, -0.0012169480323791504, -0.05534503981471062, -0.00044654967496171594, 0.08010972291231155, 0.03712214529514313, 0.026295112445950508, -0.09318209439516068, -0.10604088753461838, 0.03790612146258354, -0.05257548391819, 0.047962725162506104, 0.038952961564064026, 0.06453265994787216, 0.002987767569720745, 0.083705373108387, 0.08192355185747147, 0.04843556880950928, 0.09118141978979111, 0.08665692061185837, 0.03832137584686279, 0.021081482991576195, -0.02618435211479664, 0.02451878786087036, -0.046699583530426025, -0.09772676229476929, -0.08179744333028793, 0.02184135839343071, 0.008794663473963737, -0.04722330719232559, -0.0782240629196167, 0.08667916059494019, 0.09832905977964401], [0.007442576810717583, 0.07977201044559479, -0.014637005515396595, -0.0019452095730230212, 0.09206099808216095, 0.06608525663614273, 0.001959732733666897, 0.09029874950647354, 0.0014639390865340829, -0.029721705242991447, -0.07402246445417404, 0.09330775588750839, -0.06606939435005188, 0.006594087928533554, -0.023731404915452003, -0.0028045647777616978, 0.011065961793065071, 0.08374850451946259, 0.013674765825271606, -0.03521399199962616, -0.0005617624847218394, -0.017351964488625526, -0.020987622439861298, -0.08451015502214432, 0.07532504945993423, -0.05561913922429085, -0.06413421779870987, -0.03225254639983177, 0.0075639961287379265, -0.021675899624824524, 0.024832528084516525, -0.05966257303953171, 0.06357589364051819, 0.04299946129322052, -0.019878674298524857, 0.06575890630483627, -0.08687075227499008, -0.05421984940767288, 0.07903248816728592, -0.06852886825799942, -0.057347606867551804, 0.07878132164478302, 0.0903286412358284, 0.029394708573818207, 0.07854274660348892, 0.09384696930646896, 0.004355134442448616, -0.014499715529382229, -0.08854902535676956, -0.02422783523797989, 0.014642620459198952, -0.04188206046819687, 0.0255826897919178, -0.09258782863616943, 0.029214119538664818, 0.06483729183673859, -0.03682522848248482, 0.05113054811954498, -0.02284657210111618, 0.04163166135549545, 0.03477992117404938, 0.04353763163089752, 0.007338440045714378, -0.08678838610649109, -0.08317118883132935, -0.08007528632879257, -0.016448713839054108, -0.09433634579181671, -0.04229232296347618, -0.020652037113904953, 0.010499109514057636, 0.03472775220870972, -0.04629255458712578, -0.041783127933740616, 0.020664939656853676, 0.008201728574931622, 0.01057704258710146, -0.07473257929086685, -0.029208743944764137, -0.09214518219232559, 0.023468399420380592, 0.02754068374633789, -0.03371863067150116, -0.03757326304912567, 0.03404146060347557, 0.05364951491355896, 0.003331562504172325, -0.044146668165922165, -0.045410480350255966, 0.005255460273474455, -0.021540937945246696, -0.0653579905629158, 0.004276813007891178, 0.00945264007896185, -0.07301024347543716, 0.03535467013716698, -0.011972114443778992, -0.047459255903959274, 0.0650128498673439, -0.04429525136947632], [0.07355781644582748, 0.023135226219892502, -0.017740845680236816, 0.0751621350646019, -0.040308669209480286, -0.08129540830850601, -0.041382789611816406, 0.0428030863404274, -0.005792676471173763, 0.0812554731965065, 0.06064635515213013, -0.08095860481262207, 0.09179200977087021, -0.06825463473796844, -0.04606986045837402, 0.0051276795566082, -0.007736467756330967, -0.09114596992731094, 0.0035614967346191406, -0.08373671025037766, 0.10248249024152756, 0.07706133276224136, 0.09695703536272049, -0.00901111215353012, 0.0421835333108902, 0.0471467562019825, -0.04942556470632553, 0.0642726793885231, -0.019777534529566765, 0.06064779683947563, 0.016735350713133812, -0.03856945410370827, 0.07156388461589813, -0.03071802668273449, -0.004098508972674608, 0.0395161472260952, 0.04191390052437782, 0.013928238302469254, -0.08726463466882706, 0.06643182784318924, 0.06585697829723358, -0.02878682315349579, -0.06589817255735397, -0.02752966806292534, 0.046075254678726196, -0.0440882071852684, 0.07715620845556259, -0.027304675430059433, -0.08600915223360062, 0.014643487520515919, -0.04691171646118164, 0.07217449694871902, 0.04845862835645676, -0.0664229765534401, 0.0431596003472805, -0.0369369238615036, 0.01576913334429264, -0.04276714846491814, 0.02299089916050434, 0.06548949331045151, -0.0574711374938488, 0.01904555782675743, 0.02985699474811554, -0.013778379186987877, 0.09298697113990784, -0.02774612046778202, -0.01537173893302679, -0.02882782742381096, 0.028688602149486542, 0.051002610474824905, 0.02129695564508438, -0.06926775723695755, 0.03296201676130295, 0.059494875371456146, 0.020700728520751, -0.006824305281043053, -0.01347921509295702, 0.032000284641981125, 0.04160655662417412, 0.00448413472622633, -0.015117008239030838, -0.09397578984498978, -0.010354744270443916, -0.04083231836557388, -0.07768145948648453, -0.0038038212805986404, -0.04866480827331543, -0.010071015916764736, -0.014388047158718109, -0.06453804671764374, 0.036328352987766266, 0.08997033536434174, 0.00641021691262722, -0.018017049878835678, -0.017878862097859383, -0.006726174149662256, -0.06217494234442711, 0.006732821464538574, 0.08155518025159836, -0.04736120626330376], [-0.008324816823005676, -0.012100934982299805, -0.02231147326529026, 0.036557603627443314, -0.02443801239132881, -0.045292604714632034, -0.06427907943725586, 0.009101486764848232, -0.03652597591280937, 0.06301306933164597, -0.08878036588430405, -0.08545519411563873, 0.06970301270484924, 0.07675547897815704, 0.08880004286766052, 0.07604100555181503, -0.040692009031772614, -0.06174950674176216, 0.0537022240459919, 0.02303140237927437, 0.04289381578564644, 0.03802427276968956, 0.06621382385492325, -0.040472496300935745, 0.054159581661224365, 0.001087486045435071, 0.043319281190633774, 0.0677962452173233, 0.0689869076013565, -0.06684605032205582, -0.044313132762908936, 0.07981648296117783, -0.08413815498352051, -0.025267094373703003, -0.04456533119082451, -0.07926048338413239, 0.10441247373819351, 0.03398239240050316, 0.018790656700730324, -0.009659874252974987, 0.011404789052903652, -0.07568176835775375, 0.09758468717336655, 0.07771466672420502, 0.08234022557735443, -0.0029909193981438875, -0.08310945332050323, 0.06839364767074585, -0.00644717225804925, -0.02444704808294773, 0.09530843794345856, 0.011436522006988525, 0.08165862411260605, -0.03840761259198189, -0.08000282198190689, 0.11132170259952545, 0.011661031283438206, -0.09568452090024948, 0.007554090116173029, 0.06703062355518341, 4.128217915422283e-05, -0.06452041864395142, 0.021190447732806206, -0.03315448760986328, -0.07024931907653809, -0.01716134324669838, -0.04058966785669327, 0.06911208480596542, -0.06617796421051025, -0.030043458566069603, -0.0692581906914711, -0.07885267585515976, -0.08005604892969131, -0.08049347251653671, 0.011474735103547573, -0.0550457127392292, 0.004548599943518639, -0.024438560009002686, 0.0918421745300293, 0.06720197945833206, -0.026978110894560814, -0.036542247980833054, 0.0818285271525383, -0.055146779865026474, -0.06967233866453171, 0.02512967772781849, 