{"0.weight": [[-0.024913107976317406, 0.04049865901470184, 0.07291503250598907, -0.017047619447112083, 0.1020694151520729, -0.09412550181150436, -0.0211839210242033, 0.03976268693804741, 0.01858609914779663, -0.09281642735004425, -0.060736943036317825, 0.07471900433301926, 0.09207303822040558, 0.03418222814798355, 0.07603838294744492, -0.05838337168097496, -0.0010077477199956775, 0.05900045856833458, -0.003460109233856201, -0.06126093864440918, -0.05051245912909508, -0.09926555305719376, -0.01700751855969429, 0.09448251873254776, 0.05772877857089043, -0.009130780585110188, 0.04873964935541153, 0.007539844606071711, 0.05306331068277359, 0.001599991344846785, -0.07339948415756226, -0.036885619163513184, -0.08300169557332993, -0.018887365236878395, -0.012735105119645596, -0.06020773947238922, 0.015461418777704239, 0.022840583696961403, -0.04427399858832359, -0.02323666773736477, 0.027517808601260185, -0.06373970955610275, -0.0954887866973877, -0.0735640674829483, 0.05978202447295189, 0.017550121992826462, 0.0465092808008194, 0.10437257587909698, 0.03646910935640335, -0.006192703265696764, 0.09081541746854782, -0.04031367227435112, 0.08771208673715591, -0.05785862356424332, 0.06432022899389267, 0.07603461295366287, -0.0047342353500425816, 0.09917646646499634, -0.0992390513420105, -0.06361067295074463, 0.0725589245557785, -0.062004756182432175, -0.04991358518600464, -0.06244136020541191, -0.09331335127353668, -0.0459824837744236, 0.04482454061508179, 0.05086757615208626, -0.07293730974197388, 0.02661219798028469, -0.0017054438358172774, -0.02173830382525921, -0.07616102695465088, 0.06065356731414795, 0.049475207924842834, 0.04187425971031189, 0.07224005460739136, 0.045595746487379074, -0.09461008757352829, -0.030420958995819092, -0.04757360368967056, -0.05624953657388687, -0.02634616009891033, -0.006743085570633411, 0.04634106904268265, -0.03758510574698448, -0.014545691199600697, 0.030748816207051277, 0.09367729723453522, 0.008681452833116055, 0.043222833424806595, 0.09466160833835602, -0.09256118535995483, -0.008423102088272572, 0.01456955075263977, 0.06366927921772003, -0.012063511647284031, -0.010438216850161552, -0.004547694697976112, -0.0844157338142395], [-0.06587626785039902, 0.03405732288956642, -0.06337052583694458, -0.04033542796969414, 0.07575970143079758, -0.07482112944126129, 0.03852345794439316, -0.0418655164539814, -0.0023754239082336426, -0.08473153412342072, -0.08043636381626129, -0.01129539031535387, -0.013843727298080921, 0.054639782756567, 0.04002019017934799, 0.03536921367049217, -0.051054444164037704, 0.005800693761557341, -0.016998624429106712, -0.06079620122909546, -0.0663139596581459, 0.011301636695861816, 0.04501504823565483, 0.08610617369413376, 0.03320368379354477, 0.08771553635597229, -0.06599446386098862, -0.032563697546720505, 0.08697070926427841, -0.005571824032813311, -0.02541443146765232, -0.01013027410954237, -0.04378160461783409, -0.031487658619880676, -0.020234063267707825, -0.09789003431797028, 0.02482793480157852, 0.04381314665079117, -0.09286151081323624, -0.010194319300353527, -0.05461537837982178, 0.011068320833146572, -0.018946517258882523, 0.07702726125717163, 0.06452544033527374, 0.09389956295490265, -0.05753082409501076, -0.08759522438049316, 0.0794249102473259, 0.09653335064649582, 0.02129077911376953, -0.08986137062311172, -0.01335003413259983, 0.07373274862766266, 0.03056638315320015, -0.0722469761967659, -0.027348008006811142, -0.04218568652868271, 0.018812119960784912, 0.080339714884758, 0.03314521536231041, -0.04429345205426216, -0.0996842160820961, -0.025371765717864037, -0.051076341420412064, -0.07726884633302689, 0.037102364003658295, -0.07742554694414139, 0.08898147195577621, -0.04443324729800224, -0.05277309566736221, 0.014382446184754372, -0.04808086156845093, -0.009745252318680286, 0.012901658192276955, -0.08023262023925781, -0.004783637821674347, 0.04324737563729286, 0.010990691371262074, 0.06741815060377121, -0.030987823382019997, -0.016553198918700218, -0.03414687141776085, -0.02367541752755642, 0.019526507705450058, 0.018397120758891106, 0.06737672537565231, 0.06811536103487015, -0.09461145848035812, -0.08782036602497101, 0.051146578043699265, 0.09170567244291306, -0.08574286848306656, 0.021542681381106377, -0.014152801595628262, -0.053091466426849365, -0.028845835477113724, 0.09066883474588394, -0.020522022619843483, -0.06405551731586456], [0.03944190964102745, -0.02719421498477459, -0.05395328998565674, 0.014386951923370361, -0.022810352966189384, -0.05931789055466652, 0.04560326412320137, 0.04126901179552078, -0.006221413612365723, -0.05566009506583214, -0.03259406238794327, 0.03893569856882095, -0.051796652376651764, 0.04903944954276085, 0.09823883324861526, 0.05225725099444389, -0.001314997673034668, -0.0668351799249649, -0.03472299501299858, 0.05231428146362305, -0.00605542678385973, 0.004089617636054754, -0.024597419425845146, -0.08400052785873413, -0.026701485738158226, 0.04777258634567261, 0.019800638779997826, -0.03602379560470581, 0.018929768353700638, -0.07534239441156387, 0.005993676371872425, 0.017907261848449707, -0.07335978746414185, 0.07446519285440445, 0.04675467684864998, 0.06820163130760193, -0.06654313206672668, -0.024279356002807617, 0.08720862865447998, 0.006627129390835762, 0.002344167325645685, 0.07829010486602783, -0.05190417915582657, -0.015278386883437634, -0.00871334783732891, -0.059592604637145996, 0.0019491465063765645, -0.06833826750516891, -0.0008645415655337274, 0.0011671185493469238, -0.08804899454116821, 0.03343638405203819, -0.05579214170575142, 0.057280994951725006, -0.05492048338055611, -0.05772355571389198, -0.03781683370471001, 0.059348441660404205, 0.03283587843179703, -0.028340399265289307, -0.07305991649627686, 0.05977898836135864, 0.01931583881378174, -0.04393566772341728, 0.025983644649386406, 0.006223498843610287, 0.03860946372151375, 0.08589693158864975, 0.07649156451225281, -0.0883871540427208, 0.030988430604338646, 0.04367392137646675, -0.07196740061044693, 0.008126402273774147, 0.06822209805250168, -0.05004323646426201, 0.03816920518875122, -0.040107596665620804, 0.06682895869016647, -0.06768833845853806, -0.05183221027255058, 0.050384581089019775, 0.0377141498029232, -0.01405322551727295, -0.026460206136107445, -0.030707359313964844, -0.05057309940457344, -0.09689316898584366, -0.05079520866274834, 0.00427589425817132, 0.04847456142306328, -0.007758736610412598, -0.08455649763345718, -0.01222008466720581, -0.0685468539595604, -0.012602413073182106, 0.0920262485742569, -0.057863201946020126, -0.08950888365507126, 0.02121741697192192], [-0.04901916906237602, 0.04488593712449074, -0.08110544830560684, 0.06882565468549728, 0.07059544324874878, 0.05601508542895317, 0.0035725885536521673, 0.04209969937801361, -0.0757845863699913, 0.09684663265943527, -0.07636922597885132, -0.058065976947546005, -0.014136028476059437, -0.09879457205533981, -0.013682099990546703, -0.05472106486558914, 0.07056354731321335, -0.0494547002017498, 0.030821919441223145, 0.033901989459991455, -0.05187351629137993, 0.06434781849384308, -0.06756803393363953, -0.06704563647508621, 0.0590471513569355, 0.11012634634971619, -0.043945468962192535, 0.040788423269987106, 0.07487664371728897, 0.04276430606842041, 0.0766669288277626, 0.0973896011710167, -0.002588095376268029, -0.034389570355415344, -0.07428116351366043, 0.07174999266862869, 0.008650337345898151, 0.09359758347272873, -0.0620809905230999, 0.07734953612089157, -0.031583916395902634, -0.0006327629089355469, -0.06478472054004669, 0.02016071416437626, 0.00788981281220913, 0.013774513266980648, 0.05001304671168327, 0.0258648581802845, 0.041184473782777786, -0.07453270256519318, -0.017374588176608086, 0.08031203597784042, 0.008425440639257431, -0.023336343467235565, 0.013184267096221447, -0.07536251097917557, -0.03691102936863899, 0.040499698370695114, -0.03941922262310982, 0.09876042604446411, 0.032837435603141785, 0.027824509888887405, -0.03906666487455368, 0.03468000516295433, 0.04628279432654381, 0.04129031300544739, -0.0223177969455719, 0.005239216145128012, -0.05514642223715782, 0.0619618184864521, 0.07096496969461441, -0.02149677276611328, -0.003593588015064597, -0.06737779825925827, -0.0884627029299736, 0.0009065927006304264, 0.0021677541080862284, -0.022712107747793198, -0.0849805474281311, -0.07692896574735641, -0.018214141950011253, -0.07738961279392242, 0.0330478809773922, -0.020776081830263138, 0.046380169689655304, -0.023359868675470352, 0.019191456958651543, -0.008137187920510769, -0.01529393345117569, 0.048525333404541016, -0.0299315694719553, -0.01426611002534628, -0.07046162337064743, 0.03478137403726578, -0.08548551797866821, -0.03236732631921768, 0.07834606617689133, 0.047032490372657776, 0.025467587634921074, 0.04349461570382118], [-0.08348977565765381, -0.0447123683989048, 0.008935609832406044, -0.025861529633402824, 0.0028576338663697243, 0.10713788121938705, -0.06398463994264603, 0.036139924079179764, -0.02189168892800808, -0.06854211539030075, 0.03935741260647774, 0.04431861639022827, 0.016766203567385674, 0.09599011391401291, 0.04672194644808769, 0.02874327264726162, 0.04212527349591255, -0.07800742983818054, 0.09461379051208496, 0.024250388145446777, -0.07306335121393204, 0.08566808700561523, -0.05821233615279198, 0.0002733850560616702, 0.028404420241713524, 0.03540642932057381, -0.0895937830209732, -0.06780378520488739, 0.04025139659643173, -0.052163101732730865, 0.05438873916864395, 0.052472829818725586, -0.07260680198669434, -0.045267004519701004, 0.043885912746191025, -0.026183150708675385, 0.018654657527804375, 0.06307709962129593, 0.07426311820745468, -0.07847324758768082, 0.009846210479736328, 0.07971391826868057, -0.002434273948892951, 0.039059046655893326, -0.03733798861503601, 0.01137602236121893, 0.08245208859443665, -0.07362785190343857, -0.023938648402690887, 0.06214015185832977, -0.026629460975527763, 0.07530858367681503, -0.09641624987125397, 0.009311554953455925, -0.09857598692178726, 0.020239412784576416, 0.06782017648220062, 0.036475230008363724, 0.03248010575771332, 0.058299608528614044, -0.10221429169178009, -0.033509816974401474, 0.06405839323997498, 0.03637298196554184, -0.016958322376012802, -0.06051604077219963, 0.02929462492465973, 0.03647717460989952, 0.0826701745390892, -0.002391517162322998, 0.08324511349201202, -0.05350241810083389, 0.036212410777807236, -0.03783534839749336, 0.09849893301725388, 0.028400495648384094, -0.07978495955467224, 0.08568287640810013, 0.034628838300704956, 0.009904696606099606, 0.059361934661865234, 0.09422506392002106, 0.09459242969751358, 0.01477360725402832, 0.08663516491651535, -0.04270182177424431, 0.053414154797792435, -0.048262979835271835, -0.07263737171888351, 0.056036997586488724, 0.010091781616210938, -0.09542270004749298, 0.08869653940200806, -0.01565535180270672, -0.007451764307916164, -0.08486846834421158, 0.010838202200829983, 0.07944994419813156, 0.06204986572265625, -0.05907626822590828], [0.031932950019836426, 0.0955609381198883, 0.04499486833810806, -0.06557042896747589, -0.010557698085904121, -0.0520324632525444, -0.0690167099237442, 0.02942521870136261, 0.09091726690530777, 0.09511256217956543, -0.027590692043304443, 0.03938012197613716, 0.03870824724435806, -0.05992251634597778, 0.07704918831586838, -0.05854371562600136, -0.09689148515462875, -0.06313908845186234, -0.011658740229904652, -0.003710675286129117, -0.058654963970184326, 0.08856698125600815, -0.025561129674315453, 0.09705405682325363, 0.07388720661401749, 0.10746394097805023, 0.04442671313881874, 0.040618278086185455, 0.07049685716629028, 0.02255089581012726, -0.06332571804523468, 0.026618218049407005, 0.02565600909292698, 0.03212372586131096, -0.11136654019355774, 0.07409894466400146, -0.002778118709102273, -0.06116434186697006, -0.005633449647575617, -0.052009787410497665, -0.09354130178689957, -0.06854497641324997, 0.025021076202392578, 0.06059182807803154, -0.048836398869752884, -0.07090815156698227, -0.031255338340997696, -0.09524935483932495, -0.005241668317466974, 0.09345933049917221, -0.03919405862689018, -0.05756120756268501, -0.06438209116458893, -0.053887974470853806, -0.029806580394506454, -0.04680611565709114, 0.05251499265432358, -0.024764740839600563, 0.005453817080706358, -0.05951419845223427, -0.03314102068543434, -0.027478648349642754, -0.07943474501371384, -0.08257956802845001, 0.02328270860016346, -0.10857994109392166, -0.06609435379505157, 0.09433639049530029, -0.07201951742172241, 0.049135472625494, 0.04856912046670914, 0.00912396889179945, -0.03339022397994995, -0.08099446445703506, -0.06897161155939102, 0.054566577076911926, 0.09643209725618362, -0.05727135017514229, 0.07972387969493866, -0.057082582265138626, -0.006008052732795477, 0.06709370762109756, 0.08055638521909714, 0.06845418363809586, -0.11149080842733383, 0.0660933181643486, -0.09706684201955795, -0.09954012930393219, -0.07600849866867065, 0.0024282336235046387, 0.08132673799991608, 0.05019531399011612, -0.03446776792407036, 0.050106216222047806, -0.04731445387005806, 0.0038429617416113615, -0.01136845350265503, 0.06879282742738724, 0.05616992712020874, 0.06378268450498581], [0.02560633420944214, -0.049842145293951035, 0.08554103225469589, 0.02604307048022747, 0.007874476723372936, -0.06888436526060104, 0.002334642456844449, -0.08615817129611969, -0.03942972421646118, -0.08343417942523956, 0.0001827240048442036, -0.03333161026239395, -0.07605885714292526, 0.015413296408951283, 0.11459860950708389, -0.026204872876405716, -0.025138914585113525, -0.09421314299106598, -0.021078849211335182, -0.0007599354139529169, -0.0707237720489502, -0.0685984268784523, -0.05978332832455635, 0.052563201636075974, -0.04218883439898491, -0.09441262483596802, -0.04153774678707123, 0.026265574619174004, -0.037864603102207184, 0.07856937497854233, -0.08182467520236969, 0.05560646206140518, 0.06126062944531441, -0.001694238861091435, 0.02281683124601841, 0.08580231666564941, 0.03184397891163826, 0.06926880031824112, -0.0618300698697567, 0.07790995389223099, 0.0627930760383606, -0.010444295592606068, -0.07264494150876999, -0.026356756687164307, -0.06363069266080856, -0.014360318891704082, -0.05986500158905983, -0.08408511430025101, 0.07505831867456436, 0.0693371593952179, 0.09736660867929459, 0.06699083000421524, -0.017674852162599564, 0.008745456114411354, -0.039555903524160385, -0.03726928308606148, -0.01502048410475254, 0.09907892346382141, 0.0625315010547638, 0.06970047950744629, -0.05600103363394737, -0.05733523517847061, -0.06990468502044678, -0.06625962257385254, -0.023749638348817825, 0.08877179026603699, 0.08471368998289108, -0.04718733951449394, -0.06913130730390549, -0.040456999093294144, 0.06006279215216637, -0.05955540016293526, 0.047648873180150986, 0.024309230968356133, -0.047775398939847946, 0.037694692611694336, -0.08784383535385132, -0.005887201987206936, -0.07245155423879623, -0.03634607419371605, -0.058649685233831406, -0.08235875517129898, 0.006156754679977894, -0.0851457342505455, 0.021654808893799782, -0.07649194449186325, -0.08479871600866318, -0.004040715284645557, 0.02368260733783245, -0.012153208255767822, 0.07448799908161163, 0.0336187481880188, -0.004819929599761963, -0.08309463411569595, -0.03386342525482178, -0.020144104957580566, 0.02042771875858307, 0.001115784514695406, -0.037428583949804306, 0.014013723470270634], [-0.09404359012842178, -0.05792095884680748, -0.02460322342813015, -0.0931260958313942, 0.08830925822257996, 0.10804108530282974, -0.04035424068570137, 0.06673439592123032, -0.09720083326101303, 0.05972423776984215, -0.0032926916610449553, -0.01730496995151043, 0.08746033906936646, -0.007355131674557924, -0.041197676211595535, 0.0056093716993927956, -0.07691287994384766, -0.07604146003723145, -0.0773780569434166, 0.006601548288017511, 0.04002838209271431, -0.021457625553011894, 0.004874776117503643, 0.047674816101789474, 0.03847232460975647, 0.06771765649318695, -0.0742473155260086, 0.0860394686460495, 0.0019633278716355562, 0.013137675821781158, 0.08222457021474838, -0.026402128860354424, 0.08547424525022507, -0.043852873146533966, -0.03820253536105156, -0.0830380991101265, -0.018313517794013023, 0.029129022732377052, -0.02193424664437771, -0.10919097810983658, 0.01345889549702406, -0.06628818809986115, -0.08115587383508682, 0.05733756721019745, 0.015855606645345688, -0.02044239081442356, -0.035586509853601456, -0.041993413120508194, 0.026544947177171707, 0.06562300026416779, -0.06124059110879898, 0.05721494182944298, -0.08196889609098434, -0.06981013715267181, -0.025168349966406822, 0.0778718814253807, -0.021390236914157867, 0.09463953971862793, 0.013587676919996738, -0.04794864356517792, -0.09797146171331406, -0.0013236523373052478, 0.012998462654650211, -0.039187654852867126, -0.022257352247834206, 0.013016430661082268, 0.02320767566561699, 0.04593738168478012, 0.08715776354074478, -0.03176310285925865, -0.07389861345291138, 0.02742950990796089, 0.051093149930238724, -0.006581652443856001, 0.0013996362686157227, 0.06637387722730637, -0.08741190284490585, 0.06639774888753891, 0.001446414040401578, -0.02193586900830269, 0.04455007240176201, -0.04972892999649048, 0.07193167507648468, -0.02557225339114666, 0.07251222431659698, 0.08632571995258331, 0.0342872254550457, -0.026288935914635658, 0.04608156904578209, -0.02265009842813015, -0.03415969759225845, 0.0006867289775982499, -0.09599131345748901, 0.0950779914855957, 0.0787663608789444, 0.0028363585006445646, 0.023131731897592545, 0.027805207297205925, -0.021823620423674583, -0.021905040368437767], [0.020794881507754326, -0.03204650059342384, -0.053961362689733505, -0.05609647184610367, -0.029775893315672874, -0.024943646043539047, 0.05503348633646965, 0.026204798370599747, 0.09606756269931793, -0.08207178115844727, 0.011913025751709938, 0.0037522197235375643, 0.06574898958206177, 0.0018520355224609375, -0.014802084304392338, 0.11188916862010956, 0.08896118402481079, -0.08347304910421371, -0.06868626177310944, -0.013104605488479137, -0.025235403329133987, 0.01422417163848877, -0.09230346977710724, -0.010189068503677845, -0.09278037399053574, 0.0893547460436821, 0.049501825124025345, -0.004628329072147608, -0.04102319851517677, -0.017397215589880943, -0.03281184658408165, 0.012836492620408535, 0.08120177686214447, -0.05286813899874687, -0.07477328181266785, -0.02547689713537693, 0.06279417127370834, 0.052149608731269836, -0.0370924137532711, 0.05679214745759964, -0.08333944529294968, -0.03369696065783501, -0.09597565978765488, 0.08885683119297028, -0.12110135704278946, -0.08819806575775146, 0.0629052147269249, 0.016057703644037247, 0.06749887019395828, -0.09810077399015427, 0.004273259546607733, -0.009141015820205212, -0.07720351219177246, -0.039779555052518845, -0.03753494843840599, -0.09751621633768082, -0.09280870854854584, 0.08285856992006302, -0.08212482929229736, 0.0055351476185023785, 0.07894627004861832, 0.06579682976007462, -0.04248758777976036, -0.06332310289144516, -0.04738633334636688, 0.011091500520706177, -0.0704682394862175, -0.11929746717214584, -0.0829104334115982, -0.009892880916595459, -0.04805595800280571, 0.003452825592830777, -0.06947848945856094, 0.01406863983720541, -0.030506623908877373, 0.04951976612210274, -0.06903544068336487, 0.05772712081670761, -0.08920484781265259, -0.03747246414422989, -0.012826705351471901, 0.06164591386914253, 0.03240087255835533, -0.06378491967916489, -0.011674785986542702, -0.0737539678812027, 0.05383465439081192, -0.05583000183105469, -0.10663887113332748, -0.06434116512537003, -0.031113767996430397, -0.09833692759275436, 0.017674267292022705, -0.049307119101285934, 0.08692760765552521, -0.0802985355257988, 0.09678333252668381, -0.08027175813913345, 0.06355208903551102, -0.04982980340719223], [0.018295764923095703, -0.02059284597635269, -0.025794804096221924, -0.06431275606155396, 0.055358365178108215, 0.030123542994260788, 0.0534420907497406, 0.06463668495416641, -0.02214869298040867, -0.04682504013180733, -0.07973682880401611, 0.0554225817322731, -0.03210815414786339, -0.08603473007678986, -0.08929719775915146, -0.04408447816967964, -0.033895671367645264, 0.04656202346086502, -0.04921237379312515, 0.04091189056634903, -0.0011913300259038806, -0.04495856910943985, 0.061909593641757965, 0.09364278614521027, -0.0725279226899147, 0.007150540128350258, 0.09169723093509674, 0.061087265610694885, -0.09081703424453735, -0.037764158099889755, -0.08770386129617691, 0.02279825322329998, -0.01001244131475687, -0.09495605528354645, -0.034666575491428375, -0.04711877554655075, 0.04103410616517067, -0.018989194184541702, 0.04377192258834839, -0.07496603578329086, 0.09302466362714767, 0.0951620489358902, 0.00739218108355999, -0.09432380646467209, 0.011616813950240612, 0.04899486154317856, 0.08970041573047638, 0.06807304918766022, 0.05122131481766701, 0.0025792240630835295, 0.09250146150588989, 0.05252344533801079, -0.002657576696947217, 0.07699958980083466, 0.04619499668478966, -0.06458134949207306, 0.006560896523296833, 0.0659400224685669, 0.10965096205472946, -0.0432874821126461, -0.047324180603027344, -0.03907283768057823, -0.08260957896709442, -0.03340855613350868, -0.018429391086101532, -0.019762882962822914, 0.09391698241233826, -0.08036549389362335, -0.01850428618490696, 0.09217995405197144, -0.09922963380813599, 0.03677713871002197, -0.028522325679659843, 0.05449240282177925, 0.08361683040857315, -0.03964782506227493, -0.04947589710354805, 0.014601496048271656, -0.02186572551727295, 0.07877770811319351, -0.038963593542575836, 0.0823974609375, 0.09306295216083527, -0.033245768398046494, 0.08420048654079437, -0.0319194570183754, -0.03510793671011925, 0.0024939312133938074, 0.03558565303683281, -0.012354874983429909, 0.027901018038392067, 0.06613953411579132, -0.015243733301758766, -0.057563792914152145, -0.07322710752487183, -0.05386371538043022, -0.07458243519067764, 0.028606895357370377, -0.06681635230779648, -0.06359847635030746], [0.08538184314966202, 0.09877542406320572, 0.07636512070894241, 0.0134959127753973, 0.010705698281526566, 0.07714057713747025, -0.016068125143647194, 0.005290770437568426, -0.09888575226068497, 0.06786954402923584, 0.030154883861541748, 0.04965866729617119, 0.06890993565320969, -0.0948285236954689, 0.045487143099308014, 0.09219241887331009, -0.033240415155887604, -0.0671127662062645, 0.002393960952758789, 0.055395375937223434, 0.03208402544260025, 0.06496115028858185, -0.033508311957120895, -0.0021869807969778776, 0.10005301982164383, -0.010052554309368134, 0.03354911133646965, -0.0053112744353711605, 0.030806470662355423, 0.056252554059028625, 0.09992744773626328, 0.05918440967798233, 0.05788763612508774, 0.023360934108495712, 0.0824345201253891, 0.10661253333091736, -0.06027483567595482, -0.04909764975309372, 0.08299046009778976, 0.05071641132235527, -0.07037828117609024, 0.07105386257171631, -0.09850776195526123, 0.038596637547016144, -0.0729534700512886, -0.06141023337841034, 0.06469976156949997, 0.08805981278419495, -0.05779983103275299, -0.01103654969483614, 0.07096101343631744, -0.02346947230398655, -0.04865849390625954, 0.03474821522831917, -0.028798146173357964, -0.051207948476076126, -0.07852008938789368, 0.10859724134206772, 0.019908495247364044, -0.0352175198495388, -0.08304188400506973, -0.04288369417190552, -0.02931656874716282, 0.0919884592294693, -0.08051099628210068, -0.07676712423563004, 0.053962185978889465, 0.0019396869465708733, -0.018797749653458595, 0.05487323924899101, 0.03711956739425659, -0.03673374652862549, 0.059191811829805374, 0.09500018507242203, 0.044621050357818604, -0.025949740782380104, 0.009405410848557949, 0.09697806090116501, -0.06286851316690445, -0.05809284374117851, -0.09166257828474045, 0.08837693184614182, -0.04092363268136978, 0.040988530963659286, 0.05869389325380325, 0.021909199655056, -0.09897994250059128, -0.043916311115026474, -0.040430810302495956, 0.09433139860630035, 0.04397385194897652, -0.01216504629701376, -5.0008296966552734e-05, 0.07232847064733505, -0.028065206483006477, 0.00818014144897461, 0.032934822142124176, -0.031805943697690964, 0.05120215564966202, -0.08734321594238281], [0.09905526787042618, -0.03848067671060562, 0.040419403463602066, -0.08770501613616943, 6.692504393868148e-05, -0.04552501440048218, -0.07324153929948807, -0.02462814375758171, 0.06427916139364243, -0.029187548905611038, -0.0884881541132927, -0.03230785205960274, 0.0803828164935112, -0.024309897795319557, 0.04347652569413185, 0.07434267550706863, -0.08330970257520676, -0.04867696389555931, -0.06397606432437897, 0.07945183664560318, 0.07943671196699142, -0.021526312455534935, 0.045163076370954514, 0.035408467054367065, 0.03887287527322769, 0.05307726562023163, -0.03975751996040344, 0.016402339562773705, -0.02157612331211567, -0.04649810120463371, 0.09780825674533844, 0.0409228578209877, -0.035737525671720505, 0.012602197006344795, 0.015247302129864693, -0.038793958723545074, -0.053268179297447205, -0.04100272059440613, -0.0184564720839262, 0.09384389966726303, 0.018259549513459206, 0.08101558685302734, 0.05795244872570038, -0.021904081106185913, -0.012491028755903244, 0.03809058666229248, -0.07874662429094315, 0.1028505191206932, 0.030720412731170654, 0.046473179012537, -0.03494732454419136, 0.007534444332122803, -0.020100373774766922, 0.060281429439783096, -0.03717887029051781, 0.018691692501306534, -0.051457758992910385, 0.02787747234106064, -0.061712656170129776, -0.0967523381114006, 0.015861447900533676, -0.08357135206460953, 0.02239750698208809, -0.07953335344791412, 0.09392935782670975, -0.027110522612929344, -0.06101309508085251, 0.03481976315379143, -0.060617126524448395, -0.025560593232512474, -0.003286051796749234, 0.09114638715982437, -0.05209965631365776, 0.04482297971844673, -0.022119086235761642, 0.060213785618543625, -0.03542402386665344, -0.08058691769838333, -0.09722163528203964, 0.026819748803973198, -0.05829823017120361, 0.004852294921875, 0.08752622455358505, -0.02000964991748333, 0.016279082745313644, 0.07078904658555984, -0.0003279447555541992, -0.09148304164409637, 0.042424093931913376, -0.05848611518740654, -0.03580660745501518, 0.07909955084323883, -0.0114196902140975, -0.041843295097351074, 0.09043952822685242, -0.029701685532927513, 0.030463948845863342, -0.02348220720887184, 0.035036809742450714, -0.052339106798172], [0.04667360708117485, -0.061680566519498825, -0.0712234154343605, 0.005382290109992027, -0.004253562074154615, 0.11256078630685806, 0.03314388543367386, -0.07190393656492233, -0.004183697979897261, -0.059841644018888474, -0.046116042882204056, 0.031053079292178154, 0.07687035948038101, -0.00604239571839571, -0.055125877261161804, 0.09464465826749802, 0.07455895096063614, -0.030337635427713394, 0.057249512523412704, 0.05955319479107857, 0.09287982434034348, 0.010741841979324818, -0.02954554185271263, 0.015297611244022846, -0.02573936991393566, 0.10285400599241257, -0.07220723479986191, 0.003923704382032156, -0.03941313922405243, -0.050382744520902634, 0.02466442622244358, -0.06359761953353882, 0.0036448780447244644, 0.03264704346656799, 0.05410376936197281, -0.02296682633459568, 0.02375595085322857, -0.027592236176133156, -0.036323368549346924, 0.11312246322631836, 0.004618835635483265, -0.010515999980270863, 0.046140752732753754, -0.013729835860431194, 0.03949737176299095, -0.00864438060671091, 0.007976445369422436, 0.10832702368497849, -0.0601830817759037, -0.01062236912548542, -0.08849813789129257, -0.01668011024594307, -0.04679160565137863, -0.10104667395353317, -0.004612512420862913, -0.006609154865145683, -0.08418722450733185, 0.04284186288714409, -0.09636825323104858, -0.021966267377138138, 0.09052357077598572, -0.09367167204618454, -0.08063726127147675, 0.08104732632637024, 0.05387997627258301, 0.05822392925620079, -0.037120524793863297, 0.04042584449052811, -0.05647442862391472, 0.07542919367551804, -0.03589676693081856, 0.019164109602570534, 0.0178839098662138, -0.08610235899686813, -0.04833541065454483, -0.04891853407025337, 0.03361210227012634, 0.00506982859224081, -0.09050469845533371, 0.03802403435111046, 0.0840197205543518, 0.09724261611700058, -0.08163092285394669, 0.0982435941696167, 0.055131684988737106, -0.025600720196962357, 0.09729935973882675, -0.083628349006176, 0.08418364822864532, 0.08910340070724487, 0.05948741361498833, -0.09828861057758331, 0.07337099313735962, 0.08403070271015167, -0.051395416259765625, 0.021325457841157913, -0.06733963638544083, 0.0003754237841349095, -0.01902873069047928, -0.08315393328666687], [0.025123870000243187, -0.03826359659433365, 0.08691760152578354, 0.04092685133218765, 0.024788454174995422, -0.07035793364048004, -0.018200315535068512, -0.06245523691177368, 0.07338280975818634, 0.07603789865970612, -0.013799560256302357, -0.0017973065841943026, 0.08192785084247589, -0.004484367556869984, 0.03627771884202957, -0.04144966974854469, 0.09217430651187897, 0.09119933098554611, -0.09094756096601486, 0.016808463260531425, -0.04953176900744438, 0.0311186071485281, 0.00024750232114456594, -0.06811501085758209, -0.0799446851015091, 0.014919266104698181, 0.06735700368881226, -0.09116532653570175, -0.05187942087650299, 0.03653275966644287, 0.026269758120179176, -0.034253012388944626, 0.010135007090866566, -0.02306598611176014, -0.028925184160470963, 0.06817202270030975, 0.05268190801143646, 0.0389375239610672, 0.04524350166320801, -0.08168315887451172, 0.012063026428222656, -0.05588541179895401, -0.06926983594894409, 0.06255219131708145, -0.0810999646782875, -0.07489711046218872, -0.07293045520782471, -0.07330106198787689, 0.039173971861600876, -0.0607721209526062, -0.0577336922287941, -0.08572141081094742, -0.09732388705015182, -0.019443655386567116, -0.08208813518285751, 0.02454238198697567, 0.011443747207522392, -0.011703422293066978, 0.006790959741920233, -0.08029496669769287, -0.08170899003744125, 0.0981968566775322, 0.08146851509809494, 0.044488679617643356, 0.017711758613586426, 0.08220869302749634, -0.036961283534765244, -0.06487099081277847, -0.03966565057635307, 0.039461757987737656, 0.058392882347106934, 0.05702397972345352, 0.07423996925354004, 0.08219800144433975, 0.07410898059606552, -0.04705322906374931, 0.10213632136583328, -0.09672626107931137, 0.05356956645846367, 0.08861250430345535, -0.004441190045326948, 0.0740191861987114, -0.021624768152832985, 0.02742025814950466, -0.02220449410378933, 0.0211243387311697, -0.053047288209199905, 0.056835733354091644, 0.024639105424284935, 0.012850415892899036, -0.03815731033682823, 0.0558733232319355, -0.0612456314265728, 0.01307667512446642, -0.0681188702583313, 0.09383851289749146, -0.06852420419454575, -0.011461722664535046, 0.04166156053543091, 0.018679184839129448], [-0.0358264334499836, 0.00808508601039648, -0.09723203629255295, -0.0854160413146019, 0.08769913762807846, -0.022417724132537842, 0.06824743747711182, 0.07687877863645554, -0.04204496368765831, 0.07431813329458237, -0.06266426295042038, 0.08769962936639786, 0.07233991473913193, -0.011084687896072865, -0.07668494433164597, -0.08035515993833542, -0.07762370258569717, 0.03217342495918274, -0.041344642639160156, 0.03533339500427246, 0.04586038738489151, 0.031643904745578766, 0.07245377451181412, -0.05607649311423302, -0.03130650892853737, 0.036709487438201904, 0.08514119684696198, 0.04180757701396942, -0.009826602414250374, -0.07963753491640091, 0.03712383657693863, -0.0674189105629921, 0.1243533194065094, -0.06477800011634827, -0.0010678526014089584, 0.03142242133617401, -0.03541981801390648, -0.02100175805389881, -0.05254553630948067, -0.002762258518487215, 0.020398080348968506, -0.0972239300608635, 0.055930379778146744, -0.05842423439025879, 0.10127761214971542, -0.07585404813289642, -0.0991065502166748, -0.06320756673812866, -0.06277423352003098, 0.04717332869768143, -0.09827090799808502, 0.08293446153402328, -0.030844105407595634, -0.043087806552648544, -0.03145782649517059, -0.10059307515621185, -0.07615986466407776, 0.1000421792268753, 0.034838173538446426, -0.028071630746126175, 0.05372537299990654, -0.05915501341223717, -0.09604641050100327, 0.039753496646881104, -0.06412356346845627, -0.08773073554039001, -0.011292836628854275, -0.009846294298768044, -0.07063601166009903, -0.06025318056344986, 0.0169222354888916, 0.08183995634317398, 0.032438017427921295, 0.02379979006946087, 0.06859134137630463, 0.04362960532307625, -0.021746939048171043, 8.509171311743557e-05, -0.09458187967538834, 0.04074213653802872, 0.07947468012571335, -0.08920373022556305, 0.07580109685659409, 0.019695330411195755, -0.052869465202093124, 0.014557701535522938, 0.011624849401414394, -0.0750267282128334, 0.0025870739482343197, -0.035255517810583115, 0.02250995673239231, -0.09694316238164902, -0.007114314939826727, 0.09639032185077667, 0.08564101904630661, -0.03023207187652588, 0.09677264094352722, 0.07257679849863052, -0.03843012452125549, -0.05964534357190132], [-0.05656567960977554, -0.038252029567956924, 0.037044692784547806, -0.05158307030797005, 0.09577326476573944, 0.09147301316261292, -0.0245798472315073, -0.020083094015717506, -0.04211750254034996, 0.013942551799118519, 0.04477306827902794, 0.07600090652704239, -0.08720380067825317, -0.05078902468085289, -0.06481453776359558, -0.04588457569479942, -0.07194110006093979, 0.0537695549428463, 0.04635254293680191, -0.08768677711486816, -0.06193366274237633, -0.07781361788511276, 0.021289430558681488, 0.09559936076402664, 0.004633581731468439, -0.061281219124794006, -0.015242735855281353, 0.037276364862918854, 0.05033300071954727, 0.030816806480288506, 0.08907423168420792, 0.0034783005248755217, -0.017210571095347404, 0.07131005823612213, 0.026571908965706825, 0.04852744936943054, 0.07297445833683014, -0.051407039165496826, 0.0428304560482502, 0.10450773686170578, -0.09695646911859512, -0.07936304807662964, 0.06326446682214737, 0.01798529550433159, 0.02879430167376995, 0.014253240078687668, 0.030745811760425568, -0.018017692491412163, -0.015897640958428383, 0.07940568774938583, -0.057057417929172516, 0.006493640132248402, -0.02641984634101391, 0.0388430580496788, -0.07707670331001282, -0.06880197674036026, 0.003992750309407711, -0.05010562762618065, 0.03470292687416077, -0.016231214627623558, 0.10642384737730026, 0.01752946339547634, -0.041643526405096054, -0.0939120426774025, 0.1167900413274765, -0.023678099736571312, -0.05439090356230736, 0.0025031953118741512, -0.018695374950766563, 0.05413426086306572, 0.03743870183825493, 0.03187363222241402, -0.032364558428525925, 0.07398282736539841, 0.030540643259882927, -0.04064882919192314, 0.08653054386377335, 0.08188024163246155, 0.027415167540311813, 0.07614775747060776, -0.09380839020013809, 0.006085586734116077, 0.014941871166229248, -0.03919682651758194, -0.02093437872827053, 0.00011402368545532227, 0.006296825595200062, 0.03357411548495293, -0.01556538138538599, -0.03996915742754936, -0.09831186383962631, -0.007920491509139538, -0.005132246296852827, 0.0174719225615263, -0.017589880153536797, -0.046471189707517624, 0.0025204685516655445, 0.06981918215751648, -0.02530275657773018, 0.06952454149723053], [0.02934284321963787, 0.013510076329112053, 0.026228342205286026, 0.05340724438428879, -0.009183821268379688, -0.007564342115074396, -0.09018168598413467, 0.06963668018579483, -0.05171717330813408, -0.04345287010073662, 0.062481045722961426, -0.017060792073607445, 0.06800036877393723, 0.04161159321665764, 0.087761290371418, 0.030516367405653, -0.011924803256988525, -0.0063998461700975895, -0.061859216541051865, -0.05739928409457207, 0.01628803089261055, -0.09434577077627182, 0.02302853763103485, 0.0675591379404068, -0.09444168955087662, -0.06700918078422546, -0.06214103847742081, -0.023099614307284355, 0.09760387241840363, 0.06515003740787506, 0.045873094350099564, -0.05217656120657921, -0.03257821872830391, 0.06543046981096268, 0.01378114428371191, -0.021916519850492477, 0.02006855048239231, 0.009600373916327953, 0.019852209836244583, 0.09356215596199036, 0.046872854232788086, 0.06822295486927032, 0.034091558307409286, 0.1036977767944336, -0.05898379534482956, 0.07514116913080215, 0.09154778718948364, 0.0646747425198555, -0.09129565954208374, -0.004574217367917299, 0.03126130253076553, 0.06843473017215729, 0.06218583136796951, -0.06882772594690323, 0.06673523783683777, -0.07813436537981033, 0.06943094730377197, -0.017135728150606155, 0.025393204763531685, 0.024407055228948593, 0.04330078512430191, -0.09163516014814377, -0.009217679500579834, -0.07616919279098511, -0.0977332815527916, 0.0451904758810997, -0.018659649416804314, 0.0012435016687959433, -0.06326901912689209, -0.023894978687167168, 0.07257942110300064, -0.05616908147931099, 0.06321807950735092, -0.0833367332816124, 0.07200250029563904, 0.004423143342137337, 0.001233158865943551, 0.02284308709204197, 0.0674409419298172, 0.008063395507633686, -0.0878530964255333, 0.09981299936771393, 0.09481942653656006, 0.07768537849187851, -0.053729403764009476, 0.09097786992788315, 0.08420839160680771, -0.05937594547867775, -0.06938226521015167, -0.03263667970895767, 0.02337963692843914, 0.04476223140954971, 0.07425006479024887, -0.07457815855741501, 0.0068583195097744465, -0.08759202808141708, -0.053763724863529205, -0.060725416988134384, -0.006974435411393642, 0.10508468002080917], [0.09223564714193344, 0.07849287241697311, -0.0661020502448082, -0.04394130781292915, -0.01662406139075756, -0.06555825471878052, -0.10773792862892151, 0.06688619405031204, -0.054580070078372955, -0.015684092417359352, -0.07248293608427048, 0.04075057432055473, -0.012186861597001553, -0.0293571837246418, 0.06905244290828705, -0.06009508669376373, -0.017048537731170654, 0.07063419371843338, -0.08806365728378296, 0.08236876875162125, 0.08350574970245361, -0.08113956451416016, 0.1000748723745346, 0.004717731382697821, -0.08908109366893768, 0.05473022907972336, -0.05981779098510742, -0.05618113651871681, 0.07307552546262741, 0.060486070811748505, -0.014056957326829433, -0.03926210477948189, 0.054032839834690094, 0.012250300496816635, -0.04702764376997948, 0.08632373809814453, 0.09094661474227905, 0.08648068457841873, 0.026879584416747093, -0.09214837849140167, 0.04323355108499527, 0.01848670281469822, -0.09569340199232101, -0.07878823578357697, 0.041311364620923996, -0.09273970127105713, -0.030424579977989197, 0.06164205074310303, 0.07871886342763901, -0.0956864282488823, 0.07654733955860138, 0.023697996512055397, -0.002790164900943637, 0.0029742957558482885, -0.09886757284402847, -0.044862888753414154, -0.011706759221851826, 0.04083601012825966, -0.017240704968571663, 0.003430708311498165, 0.018137941136956215, -0.08035483211278915, 0.02867269515991211, 0.06972312182188034, 0.041361115872859955, -0.06752201169729233, -0.0690176784992218, -0.007841363549232483, 0.06229015812277794, 0.015234792605042458, -0.07247757911682129, 0.04449724033474922, 0.09595706313848495, 0.09605461359024048, -0.05495573207736015, -0.03679615259170532, 0.09625906497240067, -0.0017356874886900187, 0.027377763763070107, 0.07511022686958313, -0.07056659460067749, 0.07040710747241974, 0.07886964082717896, -0.024364352226257324, 0.05048421770334244, -0.004213513806462288, 0.05554763227701187, 0.048933833837509155, -0.07765497267246246, -0.030229687690734863, -0.021695494651794434, -0.041796933859586716, 0.051957547664642334, -0.042510975152254105, 0.05062073841691017, -0.08054434508085251, -0.01639692857861519, -0.003985774703323841, 0.012171111069619656, -0.015096967108547688], [0.08759987354278564, 0.09083157777786255, 0.0742674320936203, -0.07815124094486237, -0.06032588705420494, 0.04975856840610504, 0.02982470951974392, -0.019701886922121048, 0.08594536036252975, 0.01992892101407051, 0.07216963917016983, 0.034865833818912506, -0.085163913667202, 0.01202830858528614, -0.09977102279663086, -0.05116797611117363, 0.08309178799390793, 0.0019850849639624357, 0.09966754913330078, 0.05699800327420235, 0.024378681555390358, 0.09480530023574829, -0.0432257317006588, -0.010401401668787003, 0.024327853694558144, -0.017724987119436264, 0.07126583904027939, 0.0015579939354211092, -0.042375337332487106, -0.08019944280385971, 0.06966668367385864, -0.060974013060331345, -0.07438577711582184, -0.0529945008456707, -0.08889984339475632, 0.07669790834188461, 0.06966399401426315, -0.04954193904995918, -0.07457669079303741, 0.006635828875005245, 0.03624454885721207, -0.020267082378268242, 0.02435285970568657, -0.08349296450614929, 0.004571984987705946, 0.025753553956747055, 0.013680166564881802, -0.03179791197180748, 0.014513244852423668, -0.03099443018436432, -0.08279823511838913, 0.053175438195466995, -0.013348396867513657, -0.028084315359592438, -0.08341372013092041, 0.030793625861406326, 0.07532348483800888, 0.042943406850099564, -0.004765152465552092, 0.011436529457569122, 0.08924790471792221, -0.020058168098330498, 0.039498768746852875, -0.041187699884176254, 0.03811028599739075, -0.0007764354231767356, 0.05150693282485008, -0.00421519111841917, 0.0012614727020263672, -0.05558476597070694, 0.042484212666749954, -0.051925040781497955, -0.08676306158304214, -0.043685078620910645, 0.01856236532330513, 0.03576815128326416, -0.01587052457034588, 0.05839651823043823, -0.05561868101358414, 0.0067230104468762875, -0.058239568024873734, -0.08040930330753326, 0.0388203039765358, -0.01738440990447998, -0.03122875466942787, -0.07709391415119171, 0.07215883582830429, -0.024097220972180367, 0.07776638120412827, -0.06233568117022514, -0.06175721809267998, 0.02303692139685154, -0.040334928780794144, -0.04415374994277954, -0.06864245980978012, -0.06686557829380035, -0.06786999851465225, -0.02228499762713909, 0.060713328421115875, -0.07368313521146774], [-0.06696819514036179, -0.0610041506588459, 0.042137015610933304, 0.036730602383613586, 0.079624705016613, 0.02078366093337536, -0.09853558987379074, -0.04063145071268082, 0.033545613288879395, -0.09290263801813126, -0.05225696787238121, 0.049720991402864456, -0.0032273053657263517, 0.038561150431632996, 0.011657324619591236, 0.02354811504483223, 0.0490514412522316, 0.08622667193412781, -0.07237670570611954, 0.08701687306165695, -0.08731807768344879, -0.035369645804166794, -0.056878723204135895, 0.03709752857685089, -0.02847166173160076, 0.0014599434798583388, 0.04575270041823387, -0.09283217042684555, 0.09015309065580368, -0.09855953603982925, -0.08013647794723511, -0.028101110830903053, -0.07759852707386017, 0.06872888654470444, -0.014880741015076637, 0.06581661105155945, 0.041026052087545395, -0.02990243397653103, -0.049707915633916855, 0.056531887501478195, 0.09037701040506363, -0.04340087249875069, 0.05552300438284874, -0.07540155947208405, 0.002327753696590662, 0.0477483831346035, -0.047385577112436295, -0.019824091345071793, -0.053536999970674515, 0.0047416784800589085, 0.03591911867260933, 0.0025462748017162085, -0.05208054929971695, 0.006567597389221191, -0.008103660307824612, -0.08854395151138306, -0.09211820363998413, -0.006555542349815369, 0.0644465833902359, -0.03731280565261841, -0.009656346403062344, -0.01104955654591322, 0.07083459943532944, 0.05082589387893677, -0.09207110852003098, -0.05274968221783638, -0.06686107069253922, -0.011162688955664635, -0.07240962982177734, -0.08403296768665314, -0.0759429931640625, 0.03888073191046715, 0.042278241366147995, 0.04035445675253868, 0.07095690071582794, 0.07530879229307175, 0.042612962424755096, 0.05548644810914993, -0.044917915016412735, -0.04851998761296272, 0.021611345931887627, 0.08392156660556793, 0.002730417298153043, 0.09392370283603668, -0.08891095221042633, 0.044314898550510406, -0.07903021574020386, -0.04953497275710106, 0.048424314707517624, -0.07867709547281265, -0.0429234504699707, -0.07265868037939072, 0.07697714865207672, -0.0034393430687487125, 0.04021367058157921, -0.03173389658331871, -0.058868635445833206, -0.07879108190536499, -0.05530473217368126, -0.0250777006149292], [-0.037590812891721725, 0.06203627958893776, 0.0011113223154097795, -0.03704535961151123, -0.06614962965250015, 0.11101967096328735, -0.04311397671699524, 0.02139005996286869, -0.09203628450632095, 0.09267035871744156, -0.0022058249451220036, 0.022778714075684547, 0.06231590732932091, -0.07439946383237839, -0.028201576322317123, 0.002316973637789488, -0.04329888895153999, 0.05528445541858673, -0.03642995283007622, 0.04861295223236084, -0.006180203054100275, -0.07606049627065659, 0.04040222987532616, 0.09389442950487137, -0.040650881826877594, 0.04002346098423004, -0.08523222804069519, -0.052177175879478455, -0.0436350516974926, -0.0031931535340845585, 0.02301967144012451, 0.061673808842897415, -0.019072461873292923, 0.07220752537250519, 0.0639646127820015, 0.08929238468408585, -0.05984332412481308, -0.06251363456249237, 0.00832213182002306, 0.07996668666601181, 0.05152294784784317, 0.07119297981262207, -0.09253523498773575, 0.10742956399917603, 0.10995063930749893, 0.008049093186855316, 0.06452933698892593, -0.06101919710636139, 0.01258541364222765, -0.0725608542561531, 0.08479487150907516, 0.07109736651182175, 0.06607268750667572, 0.05923876538872719, -0.05593162402510643, 0.06495162844657898, 0.097955621778965, 0.05939091369509697, -0.08413340151309967, 0.05569221079349518, 0.0019574183970689774, -0.022238194942474365, -0.06816592067480087, -0.039358917623758316, 0.07699541002511978, -0.06324952095746994, -0.08389418572187424, -0.09558039903640747, 0.02780887484550476, 0.06612294167280197, -0.01806122064590454, -0.018529141321778297, 0.011560976505279541, -0.017407072708010674, -0.06530996412038803, -0.047499027103185654, 0.04429023340344429, 0.05020672082901001, 0.04882300645112991, 0.0884668380022049, 0.041595447808504105, -0.013595891185104847, 0.041568126529455185, 0.019172752276062965, 0.08498917520046234, 0.0742110088467598, -0.025562060996890068, 0.06236793473362923, -0.0754573717713356, -0.056947436183691025, -0.09706240892410278, -0.06936652958393097, 0.07206945866346359, -0.012350285425782204, -0.09040362387895584, -0.04440387710928917, -0.0014849186409264803, -0.03650385141372681, -0.07267524302005768, 0.03531317040324211], [0.09235397726297379, -0.0026480958331376314, 0.044902145862579346, -0.005873644258826971, -0.08380969613790512, -0.026552649214863777, -0.06258794665336609, -0.02647273987531662, -0.06695669889450073, 0.058546651154756546, 0.07901852577924728, -0.013337182812392712, 0.009563028812408447, 0.08177792280912399, 0.048937421292066574, -0.04455374553799629, -0.01741821877658367, -0.01155007816851139, -0.07667788118124008, -0.08212120831012726, 0.04095374420285225, 0.0626644641160965, 0.019964445382356644, 0.07076837122440338, -0.018994618207216263, 0.0879143700003624, -0.08849196881055832, -0.00401373440399766, -0.0048991600051522255, -0.09823533147573471, 0.020237160846590996, -0.09310252964496613, -0.07611741125583649, -0.08936981111764908, 0.10080230981111526, -0.04969800263643265, 0.03436223044991493, -0.0536196306347847, 0.05845170095562935, -0.03376198559999466, 0.08294202387332916, 0.013534188270568848, 0.08684173971414566, -0.06455903500318527, -0.09533470124006271, -0.07856184244155884, 0.07001396268606186, -0.00744204455986619, 0.05072547122836113, 0.05267220735549927, 0.0003285050333943218, 0.07072066515684128, 0.02975614182651043, 0.07652284950017929, -0.03630705550312996, -0.06413739919662476, -0.043541070073843, -0.043706879019737244, 0.09724540263414383, -0.009247648529708385, -0.08064385503530502, 0.056072354316711426, 0.07835834473371506, 0.08189137279987335, 0.01544202584773302, -0.05919097363948822, 0.0018139966996386647, -0.02413812093436718, 0.0803433284163475, 0.09746668487787247, -0.08773022890090942, -0.003477084683254361, 0.07146479189395905, -0.025122439488768578, 0.01212766207754612, -0.02687678299844265, -0.037476468831300735, -0.037763454020023346, 0.024605488404631615, -0.08033179491758347, 0.08470910042524338, -0.08075819164514542, 0.09774668514728546, -0.0206337571144104, 0.029627325013279915, 0.029941709712147713, -0.0035905956756323576, 0.06439671665430069, -0.07896937429904938, -0.008564543910324574, -0.0993536114692688, -0.054235100746154785, -0.07323050498962402, -0.014194798655807972, -0.06403063982725143, -0.08315732330083847, 0.01893601380288601, -0.03289095312356949, 0.014603924937546253, 0.008419686928391457], [-0.052525997161865234, -0.058824170380830765, 0.0703175961971283, -0.040501613169908524, -0.09147006273269653, 0.11684978008270264, 0.08743726462125778, -0.07620368897914886, 0.03246054798364639, -0.055168069899082184, 0.03365492820739746, 0.03382188081741333, 0.05076894909143448, 0.05844796076416969, -0.03895231708884239, -0.058476753532886505, -0.07279783487319946, 0.10399892181158066, 0.09431155771017075, 0.023591959848999977, 0.02353876829147339, 0.05157133564352989, 0.024766579270362854, -0.0772867500782013, -0.05219265818595886, 0.10717740654945374, -0.04717179760336876, -0.08363860100507736, 0.08358930796384811, -0.05919608473777771, 0.09280922263860703, -0.022125601768493652, -0.09589137881994247, -0.0755828320980072, -0.027218101546168327, 0.05180337280035019, -0.06031593680381775, -0.0317479744553566, -0.07028575986623764, 0.022412508726119995, -0.02370372973382473, -0.04225895553827286, 0.11129680275917053, -0.08144965767860413, -0.06027969345450401, 0.010803863406181335, 0.10563425719738007, -0.015418966300785542, 0.08215514570474625, 0.028894340619444847, -0.0023227334022521973, 0.028852809220552444, 0.06134399399161339, 0.12025024741888046, 0.0791751816868782, 0.06136135011911392, -0.013261052779853344, -0.10411927849054337, -0.046582069247961044, 0.007048904895782471, 0.010829427279531956, -0.033580925315618515, -0.07330046594142914, -0.08117635548114777, 0.09470348805189133, 0.03482449799776077, 0.0708676427602768, -0.08335232734680176, -0.09140343964099884, -0.07761200517416, 0.0697246789932251, -0.06288003921508789, 0.09098731726408005, 0.09781525284051895, 0.08497605472803116, -0.0877557024359703, -0.07620705664157867, -0.07001495361328125, -0.08975464105606079, -0.004722774028778076, 0.09889943897724152, -0.09753040224313736, 0.006600809283554554, -0.054029177874326706, -0.07247262448072433, 0.022707689553499222, -0.08597228676080704, 0.08816491067409515, -0.004950690548866987, -0.08726134151220322, -0.0885356068611145, -0.031447697430849075, -0.003916227724403143, -0.010945796966552734, 0.06550072878599167, 0.09605123847723007, 0.06975468248128891, -0.0875777006149292, -0.09391842037439346, -0.062056221067905426], [0.04800994321703911, -0.02739015966653824, 0.08739378303289413, 0.07928764820098877, 0.08560466766357422, -0.08266382664442062, -0.033562518656253815, -0.012385941110551357, -0.07572146505117416, -0.07244589179754257, 0.09303251653909683, -0.029454946517944336, -0.00906751211732626, -0.06934373825788498, -0.021347004920244217, -0.006446444895118475, 0.05386308580636978, 0.0461295023560524, 0.05522212013602257, -0.06690692156553268, 0.02270294539630413, 0.026774872094392776, -0.011511134915053844, -0.04133915901184082, -0.0416860468685627, -0.05967378616333008, -0.08966654539108276, 0.048408497124910355, -0.026016129180788994, -0.028514062985777855, -0.021100128069519997, -0.03087012842297554, 0.07676544040441513, -0.03751108795404434, 0.037012021988630295, 0.009499422274529934, -0.01125787291675806, -0.028708064928650856, -0.024112118408083916, -0.020743776112794876, -0.02094167470932007, 0.06580056995153427, 0.053102731704711914, 0.01029660739004612, 0.013119008392095566, 0.008059914223849773, 0.07878504693508148, 0.015989599749445915, -0.0842617079615593, 0.013298451900482178, -0.0577295683324337, 0.02987856976687908, -0.08010660856962204, 0.08597641438245773, -0.019770801067352295, 0.07975436747074127, -0.06190189719200134, 0.026998331770300865, -0.04096546396613121, -0.08020023256540298, 0.059266842901706696, 0.057322751730680466, 0.02983536757528782, 0.06712627410888672, 0.05991638824343681, 0.059208452701568604, -0.00635113287717104, -0.08775803446769714, 0.06812997162342072, 0.030824219807982445, 0.0004462123033590615, -0.05645954608917236, 0.04337191581726074, 0.02484140358865261, 0.07343246787786484, -0.04337221384048462, -0.035215746611356735, -0.05262663587927818, -0.07596411556005478, -0.02889237366616726, -0.023554278537631035, 0.08275333791971207, -0.05665623024106026, -0.05568886920809746, 0.019234037026762962, -0.08007605373859406, 0.05530896410346031, 0.021471070125699043, -0.06893535703420639, -0.08709124475717545, 0.05532253906130791, 0.06812377274036407, -0.09255685657262802, -0.09276821464300156, 0.03454480320215225, 0.021564055234193802, 0.06787073612213135, -0.07827261835336685, -0.04877803847193718, -0.036225005984306335], [0.031688082963228226, -0.07047557830810547, 0.08859249949455261, -0.03398958221077919, -0.029348216950893402, 0.08773130923509598, 0.07430297136306763, 0.08915545046329498, 0.03058752976357937, 0.0072387936525046825, -0.027805721387267113, 0.08297305554151535, 0.003660881659016013, -0.038158271461725235, -0.0012453922536224127, -0.09881249070167542, -0.08154904097318649, -0.06954880803823471, -0.0905112773180008, -0.08068790286779404, -0.05498233065009117, 0.0027882815338671207, -0.04339801147580147, -0.04213045910000801, 0.054003436118364334, -0.061095576733350754, -0.04181669279932976, -0.019579922780394554, 0.027447152882814407, -0.08860024064779282, 0.0095376493409276, -0.04566822201013565, -0.07849735021591187, 0.05374684929847717, -0.015636015683412552, -0.058875493705272675, 0.05825914070010185, -0.0057592191733419895, 0.001302790711633861, 0.09328655153512955, 0.033775296062231064, -0.09603013843297958, 0.003527518827468157, -0.09119115024805069, -0.043444547802209854, 0.025560112670063972, 0.10544733703136444, 0.025259828194975853, -0.011883879080414772, -0.07605589926242828, -0.028964711353182793, 0.02133944071829319, 0.06810209900140762, 0.09187095612287521, 0.026584075763821602, 0.09534813463687897, 0.04409438371658325, -0.06785431504249573, 0.08083171397447586, 0.0978434681892395, -0.0522097647190094, 0.039796557277441025, 0.08597477525472641, -0.006560834124684334, 0.023613689467310905, -0.061217375099658966, 0.08195770531892776, 0.038517460227012634, 0.01720954291522503, -0.06958409398794174, -0.0003226637782063335, -0.06881795078516006, 0.08723682165145874, 0.054837774485349655, 0.055676817893981934, 0.010798084549605846, 0.06211197376251221, -0.0945579782128334, -0.0318216010928154, 0.09058944135904312, 0.09146372228860855, 0.09559633582830429, 0.03335286304354668, -0.010897469706833363, -0.043576717376708984, 0.03595251962542534, 0.04808396100997925, -0.01718221977353096, -0.057852089405059814, -0.053109217435121536, 0.07147730886936188, 0.04114757850766182, 0.0864633321762085, 0.08164558559656143, -0.041744958609342575, 0.07365348190069199, -0.07310842722654343, -0.03351390361785889, 0.05513037368655205, 0.07380823791027069], [0.007023823447525501, -0.02128853090107441, -0.008766102604568005, 0.04819903150200844, 0.03916638717055321, -0.07236604392528534, 0.08119003474712372, 0.05494379624724388, 0.010160756297409534, -0.04009830951690674, 0.08338870108127594, 0.028713250532746315, 0.04560690000653267, 0.04780609533190727, -0.0376366451382637, 0.05756039172410965, 0.08242448419332504, -0.0883999839425087, 0.0269007571041584, 0.02749030664563179, 0.04302642494440079, 0.08475007861852646, 0.021330177783966064, -0.05508380010724068, 0.020271586254239082, -0.03989003971219063, -0.02301124297082424, 0.07965253293514252, 0.018876124173402786, 0.07778819650411606, 0.05872039869427681, 0.035259392112493515, 0.04789980873465538, -0.08386055380105972, -0.08193152397871017, -0.0841817781329155, -0.05727013200521469, -0.018281936645507812, -0.0864485502243042, 0.041597411036491394, 0.04238766431808472, -0.06268661469221115, 0.1042507141828537, 0.06166503205895424, 0.07733703404664993, -0.07943562418222427, 0.0619850717484951, -0.03774651885032654, 0.004793703556060791, -0.05999647453427315, -0.07667837291955948, -0.08381196111440659, 0.052113041281700134, 0.0994628295302391, -0.014568738639354706, 0.0007350386586040258, 0.06853388994932175, 0.036848366260528564, 0.0038863078225404024, -0.020855030044913292, -0.020157549530267715, -0.07169413566589355, -0.04876892641186714, 0.08315674960613251, -0.02249141037464142, 0.05338633432984352, -0.027980435639619827, -0.0976259708404541, -0.025750422850251198, 0.010359573177993298, -0.002218615962192416, -0.07724428176879883, -0.04295123741030693, 0.01923675648868084, 0.03699053078889847, -0.08814620226621628, -0.013567411340773106, 0.004410959780216217, -0.06983145326375961, 0.00027860404225066304, 0.07893679291009903, 0.002940154168754816, -0.08945013582706451, 0.07426480203866959, -0.0924748107790947, 0.05341760069131851, 0.030505061149597168, -0.05766846984624863, 0.05916246771812439, -0.0887630507349968, -0.05165964365005493, -0.038120295852422714, -0.049941565841436386, -0.08216028660535812, 0.09257892519235611, 0.03143199905753136, -0.03345276042819023, -0.08491364121437073, 0.036476004868745804, 0.033470720052719116], [0.06819283217191696, 0.05179108306765556, -0.070831298828125, -0.06358971446752548, 0.051137346774339676, 0.08926691114902496, 0.006445145700126886, -0.09289786964654922, -0.05551506206393242, -0.030157720670104027, -0.048002637922763824, -0.04097937420010567, -0.07462377846240997, 0.02577458880841732, 0.013445889577269554, 0.029229259118437767, 0.04577944427728653, 0.09268683195114136, 0.0750746950507164, 0.02595694176852703, 0.06474033743143082, 0.0463220588862896, 0.03284742310643196, 0.11227275431156158, 0.045596152544021606, -0.05456859990954399, 0.0007217422826215625, -0.06348907947540283, 0.06517616659402847, -0.0508921854197979, -0.05887577682733536, 0.001273000263608992, -0.0405278205871582, 0.0782211646437645, 0.07221583276987076, -0.07752290368080139, 0.07035649567842484, -0.08607740700244904, -0.06623830646276474, -0.08178382366895676, -0.041213858872652054, 0.045764364302158356, 0.0356057845056057, 0.03053300268948078, -0.11210066080093384, -0.05563392490148544, 0.06785634905099869, 0.04616318643093109, 0.09391070157289505, 0.028462732210755348, -0.024582063779234886, 0.06582970917224884, -0.029444100335240364, 0.006835014093667269, -0.05195317789912224, 0.004651700612157583, 0.0478910394012928, -0.02966484986245632, -0.024678418412804604, -0.08872351050376892, 0.011463603936135769, 0.0017921089893206954, 0.10154663026332855, -0.08826201409101486, 0.09919470548629761, -0.05152209848165512, -0.0721932053565979, 0.07048777490854263, 0.09599712491035461, -0.06578238308429718, -0.08179423958063126, -0.03383699804544449, 0.06430371105670929, -0.0398959182202816, 0.09295699000358582, -0.00032309163361787796, -0.022941147908568382, -0.010160391218960285, -0.002157359616830945, 0.08478889614343643, -0.028842413797974586, -0.07628605514764786, 0.0040004136972129345, 0.0017965674633160233, 0.053141940385103226, -0.06745681911706924, -0.0549476258456707, -0.020698226988315582, -0.057154763489961624, 0.04713153839111328, -0.014394390396773815, 0.0465596579015255, 0.09820707142353058, -0.03862352296710014, -0.048304762691259384, 0.028061557561159134, 0.0876566544175148, 0.009977350942790508, 0.023751571774482727, 0.04219873622059822], [-0.07181457430124283, 0.005078768357634544, -0.024802112951874733, 0.07372421026229858, -0.06545065343379974, -0.0601322241127491, -0.05017484351992607, -0.009784603491425514, 0.06635556370019913, -0.054918695241212845, 0.07770490646362305, 0.044861771166324615, -0.021709322929382324, -0.02888387441635132, 0.0599074587225914, -0.05552135780453682, 0.06906428188085556, 0.09191886335611343, 0.015632664784789085, 0.03289851173758507, -0.050705600529909134, 0.04414396360516548, 0.05420082062482834, 0.11314022541046143, -0.00022734403319191188, -0.04444948211312294, 0.056882236152887344, 0.03526801988482475, -0.0036177278961986303, -0.02031639777123928, 0.046065010130405426, -0.03673985227942467, 0.03296741843223572, 0.08316085487604141, 0.02831292524933815, 0.03575993701815605, 0.07912637293338776, -0.044709861278533936, 0.017935527488589287, 0.005070877261459827, -0.0755230188369751, -0.08198779076337814, 0.06901531666517258, -0.0698554739356041, -0.021130980923771858, 0.07697542756795883, -0.05370348319411278, 0.10698888450860977, 0.0842093676328659, 0.05386386066675186, -0.007389831822365522, 0.022370552644133568, 0.01332635898143053, 0.06793809682130814, -0.022169770672917366, 0.06338673830032349, 0.05906468257308006, 0.015467311255633831, -0.0917065441608429, 0.07205842435359955, 0.11806812882423401, -0.0926409512758255, -0.028548479080200195, 0.06103063374757767, -0.04680456966161728, -0.0887146145105362, -0.09120593965053558, -0.07444227486848831, 0.017220135778188705, -0.029210805892944336, -0.021785235032439232, 0.0036146880593150854, 0.07052290439605713, -0.09519126266241074, -0.06453073024749756, -0.09250946342945099, 0.03615238517522812, -0.07333703339099884, -0.004152176436036825, 0.10236815363168716, -0.08046237379312515, -0.07586270570755005, -0.00915308017283678, -0.01942530833184719, 0.026537813246250153, -0.09187695384025574, -0.055812444537878036, -0.03842261806130409, 0.053176701068878174, 0.07055772840976715, -0.030172312632203102, 0.0533897764980793, 0.06005516275763512, 0.09574947506189346, -0.04087615758180618, 0.08954048156738281, 0.07389771938323975, -0.095641128718853, -0.018977809697389603, -0.07864414900541306], [0.07951594889163971, -0.05403417348861694, 0.0510791540145874, -0.09579356014728546, -0.0348295159637928, -0.04581385850906372, 0.11990602314472198, -0.03722914680838585, -0.01259303092956543, -0.09528235346078873, 0.014335584826767445, -0.02988123893737793, -0.06766456365585327, 0.05941270664334297, -0.09839924424886703, -0.06527203321456909, 0.016811275854706764, -0.013621116057038307, -0.05091742426156998, 0.08924563974142075, -0.047556281089782715, 0.08121966570615768, 0.08194092661142349, -0.07420451939105988, 0.07046906650066376, -0.026031430810689926, 0.024629944935441017, -0.008234227076172829, -0.053249239921569824, -0.06470610946416855, 0.00494153518229723, -0.006021833512932062, -0.019547605887055397, -0.006175735034048557, -0.08232831954956055, 0.06703319400548935, 0.00044951800373382866, -0.05041323974728584, -0.03443120792508125, 0.09030674397945404, 0.06471951305866241, 0.06258827447891235, 0.0010567307472229004, -0.043998803943395615, -0.06468226760625839, -0.013714290224015713, 0.04096480831503868, -0.04772822931408882, -0.09246613830327988, 0.09666019678115845, 0.08373600244522095, 0.09639178961515427, 0.07747437059879303, 0.026526285335421562, 0.09132245182991028, -0.0734056830406189, 0.07175818830728531, 0.047877151519060135, -0.09127844870090485, 0.010426712222397327, 0.08404218405485153, -0.053717710077762604, 0.05053464323282242, -0.05013394355773926, 0.03335993364453316, 0.08312476426362991, 0.06889484077692032, 0.03539854288101196, 0.031121065840125084, -0.02387624979019165, 0.038412999361753464, -0.06766299158334732, -0.0067141056060791016, -0.0207428690046072, -0.03906456381082535, -0.09386380761861801, -0.08906816691160202, -0.07572458684444427, -0.057620979845523834, -0.09167646616697311, -0.07154583930969238, -0.09989603608846664, -0.06663532555103302, 0.03360419347882271, 0.050847817212343216, -0.07447643578052521, -0.09983090311288834, 0.01683158613741398, -0.031318314373493195, -0.07851099222898483, -0.0674896240234375, 0.03554327413439751, -0.05714763328433037, 0.09173311293125153, -0.05895804241299629, -0.0785878449678421, -0.016003359109163284, 0.030938435345888138, -0.05529401823878288, -0.0949263796210289], [0.05625348165631294, 0.04855694994330406, -0.014123206026852131, -0.09057121723890305, 0.04884152486920357, 0.08599597215652466, 0.0245424322783947, -0.011164629831910133, -0.004536151885986328, 0.052304137498140335, 0.08781138807535172, -0.0735379010438919, -0.07386072725057602, 0.030545027926564217, -0.04368940740823746, 0.023175427690148354, 0.046523988246917725, 0.07839459180831909, -0.044022347778081894, 0.027683747932314873, -0.0401204489171505, 0.05661991983652115, 0.10755510628223419, 0.07129251211881638, -0.0008732405840419233, 0.021253302693367004, 0.03653770685195923, -0.08370683342218399, 0.06998437643051147, 0.002941346727311611, 0.05865979194641113, 0.014809084124863148, 0.007670554332435131, -0.058613501489162445, -0.07265812903642654, 0.03573913127183914, -0.0022872178815305233, -0.007006490603089333, 0.029496658593416214, 0.11709673702716827, 0.004241263959556818, 0.042265165597200394, -0.034842103719711304, 0.07245990633964539, -0.03594294190406799, -0.09391871094703674, 0.05633629485964775, 0.053472377359867096, 0.008063887245953083, -0.09318652004003525, 0.042066194117069244, 0.019029593095183372, -0.020440159365534782, -0.022063976153731346, -0.0634157583117485, 0.024315308779478073, 0.018291044980287552, 0.03169774264097214, -0.05337852984666824, -0.05700356513261795, -0.006288121920078993, -0.08190760761499405, 0.005292449612170458, -0.02861986681818962, -0.07535591721534729, 0.08083488792181015, -0.042544834315776825, -0.08235572278499603, -0.08362708240747452, 0.05963118001818657, -0.08886218070983887, -0.04693087562918663, -0.04829743131995201, -0.058180034160614014, 0.012787079438567162, 0.07955505698919296, 0.07963670045137405, 0.08681575953960419, 0.07318355143070221, 0.0202187430113554, 0.06082649156451225, -0.06307970732450485, -0.07974248379468918, -0.038691915571689606, 0.03386260196566582, 0.0778716653585434, 0.049582432955503464, -0.07950447499752045, 0.01196675281971693, 0.017341960221529007, 0.013968288898468018, 0.024227607995271683, -0.059382714331150055, -0.07625513523817062, -0.011592034250497818, 0.09415774792432785, 0.09784291684627533, -0.057617053389549255, 0.07649827003479004, -0.09384381771087646], [0.010975074954330921, 0.10660422593355179, 0.07737807184457779, -0.07569903880357742, -0.07775576412677765, -0.01848416030406952, 0.11165092885494232, -0.09738831967115402, 0.03112177923321724, -0.06910878419876099, -0.051144447177648544, -0.04653538390994072, 0.046463191509246826, 0.021756408736109734, -0.07253655791282654, -0.05899586156010628, -0.026507079601287842, -0.04429950937628746, -0.012119746766984463, -0.05001202970743179, 0.08975356072187424, -0.0420948751270771, 0.09866734594106674, 0.10067613422870636, -0.09257188439369202, -0.01447129063308239, -0.07270606607198715, 0.006907207425683737, 0.07162884622812271, -0.03787451982498169, 0.07345900684595108, -0.05803212150931358, -0.09036374092102051, 0.10852359980344772, -0.023308195173740387, -0.08582641184329987, -0.05836666375398636, -0.08816113322973251, -0.058463431894779205, -0.045372527092695236, 0.02688669040799141, 0.07453304529190063, -0.04259999841451645, 0.07875628769397736, 0.08191040903329849, 0.08748438954353333, -0.033881399780511856, 0.1281302571296692, -0.06583966314792633, 0.010100271552801132, -0.06200965866446495, -0.00829018373042345, 0.023501744493842125, -0.08347702026367188, 0.014138893224298954, -0.040469080209732056, 0.0057047270238399506, -0.03939029201865196, 0.0500226691365242, -0.08842199295759201, 0.0771426185965538, 0.019530117511749268, 0.06700198352336884, 0.09863799810409546, 0.018661951646208763, 0.005844479892402887, 0.026003539562225342, -0.02508080005645752, -0.05260264873504639, -0.03976092487573624, -0.017016863450407982, -0.09616559743881226, -0.07680421322584152, 0.08733011782169342, 0.03576928749680519, 0.019804133102297783, -0.06512682884931564, -0.06422842293977737, -0.09576480090618134, -0.04417865723371506, -0.03442740440368652, -0.0406666174530983, 0.03005152940750122, -0.019341636449098587, 0.010538572445511818, -0.03013390302658081, -0.09886953979730606, 0.05276009067893028, 0.0962560698390007, -0.012396740727126598, 0.0003956317959818989, -0.03382056951522827, 0.023380720987915993, -0.09192458540201187, 0.052618358284235, -0.06630152463912964, -0.03487453609704971, -0.08133304119110107, -0.08997759222984314, -0.07637019455432892], [-0.06976094096899033, -0.03589219972491264, -0.03997834771871567, -0.031164323911070824, 0.09428005665540695, 0.05992162227630615, 0.052840497344732285, 0.05504199489951134, 0.04242972284555435, 0.05776754766702652, 0.040828265249729156, 0.020253026857972145, 0.08476965874433517, -0.05175216123461723, -0.02237793058156967, 0.012352388352155685, -0.09254822880029678, -0.08177931606769562, 0.08263685554265976, 0.014454960823059082, -0.0816468596458435, -0.08834352344274521, 0.07149966061115265, -0.015039554797112942, 0.09296080470085144, -0.07090029865503311, -0.07980618625879288, -0.019706809893250465, -0.09784656018018723, 0.07006221264600754, -0.05791763216257095, -0.06350749731063843, -0.01082785613834858, 0.04103250429034233, 0.0828368291258812, -0.021196112036705017, 0.07030537724494934, -0.020346440374851227, 0.03748089075088501, -0.014367843046784401, 0.059902966022491455, -0.016322720795869827, -0.0365280844271183, -0.06623292714357376, -0.0351644903421402, 0.06273380666971207, -0.028589850291609764, 0.05889325588941574, 0.029604746028780937, -0.04644424840807915, -0.03662382438778877, 0.017129575833678246, -0.05291300266981125, -0.06777580082416534, 0.01759708672761917, 0.07097189873456955, -0.09136346727609634, -0.04322091490030289, 0.09317614883184433, 0.0777909979224205, 0.04853368178009987, 0.07321230322122574, -0.08071976900100708, 0.10835656523704529, -0.03756887838244438, -0.01548211369663477, 0.01052149012684822, 0.017886701971292496, -0.06586847454309464, 0.01723332516849041, -0.046299971640110016, -0.06135949119925499, -0.064243845641613, 0.04751228168606758, 0.027979565784335136, -0.012045851908624172, 0.09817187488079071, -0.0888090655207634, 0.03667633607983589, -0.06079784408211708, -0.08957011997699738, -0.009367060847580433, -0.02157442644238472, 0.007285285275429487, 0.02804257906973362, -0.09394558519124985, 0.0463421456515789, -0.04299246892333031, 0.09356807917356491, -0.012514472007751465, 0.058580826967954636, -0.08541492372751236, -0.00417360058054328, -0.0703093409538269, -0.009012460708618164, -0.024159645661711693, 0.09182707220315933, 0.09250693023204803, 0.09120582044124603, 0.056111857295036316], [-0.03595905378460884, 0.04655278101563454, 0.05108783394098282, -0.04919170215725899, 0.11024241149425507, -0.05671041086316109, -0.007628047838807106, 0.03946661949157715, -0.004953491967171431, -0.08648919314146042, 0.09791582822799683, -0.003800475737079978, -0.06443443149328232, 0.013098013587296009, 0.027453957125544548, 0.08533450216054916, -0.09990799427032471, 0.07531239092350006, 0.09277667850255966, -0.08408287912607193, 0.04595017433166504, 0.07906313240528107, -0.030560005456209183, 0.017495596781373024, 0.11224094033241272, 0.06380853801965714, -0.052613068372011185, 0.06912858784198761, -0.041000548750162125, 0.02908376045525074, -0.08172060549259186, -0.06920206546783447, -0.013036727905273438, -0.08095266669988632, 0.005372523330152035, -0.08072227239608765, -0.004359621088951826, -0.08644824475049973, 0.03469545766711235, 0.0757790133357048, 0.009275615215301514, -0.09299719333648682, -0.020653629675507545, 0.04434486851096153, 0.08516153693199158, -0.06254585087299347, 0.019078005105257034, -0.040128689259290695, -0.020740659907460213, 0.0024565772619098425, 0.058806683868169785, -0.013575613498687744, 0.07545872777700424, 0.08531595766544342, -0.03683636337518692, -0.059518977999687195, 0.04786984622478485, 0.07411790639162064, -0.015847887843847275, -0.06409503519535065, -0.0631183609366417, -0.0925048217177391, -0.0515475757420063, -0.09198655188083649, 0.011503164656460285, -0.0652993842959404, -0.015335455536842346, 0.07865705341100693, -0.03249436616897583, 0.037689339369535446, 0.06868644058704376, -0.02925978973507881, -0.050969719886779785, 0.03675132989883423, -0.06661473214626312, 0.08416442573070526, 0.01849699392914772, 0.08300480246543884, -0.043610431253910065, 0.0857197642326355, -0.08163595199584961, 0.0015592456329613924, 0.06339699029922485, 0.0012603163486346602, 0.05910336598753929, 0.05573949217796326, -0.07049243897199631, 0.07162892818450928, 0.05496474727988243, -0.00020586252503562719, -0.06775861978530884, 0.03693140670657158, -0.06346239894628525, -0.08052690327167511, 0.02202964760363102, 0.024947060272097588, 0.006438950076699257, -0.048356980085372925, -0.05649396404623985, -0.015129268169403076], [-0.018211865797638893, -0.03575580194592476, 0.1040588840842247, -0.0740024596452713, 0.07089546322822571, 0.07002722471952438, 0.04494766145944595, 0.026018818840384483, 0.0659821406006813, -0.06405024975538254, 0.05044819042086601, 0.06128599867224693, -0.0036418915260583162, -0.09263507276773453, -0.07641737908124924, -0.05145503208041191, 0.00682721147313714, 0.01467943750321865, -0.03128610923886299, 0.07244904339313507, -0.007116663735359907, -0.05913371965289116, -0.06598039716482162, 0.0067011648789048195, 0.10781506448984146, 0.05886570364236832, 0.08549615740776062, -0.06978739798069, 0.018795881420373917, -0.024749208241701126, 0.0590214841067791, 0.045797061175107956, -0.09823071211576462, -0.013437995687127113, -0.047973427921533585, -0.019563786685466766, 0.02017936110496521, -0.024605439975857735, -0.06970622390508652, -0.029181797057390213, 0.0897667184472084, 0.06642293184995651, -0.0392928272485733, 0.03784417733550072, -0.09862221777439117, 0.005616750102490187, -0.02663516253232956, -0.024951959028840065, 0.0350128710269928, 0.06346986442804337, 0.07623797655105591, -0.04866389185190201, -0.09334341436624527, 0.0169167909771204, -0.0153889711946249, -0.05967482179403305, -0.040273699909448624, 0.11161144822835922, 0.019257497042417526, 0.07440880686044693, -0.01604769192636013, 0.013368737883865833, -0.06359082460403442, -0.04718455299735069, -0.09774065017700195, -0.05350480228662491, -0.08657364547252655, -0.09086928516626358, -0.07510312646627426, 0.01707063987851143, 0.08911987394094467, -0.0912049189209938, 0.040770042687654495, 0.09722037613391876, -0.05045659467577934, 0.044827356934547424, 0.09706415981054306, 0.06647910177707672, 0.007666075136512518, 0.04585754871368408, -0.060892391949892044, 0.03447370603680611, -0.06217075511813164, 0.007955098524689674, 0.04698171839118004, 0.023916030302643776, -0.02673581801354885, 0.006637135054916143, -0.024845732375979424, -0.0924067422747612, -0.03673619031906128, -0.023515069857239723, 0.0035726428031921387, 0.005185234826058149, -0.09847930818796158, -0.008118892088532448, -0.020627077668905258, 0.04603388160467148, -0.0188883189111948, -0.021749092265963554], [-0.018671249970793724, -0.06955341249704361, -0.060710359364748, -0.02704082801938057, 0.045140013098716736, -0.07813828438520432, -0.003154935548081994, -0.0047513567842543125, 0.008115291595458984, 0.03494398668408394, -0.06116670370101929, -0.04159660264849663, 0.05324714258313179, 0.025396645069122314, -0.07792670279741287, 0.059579670429229736, -0.0047779083251953125, -0.09760020673274994, 0.09902353584766388, -0.07690896093845367, 0.016526078805327415, 0.04231761768460274, -0.05615046247839928, 0.03581925854086876, -0.0430329404771328, 0.06693468987941742, 0.07233168184757233, -0.011522416025400162, -0.0266353078186512, 0.09615964442491531, -0.04090390354394913, 0.001522362232208252, 0.05506915971636772, -0.0028432465624064207, -0.04832867532968521, 0.06303075700998306, 0.06746259331703186, 0.10962008684873581, 0.031759705394506454, -0.001658824970945716, -0.08465947210788727, -0.04739345237612724, -0.004698455333709717, 0.08310884237289429, -0.06264065206050873, -0.013301034457981586, -0.025459783151745796, -0.01624370738863945, 0.05885299667716026, 0.09472272545099258, -0.04334169626235962, 0.0763624832034111, 0.0695958361029625, 0.04433419927954674, -0.058029577136039734, 0.034615468233823776, -0.09591192752122879, 0.020568715408444405, 0.05565480887889862, 0.045722562819719315, 0.011485893279314041, 0.05537048727273941, 0.08140132576227188, -0.03191455826163292, -0.014280354604125023, -0.046774689108133316, -0.017369285225868225, 0.04313046112656593, 0.013266684487462044, 0.014985478483140469, -0.02686261013150215, 0.09707539528608322, 0.023456502705812454, -0.05133770778775215, -0.004217326641082764, 0.03846578299999237, -0.04676591232419014, 0.05085383355617523, 0.07834268361330032, -0.08419288694858551, -0.003668284509330988, 0.009582149796187878, -0.053420305252075195, -0.09796084463596344, 0.012688875198364258, -0.06013660505414009, -0.04962592199444771, 0.0017408011481165886, 0.05210960656404495, 0.09782134741544724, 0.09807516634464264, -0.0710325837135315, 0.08267952501773834, 0.024785196408629417, -0.059304166585206985, -0.00928719062358141, 0.0736951008439064, -0.035341884940862656, -0.01720617525279522, 0.012321673333644867], [0.0038788558449596167, 0.11306099593639374, -0.0893494039773941, 0.02140113152563572, -0.02741396427154541, -0.05998125672340393, -0.021240055561065674, -0.01807539537549019, 0.014259505085647106, -0.011350047774612904, -0.044105079025030136, 0.0681806355714798, -0.0012485504848882556, 0.09909572452306747, -0.06837641447782516, 0.08667110651731491, 0.08449206501245499, 0.04193843528628349, -0.09616722166538239, 0.051400672644376755, -0.005409502889961004, 0.046471964567899704, 0.012572634033858776, 0.028472233563661575, -0.023782193660736084, -0.07138174027204514, -0.06095724180340767, 0.05919854715466499, -0.0996970683336258, -0.011283433996140957, 0.05874847248196602, 0.028264522552490234, 0.09090092778205872, 0.07941283285617828, 0.09829512983560562, 0.09979195892810822, -0.08345868438482285, 0.00035129787283949554, 0.0011784076923504472, 0.05486942082643509, -0.0349893681704998, -0.042418982833623886, -0.04189678654074669, -0.02332472801208496, 0.08983919024467468, -0.0653420090675354, 0.010000651702284813, 0.05876937881112099, -0.019351279363036156, -0.09542042016983032, -0.0914635881781578, 0.06458846479654312, -0.059228312224149704, -0.017020035535097122, -0.016100550070405006, -0.03682921454310417, -0.03914979472756386, 0.052063632756471634, 0.03570365905761719, 0.009300692938268185, 0.029680615290999413, -0.09145265072584152, 0.05259103700518608, 0.03939514234662056, 0.07697256654500961, 0.05289386957883835, 0.06299683451652527, -0.012394779361784458, 0.06934196501970291, 0.0760248452425003, -0.0479416623711586, 0.06711538881063461, -0.0850057527422905, 0.008088255301117897, 0.026135561987757683, -0.03536330536007881, 0.02332575060427189, -0.043402478098869324, 0.04465077444911003, 0.05831839516758919, 0.09074796736240387, -0.049012552946805954, -0.07124493271112442, 0.014186263084411621, 0.0489112064242363, 0.027281641960144043, 0.053848471492528915, -0.08749226480722427, 0.03369563817977905, 0.0978885218501091, 0.045246612280607224, 0.0222926028072834, -0.03102431260049343, -0.033307995647192, 0.031775522977113724, -0.021529853343963623, 0.02665240876376629, 0.05455287918448448, 0.007008254528045654, 0.0893542617559433], [-0.050895966589450836, 0.10264171659946442, -0.05570484325289726, 0.07829227298498154, -0.05303177237510681, -0.05468597635626793, 0.016909800469875336, 0.055738940834999084, 0.004181468393653631, 0.001861274242401123, -0.07977743446826935, -0.0928918719291687, -0.0012534738052636385, -0.0719451829791069, 0.10681835561990738, 0.055636581033468246, -0.042525410652160645, 0.06720608472824097, -0.03746222332119942, 0.08644961565732956, -0.060725726187229156, 0.02259591780602932, 0.03565380349755287, 0.062218982726335526, 0.06201206520199776, 0.07519332319498062, -0.07988889515399933, 0.09724520891904831, 0.05165835842490196, 0.059037599712610245, -0.0455329529941082, 0.06814701855182648, 0.005308609921485186, 0.039681654423475266, -0.026452146470546722, 0.061211150139570236, 0.026184193789958954, 0.05241558700799942, 0.08897200971841812, 0.03752049058675766, -0.02959582768380642, 0.053360141813755035, -0.03943384811282158, 0.0629657581448555, -0.042368147522211075, -0.04476655647158623, -0.07277711480855942, 0.035593461245298386, -0.05696640536189079, 0.08758381009101868, 0.05971752479672432, 0.02252715826034546, -0.04737380892038345, 0.06675427407026291, -0.029483195394277573, 0.03401191532611847, -0.019056687131524086, -0.07694210112094879, -0.03333896026015282, 0.03538484871387482, -0.03367804363369942, -0.05878317356109619, -0.0759403333067894, 0.05255560204386711, -0.05343807488679886, -0.009439357556402683, -0.09971556067466736, 0.07786417752504349, 0.04288499057292938, -0.06463254988193512, 0.058986544609069824, 0.049340881407260895, 0.04013652727007866, -0.00988912582397461, 0.09750108420848846, -0.08564340323209763, 0.06917043775320053, 0.054414428770542145, -0.10363275557756424, 0.01005212776362896, 0.09240623563528061, 0.04468118026852608, 0.06858646124601364, -0.013856291770935059, 0.009418746456503868, 0.08876116573810577, -0.013862359337508678, 0.03878141567111015, -0.07100697606801987, 0.07409093528985977, -0.04980658367276192, -0.05907999351620674, -0.06395746767520905, -0.01849203184247017, 0.008023298345506191, -0.03230031952261925, -0.07514146715402603, 0.032495882362127304, 0.012465664185583591, -0.0975494310259819], [0.07110549509525299, 0.03396705165505409, -0.07889702171087265, -0.07353818416595459, 0.0647449716925621, -0.017376810312271118, -0.02676580101251602, -0.06837515532970428, -0.06737460196018219, 0.09354230016469955, -0.057614244520664215, 0.09606540203094482, -0.009870088659226894, -0.06793732941150665, -0.014614265412092209, 0.07097828388214111, 0.05714232847094536, -0.04369845241308212, 0.0664050355553627, 0.08214854449033737, 0.05396285280585289, -0.008797908201813698, 0.12318144738674164, 0.08563229441642761, 0.09050216525793076, 0.05222862958908081, -0.08425071090459824, -0.006522220093756914, -0.018346616998314857, -0.031213628128170967, -0.03436119481921196, -0.010632336139678955, -0.09801778942346573, 0.03756025433540344, 0.024913443252444267, -0.02930337004363537, 0.07030341774225235, -0.04704955965280533, -0.09472545236349106, -0.0709674283862114, 0.04312523826956749, 0.08562780916690826, 0.0765509083867073, 0.05489959567785263, -0.05990522727370262, -0.004934667143970728, -0.05431829392910004, -0.04014191776514053, 0.006769131403416395, 0.06274610757827759, -0.0916023999452591, 0.09852772951126099, -0.0847853422164917, 0.026076531037688255, 0.027861298993229866, 0.03489792346954346, -0.025997743010520935, -0.019641069695353508, -0.09126462787389755, -0.055572476238012314, 0.0949123203754425, 0.09969162195920944, 0.05840938910841942, 0.012308049015700817, -0.07103884220123291, -0.022894935682415962, 0.028103336691856384, 0.08250663429498672, -0.01994257979094982, -0.02985076978802681, 0.06994811445474625, -0.022867774590849876, 0.051081206649541855, 0.09151699393987656, 0.0415625125169754, 0.06704111397266388, -0.026377014815807343, 0.039921265095472336, 0.008645174093544483, 0.07419352978467941, -0.06811250746250153, -0.07766946405172348, -0.04013637453317642, -0.08959020674228668, 0.038844164460897446, -0.07886914908885956, 0.07122404873371124, -0.08652384579181671, 0.08577998727560043, -0.039257634431123734, -0.09100617468357086, -0.014928149990737438, -0.011245942674577236, 0.0572737455368042, -0.0252712182700634, -0.07752298563718796, 0.03859356790781021, 0.01076891366392374, 0.026386745274066925, -0.034639872610569], [-0.059457361698150635, -0.09030719846487045, -0.07723941653966904, -0.06518037617206573, -0.0017228898359462619, 0.06497018784284592, -0.03258451446890831, 0.10982195287942886, 0.07712341845035553, -0.08388874679803848, 0.06322002410888672, 0.07401438057422638, 0.020071422681212425, -0.03519631549715996, -0.0008924243738874793, 0.09047745913267136, 0.0968683734536171, -0.07497122138738632, 0.050759244710206985, -0.03280971199274063, -0.07229828834533691, 0.034952808171510696, 0.006094249431043863, 0.009371108375489712, 0.0722985714673996, -0.020742349326610565, 0.0725606381893158, 0.03145706653594971, 0.06239987537264824, -0.05321686342358589, -0.017269838601350784, 0.0968894511461258, -0.041433364152908325, 0.08939086645841599, -0.049688760191202164, -0.037787169218063354, 0.05469650775194168, 0.02678084187209606, 0.09588348120450974, -0.07280142605304718, 0.08759170025587082, 0.01653529517352581, 0.05580376833677292, 0.07702218741178513, -0.0889740139245987, 0.015845615416765213, -0.07494010776281357, -0.11942896991968155, 0.07918952405452728, 0.009095577523112297, -0.022851837798953056, -0.05037269741296768, -0.016545316204428673, -0.011166897602379322, 0.033941999077796936, -0.01981964334845543, 0.008487926796078682, -0.030100420117378235, 0.09527067840099335, -0.0025553388986736536, 0.0677434578537941, 0.002115738345310092, -0.007928390055894852, -0.05314639210700989, -0.09528867155313492, 0.07618570327758789, 0.04055633395910263, 0.025213977321982384, 0.09107167273759842, -0.050106920301914215, -0.03420039638876915, 0.057917069643735886, 0.06179551035165787, -0.011790359392762184, -0.07470022886991501, -0.021231496706604958, -0.00672667333856225, 0.051914941519498825, -0.015113634057343006, -0.05963842198252678, -0.039816807955503464, -0.051652561873197556, 0.0025013925042003393, -0.054345954209566116, -0.045420385897159576, -0.0709133967757225, 0.09791292995214462, -0.06227176636457443, 0.08004146069288254, 0.06272317469120026, 0.05229462310671806, -0.09586892277002335, -0.08114693313837051, 0.059871602803468704, 0.05158660560846329, -0.0944429561495781, -0.07006305456161499, -0.057795871049165726, -0.03694392368197441, 0.044711723923683167], [-0.020337378606200218, 0.044953763484954834, 0.09202214330434799, -0.010141863487660885, 0.07576990127563477, 0.09031317383050919, 0.05829973146319389, 0.024040568619966507, 0.03866472467780113, 0.030776072293519974, 0.06660035997629166, -0.021464932709932327, -0.037418246269226074, 0.06621956825256348, -0.05857006087899208, -0.0402018204331398, -0.0187960397452116, -0.002242362592369318, -0.02186138741672039, -0.0640636682510376, 0.04493206739425659, -0.010947871021926403, -0.03985510393977165, -0.10830746591091156, -0.01735229417681694, -0.03030097298324108, -0.04389239475131035, -0.04584014415740967, -0.05306960269808769, -0.0401715412735939, 1.4901161193847656e-06, -0.0305473692715168, -0.0007976840133778751, 0.012029106728732586, -0.06449341773986816, -0.023286428302526474, 0.06380482763051987, 0.021233169361948967, 0.09095191955566406, 0.05920983478426933, 0.011653733439743519, -0.06209106370806694, 0.02110745757818222, -0.07557155936956406, 0.057683683931827545, -0.049310557544231415, -0.06830628961324692, 0.023988666012883186, 0.06876659393310547, -0.06872778385877609, 0.0777808204293251, 0.030966831371188164, -0.02050863206386566, 0.04737307131290436, 0.024647435173392296, -0.10448472946882248, -0.08193916082382202, 0.07460443675518036, -0.061839353293180466, -0.0943465456366539, -0.09677866846323013, -0.04648697376251221, 0.08089908212423325, 0.0633399561047554, 0.09131422638893127, -0.015330539084970951, -0.04897785931825638, -0.059995878487825394, -0.017377762123942375, 0.0637611672282219, -0.05061757564544678, 0.011759149841964245, 0.083262600004673, 0.058010783046483994, 0.08090738207101822, 0.02951008640229702, 0.0885937288403511, -0.022122669965028763, -0.08711514621973038, -0.06766926497220993, 0.005726969335228205, 0.07696852833032608, 0.011251330375671387, -0.08513251692056656, 0.11693467944860458, -0.07457607984542847, 0.021250665187835693, 0.09459631890058517, -0.061478711664676666, -0.01538550853729248, 0.09583421796560287, -0.0414394736289978, -0.07073476165533066, -0.04695124551653862, 0.0018410149496048689, -0.08171149343252182, -0.0006392517825588584, -0.012772560119628906, -0.07062108814716339, -0.09392978996038437], [-0.023178959265351295, 0.02856290712952614, 0.006695795338600874, 0.09234500676393509, 0.07654871791601181, 0.01511836051940918, 0.03501979261636734, 0.04088249430060387, -0.04509909078478813, 0.004306686110794544, -0.09131897985935211, -0.04165377840399742, 0.060915421694517136, -7.211766933323815e-05, -0.07398547232151031, -0.03508203104138374, 0.010508084669709206, 0.012436187826097012, -0.06944417208433151, 0.07769175618886948, -0.09029733389616013, -0.03832888603210449, -0.02507948689162731, -0.07600269466638565, 0.04913414642214775, -0.043327298015356064, 0.05351525917649269, -0.001587510108947754, -0.050706006586551666, -0.010708046145737171, -0.07513328641653061, -0.06333661079406738, 0.025414980947971344, 0.0683211088180542, -0.08279714733362198, 0.10220269113779068, 0.0025687774177640676, -0.05674736574292183, -0.009693539701402187, -0.04402923583984375, 0.0027079700957983732, 0.047972142696380615, 0.05374494194984436, 0.011647663079202175, 0.01386344339698553, -0.019916515797376633, 0.04852989315986633, 0.027132684364914894, 0.0734563022851944, 0.03802584111690521, 0.010082423686981201, 0.08325027674436569, -0.07295425236225128, -0.07365881651639938, -0.03617097809910774, -0.10616371035575867, 0.027067329734563828, 0.042975518852472305, -0.00657543633133173, 0.04085996747016907, -0.06108516454696655, 0.013930297456681728, 0.06869463622570038, 0.09459996968507767, -0.09982571750879288, -0.08319823443889618, -0.08958818018436432, -0.09038186818361282, 0.049889203161001205, 0.07226300239562988, 0.023624885827302933, -0.018919670954346657, 0.027277542278170586, -0.05290959030389786, 0.0857761949300766, -0.0939006358385086, -0.08992846310138702, -0.006459138356149197, 0.06260377168655396, -0.11056030541658401, 0.04017258808016777, -0.055580783635377884, 0.08511896431446075, -0.054015886038541794, -0.06843233108520508, -0.06692428886890411, 0.038103390485048294, -0.013133480213582516, -0.01581641472876072, -0.08010927587747574, 0.052444782108068466, 0.06990233808755875, 0.0018820523982867599, -0.038857508450746536, -0.0290162805467844, 0.026513243094086647, 0.08820028603076935, 0.05572666972875595, 0.049624599516391754, -0.000868195784278214], [-0.06818876415491104, -0.02170088328421116, 0.09807930886745453, 0.06723210960626602, -0.057715047150850296, 0.08250714093446732, -0.09812217205762863, 0.04008382186293602, -0.05244281515479088, -0.08156349509954453, -0.0032193183433264494, -0.04982076957821846, 0.02703641727566719, -0.03627226874232292, -0.04199160262942314, -0.041454024612903595, 0.05121946334838867, -0.05896560102701187, 0.06002190336585045, -0.09307979792356491, 0.06185634061694145, -0.08750046789646149, 0.05155787616968155, 0.036686960607767105, 0.002079533878713846, 0.06847438961267471, 0.09946558624505997, -0.06809206306934357, -0.03256634995341301, 0.05518460273742676, -0.04143744707107544, 0.08136449009180069, -0.02409340627491474, -0.09607958048582077, -0.07237494736909866, 0.08875327557325363, 0.020006723701953888, -0.03759121894836426, 0.02358609437942505, 0.10831282287836075, -0.008219576440751553, -0.05609867721796036, 0.04485273361206055, 0.057087257504463196, -0.057813651859760284, -0.0801757276058197, 0.08380571752786636, -0.08087863028049469, 0.04032127931714058, 0.08620040863752365, 0.07032237201929092, -0.03241860866546631, 0.09299298375844955, 0.050317972898483276, -0.0414804108440876, 0.0024507089983671904, -0.03660886362195015, -0.08539840579032898, 0.0748317539691925, -0.06824040412902832, 0.1018499806523323, -0.056208718568086624, -0.05983637273311615, 0.05298289656639099, 0.03131741285324097, 0.03578752279281616, 0.046412479132413864, 0.09018001705408096, 0.004591941833496094, -0.004954684060066938, 0.03392808511853218, 0.07086852937936783, -0.05327243730425835, -0.08084007352590561, 0.07998480647802353, 0.09161593019962311, 0.06571074575185776, 0.07662516087293625, 0.01641716994345188, 0.04487805441021919, 0.05355636030435562, 0.06075434759259224, 0.09291017055511475, 0.005430006887763739, 0.007625901605933905, 0.09045743197202682, 0.0557125099003315, -0.043528083711862564, -0.021094221621751785, 0.09173418581485748, 0.016376232728362083, -0.09139082580804825, -0.04839807748794556, 0.022706616669893265, 0.022555315867066383, -0.03239712864160538, 0.057673968374729156, 0.025617076084017754, 0.05553683266043663, -0.05491068586707115], [0.08174163103103638, 0.005594898015260696, 0.032876595854759216, -0.007015031762421131, 0.0567159503698349, 0.06196901947259903, -0.07958877086639404, -0.06303796917200089, -0.00409886846318841, 0.0784793421626091, -0.00667120236903429, 0.06393543630838394, 0.03452218696475029, -0.10555759817361832, 0.03196359798312187, 0.1194801926612854, -0.08604510128498077, -0.018749356269836426, 0.07711819559335709, 0.02405407465994358, 0.03018775023519993, -0.08867641538381577, 0.04367540776729584, -0.0606527142226696, -0.002409191569313407, -0.029834844172000885, -0.014704227447509766, -0.06076871231198311, -0.018159640952944756, 0.007802939508110285, 0.05553337559103966, 0.07530732452869415, -0.07978757470846176, -0.05332557111978531, 0.07785651832818985, 0.03701315447688103, 0.009212029166519642, 0.06224720925092697, 0.08951298147439957, -0.025709254667162895, 0.06638546288013458, -0.07794337719678879, -0.050642237067222595, -0.09102553129196167, -0.034253135323524475, 0.018906252458691597, 0.0056823561899363995, 0.10529140383005142, 0.06801086664199829, 0.039380528032779694, 0.09147652238607407, -0.05319729074835777, 0.03606948256492615, 0.02753436379134655, 0.08803389966487885, 0.1146007776260376, 0.03601207584142685, -0.0922362208366394, -0.08747117221355438, 0.03288717940449715, 0.09504157304763794, 0.06422960758209229, -0.04675398766994476, 0.049135033041238785, -0.005552142392843962, 0.05180922523140907, 0.026636259630322456, -0.047493189573287964, 0.07746873795986176, 0.09894704818725586, 0.02889573574066162, 0.05740535259246826, -0.02785203419625759, 0.08305051177740097, 0.05998967960476875, -0.04327431693673134, -0.05494149774312973, 0.07789478451013565, -0.038353659212589264, 0.02925107441842556, -0.060485173016786575, 0.07285518944263458, 0.04505307599902153, -0.06817207485437393, -0.07784534245729446, 0.07850158214569092, 0.05129367113113403, 0.03654918819665909, 0.05090917646884918, -0.021767212077975273, -0.04607675224542618, -0.059287525713443756, 0.0558307059109211, 0.0952964797616005, -0.09464984387159348, -0.047424472868442535, -0.018711769953370094, -0.034780506044626236, -0.07413938641548157, -0.011942493729293346], [-0.017022836953401566, 0.057727258652448654, 0.11082608252763748, -0.0071936482563614845, -0.007680377922952175, 0.038179270923137665, -0.07205134630203247, 0.0404520109295845, -0.002951753092929721, 0.03056206740438938, -0.013611304573714733, 0.08627265691757202, 0.08818067610263824, 0.047613129019737244, 0.04132805019617081, 0.09009210765361786, -0.04919867590069771, -0.04958437755703926, -0.03746077045798302, 0.06409142166376114, -0.027073049917817116, -0.03374333307147026, 0.05208612233400345, -0.022048283368349075, -0.09328238666057587, -0.06082134321331978, 0.07618100941181183, 0.02420116402208805, -0.04408271238207817, 0.09362323582172394, -0.07505346834659576, -0.0009944916237145662, -0.05380469933152199, 0.06967616081237793, 0.047577206045389175, -0.1298893243074417, 0.08234088867902756, -0.08250463008880615, 0.05041515827178955, -0.013579237274825573, -0.08455993235111237, -0.008452069945633411, 0.026175612583756447, -0.00576830143108964, 0.0202319473028183, -0.03519657626748085, -0.059696733951568604, -0.0026446031406521797, 0.08415170758962631, 0.05298089236021042, 0.09629341214895248, -0.04567660018801689, -0.07752161473035812, -0.07906294614076614, -0.029294250532984734, 0.06832136958837509, -0.03055783174932003, 0.002833790611475706, -0.051684316247701645, 0.08853766322135925, -0.04067084193229675, -0.05821509286761284, -0.010617896914482117, 0.04372289776802063, 0.02087012678384781, -0.08280397206544876, 0.10798267275094986, 0.004182118922472, 0.008620115928351879, 0.06100804731249809, 0.07488679885864258, 0.07021702826023102, 0.08547613769769669, 0.09003730118274689, -0.1007760688662529, 0.05055509880185127, 0.05226188525557518, -0.06773694604635239, 0.07874801754951477, -0.07302967458963394, -0.08078508824110031, -0.04631568118929863, 0.024291599169373512, -0.07995325326919556, -0.007629751693457365, 0.10728657245635986, 0.06635548919439316, 0.03182045742869377, 0.09654389321804047, -0.04590492323040962, -0.004552221391350031, -0.08457250893115997, 0.026019657030701637, -0.015538299456238747, 0.06884705275297165, 0.0010568142170086503, -0.025669477880001068, -0.0815582424402237, -0.008959436789155006, -0.04319068789482117], [-0.09078627824783325, 0.12205341458320618, -0.0398717038333416, 0.0322132334113121, -0.0848507359623909, 0.06024450808763504, 0.06116177514195442, 0.011613884940743446, 0.024985849857330322, -0.05636876821517944, -0.022545291110873222, 0.053150322288274765, 0.052648115903139114, -0.05337269976735115, 0.05555742606520653, -0.05860799923539162, -0.09163656085729599, 0.01801335997879505, 0.06466235965490341, 0.011902070604264736, 0.00291537051089108, -0.0963565930724144, 0.06153704971075058, 0.02169858291745186, 0.006359157618135214, 0.062078431248664856, -0.043428875505924225, -0.005749426316469908, -0.09047306329011917, 0.00039564547478221357, -0.08376838266849518, 0.026813780888915062, -0.039623063057661057, 0.06898538768291473, 0.013746692799031734, -0.03865211829543114, -0.029261572286486626, -0.040890179574489594, -0.037494756281375885, -0.04984702914953232, 0.081534743309021, -0.07340307533740997, 0.01362577360123396, -0.04455526918172836, -0.0872243344783783, 0.08289381861686707, 0.06395135074853897, -0.05189022049307823, -0.0275479257106781, -0.030649274587631226, -0.006566131021827459, 0.07955764979124069, -0.12498516589403152, 0.03893810883164406, -0.05803607776761055, -0.03314029052853584, -0.07038998603820801, -0.04927017539739609, -0.06729813665151596, -0.07264827191829681, 0.0019912265706807375, 0.06312202662229538, -0.08966492116451263, 0.07308701425790787, 0.05555683374404907, -0.05091072991490364, 0.057056985795497894, 0.06418035179376602, 0.044244684278964996, -0.05913034826517105, -0.0031808854546397924, 0.06578990072011948, -0.09974353760480881, 0.006247747223824263, 0.0444486066699028, -0.00047837497550062835, -0.06263381242752075, -0.028247317299246788, 0.021088857203722, 0.019894102588295937, 0.022207224741578102, -0.0745057463645935, 0.02837376669049263, -0.016823315992951393, 0.08617175370454788, 0.025494882836937904, 0.030311167240142822, 0.056168731302022934, -0.052385054528713226, 0.05171845108270645, -0.008742833510041237, 0.07228831201791763, -0.08359380811452866, 0.053017523139715195, 0.0917062982916832, -0.07870163768529892, -0.04662450775504112, -0.03334539011120796, -0.018668988719582558, 0.0679173395037651], [0.07172062247991562, -0.04244518280029297, -0.0024008513428270817, 0.07046438753604889, -0.06993994861841202, -0.09435291588306427, -0.09285461157560349, 0.08190570026636124, 0.059034693986177444, -0.058408595621585846, -0.020634079352021217, -0.031110739335417747, 0.014756644144654274, -4.371404793346301e-05, -0.05354875326156616, -0.07769470661878586, -0.06079479679465294, -0.03991105780005455, 0.06349045038223267, -0.013498663902282715, 0.04557769373059273, -0.08137035369873047, 0.06188850477337837, -0.033059634268283844, 0.05504707247018814, -0.039286255836486816, 0.008783889003098011, 0.07190753519535065, 0.016050362959504128, -0.022645389661192894, 0.06146600469946861, 0.05633937194943428, -0.0515500083565712, -0.0081208860501647, -0.021649623289704323, 0.02120727300643921, -0.05285325273871422, 0.0461718924343586, 0.05146385356783867, 0.006885121576488018, 0.052501093596220016, 0.07869165390729904, -0.04597599431872368, 0.04866139963269234, -0.05538506433367729, 0.017889905720949173, 0.0676247701048851, 0.05893299728631973, -0.08619266748428345, -0.012785919941961765, -0.06081395223736763, 0.049107875674963, 0.03343109041452408, -0.08972038328647614, -0.029374683275818825, 0.05148114636540413, 0.08528207242488861, -0.012325465679168701, -0.049417100846767426, 0.04724865406751633, 0.0013432123232632875, -0.05223233625292778, -0.0691600814461708, 0.0491071455180645, -0.08984824270009995, 0.025106390938162804, 0.04165416955947876, 0.06516184657812119, -0.0761895701289177, 0.06372064352035522, 0.01824396848678589, -0.04586198553442955, -0.06126735359430313, 0.04369945451617241, -0.012189376167953014, 0.06684934347867966, -0.04843412712216377, 0.06454947590827942, -0.0440225712954998, -0.03048100508749485, 0.049157001078128815, 0.043960489332675934, 0.04689430072903633, -0.03568943962454796, 0.00644949683919549, 0.083917036652565, -0.06956280767917633, 