{"0.weight": [[-0.08322850614786148, -0.014070183038711548, -0.05057423189282417, 0.09829757362604141, 0.04249584674835205, 0.05543110892176628, 0.052648235112428665, 0.1052895039319992, 0.10452926903963089, 0.06836090981960297, -0.04976637288928032, 0.0210295170545578, -0.03702383488416672, -0.042165666818618774, -0.004789309110492468, 0.03376481682062149, -0.08948398381471634, -0.0037955045700073242, 0.05225742980837822, -0.018834536895155907, -0.09463580697774887, 0.04425806924700737, -0.07081842422485352, 0.06186568737030029, 0.07111883908510208, 0.03780253604054451, -0.045794107019901276, 0.03920508548617363, -0.015180771239101887, 0.07265782356262207, -0.060876477509737015, -0.05009089410305023, -0.006228217855095863, 0.01330482680350542, -0.021819185465574265, -0.0576399564743042, 0.06754623353481293, 0.043009545654058456, 0.09358234703540802, -0.03202616050839424, -0.009631931781768799, -0.05982673168182373, 0.073854461312294, 0.06419637054204941, -0.01744828186929226, -0.021270232275128365, -0.07155042886734009, 0.1104477122426033, 0.08561736345291138, 0.04047581925988197, 0.0702863335609436, -0.05076920986175537, 0.04452623054385185, -0.040441952645778656, -0.05692027881741524, 0.06919585913419724, -0.03935641422867775, -0.09593864530324936, -0.03467930480837822, -0.08838540315628052, -0.0550902858376503, -0.09855642169713974, 0.006682283710688353, 0.09027048200368881, 0.05796230956912041, -0.09194111824035645, 0.0758669301867485, -0.07213055342435837, -0.06558191031217575, -0.09504818171262741, 0.10425165295600891, -0.03992081806063652, 0.06727118790149689, 0.031528983265161514, -0.025615189224481583, -0.05398232489824295, 0.03334999457001686, 0.10646975785493851, 0.07118158042430878, 0.048784684389829636, -0.05142202600836754, 0.02172330766916275, -0.09268707036972046, 0.07379008084535599, -0.08747909218072891, 0.08911377191543579, -0.08550246059894562, 0.05084739625453949, -0.01080788392573595, 0.09346982836723328, -0.02276787720620632, 0.012217537499964237, -0.04657507315278053, -0.07951680570840836, 0.0793190598487854, 0.078617624938488, -0.01450661476701498, 0.07117708772420883, -0.0422879122197628, -0.0026377916801720858], [-0.10249456763267517, -0.0005074036307632923, -0.011614800430834293, 0.030794717371463776, 0.06402916461229324, 0.05118909105658531, -0.020817555487155914, 0.07559727877378464, -0.09179007261991501, -0.06411036849021912, -0.003459736704826355, 0.08419182151556015, -0.06979060173034668, 0.04283440113067627, 0.02830885723233223, -0.09396232664585114, 0.013146779499948025, -0.04440917819738388, -0.0019491789862513542, 0.05142507702112198, 0.03246547281742096, -0.09978844225406647, -0.0257840808480978, -0.0021504410542547703, 0.0681174248456955, -0.07903299480676651, 0.049842096865177155, 0.03760579973459244, -0.0007139057852327824, -0.07065984606742859, 0.11788993328809738, 0.018579192459583282, 0.030517684295773506, -0.09006450325250626, 0.03407248854637146, 0.009389283135533333, 0.08165233582258224, -0.026710426434874535, -0.01799629256129265, 0.08063820004463196, -0.034828487783670425, -0.029059890657663345, -0.0663670226931572, -0.0804898664355278, 0.025041956454515457, -0.027215829119086266, 0.05365731194615364, -0.09845330566167831, -0.020698152482509613, -0.07298415899276733, -0.11770809441804886, -0.015141134150326252, 0.08053584396839142, -0.03307203948497772, 0.006893179379403591, -0.10133875906467438, 0.02792353555560112, 0.01530100591480732, -0.04475422576069832, 0.03427754342556, -0.08351654559373856, -0.013534083031117916, -0.047246817499399185, 0.022779379040002823, -0.05832048878073692, -0.09587552398443222, -0.10150404274463654, -0.034650009125471115, 0.09676430374383926, 0.07325936108827591, 0.030484192073345184, -0.03171424940228462, -0.09779906272888184, 0.01293922495096922, -0.09731121361255646, 0.06041891500353813, 0.006276137661188841, 0.08097175508737564, -0.07272004336118698, -0.08154796808958054, -0.07658567279577255, -0.08298163115978241, -0.03905383124947548, -0.05502420663833618, -0.052549853920936584, -0.04504380375146866, 0.050991278141736984, 0.038210514932870865, -0.002516950713470578, 0.0054243216291069984, 0.07811791449785233, -0.03011692874133587, -0.0159399826079607, 0.0167008675634861, 0.013747760094702244, -0.03428284078836441, -0.055495377629995346, 0.07243019342422485, 0.04239466413855553, -0.07966476678848267], [0.0361388735473156, -0.10046382248401642, -0.09357623755931854, -0.05943633243441582, 0.02977229282259941, 0.03100375086069107, -0.08461795002222061, 0.003767418907955289, 0.06439752876758575, -0.031595971435308456, -0.021103734150528908, 0.02813826873898506, -0.02641700766980648, -0.0001181125408038497, -0.035418812185525894, -0.105461485683918, -0.01971510797739029, 0.09316243976354599, 0.059810467064380646, -0.04994107037782669, -0.043552424758672714, -0.0634489506483078, -0.05787428095936775, -0.07714533060789108, 0.02071615494787693, 0.043166812509298325, -0.01568002812564373, -0.01868397369980812, -0.060357317328453064, 0.03724830970168114, -0.028186054900288582, 0.06085284426808357, 0.03931469842791557, 0.021621210500597954, 0.10150044411420822, -0.04743851721286774, -0.031622935086488724, 0.09264009445905685, -0.0852186307311058, 0.0574394091963768, -0.08276490122079849, 0.02109518088400364, -0.05055595934391022, 0.12631596624851227, -0.061097949743270874, -0.04202891141176224, 0.07846680283546448, -0.04551335796713829, -0.027127481997013092, -0.026401663199067116, -0.003846947569400072, 0.03928738087415695, 0.06704771518707275, -0.008624655194580555, 0.012110648676753044, 0.01242467574775219, 0.06578486412763596, 0.048201899975538254, -0.034407228231430054, -0.08260315656661987, -0.08070982992649078, -0.009395509958267212, -0.0656110867857933, -0.06043468788266182, 0.060821931809186935, -0.0763532817363739, -0.09323742985725403, -0.006720643490552902, 0.057354796677827835, 0.10277615487575531, 0.02716871351003647, 0.010487602092325687, -0.023133251816034317, -0.008053375408053398, 0.0035449701827019453, -0.06839542090892792, 0.0012447289191186428, 0.08756514638662338, -0.09789271652698517, 0.07899928838014603, -0.08747341483831406, -0.04041896387934685, 0.03743898868560791, -0.032175708562135696, -0.0043237898498773575, 0.018328676000237465, 0.052359387278556824, 0.08257006853818893, 0.06265020370483398, 0.059787116944789886, 0.06964144110679626, -0.06936169415712357, 0.060430869460105896, 0.09249239414930344, 0.10107646137475967, -0.021429011598229408, -0.08154681324958801, 0.04306118190288544, -0.07576878368854523, 0.057270597666502], [-0.05704580619931221, 0.03841899335384369, -0.03926381096243858, 0.07117721438407898, -0.01045401394367218, -0.05215515196323395, -0.06680422276258469, -0.04378008842468262, -0.001312265987507999, 0.03980274125933647, -0.10849577933549881, 0.0499407984316349, -0.01670447736978531, 0.004153951536864042, -0.040811989456415176, 0.03252022713422775, -0.05657860264182091, -0.009325645864009857, -0.0023565408773720264, 0.0792284831404686, -0.0750529021024704, -0.09581511467695236, 0.07061954587697983, -0.05328817293047905, 0.034919124096632004, 0.08159660547971725, 0.045744638890028, -0.01741878315806389, -0.01087613869458437, -0.0997912809252739, -0.08086661249399185, -0.04189455509185791, 0.05824771523475647, -0.09259358048439026, -0.03285978361964226, -0.09503684192895889, 0.09027344733476639, 0.06144241988658905, 0.012192577123641968, -0.03630145266652107, 0.0243702232837677, -0.04416235163807869, 0.035464007407426834, -0.07202240079641342, 0.0324307419359684, 0.011067405343055725, 0.03767597675323486, -0.04670284315943718, -0.04332544654607773, 0.07565659284591675, -0.02618532069027424, 0.051858413964509964, -0.03787007927894592, -0.046566855162382126, -0.026694443076848984, -0.050208624452352524, 0.024427201598882675, 0.012241066433489323, -0.008737493306398392, -0.0037523165810853243, 0.0870777890086174, 0.0053756325505673885, -0.048606812953948975, 0.05574178323149681, 0.043875377625226974, -0.0920434221625328, -0.03175298497080803, -0.008242927491664886, 0.06709925085306168, -0.021575115621089935, -0.08916913717985153, -0.09928470104932785, 0.04543169587850571, -0.006138487718999386, -0.08333352953195572, 0.10052519291639328, 0.012852060608565807, 0.0011809413554146886, -0.013501393608748913, -0.07760117202997208, 0.08198840916156769, 0.07024607807397842, 0.02522125281393528, -0.011654738336801529, 0.08504366129636765, -0.08198370039463043, 0.03935033455491066, 0.08712402731180191, -0.03030623309314251, -0.09607534855604172, -0.009085449390113354, -0.007249653805047274, 0.002654418582096696, 0.034800950437784195, 0.06366395950317383, 0.03587765619158745, 0.04432317987084389, -0.09045833349227905, -0.010107636451721191, 0.08785634487867355], [0.04639969766139984, -0.04207037761807442, -0.07404166460037231, 0.035283055156469345, -0.060653794556856155, 0.016835981979966164, 0.06846695393323898, 0.09185996651649475, 0.05813436582684517, 0.08329303562641144, -0.00401730090379715, 0.060074321925640106, -0.08253003656864166, -0.02502000331878662, 0.09292266517877579, -0.07006417959928513, 0.03723843768239021, 0.02769484929740429, -0.09715602546930313, -0.019317926838994026, -0.03104236163198948, 0.05054980888962746, 0.060541220009326935, 0.07491013407707214, 0.012878047302365303, 0.06981970369815826, 0.10029976814985275, 0.08372760564088821, 0.07270194590091705, -0.06889506429433823, 0.10181590169668198, 0.12119291722774506, 0.0070314607582986355, 0.050983771681785583, -0.007127340883016586, -0.0597698800265789, -0.09925848990678787, 0.10060113668441772, -0.004284171387553215, 0.031597960740327835, 0.09949588775634766, 0.04012708365917206, -0.08472340553998947, -0.03376872465014458, 0.022107459604740143, -0.03812496364116669, 0.019686328247189522, -0.08803610503673553, 0.0519576370716095, -0.0510026216506958, -0.0016701931599527597, -0.029670201241970062, 0.07985624670982361, 0.013338413089513779, 0.07654910534620285, -0.08327805250883102, -0.08032628148794174, 0.0002699598262552172, -0.05280717834830284, 0.025291509926319122, -0.05362654849886894, 0.03495088964700699, -0.04624759778380394, -0.07263760268688202, -0.0025549517013132572, 0.030249424278736115, 0.015063118189573288, -0.02087775059044361, 0.038366518914699554, 0.05045551434159279, 0.01633511669933796, 0.0839877724647522, -0.015076461248099804, 0.032362788915634155, -0.07310736179351807, 0.06775984913110733, -0.009701148606836796, 0.04506803676486015, 0.028441283851861954, -0.08260766416788101, -0.002638809848576784, 0.051661159843206406, 0.015149606391787529, 0.0037584963720291853, 0.027225079014897346, -0.07665206491947174, 0.0022689849138259888, -0.006918510887771845, 0.012058551423251629, 0.07786957174539566, 0.08597637712955475, 0.026451541110873222, 0.0665774792432785, -0.006450549699366093, 0.05108428746461868, -0.0731019675731659, -0.015495534054934978, -0.07593512535095215, 0.030203795060515404, -0.05285116657614708], [-0.016075443476438522, -0.08547632396221161, -0.06675732880830765, -0.004511728882789612, 0.08836034685373306, 0.08336998522281647, -0.03573837876319885, 0.07317514717578888, -0.07817518711090088, -0.02926846779882908, -0.07672682404518127, 0.03533380106091499, 0.09177019447088242, 0.06643570214509964, -0.05929463729262352, 0.08622542768716812, -0.01908000372350216, 0.025365404784679413, 0.05539093166589737, -0.023477602750062943, -0.008659345097839832, -0.0031396038830280304, -0.0003122571506537497, 0.062203966081142426, 0.021940132603049278, 0.04665832221508026, 0.016517281532287598, 0.024450885131955147, -0.08149055391550064, -0.030990492552518845, 0.006578500382602215, -0.039526764303445816, -0.003970738034695387, 0.04059610888361931, -0.050228796899318695, -0.07804331928491592, 0.009985662996768951, 0.06701089441776276, 0.08215691149234772, -0.055805716663599014, 0.08003192394971848, -0.10155253112316132, -0.06926189363002777, 0.09069753438234329, 0.002928079105913639, -0.08587147295475006, -0.0058397105894982815, -0.059950873255729675, 0.009419129230082035, -0.06038633733987808, 0.04447295144200325, -0.027911944314837456, -0.0756857618689537, 0.0734451487660408, -0.048835333436727524, 0.06474770605564117, 0.05883141607046127, 0.08383631706237793, 0.058427464216947556, 0.03563240170478821, -0.029398741200566292, 0.0806984081864357, 0.06346162408590317, 0.04147782921791077, 0.05713922157883644, -0.07868235558271408, -0.03895184025168419, -0.030093487352132797, -0.017965292558073997, -0.10202619433403015, -0.01468701008707285, -0.023437220603227615, 0.07486709952354431, 0.09134656190872192, -0.03535979986190796, 0.022773457691073418, 0.07500306516885757, -0.04663125425577164, -0.0754840299487114, -0.07088659703731537, -0.08697865158319473, 0.07233570516109467, 0.0032113706693053246, -0.1003350019454956, -0.10428984463214874, 0.017990829423069954, -0.0591898038983345, -0.054408300668001175, 0.003117874963209033, 0.05378745496273041, 0.042791321873664856, -0.06250032037496567, 0.04907963424921036, -0.02688927762210369, 0.01629343442618847, -0.034338321536779404, 0.058566052466630936, 0.08702486753463745, 0.09838586300611496, -0.07221748679876328], [0.10743216425180435, -0.05005156993865967, -0.08130230009555817, -0.01420868095010519, -0.04173779487609863, -0.08630996197462082, 0.06228626146912575, 0.007368955295532942, 0.07013881206512451, 0.10363875329494476, -0.03549173101782799, 0.07924056053161621, -0.024900328367948532, -0.014068071730434895, -0.08095467835664749, -0.04480776935815811, 0.05492648854851723, -0.04398685693740845, -0.026114949956536293, 0.001258445088751614, 0.008316163904964924, 0.05364483967423439, -0.043392427265644073, -0.02444743737578392, -0.048145540058612823, -0.07603123039007187, -0.039030205458402634, -0.058427151292562485, -0.006925411056727171, 0.032378874719142914, 0.0017157969996333122, -0.05748841166496277, 0.0008118005935102701, 0.001061864197254181, -0.0554475411772728, 0.016540568321943283, -0.05842195078730583, 0.07164110988378525, 0.07232530415058136, 0.09530753642320633, -0.059848982840776443, -0.019918642938137054, 0.06416812539100647, 0.01235772855579853, -0.036766406148672104, 0.020616168156266212, 0.039555665105581284, -0.08935393393039703, -0.04225282743573189, -0.09232909232378006, 0.08152138441801071, -0.06645984202623367, -0.07993051409721375, 0.0727292001247406, -0.08086685836315155, -0.08156415075063705, -0.09358638525009155, -0.02058051899075508, -0.05907701328396797, 0.0682186409831047, 0.06676770746707916, -0.06833066046237946, 0.07523910701274872, -0.01593533717095852, -0.015167712233960629, -0.05025503411889076, -0.06304384768009186, -0.06894312053918839, 0.0658409520983696, -0.052932921797037125, -0.03857673704624176, -0.04356246441602707, -0.06791725009679794, 0.051586296409368515, -0.07940973341464996, 0.07115733623504639, 0.04361940547823906, 0.08164280652999878, 0.0935528501868248, 0.035226840525865555, -0.04182402417063713, 0.12128522247076035, -0.003769065486267209, 0.0070944419130682945, 0.00040423101745545864, 0.02162068337202072, 0.027949990704655647, -0.07888107746839523, 0.08548467606306076, -0.014226824976503849, 0.05352555215358734, -0.026040734723210335, 0.02712453529238701, 0.041525572538375854, -0.02531018853187561, 0.0026223575696349144, 0.0899360328912735, -0.028676670044660568, 0.09202811866998672, -0.05583684518933296], [-0.039704497903585434, -0.002784834010526538, 0.07302746921777725, -0.07454466819763184, 0.03698323667049408, 0.05605922266840935, 0.061983875930309296, -0.08941908180713654, -0.08118242025375366, 0.017151275649666786, -0.04363713413476944, 0.00647508492693305, 0.05290034040808678, -0.05966140702366829, -0.05663211643695831, -0.12223391234874725, 0.06622220575809479, -0.029094917699694633, -0.053221412003040314, -0.09825878590345383, 0.04087498039007187, -0.0356033518910408, 0.04103384539484978, -0.07076013088226318, -0.022993236780166626, -0.00925485510379076, -0.010890709236264229, -0.009534871205687523, 0.005849848501384258, -0.011407961137592793, -0.026481354609131813, -0.01319432444870472, 0.07206236571073532, -0.04570886120200157, 0.09284041821956635, -0.0909755676984787, 0.03224430978298187, 0.09289577603340149, -0.02378123067319393, 0.10278453677892685, -0.10081515461206436, -0.02653733640909195, -0.05489431694149971, 0.09070596843957901, 0.08063460141420364, -0.04475390538573265, 0.03976749628782272, -0.03569289669394493, -0.08532329648733139, -0.007574514485895634, 0.05393180623650551, 0.029801534488797188, 0.026420120149850845, -0.05922846868634224, 0.1141878291964531, -0.07022994011640549, -0.03551487252116203, 0.015530107542872429, -0.039541617035865784, 0.01544716116040945, 0.031866684556007385, 0.06257788091897964, -0.07604532688856125, -0.07554260641336441, -0.004241259302943945, 0.08719854056835175, -0.008173261769115925, -0.049731601029634476, -0.03531590476632118, 0.008389984257519245, 0.05591985210776329, 0.0836053192615509, 0.05643228441476822, -0.09654431790113449, 0.0775667279958725, -0.018641257658600807, -0.059451960027217865, 0.0031633819453418255, -0.017824186012148857, 0.06041819602251053, -0.019031815230846405, 0.07792963832616806, 0.08755207061767578, -0.04449646919965744, 0.06206884980201721, 0.06075156852602959, -0.06389866024255753, 0.02515103481709957, -0.04966459795832634, 0.0048796627670526505, -0.05316362529993057, -0.0541931688785553, 0.06254919618368149, -0.09653182327747345, -0.05796314775943756, 0.020264718681573868, 0.07315044105052948, -0.03381356596946716, -0.09049570560455322, -0.050806283950805664], [0.01690623164176941, -0.009600280784070492, -0.05904938280582428, 0.0006960072787478566, 0.0207563117146492, -0.05990491807460785, -0.04733143374323845, -0.07113499939441681, -0.014287291094660759, 0.008913851343095303, 0.0647752583026886, 0.07796317338943481, -0.0024823204148560762, -0.08387567847967148, -0.027135351672768593, -0.025233017280697823, -0.0461142398416996, 0.07441767305135727, -0.03023769147694111, 0.06188526749610901, -0.0037714007776230574, -0.062417615205049515, 0.08409149199724197, 0.0052365511655807495, 0.00630089221522212, -0.028052544221282005, -0.03909572586417198, 0.053667519241571426, 0.03905352205038071, -0.07242371886968613, 0.10289201885461807, -0.05956448242068291, 0.058766696602106094, -0.0639997273683548, 0.0008814465836621821, 0.11747170984745026, -0.059787895530462265, 0.06815548986196518, 0.07451131194829941, -0.06979499012231827, -0.044555459171533585, -0.04373566061258316, -0.07659450173377991, -0.03306735306978226, 0.11137832701206207, -0.04970650002360344, 0.04880708083510399, 0.10628577321767807, -0.039243925362825394, 0.04013379290699959, 0.08987921476364136, -0.029494695365428925, 0.008261210285127163, 0.01037396676838398, -0.0035873984452337027, -0.0863453671336174, 0.004783982876688242, -0.02764907479286194, 0.01183911133557558, -0.036814820021390915, -0.06426101177930832, -0.021523645147681236, 0.015952302142977715, -0.07237124443054199, -0.08308088034391403, 0.08154855668544769, -0.013449710793793201, 0.015326510183513165, -0.025786031037569046, -0.08369843661785126, 0.058628641068935394, 0.04053403064608574, 0.046333976089954376, -0.08718239516019821, -0.060829974710941315, -0.07374735921621323, -0.04206911474466324, -0.03271773084998131, -0.00845340546220541, 0.01032482273876667, -0.06697117537260056, -0.07177849113941193, 0.08151952922344208, -0.07733640819787979, 0.03470431640744209, -0.0667680948972702, -0.07945536822080612, -0.0032944201957434416, -0.008437095209956169, -0.02561814896762371, -0.059419501572847366, -0.061039697378873825, -0.09806471318006516, -0.06803616881370544, -0.03825663402676582, 0.01993703842163086, 0.016258081421256065, -0.018575264140963554, -0.07486581057310104, -0.042817797511816025], [0.09067314863204956, -0.12185601145029068, -0.04667031019926071, 0.0598839670419693, 0.0688653439283371, 0.051142364740371704, 0.012898477725684643, 0.05454113334417343, 0.06009646877646446, -0.0601375438272953, 0.09078129380941391, -0.0009098530281335115, -0.055702369660139084, 0.05828401818871498, 0.104241281747818, 0.0700916200876236, -0.09174549579620361, 0.02724364399909973, 0.032091982662677765, 0.09061429649591446, -0.09762591868638992, -0.03383311629295349, 0.00857892818748951, -0.02901899255812168, 0.0907355397939682, -0.02729310467839241, -0.029267098754644394, -0.07881337404251099, 0.05212567374110222, -0.08714713901281357, -0.005217325873672962, -0.05640983581542969, -0.09838147461414337, -0.01032212097197771, -0.06615785509347916, 0.08349062502384186, -0.01447337120771408, -0.06308598071336746, 0.0007200693362392485, -0.03066190890967846, -0.0635194480419159, 0.03950462490320206, -0.07289135456085205, 0.07837575674057007, -0.052426353096961975, -0.11176113784313202, 0.047880273312330246, -0.08976305276155472, -0.01095343753695488, -0.0044652665965259075, -0.01186070591211319, 0.08488095551729202, -0.079766646027565, -0.11193733662366867, -0.03145105764269829, 0.030606120824813843, -0.09406373649835587, -0.07617081701755524, 0.04253837466239929, 0.013377206400036812, 0.05764905735850334, -0.04151338338851929, 0.016980163753032684, 0.07905755937099457, -0.07638485729694366, -0.01452720444649458, -0.04595775157213211, 0.026975644752383232, 0.012292287312448025, -0.05703490227460861, -0.10544773191213608, -0.0958395004272461, 0.04689745604991913, -0.01656639389693737, 0.07129038125276566, -0.014890789985656738, -0.0588439404964447, 0.00038974176277406514, -0.0971095860004425, 0.06132390722632408, -0.047522835433483124, -0.060889020562171936, -0.036061327904462814, -0.017895834520459175, 0.09924658387899399, 0.11117896437644958, -0.08139520138502121, 0.06905638426542282, -0.08814487606287003, -0.04027736186981201, 0.054126426577568054, -0.04018080234527588, -0.0704236701130867, 0.006092136260122061, -0.0458766333758831, -0.08654297888278961, 0.02104296162724495, -0.061267029494047165, -0.09880530834197998, -0.014727246947586536], [-0.014375820755958557, -0.09453961253166199, -0.037341367453336716, -0.10618855804204941, -0.07404202967882156, 0.03853801265358925, 0.0008513861685059965, -0.08596480637788773, 0.08544474095106125, 0.06766263395547867, 0.10051571577787399, -0.010758399032056332, 0.03965632617473602, 0.06566090881824493, 0.0796324834227562, 0.026766454800963402, -0.008793244138360023, 0.04626542702317238, -0.034260280430316925, 0.042197514325380325, 0.08366182446479797, 0.0014050910249352455, -0.046569280326366425, 0.0946655198931694, 0.05152988061308861, 0.04683241248130798, -0.10109064728021622, -0.0684889480471611, 0.06343957781791687, -0.026772355660796165, -0.07063532620668411, 0.01329027023166418, -0.027304327115416527, 0.0003788979956880212, 0.07891807705163956, 0.03658547252416611, 0.05041142925620079, -0.021126538515090942, -0.03506143391132355, -0.01681145466864109, 0.06895821541547775, 0.09221581369638443, -0.07033796608448029, 0.08993840962648392, -0.07803308218717575, -0.01688569039106369, 0.014254906214773655, 0.022486612200737, -0.01239335723221302, 0.023145288228988647, -0.10887185484170914, 0.0684545487165451, -0.04947861284017563, -0.09576939046382904, -0.02705676481127739, 0.029784709215164185, -0.0025990228168666363, 0.08087732642889023, -0.08103527873754501, 0.0705636590719223, 0.04736429080367088, 0.023976977914571762, -0.05767727270722389, 0.07633337378501892, 0.04618479683995247, 0.06776391714811325, 0.06382870674133301, -0.08225292712450027, 0.08457977324724197, 0.07512453943490982, -0.05523127317428589, -0.07429774850606918, -0.05165093392133713, 0.07160045206546783, -0.0799202024936676, 0.08624402433633804, 0.01048217248171568, 0.030858490616083145, -0.06320466846227646, 0.005042888689786196, 0.03788820654153824, 0.05452607572078705, 0.05876152962446213, 0.05045526474714279, -0.019495276734232903, -0.012126228772103786, 0.0899367704987526, 0.039477795362472534, -0.08391392230987549, 0.07778311520814896, -0.04701393470168114, 0.008381071500480175, 0.05331455543637276, 0.07698864489793777, -0.05149618536233902, -0.07861565798521042, -0.055544544011354446, -0.02724015712738037, 0.04755227640271187, 0.03661767393350601], [0.015362001024186611, -0.047232914716005325, -0.03213292732834816, -0.03977246209979057, 0.07097602635622025, -0.09162717312574387, -0.031553592532873154, 0.04766720533370972, 0.04007498174905777, -0.054755449295043945, -0.07753755897283554, 0.09603433310985565, -0.07721399515867233, -0.028670549392700195, -0.05914744362235069, -0.031105905771255493, -0.026015913113951683, -0.0033695579040795565, -0.07982157915830612, -0.010939337313175201, 0.06199653074145317, 0.06144065037369728, 0.03175561502575874, -0.09813594073057175, 0.018188191577792168, -0.07466012239456177, -0.07789414376020432, -0.08077871799468994, -0.026462256908416748, 0.007349890656769276, 0.13204488158226013, 0.059602461755275726, 0.0201103575527668, 0.07506728172302246, -0.055515993386507034, -0.06536191701889038, -0.008890533819794655, 0.049813978374004364, 0.07478100806474686, 0.0025654237251728773, 0.006789513397961855, -0.06367313861846924, -0.03719911724328995, -0.07229491323232651, 0.04548529535531998, 0.08376844972372055, -0.08931005001068115, -0.05283195897936821, 0.05449569597840309, 0.011714569292962551, 0.02679387480020523, -0.036216821521520615, 0.0176753681153059, 0.04755861312150955, 0.05306074023246765, -0.08928145468235016, -0.12002775818109512, 0.01192818209528923, -0.0977960154414177, -0.011564514599740505, -0.06836681813001633, 0.022202230989933014, 0.10744337737560272, -0.05367988720536232, -0.058663275092840195, -0.01112546119838953, -0.08715370297431946, -0.07272060960531235, -0.01386183500289917, -0.059094395488500595, 0.08462885767221451, -0.03215296193957329, 0.02447802759706974, 0.09519785642623901, -0.0069030048325657845, -0.029901821166276932, 0.06394747644662857, -0.08720754832029343, 0.017245471477508545, 0.06749415397644043, -0.028703350573778152, 0.091966912150383, -0.0954335629940033, -0.05063209682703018, -0.09197630733251572, 0.07231057435274124, 0.06702920794487, -0.037395428866147995, 0.07542956620454788, 0.08347486704587936, -0.0708400160074234, 0.03485363721847534, -0.09320618212223053, -0.05457960441708565, 0.07954096049070358, -0.009364199824631214, 0.06526181101799011, 0.0476706400513649, -0.0513836145401001, 0.06573015451431274], [0.008681654930114746, -0.07993575185537338, 0.005448737181723118, 0.10928438603878021, 0.02173520438373089, -0.05998948588967323, -0.04442556947469711, -0.09239304065704346, -0.0015810325276106596, -0.09390725940465927, 0.0015006536850705743, -0.08243691176176071, 0.006147207226604223, 0.09595119953155518, 0.06657377630472183, 0.07482164353132248, 0.07647048681974411, 0.048104576766490936, -0.08930815011262894, -0.0985252782702446, 0.03237684443593025, -0.037360742688179016, -0.01873312145471573, 0.05016293376684189, 0.02133701927959919, 0.058286260813474655, 0.023323120549321175, 0.03251633048057556, 0.030383028090000153, 0.08521658927202225, 0.01871911622583866, 0.022025521844625473, -0.04999440535902977, 0.05955405533313751, -0.07550519704818726, 0.021509969606995583, -0.06568184494972229, 0.08875426650047302, 0.021155638620257378, 0.014544064179062843, -0.015980293974280357, 0.01880333386361599, 0.043521150946617126, 0.008752970024943352, 0.017895638942718506, -0.017933102324604988, -0.08100437372922897, -0.04491085559129715, -0.042157456278800964, -0.019019680097699165, 0.0478028878569603, 0.0740182027220726, -0.037781137973070145, -0.02758152224123478, -0.08490386605262756, -0.05773519352078438, 0.04851367324590683, 0.014199679717421532, 0.08159004896879196, -0.04714903235435486, 0.06611419469118118, 0.08697055280208588, -0.07788276672363281, -0.004865046590566635, -0.03628972917795181, 0.06391444057226181, -0.03207985311746597, -0.06818768382072449, -0.07322774082422256, -0.0285491906106472, -0.06906313449144363, 0.07047765702009201, 0.05292811617255211, 0.04293388873338699, -0.02783834934234619, -0.030028140172362328, -0.016328532248735428, 0.08396708965301514, 0.06753627210855484, -0.05852886661887169, -0.02915210835635662, 0.0027264836244285107, -0.0776396319270134, 0.0034249085001647472, -0.024300754070281982, 0.08554238826036453, 0.06515289098024368, -0.01487045269459486, -0.0483301542699337, 0.03350302577018738, 0.07798448950052261, 0.05545320361852646, 0.07357721030712128, 0.07740020006895065, 0.06598090380430222, 0.006028412841260433, -0.031692855060100555, -0.09146706759929657, -0.03945291042327881, 0.030114710330963135], [0.05635179579257965, -0.04714001715183258, 0.07061898708343506, 0.09484335780143738, -0.07190575450658798, -0.013183632865548134, -0.07082220911979675, -0.051398396492004395, 0.011717394925653934, 0.0871191993355751, 0.060743298381567, 0.004135838709771633, 0.040533822029829025, -0.06400012969970703, -0.02752251923084259, 0.021736931055784225, 0.007542515639215708, -0.012142841704189777, 0.013736636377871037, 0.08582744747400284, 0.1102183386683464, 0.0973447784781456, -0.017266472801566124, 0.03679070994257927, -0.08845455944538116, -0.06211008504033089, 0.07206748425960541, -0.09856154769659042, -0.041003111749887466, 0.1004382073879242, -0.09523005783557892, 0.03235563635826111, 0.004917481914162636, 0.04460214078426361, 0.07174354046583176, -0.060035672038793564, -0.07908599078655243, -0.07515686005353928, -0.08738090842962265, 0.01354264561086893, -0.0014251766260713339, -0.023663271218538284, 0.04013976454734802, -0.053149186074733734, 0.09865815192461014, -0.023019621148705482, -0.05271253362298012, -0.030778050422668457, 0.05105023831129074, -0.08338309824466705, -0.03985185548663139, 0.08829877525568008, 0.054435256868600845, -0.06705985218286514, -0.0760197564959526, -0.07460540533065796, 0.024332597851753235, -0.09574273228645325, -0.06123405322432518, -0.06381502002477646, -0.03857497498393059, 0.09554462134838104, -0.05289958417415619, -0.037502091377973557, 0.03656664863228798, -0.02503190003335476, 0.07554487138986588, -0.024848483502864838, -0.07286178320646286, 0.01680227369070053, -0.006448874715715647, -0.011996502988040447, 0.06027624383568764, -0.015160445123910904, -0.06870274245738983, 0.054509036242961884, -0.08038749545812607, -0.004811216611415148, 0.07082127034664154, -0.010256694629788399, 0.02724713832139969, 0.007326539605855942, 0.07461607456207275, -0.11058060824871063, 0.014395640231668949, 0.002982131205499172, -0.055677466094493866, -0.020446419715881348, 0.018213680014014244, -0.07379194349050522, -0.06616866588592529, -0.03194683417677879, 0.01860218122601509, -0.07689587771892548, 0.0027661107014864683, 0.05677386000752449, 0.07275091856718063, -0.008030234836041927, -0.06418218463659286, -0.013963592238724232], [0.0777457132935524, -0.0802718847990036, -0.0447131022810936, -0.029481451958417892, 0.08585620671510696, -0.08667002618312836, -0.08682259172201157, -0.014235191978514194, 0.06278882920742035, 0.038999974727630615, 0.02586885169148445, -0.05505502596497536, -0.07235782593488693, -0.035196077078580856, -0.07945677638053894, 0.08916350454092026, 0.05638096109032631, 0.015298749320209026, -0.04848644509911537, -0.0415891595184803, -0.023164546117186546, -0.02526218444108963, 0.02361496351659298, -0.04608473554253578, 0.04586324468255043, 0.06993895769119263, 0.09404388070106506, -0.050497882068157196, 0.05786359682679176, -0.08456907421350479, 0.02211243472993374, 0.08596353977918625, -0.0647948831319809, 0.06622179597616196, -0.09271018207073212, -0.08758694678544998, -0.0208809282630682, 0.03274120017886162, -0.05870826169848442, -0.08538616448640823, -0.10003886371850967, -0.07397333532571793, 0.057669539004564285, -0.09164945781230927, -0.10529567301273346, -0.07348928600549698, -0.046718984842300415, 0.033227596431970596, -0.03492124006152153, 0.027414077892899513, 0.09885933250188828, 0.033522769808769226, -0.07041138410568237, 0.05366935208439827, -0.024185661226511, 0.058113496750593185, -0.07167389243841171, 0.07623149454593658, -0.08271646499633789, 0.07282419502735138, 0.005212916061282158, -0.03956099972128868, -0.004571542609483004, 0.027681656181812286, -0.044562168419361115, 0.01859394460916519, 0.05911249667406082, 0.04374891147017479, -0.01142961997538805, -0.03313594311475754, 0.08238551020622253, -0.04514988511800766, 0.07785777747631073, -0.07238063216209412, -0.04910771921277046, 0.0003001928562298417, 0.08715484291315079, -0.03252442553639412, -0.0719965249300003, -0.03692732751369476, 0.080181784927845, 0.05485450103878975, 0.08825775235891342, 0.06300792098045349, -0.0002539523411542177, -0.04463350027799606, 0.03409833461046219, 0.10373053699731827, -0.0533779114484787, -0.008058328181505203, -0.08445652574300766, -0.0317438580095768, 0.01290610060095787, 0.020719237625598907, -0.042604319751262665, 0.07228563725948334, 0.027549568563699722, -0.07086872309446335, 0.0489567294716835, -0.08390147984027863], [-0.018588732928037643, -0.020896470174193382, -0.07362990826368332, 0.05752194672822952, -0.016037678346037865, 0.036602556705474854, 0.00750452047213912, -0.05027378723025322, 0.025715546682476997, 0.003661378053948283, 0.05498306080698967, 0.0492471307516098, 0.05589144304394722, -0.08449380844831467, -0.07074407488107681, -0.010186614468693733, 0.007309549022465944, -0.07157286256551743, 0.03800613805651665, -0.0054530915804207325, 0.02197636105120182, 0.003204117063432932, 0.016983039677143097, -0.06439944356679916, -0.04314946010708809, 0.021904664114117622, 0.09246234595775604, -0.035040564835071564, 0.02949223853647709, -0.030611133202910423, -0.06046022102236748, 0.1124347448348999, 0.05698037147521973, 0.009782897308468819, -0.03878377005457878, -0.0625864788889885, 0.08978131413459778, 0.0384502112865448, -0.1067608967423439, -0.056844163686037064, 0.08327161520719528, -0.04889076575636864, 0.044633202254772186, 0.00018418804393149912, -0.0950685441493988, -0.07312068343162537, 0.07025840878486633, -0.007839295081794262, -0.04471272975206375, -0.09031432867050171, -0.014460896141827106, 0.05189930647611618, -0.050641775131225586, 0.03247936815023422, -0.08739002794027328, 0.07994426041841507, -0.07999328523874283, -0.07399009168148041, -0.09527483582496643, 0.03699330985546112, 0.07036637514829636, 0.03926317021250725, -0.08557162433862686, -0.00488973269239068, 0.037445757538080215, 0.01533382385969162, 0.029147149994969368, 0.016215896233916283, -0.07932893186807632, -0.05875570699572563, -0.03356906771659851, 0.04978282377123833, -0.08897507190704346, 0.008571428246796131, -0.0666501522064209, -0.06721633672714233, -0.060225795954465866, -0.010912108235061169, 0.07239734381437302, -0.0677696093916893, 0.04690788686275482, -0.030777767300605774, 0.04164730757474899, 0.06674683094024658, -0.04897574707865715, 0.04519490525126457, 0.031550511717796326, -0.024837780743837357, -0.09794800728559494, -0.07410786300897598, 0.006261985283344984, -0.09152054786682129, -0.07150343805551529, 0.02366921864449978, 0.03428535535931587, 0.0950380489230156, 0.0891088992357254, 0.09353601932525635, -0.04616990312933922, 0.030736446380615234], [0.03069298155605793, 0.02882520481944084, 0.0002500166592653841, 0.09371029585599899, 0.08050991594791412, -0.0641370564699173, -0.08323047310113907, -0.018077373504638672, 0.02831433340907097, -0.05538064241409302, -0.09530717134475708, 0.09058041125535965, -0.04003996029496193, -0.04301534965634346, -0.04386844113469124, -0.06351131200790405, 0.033829059451818466, -0.047001443803310394, 0.07188305258750916, -0.05526497960090637, -0.09563979506492615, -0.04347112402319908, -0.10313599556684494, 0.08463624864816666, 0.09836214780807495, -0.013764294795691967, 0.0003052381507586688, -0.0825171023607254, 0.04099451005458832, 0.042067237198352814, 0.03366522863507271, 0.044498857110738754, 0.05986180901527405, 0.10241693258285522, -0.01798775978386402, -0.034745749086141586, -0.07808716595172882, 0.0726567879319191, 0.015120957978069782, 0.0353853814303875, -0.034638047218322754, 0.02239389903843403, 0.03451496735215187, 0.0667230635881424, 0.06647670269012451, 0.06190628185868263, 0.03200232610106468, 0.016721835359930992, 0.03549729287624359, -0.0607486329972744, 0.018933530896902084, -0.02575661987066269, -0.021458009257912636, -0.06938398629426956, 0.01028385479003191, -0.10069315880537033, 0.05665319412946701, 0.06274191290140152, -0.0531938262283802, 0.02397010289132595, 0.06273318082094193, -0.061679672449827194, -0.012259596958756447, -0.09148012101650238, 0.08419973403215408, 0.011234755627810955, -0.04358122497797012, -0.018653107807040215, -0.07837524265050888, -0.04679335653781891, 0.09693805128335953, 0.021842753514647484, -0.09249686449766159, 0.05528227239847183, -0.02863246202468872, 0.0066613503731787205, 0.09553017467260361, -0.004182734526693821, -0.09491129964590073, 0.08915285021066666, 0.08664408326148987, -0.03399209678173065, -0.006114732939749956, 0.08712033927440643, 0.05429326742887497, 5.326804966898635e-05, -0.013700461946427822, 0.004543495364487171, -0.030843155458569527, -0.08470510691404343, 0.09513164311647415, -0.09776490181684494, -0.01824244298040867, -0.10025457292795181, -0.06973417103290558, 0.10239574313163757, 0.10521382838487625, 0.09429564327001572, 0.04813038185238838, 0.040572118014097214], [0.01227834913879633, -0.05660519376397133, 0.03173311799764633, -0.07125406712293625, -0.008753461763262749, -0.08730542659759521, -0.07982558012008667, -0.05941321328282356, -0.033430375158786774, -0.061356689780950546, 0.017687639221549034, -0.030998725444078445, 0.015120377764105797, -0.03876226395368576, -0.028963562101125717, 0.03501519933342934, 0.06471061706542969, -0.08002138882875443, -0.07604420185089111, 0.050620824098587036, 0.10951413214206696, -0.052522461861371994, 0.09509104490280151, -0.012729580514132977, -0.04706376791000366, 0.033999547362327576, -0.010907580144703388, 0.028808502480387688, -0.08629977703094482, 0.04210557043552399, -0.09592839330434799, 0.01674848422408104, 0.08778007328510284, -0.020154425874352455, -0.030374275520443916, -0.043086837977170944, -0.022797277197241783, -0.031274277716875076, 0.042148057371377945, 0.09580311924219131, 0.11801210045814514, 0.05201273784041405, 0.07999642938375473, 0.007032314781099558, 0.06468567997217178, -0.06936188042163849, 0.048837583512067795, -0.0581594817340374, -0.0150723522529006, 0.04642358794808388, -0.05759090930223465, 0.05885707959532738, 0.08957350254058838, -0.042251937091350555, 0.11528106033802032, -0.00862920843064785, -0.06494099646806717, -0.030238144099712372, -0.07240091264247894, 0.06300067901611328, -0.03205398470163345, -0.048561979085206985, 0.05373814329504967, 0.03582994267344475, 0.06748432666063309, 0.04624909535050392, -0.08101366460323334, 0.03695858642458916, -0.019924748688936234, 0.06315357983112335, -0.09503334760665894, -0.06531228125095367, -0.07170625030994415, 0.04248731955885887, -0.061170902103185654, -0.03163500130176544, 0.059531789273023605, -0.08867024630308151, -0.09307296574115753, 0.04900387302041054, 0.04783007130026817, -0.09119686484336853, -0.05840412527322769, 0.08038529008626938, -0.06286446005105972, 0.031889528036117554, -0.02154848724603653, 0.06052946671843529, -0.05693991109728813, 0.0894174575805664, -0.0917716845870018, -0.024016650393605232, 0.04563654586672783, -0.028188282623887062, -0.039747510105371475, 0.003874638117849827, -0.023534409701824188, 0.01501206960529089, -0.022565996274352074, 0.002015972277149558], [0.008391890674829483, -0.006137124262750149, -0.05182773992419243, -0.026020901277661324, -0.06840856373310089, 0.04788907244801521, 0.027328649535775185, 0.04785384610295296, -0.024736927822232246, 0.0994940847158432, -0.01098233088850975, -0.05962347984313965, -0.038690581917762756, -0.06658206135034561, 0.0027902028523385525, -0.05483550578355789, -0.0779670998454094, 0.02791658043861389, -0.04851539805531502, 0.07273712009191513, 0.013105873018503189, -0.09431862831115723, 0.009798699989914894, -0.09644146263599396, 0.016280824318528175, -0.0007733129896223545, -0.012760967947542667, 0.10509079694747925, 0.06487416476011276, 0.04601771757006645, -0.053882528096437454, 0.04858268052339554, 0.05888530611991882, -0.05470578745007515, -0.0069444854743778706, 0.08203357458114624, 0.021275674924254417, 0.06356727331876755, -0.07749288529157639, 0.020055606961250305, 0.1036975160241127, -0.025021512061357498, -0.062211133539676666, 0.06296242773532867, 0.03483764827251434, 0.026022132486104965, 0.05761421471834183, -0.025484347715973854, -0.027770424261689186, 0.07481646537780762, -0.016081074252724648, -0.020148523151874542, 0.09576716274023056, -0.06956327706575394, 0.01941978558897972, -0.039967600256204605, -0.05504224821925163, 0.054504141211509705, -0.09883204847574234, 0.025054674595594406, -0.0073405480943620205, -0.08433540165424347, -0.03708973154425621, 0.07323861867189407, -0.05072632431983948, 6.019101056153886e-05, 0.06904498487710953, -0.08972736448049545, 0.05410855636000633, 0.013642828911542892, 0.0024697566404938698, 0.020834041759371758, 0.08367955684661865, 0.13253512978553772, -0.04309682548046112, 0.08756452798843384, -0.06296008080244064, -0.02111738920211792, 0.030293012037873268, -0.03937563672661781, 0.09313298016786575, 0.08225854486227036, 0.01888919435441494, 0.0923791229724884, 0.06758658587932587, 0.046134792268276215, -0.022944612428545952, -0.09776824712753296, -0.0404307059943676, -0.08177323639392853, -0.053136467933654785, -0.018109716475009918, 0.06633321195840836, -0.026047419756650925, -0.04686286672949791, -0.09156390279531479, 0.03082435578107834, 0.0892835184931755, 0.07974757999181747, -0.09627024084329605], [-0.05210478603839874, 0.057292141020298004, 0.07792023569345474, -0.019682221114635468, -0.006360242608934641, -0.09414318948984146, -0.07453665137290955, 0.027862105518579483, -0.05911257117986679, -0.0755859985947609, -0.1255887895822525, 0.08689998090267181, 0.08855454623699188, 0.07882889360189438, 0.0006270507583394647, 0.042491741478443146, -0.10414665192365646, 0.08414643257856369, 0.08131254464387894, -0.0048656584694981575, 0.035787176340818405, 0.03656141832470894, 0.029351990669965744, -0.08689427375793457, -0.04276682808995247, -0.05793539062142372, 0.03355727717280388, -0.04760955274105072, -0.10280236601829529, 0.07697810232639313, 0.003918138798326254, 0.07185354828834534, -0.07585453242063522, -0.03224749490618706, -0.02659926936030388, 0.07804322242736816, -0.08585977554321289, -0.040945008397102356, 0.09441974014043808, 0.030014846473932266, -0.0009523046901449561, 0.06861090660095215, 0.09924841672182083, -0.01568056456744671, 0.09091407060623169, 0.10854291915893555, -0.03780180215835571, -0.061637185513973236, -0.0743316188454628, -0.010015042498707771, -0.048422593623399734, 0.007426392287015915, 0.09936203807592392, 0.07452474534511566, -0.04966740310192108, -0.057784903794527054, 0.004725965205579996, -0.005711933132261038, 0.09185505658388138, -0.06091228127479553, 0.08796726912260056, -0.05788619816303253, 0.05130486562848091, 0.050871871411800385, 0.07148551195859909, -0.013854941353201866, 0.043081458657979965, -0.07528817653656006, -0.018571985885500908, 0.09222110360860825, -0.005556893069297075, 0.012824068777263165, 0.04772453382611275, 0.09222301095724106, 0.06007273495197296, -0.029237831011414528, -0.07341355830430984, -0.028239410370588303, -0.042587339878082275, 0.10256212204694748, 0.10040155053138733, -0.051759373396635056, -0.07372086495161057, -0.010823708027601242, 0.009126327931880951, -0.04220741614699364, 0.02904098853468895, 0.026617730036377907, 0.06801234930753708, 0.017824944108724594, -0.03235374391078949, 0.03134266287088394, 0.0805000513792038, -0.01406523771584034, -0.04099031165242195, -0.07275696843862534, -0.04430624842643738, -0.03609514236450195, -0.09046413004398346, 0.050911154597997665], [-0.01745224930346012, -0.013328581117093563, 0.07848425209522247, -0.07327636331319809, -0.044588662683963776, 0.05725574865937233, -0.07877399027347565, -0.09653961658477783, -0.06782440096139908, -0.058007027953863144, 0.03743718937039375, -0.03360073268413544, -0.08204320073127747, 0.05947946012020111, 0.025053586810827255, 0.06754060089588165, -0.06605630367994308, 0.08407850563526154, 0.04664595425128937, -0.04991086944937706, -0.016203735023736954, 0.030407670885324478, -0.05167929455637932, -0.016806550323963165, -0.027541736140847206, 0.02078370377421379, -0.05284566804766655, 0.0006622916553169489, 0.036929573863744736, -0.0009212906006723642, 0.08680076897144318, -0.059950727969408035, -0.026740731671452522, 0.03425142914056778, 0.0465538389980793, -0.0687049999833107, 0.011162077076733112, 0.04193586856126785, -0.03589657321572304, 0.016306821256875992, -0.019944386556744576, -0.04971952736377716, 0.005962961819022894, -0.007224452681839466, -0.05313144624233246, 0.08370772004127502, 0.04700344428420067, -0.04075172543525696, -0.015767812728881836, -0.04849350079894066, 0.09206487983465195, 0.08755738288164139, 0.11637493222951889, -0.06366293877363205, 0.061768192797899246, -0.006618204526603222, 0.06382139027118683, -0.08281759172677994, 0.040538497269153595, -0.08134378492832184, 0.04015592858195305, 0.06234649196267128, -0.09399770200252533, -0.07561875879764557, -0.08074980229139328, 0.025058208033442497, 0.02932029776275158, 0.03546731546521187, -0.027237141504883766, 0.052940733730793, -0.039971958845853806, 0.018457066267728806, 0.033922452479600906, 0.08984261751174927, 0.028694091364741325, 0.011246721260249615, 0.05079023167490959, 0.0766194686293602, 0.055104684084653854, 0.07391485571861267, -0.06978651881217957, 0.06519453227519989, -0.03924219682812691, 0.055783238261938095, -0.025562623515725136, 0.03582606837153435, 0.054227761924266815, 0.0032818205654621124, 0.09193017333745956, 0.0671190544962883, -0.009696333669126034, 0.017634600400924683, 0.07095010578632355, -0.0065061249770224094, 0.0875139981508255, 0.09015348553657532, -0.025168031454086304, -0.048652686178684235, -0.03410792350769043, 0.06504187732934952], [0.06724008917808533, -0.08267982304096222, -0.10670501738786697, -0.037181392312049866, 0.0033952605444937944, 0.03251667693257332, 0.058330610394477844, 0.08443532884120941, -0.03607486933469772, -0.02864227071404457, 0.06496696919202805, 0.05291549488902092, 0.07350488007068634, 0.07427499443292618, 0.07797770947217941, 0.02596822753548622, -0.007726416923105717, 0.09447944164276123, 0.06223152577877045, 0.015700437128543854, 0.10049300640821457, -0.014814856462180614, 0.08152446150779724, 0.042719900608062744, 0.07082726806402206, 0.08059718459844589, -0.045371294021606445, -0.027431858703494072, 0.041341036558151245, 0.048533570021390915, -0.004303989000618458, -0.006791625637561083, -0.016219092532992363, 0.020891981199383736, 0.0023426630068570375, -0.061030615121126175, 0.07634341716766357, -0.08406834304332733, -0.06689474731683731, -0.005490501411259174, -0.06975412368774414, -0.019105125218629837, 0.06325765699148178, -0.053297258913517, -0.054597485810518265, 0.06755241006612778, 0.039976395666599274, 0.07619418948888779, 0.0810224711894989, 0.005223489832133055, 0.09311965107917786, 0.012755242176353931, 0.01014652382582426, -0.03523707762360573, -0.06178788095712662, -0.013092820532619953, 0.05352213233709335, -0.024235475808382034, 0.013319871388375759, 0.03535611554980278, 0.07870038598775864, 0.0527319498360157, -0.07425126433372498, 0.07504089176654816, 0.0804278552532196, -0.030053796246647835, 0.04943369701504707, -0.02107907272875309, -0.04810582846403122, -0.07808037847280502, 0.026752348989248276, 0.040175292640924454, 0.01206453051418066, 0.07425232976675034, -0.022305872291326523, -0.032760005444288254, 0.001680827932432294, 0.005616336595267057, 0.09640265256166458, 0.020039526745676994, 0.005480541847646236, -0.03673078864812851, -0.055912476032972336, 0.06255946308374405, -0.007111569866538048, -0.006582321133464575, 0.007135782390832901, 0.07232218235731125, 0.09069965779781342, 0.05825524404644966, 0.032980017364025116, 0.11203040182590485, 0.04665045067667961, -0.03756969794631004, 0.06681574136018753, 0.05646856501698494, 0.008375154808163643, 0.07466226071119308, 0.006685018539428711, 0.014513934031128883], [0.002285897033289075, -0.009023983031511307, -0.026819651946425438, 0.09014105051755905, 0.07036962360143661, 0.06409855931997299, 0.054476089775562286, 0.07195726782083511, -0.07100895047187805, 0.07520972937345505, 0.03892108425498009, -0.029786694794893265, -0.05810098722577095, -0.011835766024887562, 0.04255224019289017, 0.09068860858678818, 0.0867992714047432, -0.08250342309474945, 0.03300191089510918, -0.015607955865561962, 0.07902969419956207, 0.0754338875412941, 0.0933615118265152, -0.014937599189579487, 0.04812020808458328, -0.02901438996195793, 0.037056487053632736, -0.02487814798951149, -0.004004084970802069, -0.0775652527809143, -0.037741538137197495, -0.04834643006324768, 0.011725149117410183, -0.02404894307255745, 0.06950885057449341, -0.05384157598018646, 0.008979897014796734, 0.07099007815122604, 0.002907542046159506, -0.013004615902900696, 0.032345812767744064, -0.017537713050842285, -0.03735225275158882, -0.027041906490921974, -0.03844417259097099, 0.06868197023868561, 0.05207563191652298, -0.0513259582221508, 0.07582984864711761, -0.0455632358789444, 0.0677301436662674, -0.062024664133787155, 0.0021717739291489124, -0.021656963974237442, 0.05630306527018547, -0.05914938822388649, 0.02754456363618374, -0.09685730189085007, 0.09273701906204224, 0.013539329171180725, -0.07569211721420288, 0.018371030688285828, 0.09275730699300766, 0.016634156927466393, 0.08072709292173386, 0.07980053871870041, 0.03293057903647423, -0.07724878937005997, -0.05134204775094986, 0.0868295207619667, -0.04815442115068436, -0.08043378591537476, -0.06857332587242126, 0.07521925121545792, 0.04422474652528763, 0.01341834757477045, 0.05774134397506714, 0.1002434492111206, -0.009875765070319176, -0.08924135565757751, -0.020158033818006516, -0.06274795532226562, -0.03071756660938263, -0.04876723140478134, 0.04216499626636505, -0.05931534990668297, 0.07285866886377335, -0.015548397786915302, 0.05776485428214073, 0.025093432515859604, 0.013583719730377197, -0.02320096828043461, 0.07923825830221176, -0.07405868172645569, -0.02198798954486847, 0.07653535157442093, -0.0958070307970047, -0.0211174339056015, -0.06581579893827438, -0.01682826317846775], [-0.09533283114433289, -0.027496563270688057, 0.08128700405359268, -0.03616412356495857, -0.0072303046472370625, 0.046138375997543335, 0.06946474313735962, -0.09781951457262039, -0.06624912470579147, -0.02483149617910385, -0.01374106016010046, -0.022645147517323494, -0.06319362670183182, -0.046010710299015045, -0.01929217018187046, -0.0041868798434734344, -0.004323216620832682, -0.04664178192615509, -0.10181189328432083, -0.05967829003930092, -0.03911665454506874, 0.0019090812420472503, 0.004386441316455603, 0.03685181215405464, -0.09435958415269852, 0.09125372767448425, -0.017480317503213882, -0.06238934025168419, -0.00860077515244484, -0.08144912868738174, 0.08440838754177094, -0.0064472113735973835, 0.002419763710349798, -0.010311833582818508, 0.06034381687641144, 0.009631426073610783, -0.060546282678842545, -0.06554020941257477, -0.04694006219506264, -0.06292684376239777, -0.04335056617856026, -0.04039449244737625, -0.10876623541116714, 0.021635493263602257, -0.09409140795469284, -0.019159918650984764, 0.024407517164945602, 0.079249806702137, -0.09217681735754013, -0.0080062635242939, -0.10857166349887848, 0.0251714326441288, 0.012201128527522087, -0.024704644456505775, -0.0028857917059212923, 0.042174700647592545, 0.09545810520648956, -0.07803241908550262, -0.07699204236268997, 0.05779494717717171, 0.011146699078381062, 0.07314049452543259, -0.07133834809064865, 0.07272548228502274, -0.08373644948005676, 0.045837465673685074, -0.010529892519116402, 0.03590733930468559, -0.024216217920184135, -0.028112417086958885, -0.07027515023946762, 0.06522977352142334, 0.052148379385471344, -0.023227108642458916, -0.04848169907927513, -0.005372472573071718, 0.08442661166191101, 0.07274943590164185, -0.09786239266395569, -0.0404740534722805, -0.08323457837104797, -0.06940166652202606, 0.08697353303432465, -0.028014374896883965, -0.07549923658370972, -0.04803931340575218, 0.08201701939105988, 0.03405274078249931, -0.014645063318312168, -0.012292489409446716, -0.0878954827785492, -0.06835402548313141, 0.07783760130405426, -0.061964765191078186, -0.06608714163303375, 0.007940794341266155, -0.003377540037035942, 0.05206393450498581, 0.027814650908112526, -0.013662124052643776], [-0.07022759318351746, -0.04854127764701843, -0.09320352226495743, 0.09286563098430634, -0.044170279055833817, 0.02992832288146019, -0.07756450772285461, -0.08285196870565414, -0.015932267531752586, 0.08375436067581177, 0.03472641482949257, 0.06301935017108917, 0.00716467434540391, 0.07441777735948563, 0.04014045000076294, 0.0022397516295313835, -0.076320119202137, -0.1045750305056572, -0.08815573155879974, -0.040220245718955994, 0.070863738656044, 0.02214229293167591, -0.09957294166088104, -0.012736859731376171, -0.013938555493950844, 0.062478601932525635, -0.0915646180510521, -0.08263278752565384, 0.07394174486398697, 0.05156987905502319, 0.08034668862819672, 0.08175468444824219, -0.08104610443115234, 0.023107770830392838, -0.07299613952636719, -0.08007214963436127, -0.07952330261468887, 0.037356458604335785, -0.0733710303902626, 0.04160629212856293, -0.07624565064907074, -0.039522934705019, 0.020694803446531296, 0.10503543168306351, 0.025757186114788055, -0.07144074887037277, -0.027242176234722137, -0.05553058534860611, 0.010989396832883358, -0.09633347392082214, -0.014736291952431202, 0.01714375987648964, -0.030960895121097565, -0.0194076057523489, 0.009863955900073051, -0.06472443044185638, -0.08976617455482483, -0.08333725482225418, -0.07548125088214874, 0.09064991027116776, -0.030114615336060524, 0.004505975171923637, 0.08210132271051407, -0.00790200661867857, 0.04724724218249321, 0.04700315743684769, 0.06813459098339081, 0.016809219494462013, 0.04585881158709526, 0.028001682832837105, 0.054260849952697754, -0.04355160892009735, 0.0903734341263771, 0.046356599777936935, 0.05771457776427269, -0.0744655504822731, -0.09922187775373459, -0.0770435482263565, -0.08166772127151489, 0.01378428190946579, -0.06310843676328659, 0.09836474061012268, 0.042751215398311615, 0.08914481103420258, 0.0019153245957568288, 0.08944202214479446, 0.05424899980425835, 0.07932943850755692, -0.0033984200563281775, 0.04921058565378189, 0.050993435084819794, 0.05788976699113846, -0.04207386448979378, 0.06368886679410934, -0.05488086864352226, -0.06774089485406876, -0.02482003904879093, 0.010524185374379158, 0.04458186775445938, -0.07219918817281723], [0.0610022097826004, 0.034108955413103104, -0.08919134736061096, 0.030851716175675392, 0.019670359790325165, -0.010636349208652973, 0.08179070055484772, -0.04013547673821449, -0.08599311113357544, 0.048904404044151306, 0.0823025107383728, -0.048981573432683945, -0.11382200568914413, -0.04202721267938614, 0.048869166523218155, -0.02586529217660427, 0.09891105443239212, 0.07226750999689102, -0.020318370312452316, -0.053328175097703934, 0.07718608528375626, -0.07966683804988861, 0.02349722385406494, 0.08767473697662354, -0.01487573329359293, 0.058839935809373856, -0.1063399389386177, 0.05483561009168625, -0.03202132508158684, 0.07200156152248383, 0.08494269847869873, 0.10067293792963028, 0.03192099183797836, 0.05608668178319931, 0.04585918411612511, -0.022457575425505638, -0.010382735170423985, -0.027088623493909836, 0.05618058145046234, -0.09083615988492966, -0.0474502295255661, -0.10268761217594147, 0.07294219732284546, -0.0779622420668602, 0.013518859632313251, -0.04330773279070854, -0.03172224387526512, 0.07002603262662888, -0.08516686409711838, -0.040917567908763885, 0.017948126420378685, -0.08872225880622864, -0.043555207550525665, -0.06788669526576996, 0.032294776290655136, 0.04601029306650162, 0.0036064772866666317, 0.06760314106941223, -0.026832880452275276, 0.005776869133114815, -0.062003400176763535, 0.09218703955411911, -0.03805316984653473, 0.07535549998283386, 0.010777279734611511, 0.018006017431616783, -0.03199704736471176, 0.07490480691194534, 0.03572684898972511, -0.022004522383213043, -0.06541034579277039, -0.04617539793252945, -0.04643624275922775, 0.06548085808753967, 0.04809166491031647, -0.05418635159730911, 0.08197866380214691, -0.01827426441013813, 0.01978936232626438, 0.08597424626350403, 0.08325691521167755, 0.01997792348265648, 0.039547398686409, 0.009134635329246521, 0.06248623505234718, 0.032090187072753906, 0.008153798058629036, 0.07529930770397186, 0.04395557940006256, -0.0862889513373375, 0.022625712677836418, 0.020625092089176178, 0.04359572008252144, -0.047528550028800964, -0.06737484782934189, -0.07246367633342743, 0.030244426801800728, 0.006266262382268906, -0.043198373168706894, -0.02684207074344158], [0.017155373468995094, -0.030918661504983902, -0.04209250211715698, 0.06249701976776123, -0.002106618834659457, -0.023391295224428177, 0.06880521774291992, 0.10978543013334274, -0.026848332956433296, 0.0985247939825058, 0.021721724420785904, 0.06581679731607437, -0.07524985074996948, -0.07379267364740372, 0.0318177230656147, -0.09000685811042786, 0.017081962898373604, -0.009066717699170113, -0.036401282995939255, -0.02537229098379612, 0.09641759097576141, -0.09247668087482452, -0.03067314438521862, 0.04602460563182831, -0.01865888014435768, 0.09815483540296555, -0.0934372991323471, -0.025918779894709587, 0.016661614179611206, 0.08057648688554764, 0.005090177990496159, -0.07842648029327393, 0.0518193282186985, 0.06430335342884064, 0.06379137188196182, 0.09438908845186234, 0.044416122138500214, 0.01444459892809391, 0.012766380794346333, 0.06546545028686523, 0.004369089379906654, 0.032258570194244385, -0.06218486279249191, -0.0033715590834617615, 0.06240246444940567, 0.04791583865880966, -0.0077198646031320095, 0.026854468509554863, -0.08078693598508835, 0.0013788979267701507, 0.10497734695672989, -0.09312037378549576, 0.04877909645438194, 0.04590778052806854, 0.0593121238052845, -0.03899045288562775, 0.06348608434200287, 0.11238890886306763, -0.03104453533887863, 0.008384132757782936, 0.01809913106262684, 0.03699642792344093, 0.012368719093501568, 0.061115991324186325, 0.07824292033910751, 0.08552156388759613, 0.05497223883867264, 0.05447288602590561, 0.07446665316820145, 0.08438118547201157, -0.07983604073524475, 0.07452960312366486, 0.030544854700565338, 0.08981410413980484, -0.042996663600206375, -0.07806909829378128, -0.05753959342837334, -0.03695463016629219, 0.009994164109230042, 0.009309062734246254, 0.03669283539056778, -0.05044868215918541, -0.0023762790951877832, 0.07755900174379349, 0.05604224279522896, -0.016437562182545662, 0.10595779120922089, -0.07269607484340668, 0.027556756511330605, -0.06869077682495117, 0.036293551325798035, -0.08444014936685562, -0.05909329652786255, -0.09816571325063705, 0.015930060297250748, -0.05315425619482994, 0.08452876657247543, -0.0415029413998127, -0.005169010255485773, 0.06819482892751694], [-0.10424219071865082, 0.05676884576678276, 0.00578960170969367, -0.03215176239609718, -0.056750133633613586, -0.03872722014784813, -0.05536654219031334, -0.07898678630590439, -0.058010708540678024, -0.09031098335981369, 0.07548025995492935, -0.09494666010141373, -0.0369766540825367, -0.050465673208236694, -0.0024575439747422934, -0.09467075020074844, -0.036903440952301025, -0.00581827899441123, 0.04923319071531296, 0.034605368971824646, -0.08916791528463364, -0.09723620861768723, 0.05539124086499214, -0.003378696972504258, 0.0797743946313858, -0.039931681007146835, 0.003997838590294123, 0.010782182216644287, 0.06068834289908409, 0.003729270538315177, -0.08114192634820938, 0.015788696706295013, -0.08956749737262726, 0.008557249791920185, 0.056720491498708725, -0.07247646152973175, 0.055938318371772766, 0.019892124459147453, 0.03652400150895119, -0.020107069984078407, -0.053958866745233536, 0.007323006168007851, 0.05415987968444824, -0.09501573443412781, 0.008540813811123371, 0.056950852274894714, -0.05167040973901749, 0.0901200994849205, -0.0005801495281048119, 0.0497262217104435, 0.07244860380887985, 0.028769798576831818, -0.04485156014561653, -0.03393836319446564, 0.021888218820095062, 0.003673507831990719, 0.04650554060935974, -0.08915270864963531, 0.07621918618679047, 0.047171350568532944, 0.04053480178117752, 0.050401657819747925, -0.037542399019002914, 0.03529272973537445, -0.0527084618806839, 0.04256489500403404, 0.06580405682325363, -0.0006187339313328266, -0.09106751531362534, -0.043839965015649796, -0.023479556664824486, 0.051365043967962265, -0.008027012459933758, 0.07899114489555359, -0.03869274631142616, 0.00498919514939189, -0.06240128353238106, -0.09767122566699982, -0.06671550124883652, -0.07989849895238876, 0.08023027330636978, -0.04008682817220688, 0.04915577545762062, 0.08572296798229218, -0.04614553973078728, 0.025510981678962708, 0.05284347012639046, 0.08705552667379379, 0.0972856804728508, 0.040150728076696396, 0.08678362518548965, 0.050174929201602936, -0.07580744475126266, -0.06159559637308121, 0.04338676854968071, -0.03015434741973877, -0.049621593207120895, 0.006173372268676758, -0.06348162144422531, -0.06410298496484756], [0.08053086698055267, 0.1107548251748085, 0.05041719973087311, 0.032074764370918274, 0.07718658447265625, -0.05305137857794762, -0.09130747616291046, -0.06980814784765244, -0.009653174318373203, -0.05217544734477997, 0.03344976156949997, -0.03041694313287735, -0.05111485347151756, -0.07518991082906723, -0.06231130659580231, -0.002053236123174429, 0.10089299827814102, 0.000679892604239285, -0.0825657993555069, -0.030943093821406364, -0.07183967530727386, -0.0678679570555687, 0.05533924326300621, -0.07161059230566025, -0.005839788820594549, -0.09435578435659409, 0.08194518834352493, 0.01761910319328308, -0.05432894825935364, 0.12064410001039505, 0.08496683835983276, 0.08385231345891953, 0.05506694316864014, 0.00068191799800843, -0.07721422612667084, -0.015018236823379993, 0.05884538218379021, -0.06718099117279053, 0.05508136749267578, -0.037890415638685226, 0.05563567206263542, 0.05736716836690903, 0.0293569453060627, 0.058739833533763885, 0.04313281178474426, 0.07531153410673141, 0.10250839591026306, 0.04013236239552498, 0.061436641961336136, -0.0604238361120224, 0.06049881875514984, -0.010426992550492287, -0.06293068826198578, -0.047169409692287445, -0.11608847975730896, 0.01900356635451317, 0.09493615478277206, 0.022174149751663208, 0.06421253830194473, -0.03063095360994339, 0.06699181348085403, 0.08329475671052933, 0.060437560081481934, 0.08201471716165543, -0.09036225825548172, 0.01437763124704361, -0.0663003921508789, 0.04921712726354599, 0.032637130469083786, -0.057158954441547394, -0.06652019172906876, -0.08393994718790054, 0.02725822664797306, -0.08729300647974014, 0.08656288683414459, -0.050686873495578766, 0.03645589202642441, 0.03706606477499008, 0.014060390181839466, 0.022149158641695976, 0.05032718926668167, 0.0010480473283678293, -0.04500626400113106, 0.04079432412981987, -0.0496111735701561, 0.031943611800670624, -0.09725747257471085, 0.04179532825946808, 0.02319573052227497, 0.0895855575799942, 0.01247498206794262, -0.0048067099414765835, -0.045782629400491714, 0.049067653715610504, 0.08783137798309326, -0.09266885370016098, -0.02528933249413967, -0.09701593965291977, -0.03554943948984146, -0.06979291886091232], [-0.02454686351120472, -0.05789942294359207, -0.015930840745568275, -0.09522997587919235, 0.03924332931637764, -0.07546444982290268, -0.004821239039301872, 0.009475864470005035, 0.0647977963089943, 0.012586276978254318, -0.0016486786771565676, 0.0727982372045517, -0.038286156952381134, 0.0188030656427145, 0.0005396431661210954, -0.037709809839725494, -0.06064237281680107, -0.07498015463352203, -0.03645316883921623, -0.05511179193854332, -0.05733329430222511, -0.0762128233909607, -0.07474533468484879, -0.06581268459558487, -0.03775889053940773, -0.01564944162964821, -0.07327347993850708, 0.0635078176856041, -0.09920668601989746, 0.06902262568473816, 0.07156599313020706, 0.010157027281820774, -0.0939364805817604, -0.006944827735424042, 0.023778222501277924, 0.02264964021742344, 0.04498441889882088, -0.03919723257422447, -0.059911083430051804, -0.07404756546020508, -0.0793376937508583, 0.013040941208600998, -0.009016107767820358, -0.005031469743698835, 0.10365123301744461, -0.061380982398986816, -0.07068133354187012, 0.05834509804844856, 0.0822761058807373, -0.06624238938093185, -0.018254803493618965, -0.052320633083581924, -0.028284510597586632, -0.07105416804552078, 0.06363329291343689, 0.04253528267145157, -0.06116070970892906, 0.08679468929767609, 0.07555191963911057, -0.0009015881805680692, -0.003757108934223652, 0.026739617809653282, 0.07103080302476883, -0.015608962625265121, 0.019343648105859756, -0.06025238707661629, -0.026762789115309715, -0.07846676558256149, -0.015676986426115036, -0.04750458151102066, 0.07530788332223892, -0.01221921294927597, 0.04967916011810303, -0.047628674656152725, 0.11554268002510071, -0.033430349081754684, -0.0014066731091588736, -0.0429057851433754, -0.08336581289768219, 0.04907672852277756, -0.08144581317901611, 0.00817160215228796, -0.057447802275419235, -0.031851526349782944, -0.010415490716695786, 0.07873748242855072, -0.06963416188955307, 0.07913745939731598, 0.026057999581098557, -0.03200444206595421, 0.07122980058193207, -0.07508980482816696, -0.04195190966129303, 0.012610306963324547, 0.10148636996746063, -0.035056233406066895, -0.0726766511797905, -0.06856099516153336, 0.04628041014075279, -0.016277505084872246], [0.08773090690374374, -0.08981237560510635, -0.06360912322998047, 0.07826252281665802, 0.008729343302547932, 0.001130416407249868, 0.04020538181066513, 0.056235067546367645, 0.015169254504144192, 0.013211376965045929, -0.11256355792284012, -0.01921764388680458, -0.06505905836820602, 0.009910902939736843, -0.0053578633815050125, -0.039924003183841705, 0.015219151973724365, -0.055700432509183884, 0.07308758050203323, 0.024447977542877197, 0.037254806607961655, -0.09939520806074142, -0.005574757233262062, -0.01828780584037304, -0.10149432718753815, -0.0260984655469656, 0.037493664771318436, -0.07770810276269913, 0.04627394303679466, 0.04615336284041405, -0.0858393982052803, -0.131765678524971, -0.11865826696157455, -0.05345792695879936, -0.10061660408973694, 0.039504554122686386, -0.09159182012081146, -0.05623776093125343, 0.07494060695171356, 0.01953391544520855, -0.0022878949530422688, 0.06423837691545486, -0.042239174246788025, 0.05879297852516174, -0.07744602113962173, 0.004900065250694752, -0.02214992791414261, 0.04464389383792877, -0.09018944948911667, 0.07976878434419632, 0.10462021082639694, 0.09354276210069656, 0.02527260035276413, -0.09236627072095871, -0.07909552752971649, 0.10293897241353989, -0.05558037385344505, -0.09405184537172318, -0.06623011827468872, -0.030583523213863373, -0.09198760241270065, -0.07066430896520615, -0.029133668169379234, -0.07703837007284164, 0.03153404965996742, 0.014184821397066116, -0.00775844044983387, -0.06921693682670593, -0.07474735379219055, -0.08504136651754379, 0.03792508691549301, 0.03108295239508152, -0.08959627151489258, -0.008891338482499123, 0.01085331104695797, 0.05673310533165932, 0.027557237073779106, -0.05884578451514244, -0.05666355416178703, -0.06088820844888687, 0.009812905453145504, 0.010546118952333927, -0.010924221947789192, 0.010956755839288235, 0.029425861313939095, 0.05279538780450821, 0.0640687420964241, -0.08088003844022751, -0.08179521560668945, -0.07382184267044067, 0.008688073605298996, 0.04196322709321976, 0.04658056050539017, -0.02755722776055336, -0.03292205557227135, 0.058817099779844284, 0.06903195381164551, 0.04194590076804161, 0.04726914316415787, 0.03612980991601944], [0.010461080819368362, -0.0615239255130291, -0.046060800552368164, -0.009977095760405064, 0.0017333150608465075, 0.032474584877491, 0.04725195840001106, -0.02570350281894207, -0.0031885518692433834, -0.007777289487421513, -0.04497796669602394, -0.03750671073794365, -0.0683516263961792, -0.09939068555831909, -0.03523881733417511, -0.039155442267656326, -0.05186493322253227, 0.024294361472129822, 0.04792342334985733, -0.09320638328790665, 0.09386993944644928, 0.0593191497027874, -0.09666699171066284, 0.019058218225836754, 0.08439040184020996, 0.00740260211750865, -0.09752074629068375, -0.05977354198694229, -0.08299534767866135, 0.043593842536211014, -0.041807666420936584, -0.06573392450809479, 0.0974610447883606, -0.04561448097229004, 0.0068935249000787735, 0.05146345868706703, 0.02812296710908413, 0.09019655734300613, -0.08043418079614639, -0.09161776304244995, 0.07773486524820328, 0.05176478624343872, 0.06825483590364456, 0.03268291801214218, 0.0018502646125853062, -0.0582016222178936, -0.04760989174246788, -0.020799851045012474, 0.09707383066415787, 0.01973000168800354, -0.05835266038775444, 0.101582832634449, -0.07841107994318008, -0.02127990871667862, -0.03921692445874214, -0.06291891634464264, -0.07196079939603806, -0.07667458057403564, 0.04070934280753136, -0.03983255848288536, -0.08267024904489517, 0.04120057076215744, -0.09789592027664185, -0.04570865258574486, 0.08292710781097412, -0.039847232401371, 0.034882448613643646, -0.012396037578582764, 0.07673531770706177, 0.08457521349191666, 0.06773214042186737, 0.013049961999058723, -0.029740402474999428, 0.06235470622777939, -0.04781046137213707, 0.033692628145217896, -0.03304622322320938, 0.06692994385957718, -0.005367673002183437, -0.09301817417144775, -0.011696564964950085, -0.07902000099420547, -0.0472901351749897, -0.025620875880122185, -0.09283709526062012, 0.110529825091362, -0.05742759630084038, -0.005543196108192205, 0.026381894946098328, -0.039361368864774704, -0.07133223116397858, -0.05862157419323921, 0.022996360436081886, 0.03553216531872749, 0.10047146677970886, 0.05306267365813255, -0.053986456245183945, -0.09496064484119415, -0.041056979447603226, 0.08132217079401016], [0.06377521902322769, -0.020341159775853157, -0.016209905967116356, 0.08919043093919754, -0.028803851455450058, -0.03680863976478577, -0.006492171436548233, -0.024843940511345863, -0.08724891394376755, 0.07455417513847351, -0.04927007481455803, 0.01093324925750494, 0.008542455732822418, 0.07201291620731354, -0.027888042852282524, -0.09696650505065918, -0.050326909869909286, 0.02857557125389576, 0.10439861565828323, -0.023219430819153786, -0.07466083765029907, 0.08205147087574005, 0.04034624993801117, 0.09834140539169312, 0.0647612139582634, -0.03559497743844986, -0.04341283068060875, 0.038646455854177475, -0.03989788889884949, -0.01748047024011612, 0.0006507698562927544, 0.08885520696640015, 0.005077307112514973, 0.059819165617227554, -0.10528108477592468, 0.014982249587774277, 0.08691393584012985, 0.01819249987602234, -0.011041299439966679, 0.06437819451093674, -0.02093854360282421, -0.0464911125600338, 0.014968153089284897, -0.08338330686092377, 0.017638061195611954, -0.058712031692266464, 0.09060107171535492, 0.029519222676753998, 0.027763545513153076, 0.06995302438735962, -0.07452911138534546, -0.04238968715071678, -0.03133402764797211, 0.08832555264234543, 0.005358314141631126, 0.021743880584836006, -0.04042088985443115, -0.005857569165527821, -0.06261014938354492, 0.0570717453956604, 0.03761492297053337, 0.08819253742694855, 0.08882995694875717, 0.0053953793831169605, 0.07623152434825897, 0.0828254297375679, 0.01788242720067501, -0.02541309781372547, 0.027580106630921364, -0.09006097167730331, 0.12104777246713638, 0.08718137443065643, 0.029395367950201035, -0.07555176317691803, -0.050861332565546036, -0.0035022259689867496, 0.08311282098293304, 0.09802890568971634, -0.05500340461730957, -0.02124992571771145, -0.04659643396735191, 0.08229812979698181, 0.06276430934667587, -0.020474333316087723, 0.04685601592063904, 0.0316925086081028, 0.022929273545742035, 0.030675113201141357, 0.05605049058794975, 0.08750403672456741, -0.02189864031970501, -0.045272257179021835, -0.0006158043397590518, -0.09049145877361298, 0.05777309089899063, -0.06157444790005684, 0.058678869158029556, 0.07363543659448624, 0.052485909312963486, 0.004804110620170832], [0.004656089469790459, -0.08136338740587234, -0.040732014924287796, 0.06490391492843628, -0.038058578968048096, -0.09941863268613815, -0.021041203290224075, -0.08011776208877563, -0.03843705728650093, 0.052012600004673004, -0.030747845768928528, -0.08776788413524628, 0.09655191749334335, -0.0353936105966568, 0.04294301196932793, 0.05888861045241356, 0.07887155562639236, -0.07261969149112701, -0.09267758578062057, -0.0678180456161499, -0.06966747343540192, 0.050359271466732025, -0.06386314332485199, 0.012812450528144836, -0.021698543801903725, -0.06285488605499268, -0.086625836789608, -0.08628398180007935, -0.07793208211660385, -0.02838163822889328, -0.08812238276004791, -0.010469396598637104, 0.02203545533120632, -0.06723849475383759, 0.0934765562415123, 0.08469538390636444, -0.032481707632541656, -0.0483735054731369, 0.03667451813817024, 0.012122188694775105, -0.08350606262683868, -0.09184834361076355, -0.06996914744377136, 0.06108490750193596, 0.015577219426631927, -0.06556957960128784, -0.008903766050934792, -0.051308177411556244, -0.03676176443696022, 0.038847699761390686, -0.030977463349699974, 0.07213509827852249, -0.0005289676482789218, -0.08148469775915146, 0.016931457445025444, 0.013442383147776127, -0.021973954513669014, 0.11116107553243637, 0.07230134308338165, 0.006335953716188669, 0.01616748608648777, 0.05050110071897507, 0.009990153834223747, 0.0643019825220108, 0.012387889437377453, 0.017918765544891357, -0.030533883720636368, 0.07378533482551575, -0.023308265954256058, 0.02708251401782036, 0.002032664604485035, -0.06014711409807205, 0.0079380813986063, -0.0005260998732410371, -0.02875669114291668, 0.07036928087472916, 0.019008949398994446, -0.04075360670685768, -0.07955986261367798, 0.05499006435275078, 8.83147440617904e-05, -0.03422333300113678, -0.08627887070178986, -0.054482486099004745, -0.011128121055662632, 0.07586396485567093, 0.07692635804414749, 0.011445636861026287, 0.045632749795913696, -0.09258778393268585, 0.0963457003235817, -0.023002682253718376, -0.07843686640262604, -0.06917812675237656, -0.0891023650765419, 0.0909985899925232, 0.03283553570508957, 0.03397822380065918, 0.052418243139982224, -0.03416925668716431], [0.060050442814826965, 0.0643240287899971, 0.07502082735300064, -0.0008272051927633584, 0.0799253061413765, 0.06142235919833183, -0.04089833423495293, -0.033230043947696686, -0.08901531994342804, 0.029177268967032433, 0.05558811128139496, -0.07718764990568161, -0.0103953517973423, -0.049886226654052734, 0.11577872186899185, 0.02430868148803711, -0.0954456552863121, 0.07752639055252075, 0.013448826037347317, 0.03031747043132782, -0.03348167985677719, -0.0781111866235733, -0.0009100062889046967, 0.04718028008937836, 0.022728141397237778, -0.08530167490243912, -0.07360222190618515, 0.03226499632000923, 0.021857229992747307, 0.09281806647777557, 0.059688322246074677, 0.09071385860443115, 0.09671253710985184, 0.03609044849872589, -0.05795137956738472, -0.012508691288530827, -0.09152181446552277, -0.06963878124952316, -0.07859160006046295, 0.04903801158070564, 0.017614087089896202, -0.08440583944320679, 0.052969396114349365, -0.04051501303911209, 0.062057916074991226, 0.037096645683050156, 0.08145002275705338, 0.04836773872375488, -0.02218308486044407, -0.012763681821525097, 0.006485731806606054, 0.014757064171135426, 0.12881267070770264, -0.08290230482816696, 0.06885261088609695, 0.061779871582984924, -0.07287899404764175, -0.004275843966752291, 0.00684583093971014, 0.009150254540145397, 0.08264636993408203, 0.01770728826522827, 0.07294981926679611, 0.07071442157030106, 0.03402543440461159, -0.044291261583566666, -0.0303282979875803, -0.0480714812874794, -0.03432166576385498, -0.05457202345132828, 0.10194465517997742, -0.04593571648001671, -0.01284217368811369, -0.09948767721652985, 0.08284866809844971, 0.02391119673848152, -0.029503965750336647, 0.10057063400745392, 0.00692517776042223, 0.06889539211988449, 0.03772875294089317, 0.08597801625728607, -0.005861175246536732, -0.05927152559161186, 0.048050787299871445, -0.051014430820941925, 0.08123259991407394, -0.0672006830573082, -0.06670379638671875, -0.0576208122074604, 0.03718140721321106, 0.0034100934863090515, -0.05030016228556633, 0.031000956892967224, 0.006430112756788731, 0.06633662432432175, -0.047099996358156204, -0.032937850803136826, 0.06477516144514084, -0.03766898065805435], [-0.06533175706863403, -0.04565945640206337, 0.021100938320159912, -0.06715477257966995, 0.027091538533568382, -0.0656777173280716, 0.05205421522259712, -0.05015379190444946, 0.02617437019944191, 0.030831478536128998, 0.00697663426399231, 0.019261077046394348, 0.04407237842679024, 0.021165616810321808, 0.027738455682992935, 0.06916966289281845, 0.06887684017419815, 0.10086512565612793, 0.01550824660807848, 0.04345511645078659, -0.08336306363344193, 0.0050070760771632195, -0.02696884050965309, 0.05885729566216469, -0.07053344696760178, -0.061155978590250015, -0.03340877592563629, 0.06095147877931595, 0.008342361077666283, -0.04093573987483978, 0.043401941657066345, -0.09491650760173798, -0.04263114929199219, -0.04443381726741791, 0.07648962736129761, -0.03175025433301926, -0.06630879640579224, -0.014613061212003231, -0.0009144357754848897, -0.041227709501981735, 0.10016173869371414, 0.005795193836092949, -0.052012305706739426, -0.04699287563562393, 0.04337666183710098, -0.03380678966641426, 0.061638545244932175, -0.10273085534572601, -0.017473585903644562, -0.05084247142076492, 0.05136185139417648, 0.0327034629881382, -0.01778304949402809, 0.03901844844222069, 0.006247890647500753, -0.0702873021364212, -0.059770308434963226, 0.10266509652137756, -0.014744380488991737, -0.04795902594923973, 0.004159558564424515, -0.06303426623344421, 0.061836399137973785, -0.04859648272395134, -0.02280796505510807, 0.0664990171790123, 0.07637013494968414, -0.0907958522439003, -0.06861759722232819, 0.014320644550025463, -0.09619205445051193, -0.039571814239025116, 0.09669739007949829, 0.04464412480592728, 0.02812589704990387, 0.05064572021365166, 0.03647289052605629, 0.07792025059461594, -0.023138586431741714, -0.02380986325442791, -0.0865093395113945, 0.03454123064875603, 0.02035938948392868, -0.02770712971687317, 0.03606264665722847, -0.09252958744764328, -0.055633556097745895, -0.05239078402519226, 0.09177549183368683, 0.021279586479067802, 0.06088237464427948, -0.09892988204956055, -0.07907887548208237, -0.03984598442912102, 0.034462399780750275, -0.002141892910003662, -0.07935799658298492, 0.039494048804044724, -0.05592979118227959, 0.07686495035886765], [0.015199052169919014, -0.030789360404014587, -0.054456572979688644, 0.044908128678798676, 0.04193772375583649, 0.02512078545987606, -0.06454303860664368, 0.05505818501114845, -0.03570721670985222, 0.053467512130737305, -0.04153899475932121, 0.0294045340269804, 0.031670890748500824, 0.06364824622869492, -0.03628447279334068, -0.03921540454030037, 0.08661862462759018, 0.07533573359251022, 0.037237316370010376, -0.08224105834960938, 0.01840364746749401, 0.05525163188576698, -0.04934358596801758, -0.06102658063173294, -0.07805480062961578, -0.09218289703130722, -0.055047936737537384, 0.05063939839601517, 0.075875423848629, 0.0437302440404892, -0.014616760425269604, -0.06538478285074234, 0.04540684074163437, -0.049670640379190445, 0.046694815158843994, -0.02791094221174717, -0.04160226881504059, -0.08243415504693985, -0.008551424369215965, 0.0678916722536087, 0.058867279440164566, 0.019955230876803398, 0.04834708571434021, 0.09728946536779404, 0.05232882872223854, 0.0247467253357172, -0.07239256054162979, 0.04937645420432091, 0.06398537009954453, 0.028465893119573593, 0.07494232058525085, -0.10963393747806549, -0.0037817920092493296, 0.10919278115034103, -0.03508346900343895, 0.07387357205152512, 0.001140764681622386, 0.04931289702653885, 0.08622363209724426, 0.07792140543460846, 0.06496529281139374, 0.06610304862260818, -0.016699688509106636, 0.06681382656097412, 0.09037700295448303, 0.00882550049573183, 0.08461467921733856, -0.031372930854558945, 0.026880720630288124, 0.03322293981909752, -0.054784342646598816, 0.12724925577640533, 0.0562363937497139, 0.03167974576354027, -0.039868079125881195, -0.0032324360217899084, -0.08034875243902206, 0.09287935495376587, -0.07754208147525787, 0.0657072439789772, -0.06798361241817474, 0.06056594103574753, 0.04315483570098877, -0.029817555099725723, -0.07207547128200531, -0.024295378476381302, 0.046761445701122284, 0.022981856018304825, 0.08796428889036179, 0.025190895423293114, -0.029735589399933815, -0.04281394183635712, 0.010359949432313442, -0.0639798566699028, -0.06021081656217575, -0.08917210251092911, 0.05257401242852211, 0.1016569435596466, -0.05669952556490898, -0.05250953510403633], [0.10233421623706818, -0.04914870485663414, -0.10252387076616287, -0.055961236357688904, 0.006744257640093565, -0.0162303876131773, 0.03696403652429581, -0.02202235534787178, 0.07507931441068649, -0.06276125460863113, -0.04976414144039154, -0.04275297001004219, 0.005982867442071438, -0.06108781695365906, 0.021292125806212425, 0.0877595767378807, 0.03052891604602337, -0.02346496470272541, -0.04958822950720787, 0.05197111517190933, 0.015254547819495201, 0.09321725368499756, -0.01087029930204153, -0.03465219587087631, -0.0018004562007263303, -0.06079474464058876, 0.016535712406039238, 0.05628187209367752, 0.03488923981785774, 0.06285953521728516, 0.048017051070928574, 0.038024090230464935, 0.0678648129105568, -0.04102465882897377, 0.037416405975818634, -0.09069317579269409, 0.025645241141319275, -0.04028233885765076, -0.02114502340555191, 0.09025353938341141, 0.0669289380311966, 0.06388570368289948, 0.06717327237129211, 0.0602884516119957, 0.01573142409324646, 0.006697670556604862, 0.06497947126626968, -0.009282379411160946, -0.04883487895131111, 0.05362778902053833, 0.011229779571294785, -0.03741326555609703, -0.0633920356631279, -0.050487346947193146, 0.07793320715427399, 0.02429335191845894, -0.06891576200723648, 0.02459855005145073, -0.01460637804120779, -0.0010255691595375538, -0.07778266072273254, 0.03727706894278526, 0.010664016008377075, -0.11465603858232498, 0.07952707260847092, 0.01461831945925951, 0.018944894894957542, 0.06173102185130119, -0.03745642304420471, -0.10220025479793549, -0.0437186174094677, 0.0333552211523056, -0.024707823991775513, -0.018834415823221207, 0.0334666408598423, -0.007921774871647358, -0.051752347499132156, -0.07011522352695465, 0.05684588849544525, -0.04599656164646149, 0.05609425902366638, -0.060927219688892365, -0.08841542899608612, -0.03193020820617676, 0.05017144978046417, 0.023425890132784843, 0.10212039947509766, 0.0899132490158081, 0.08121518790721893, 0.08041173964738846, -0.08844083547592163, 0.0574302040040493, -0.034222595393657684, -0.09423403441905975, 0.0232941135764122, 0.002611661097034812, 0.07661723345518112, 0.011820162646472454, -0.01612762175500393, 0.009204304777085781], [0.03274611011147499, 0.05634729564189911, 0.061910614371299744, -0.06546630710363388, 0.05362152308225632, -0.02435920573771, -0.017999868839979172, 0.05459820479154587, -0.0718616470694542, -0.08409470319747925, 0.005369171034544706, -0.03563198074698448, -0.02375468984246254, 0.07812026888132095, 0.004987191874533892, -0.08856360614299774, -0.018655844032764435, 0.021061832085251808, 0.010512687265872955, 0.0720858946442604, 0.018205266445875168, 0.027946284040808678, 0.015155037865042686, 0.11055262386798859, -0.07975150644779205, -0.09564540535211563, -0.020266322419047356, 0.07056578993797302, -0.06738582253456116, -0.03243859484791756, 0.027180086821317673, -0.08903653174638748, 0.0914667472243309, 0.04809720441699028, -0.003810436464846134, -0.028237098827958107, -0.0695272833108902, 0.014828813262283802, -0.0296876672655344, -0.07819550484418869, -0.0365498811006546, -0.03647901862859726, -0.009618709795176983, 0.04945865273475647, 0.047510650008916855, -0.08267337828874588, 0.031521353870630264, -0.07889523357152939, -0.020364893600344658, -0.01676296442747116, -0.08150520920753479, -0.0723080039024353, -0.04972769692540169, -0.06156603991985321, -0.0007592445472255349, -0.054503362625837326, 0.04557954892516136, 0.05310046300292015, -0.05369461327791214, -0.09537328779697418, -0.0009137147571891546, 0.03745754063129425, -0.01269575860351324, 0.07624238729476929, 0.10265079140663147, 0.07646685093641281, -0.09285672754049301, 0.013843086548149586, -0.011970007792115211, 0.010848009958863258, 0.03010844998061657, -0.07049509882926941, -0.08819887787103653, -0.033556193113327026, 0.0604076161980629, -0.05882451683282852, 0.04284681752324104, 0.07959198206663132, 0.06474805623292923, -0.0028469583485275507, 0.061018235981464386, 0.023473232984542847, -0.09580681473016739, 0.04287014901638031, -0.0809294804930687, 0.07119744271039963, -0.09125927090644836, 0.01672823168337345, 0.019501717761158943, -0.09211678057909012, -0.026052983477711678, -0.04201839119195938, 0.06611861288547516, 0.11174606531858444, -0.03751574084162712, 0.050559040158987045, -0.06690963357686996, 0.010351204313337803, -0.08236352354288101, 0.0410480871796608], [-0.025264810770750046, 0.01654685288667679, 0.11647071689367294, -0.09591683000326157, 0.08108695596456528, 0.09811322391033173, 0.010304323397576809, 0.08656688779592514, 0.07127854973077774, 0.014294003136456013, -0.027683474123477936, -0.07323848456144333, -0.053558796644210815, 0.03067018836736679, 0.02979445457458496, -0.047221407294273376, -0.08215123414993286, -0.029823075979948044, 0.030000122264027596, -0.07318128645420074, 0.02262241393327713, 0.0744408369064331, -0.08609931915998459, -0.08729816228151321, -0.006133316550403833, -0.08861779421567917, -0.08776967972517014, -0.03209871053695679, -0.0037515631411224604, -0.08678372204303741, -0.04751408472657204, -0.0587460994720459, -0.05348369851708412, -0.09414773434400558, 0.011945422738790512, 0.09667107462882996, -0.08087503165006638, -0.06579015403985977, 0.00974341668188572, 0.0902271419763565, 0.020726896822452545, -0.05709289386868477, 0.05437725409865379, -0.05651484429836273, 0.014949844218790531, 0.001341540366411209, -0.06420868635177612, 0.0007096886984072626, -0.012741136364638805, 0.04478834569454193, -0.030273571610450745, -0.00395949836820364, -0.09562826156616211, 0.004443233832716942, 0.09303543716669083, 0.03924660384654999, 0.020601609721779823, -0.0086345374584198, -0.093149833381176, 0.07764064520597458, -0.042110927402973175, -0.08276072889566422, 0.07784610986709595, 0.042556729167699814, -0.09886299073696136, -0.03438563272356987, -0.01582895964384079, -0.005849716253578663, -0.06021910905838013, -0.016332779079675674, -0.00015210482524707913, 0.008790520951151848, 0.08532994240522385, -0.024015141651034355, -0.022001251578330994, -0.048097457736730576, -0.01892806403338909, -0.07351922243833542, 0.017278771847486496, -0.03769863769412041, -0.004598026629537344, -0.0800529271364212, -0.06179920583963394, -0.03131113573908806, -2.642604522407055e-05, 0.04427118971943855, 0.10317832976579666, -0.053102076053619385, -0.052289851009845734, 0.0895732045173645, 0.022307192906737328, 0.05032242462038994, -0.07250592857599258, -0.06888709962368011, 0.06650234758853912, -0.09616690129041672, -0.002479719929397106, -0.0781145840883255, -0.06569012254476547, 0.042043495923280716], [-0.010657978244125843, 0.024454010650515556, -0.08964885026216507, -0.01992463693022728, 0.11750860512256622, 0.009988144040107727, -0.06094277277588844, -0.0827808752655983, -0.04352053627371788, -0.09123244136571884, 0.04072656109929085, -0.01567765884101391, -0.049179691821336746, 0.01914875954389572, 0.025816097855567932, -0.013349292799830437, 0.029192909598350525, -0.014640651643276215, 0.04795701429247856, 0.06587470322847366, 0.034662190824747086, -0.04778841510415077, -0.012344575487077236, -0.07767173647880554, 0.05209241807460785, 0.06079522520303726, -0.044050104916095734, 0.08975527435541153, -0.056055035442113876, 0.0546145997941494, 0.04650439694523811, 0.0711958110332489, 0.047668032348155975, 0.08255370706319809, -0.06917501986026764, 0.07096001505851746, 0.04223613068461418, -0.02919153682887554, 0.055132247507572174, -0.05822792276740074, -0.0036158314906060696, -0.0706779733300209, 0.027672888711094856, -0.08536875247955322, 0.06601563841104507, 0.05697694420814514, -0.03389117121696472, 0.04714720696210861, -0.08951098471879959, 0.046856414526700974, 0.0343337245285511, -0.009292150847613811, -0.052615318447351456, -0.045920200645923615, 0.06341354548931122, -0.026684533804655075, -0.03001038171350956, 0.011221089400351048, -0.019588125869631767, 0.08240192383527756, -0.07412879914045334, 0.0866379514336586, -0.07629720866680145, -0.0880962535738945, 0.028678493574261665, 0.04264020174741745, -0.01076512411236763, 0.053262870758771896, 0.0012616753811016679, -0.001768910908140242, 0.06512566655874252, 0.08630126714706421, 0.07019173353910446, 0.07707450538873672, -0.09634658694267273, -0.02794756554067135, 0.007521807681769133, -0.04218912124633789, -0.04170326143503189, 0.07498208433389664, -0.07446577399969101, -0.05379723384976387, 0.02594144269824028, 0.06248988211154938, 0.0018822249257937074, -0.04103243350982666, 0.0320916622877121, -0.07320934534072876, 0.10603242367506027, 0.07905399054288864, -0.09419228136539459, 0.013345804065465927, 0.06523175537586212, -0.04515433311462402, -0.07871555536985397, -0.040293749421834946, -0.051961857825517654, -0.040267810225486755, -0.025300050154328346, 0.05059056356549263], [0.009447743184864521, -0.11234114319086075, -0.04874103516340256, 0.07504155486822128, 0.01416818704456091, -0.06853245943784714, 0.014307254925370216, 0.07704558223485947, 0.028295885771512985, -0.012390226125717163, 0.048320017755031586, 0.03535054251551628, -0.0485241524875164, 0.028833206743001938, -0.08370830118656158, -2.6327041268814355e-05, -0.019450310617685318, -0.004446621518582106, 0.07978712767362595, -0.06838920712471008, -0.04904766008257866, -0.019618580117821693, -0.036021359264850616, -0.03425785154104233, -0.09563157707452774, 0.057573240250349045, 0.0897984430193901, 0.05129239708185196, -0.07823887467384338, 0.08383118361234665, 0.03594764694571495, -0.06829564273357391, 0.05317074432969093, 0.011088288389146328, -0.07291613519191742, -0.030013926327228546, -0.04057231917977333, -0.03230508789420128, 0.016541192308068275, 0.0473109595477581, 0.03436163440346718, -0.10457570850849152, -0.007321827579289675, -0.06489264965057373, -0.08655097335577011, -0.09998496621847153, -0.0460355170071125, -0.013410805724561214, 0.06224396824836731, -0.059914059937000275, -0.006760141812264919, 0.04205336049199104, -0.03223820775747299, -0.06642525643110275, -0.07574725896120071, 0.04730059206485748, -0.10691697895526886, -0.0799710676074028, 0.05942251533269882, 0.04318105801939964, -0.07562754303216934, -0.08132898062467575, -0.08475499600172043, 0.027525611221790314, -0.06746474653482437, 0.09908758848905563, -0.016278279945254326, -0.050943773239851, 0.0739855244755745, 0.01787952333688736, 0.01500501949340105, 0.0387292355298996, 0.02231374941766262, 0.06770677119493484, 0.0479036308825016, -0.06300827860832214, -0.08659015595912933, -0.07949791848659515, -0.015335384756326675, -0.06797908246517181, -0.01813618838787079, -0.008946072310209274, 0.05351490527391434, 0.09272649139165878, -0.014764026738703251, 0.07000856101512909, -0.09231266379356384, -0.01097631361335516, -0.07063378393650055, 0.06454569101333618, 0.08622841536998749, -0.08705399185419083, 0.007781888823956251, 0.03621472045779228, -0.0651135966181755, -0.003849772736430168, 0.0633186399936676, -0.09829632192850113, -0.058922626078128815, -0.054417919367551804], [0.053028978407382965, -0.060582440346479416, 0.036532774567604065, 0.029070330783724785, -0.039743661880493164, 0.023531222715973854, -0.03221740946173668, 0.016227293759584427, 0.06680535525083542, 0.09989796578884125, 0.05695516616106033, -0.09627979248762131, 0.06585362553596497, 0.11240693181753159, -0.0961143746972084, -0.03506515547633171, 0.06723035126924515, 0.03830332309007645, -0.04839494451880455, 0.07134556025266647, -0.03405556082725525, -0.08986709266901016, 0.012888960540294647, -0.06453756242990494, -0.0049991607666015625, 0.035827796906232834, -0.01600726693868637, -0.0535379983484745, 0.04153510928153992, -0.09745407104492188, 0.01416090875864029, -0.05051858350634575, 0.09719526767730713, -0.013568702153861523, -0.015150177292525768, 0.001959425862878561, 0.015422729775309563, 0.0668492540717125, 0.09957871586084366, 0.011213632300496101, -0.006938155274838209, 0.04805349186062813, 0.07330021262168884, 0.0739399716258049, 0.028592344373464584, -0.03649291768670082, -0.0866297036409378, 0.0071856616996228695, -0.079664446413517, 0.023486299440264702, 0.10820051282644272, 0.005645733326673508, 0.07980892062187195, -0.07693876326084137, -0.04319094866514206, -0.044664639979600906, 0.011595034971833229, -0.02393827959895134, -0.02588557079434395, 0.004762907512485981, 0.046760573983192444, 0.05119558051228523, 0.012202223762869835, -0.07447672635316849, -0.01651512272655964, -0.04397178813815117, -0.07929008454084396, 0.029395371675491333, -0.043328046798706055, 0.023853575810790062, -0.05930003151297569, -0.01047749537974596, 0.022082876414060593, 0.07562786340713501, 0.05964571237564087, -0.011929015628993511, 0.04380311816930771, -0.04355910047888756, 0.06099950149655342, 0.08869891613721848, 0.069895438849926, 0.009500973857939243, 0.05188150703907013, -0.07689572870731354, 0.07977745682001114, -0.09945561736822128, 0.08960519731044769, 0.05765805393457413, 0.06520941108465195, 0.08198355883359909, 0.007687926292419434, -0.0842491015791893, -0.04673539474606514, -0.000859954918269068, -0.005776206497102976, 0.032129254192113876, -0.031352199614048004, -0.005013704299926758, -0.020067203789949417, -0.04981641843914986], [-0.08794780820608139, 0.026931723579764366, 0.05015888065099716, -0.06251882761716843, -0.09073249250650406, 0.08348775655031204, -0.07444518059492111, -0.050096381455659866, 0.018131161108613014, -0.037480004131793976, 0.024703791365027428, -0.023929128423333168, -0.06281434744596481, -0.07626928389072418, 0.06383015960454941, -0.025558045133948326, 0.022931944578886032, 0.07373657077550888, -0.07238315790891647, 0.04177507013082504, 0.08722924441099167, 0.07110536098480225, -0.09654440730810165, -0.02569986693561077, 0.08121627569198608, 0.01813189685344696, 0.046453651040792465, 0.08270873129367828, -0.0011800368083640933, 0.03991083428263664, 0.015538081526756287, 0.06696800887584686, 0.0461818128824234, 0.019675733521580696, -0.020473135635256767, 0.006409502122551203, -0.059342898428440094, -0.04904540255665779, -0.072352834045887, 0.05267639458179474, 0.009826695546507835, 0.00654166704043746, -0.06778557598590851, 0.07041952013969421, 0.0873180627822876, -0.012396997772157192, -0.043038032948970795, 0.03914539888501167, -0.062066011130809784, -0.06303777545690536, -0.0419582836329937, -0.0016710081836208701, -0.08468901365995407, -0.09834282100200653, 0.10067062824964523, -0.030310189351439476, -0.06770383566617966, 0.03126376122236252, 0.03231414034962654, -0.003919586539268494, -0.046706344932317734, 0.03655809909105301, 0.08863173425197601, -0.02638397179543972, -0.026302622631192207, -0.00024011927598621696, 0.026443013921380043, 0.05016200244426727, 0.037247397005558014, -0.08117459714412689, 0.047783758491277695, -0.060714781284332275, -0.06531594693660736, -0.07665492594242096, -0.07236186414957047, -0.06744236499071121, -0.008587731048464775, 0.07378334552049637, 0.08223038166761398, -0.06043250486254692, -0.005485735833644867, -0.02967478521168232, -0.041117455810308456, -0.0906234160065651, 0.05087839439511299, 0.05809934437274933, -0.07799359411001205, 0.09350982308387756, -0.009987885132431984, -0.09027867764234543, 0.05790241062641144, -0.012674257159233093, -0.018420550972223282, 0.04005669057369232, 0.024973168969154358, -0.03675713762640953, 0.07382842898368835, 0.03171820566058159, 0.07810019701719284, 0.03305398300290108], [0.04567735642194748, 0.00022111462021712214, 0.039183810353279114, 0.08119369298219681, 0.04039151594042778, 0.032703947275877, -0.012959024868905544, 0.04035831242799759, -0.011979281902313232, 0.06836546212434769, -0.061272673308849335, -0.023361289873719215, 0.046426061540842056, 0.021986348554491997, -0.0723360925912857, 0.06137916073203087, -0.05003776773810387, -0.059456873685121536, -0.08141995966434479, 0.10164505988359451, 0.006575147621333599, 0.013025655411183834, -0.007847785018384457, 0.07166509330272675, -0.09272938221693039, 0.08761920779943466, 0.03872150182723999, 0.01638498343527317, 0.07700984179973602, 0.025887388736009598, 0.06178087741136551, -0.011435535736382008, 0.02652624621987343, 0.03909910097718239, -0.026005791500210762, 0.047718945890665054, 0.045621201395988464, -0.03650658577680588, 0.045323748141527176, -0.08799197524785995, -0.044852983206510544, 0.10601358860731125, 0.052704405039548874, 0.054083749651908875, 0.03472130000591278, -0.04674000293016434, -0.08841289579868317, 0.014141200110316277, 0.049758780747652054, -0.05162525177001953, 0.10562631487846375, -0.10559867322444916, 0.04888485372066498, -0.05702037736773491, -0.004094838630408049, 0.037120141088962555, 0.10532206296920776, 0.033071327954530716, 0.06364315003156662, -0.04817820340394974, 0.08086343109607697, 0.07921086996793747, 0.006609630770981312, -0.07632554322481155, -0.010495648719370365, -0.007538509555160999, 0.06158556789159775, -0.0984463021159172, 0.06607242673635483, 0.040042657405138016, 0.03480873256921768, 0.021579140797257423, 0.062478505074977875, 0.008223156444728374, -0.0799214169383049, 0.058620646595954895, 0.09577104449272156, -0.02476889081299305, -0.07758758217096329, -0.06481068581342697, 0.06834970414638519, 0.047054123133420944, 0.06951458007097244, -0.03446511924266815, 0.07940671592950821, 0.01107916422188282, 0.013876453042030334, -0.03322046995162964, 0.08365759253501892, 0.06766980141401291, -0.01168967317789793, 0.0177372545003891, -0.039846837520599365, -0.0859021544456482, -0.09191727638244629, 0.06697230786085129, -0.08867190033197403, 0.0708560198545456, 0.015127218328416348, -0.08803719282150269], [-0.08556602150201797, -0.049285270273685455, -0.09438091516494751, -0.06471773236989975, 0.02435281313955784, 0.09022519737482071, -0.0853201374411583, -0.02305889129638672, -0.03845256567001343, 0.06957916170358658, 0.061981454491615295, -0.08355724811553955, 0.08413069695234299, 0.04950752109289169, 0.05117209255695343, 0.04006447643041611, 0.011181504465639591, -0.0939788967370987, 0.028101086616516113, 0.005684518720954657, 0.052761249244213104, 0.03578926995396614, -0.06856811046600342, -0.08723125606775284, -0.05343583971261978, -0.03164670616388321, -0.044713344424963, -0.00917282234877348, -0.0647086501121521, -0.027149945497512817, -0.01951177604496479, 0.002228307304903865, -0.03841898962855339, 0.039096344262361526, 0.08890827000141144, 0.03940325975418091, -0.08416241407394409, 0.007798291742801666, -0.024761371314525604, 0.027456017211079597, -0.09143516421318054, 0.025152143090963364, 0.060439594089984894, -0.06100338697433472, -0.0908094048500061, -0.0070036291144788265, 0.027771199122071266, -0.049158819019794464, 0.002023346023634076, -0.0718039870262146, 0.08576533943414688, 0.03977055475115776, 0.08084885776042938, -0.09094730764627457, -0.008291554637253284, -0.03359851613640785, 0.01229398138821125, 0.040222540497779846, 0.0851515382528305, 0.080191470682621, -0.09359097480773926, 0.06789075583219528, 0.008217180147767067, -0.0873001217842102, -0.05348217487335205, -0.09443193674087524, 0.07611802965402603, 0.04049625247716904, -0.024883294478058815, 0.04479240998625755, 0.03319855406880379, 0.03431542590260506, 0.09001991152763367, -0.05684038624167442, -0.08584517240524292, 0.021258290857076645, 0.010561183094978333, -0.06362732499837875, -0.06139913946390152, 0.023641467094421387, 0.10084307938814163, 0.07184315472841263, 0.0013787720818072557, 0.00903198029845953, 0.06003178656101227, 0.020962907001376152, -0.0646543875336647, 