{"0.weight": [[0.007932129316031933, 0.09639721363782883, 0.019760891795158386, 0.015136194415390491, 0.11476422101259232, -0.040506601333618164, 0.06859152019023895, -0.0315600261092186, 0.0007645442965440452, 0.010263929143548012, 0.023441269993782043, -0.04666248336434364, 0.02547515369951725, 0.0010822368785738945, 0.0072777774184942245, -0.0744786337018013, 0.005535791162401438, -0.09920499473810196, -0.037901513278484344, -0.05367683246731758, 0.051112037152051926, -0.050806984305381775, 0.03085983730852604, 0.033871255815029144, 0.006214417051523924, 0.09594589471817017, -0.07463604211807251, -0.004789801314473152, 0.05341372266411781, 0.07903596758842468, 0.005917152855545282, -0.0423249825835228, -0.10303305089473724, 0.10445757955312729, -0.10634256154298782, -0.07464088499546051, 0.025946838781237602, 0.014560208655893803, -0.029514804482460022, -0.08414711058139801, 0.05611279606819153, 0.022713733837008476, 0.016117241233587265, 0.04037123918533325, -0.060205232352018356, 0.0011757402680814266, 0.02416010946035385, -0.0605393722653389, -0.1112191453576088, 0.1270248144865036, 0.0656355693936348, 0.06804172694683075, 0.003845084458589554, 0.06556345522403717, -0.03976382315158844, -0.0923415869474411, -0.07195589691400528, -0.1296396553516388, 0.07639626413583755, -0.033882126212120056, -0.07211616635322571, -0.0586218386888504, -0.009051616303622723, -0.07335073500871658, -0.032097410410642624, -0.07713478803634644, -0.10133936256170273, -0.05017689988017082, -0.02527480199933052, 0.024411318823695183, -0.004253844264894724, 0.04201284423470497, -0.007531016133725643, 0.09600850939750671, 0.0024055594112724066, 0.07823648303747177, 0.03905825689435005, -0.04003715142607689, 0.12004917860031128, 0.006492310203611851, 0.09201440960168839, 0.0008655937854200602, -0.060827214270830154, -0.03842058777809143, 0.039004288613796234, 0.09011975675821304, 0.05060413107275963, -0.021939177066087723, -0.05406589433550835, 0.100409135222435, 0.13064058125019073, 0.0554802343249321, 0.0015042047016322613, 0.03071744181215763, 0.009780647233128548, -0.1357613354921341, 0.030718529596924782, -0.05820818990468979, 0.014685718342661858, 0.071461521089077], [0.04642099887132645, -0.023423193022608757, -0.020390184596180916, 0.032872237265110016, -0.016637174412608147, 0.04792547598481178, -0.04747195169329643, 0.024605458602309227, 0.1075325608253479, 0.013776249252259731, -0.09945818036794662, -0.08779595792293549, -0.05615491420030594, 0.01482420600950718, -0.07811446487903595, -0.05390559881925583, 0.04983741044998169, -0.053634319454431534, 0.07839357107877731, 0.10185959190130234, -0.08250328153371811, -0.061089225113391876, 0.14300788938999176, 0.08076487481594086, -0.06893795728683472, -0.06092540919780731, -0.06195785105228424, 0.05878034606575966, -0.07790842652320862, 0.06075533106923103, -0.05811544507741928, -0.030867278575897217, -0.10789962857961655, -0.03947383165359497, 0.021602662280201912, -0.037262991070747375, -0.0531553253531456, 0.02232331410050392, -0.030137449502944946, 0.019805345684289932, 0.06653332710266113, 0.03451232239603996, 0.04381408169865608, 0.03857501968741417, -0.11513186991214752, -0.04295806586742401, -0.08748938143253326, 0.005410177167505026, 0.07993950694799423, -0.03176431730389595, -0.003353759879246354, 0.01690991222858429, 0.05186743661761284, 0.052181631326675415, -0.09288410097360611, 0.15315289795398712, -0.05427452176809311, -0.05771823599934578, 0.03825732693076134, 0.029306262731552124, 0.10354707390069962, 0.048964302986860275, -0.0150416549295187, 0.05143757909536362, -0.034788746386766434, -0.07583989202976227, -0.09320135414600372, -0.09851280599832535, -0.020306551828980446, -0.04781884700059891, -0.024663155898451805, -0.03048536740243435, 0.04235238954424858, 0.04353728145360947, 0.08116433024406433, 0.057373352348804474, -0.02348763309419155, -0.023063471540808678, 0.025939255952835083, -0.08834831416606903, 0.04442774876952171, -0.07513780891895294, -0.052668001502752304, 0.038097430020570755, -0.08556202799081802, 0.12280068546533585, 0.021195711567997932, -0.08045350015163422, -0.020494455471634865, -0.0983416959643364, -0.09460212290287018, 0.022807925939559937, -0.0391031913459301, 0.031301744282245636, -0.028275301679968834, 0.08251000195741653, 0.010883859358727932, -0.04508107528090477, 0.08086889237165451, 0.06988280266523361], [-0.052618201822042465, -0.026966191828250885, 0.005416261963546276, 0.05142081156373024, -0.01633526012301445, 0.07324113696813583, 0.06429339200258255, 0.03338588774204254, -0.03724677488207817, 0.08247727155685425, -0.0749836266040802, -0.06804352253675461, -0.10306581854820251, -0.10416471213102341, 0.004504868760704994, -0.12233297526836395, -0.034318823367357254, -0.038981322199106216, -0.027848707512021065, 0.010360714048147202, -0.01240643672645092, -0.020058151334524155, 0.053859978914260864, 0.003335045650601387, -0.04513919726014137, 0.05372531712055206, 0.03722480684518814, -0.07550857961177826, -0.006511647254228592, -0.005921337753534317, 0.037180569022893906, 0.0747992992401123, 0.08446989953517914, 0.034333206713199615, -0.049466099590063095, -0.030714698135852814, 0.00840553268790245, 0.049308788031339645, 0.0002431372704450041, -0.05227066949009895, -0.005113972816616297, 0.015996413305401802, -0.05055580288171768, -0.03434470668435097, 0.11626968532800674, 0.02461739256978035, 0.04741834104061127, -0.00020162311557214707, -0.05338624492287636, -0.03565669432282448, 0.11544645577669144, -0.034192249178886414, -0.0505782887339592, 0.01370216254144907, -0.031490471214056015, 0.0993323102593422, 0.03664585202932358, -0.07469834387302399, -0.017913784831762314, -0.1052439957857132, -0.05388905107975006, -0.02596445195376873, 0.00454876059666276, -0.059080202132463455, -0.0020026634447276592, -0.09767203778028488, -0.07722201943397522, -0.05731230601668358, 0.04206809028983116, 0.004281472414731979, 0.07630503177642822, 0.033249128609895706, 0.07908545434474945, 0.05778408795595169, -0.030189815908670425, 0.04697781801223755, 0.037975478917360306, 0.007712180260568857, -0.009334808215498924, 0.10957859456539154, -0.06686029583215714, -0.04572789743542671, 0.08508987724781036, 0.06482276320457458, -0.05398891493678093, 0.02333793230354786, 0.0674155056476593, 0.011232312768697739, 0.09094793349504471, 0.0025535833556205034, -0.05107489973306656, 0.04644859954714775, 0.04650500416755676, -0.009638327173888683, -0.005270646419376135, -0.04375860467553139, -0.09680113196372986, 0.061896130442619324, -0.040745820850133896, -0.03316153958439827], [-0.008732235990464687, -0.030586687847971916, 0.05868116021156311, 0.02884930744767189, 0.04659123718738556, -0.10124986618757248, 0.09214868396520615, -0.0247400663793087, 0.10452736169099808, 0.10490983724594116, -0.03356344625353813, -0.08069372177124023, 0.06102246791124344, -0.09660505503416061, 0.08636266738176346, -0.0612720251083374, 0.04849410429596901, -0.031754832714796066, 0.023072348907589912, 0.09123009443283081, 0.07233145833015442, -0.021918075159192085, -0.09695527702569962, -0.07765549421310425, 0.07755042612552643, -0.031840939074754715, 0.04769814759492874, 0.09212560206651688, -0.020801106467843056, -0.033581048250198364, -0.0595259964466095, 0.04683419689536095, 0.016393069177865982, 0.02119399420917034, 0.01109292358160019, 0.06517640501260757, -0.08720732480287552, 0.11088322103023529, -0.011842909269034863, -0.059506841003894806, -0.0587431937456131, 0.02513200230896473, 0.03231252357363701, 0.06770365685224533, 0.0830090194940567, -0.04172582924365997, 0.03484979644417763, 0.05101339891552925, -0.013521968387067318, 0.0462014339864254, -0.027340706437826157, -0.011242800392210484, 0.01901818998157978, -0.05436275154352188, -0.0694396123290062, -0.13219450414180756, -0.09303843975067139, 0.01337414886802435, -0.07433059811592102, -0.00046214196481741965, 0.053349509835243225, 0.10487783700227737, -0.09188325703144073, 0.061783306300640106, -0.006174344569444656, -0.0043305689468979836, 0.041795749217271805, -0.04992818459868431, -0.0785960927605629, -0.029071113094687462, 0.05482087656855583, 0.005133012309670448, 0.05442587658762932, -0.06777684390544891, -0.05443638935685158, -0.06402873992919922, 0.08038564771413803, -0.09487482160329819, -0.04808950051665306, 0.03800346329808235, -0.02684502676129341, -0.06610603630542755, 0.02206140011548996, -0.02811654657125473, 0.07755930721759796, -0.057948432862758636, -0.05427917093038559, -0.013724107295274734, -0.023523563519120216, 0.014945083297789097, 0.013397657312452793, 0.10166815668344498, -0.07669619470834732, -0.057569023221731186, 0.018270622938871384, -0.026469429954886436, 0.06843673437833786, -0.013169527053833008, 0.0404558889567852, 0.08894093334674835], [0.007834195159375668, -0.03362825885415077, 0.033761560916900635, -0.008402163162827492, 0.04436122626066208, 0.05230893939733505, -0.04903436824679375, -0.03993717208504677, -0.030952204018831253, 0.0007688447367399931, -0.06574733555316925, 0.0006404479499906301, -0.06745120882987976, 0.01499227900058031, -0.05466463789343834, 0.034635234624147415, -0.004198733251541853, 0.012062975205481052, 0.0016291296342387795, -0.003501476952806115, 0.04263116791844368, 0.03911428153514862, 0.029839299619197845, -0.007604808080941439, 0.01683707721531391, -0.019082704558968544, 0.08712008595466614, -0.05378856509923935, 0.021410342305898666, 0.026934586465358734, -0.027325177565217018, -0.028297459706664085, 0.03174556419253349, -0.03485489636659622, 0.07784919440746307, 0.008200043812394142, 0.022647224366664886, 0.025202294811606407, -0.0033099425490945578, -0.001022989396005869, 0.015699386596679688, 0.011209562420845032, 0.0031185178086161613, -0.02711014449596405, -0.04536927118897438, 0.003031359985470772, -0.059018656611442566, 0.037331271916627884, -0.024643760174512863, -0.008569971658289433, 0.06530642509460449, 0.02095179073512554, -0.05632685124874115, -0.08238084614276886, -0.08381390571594238, -0.027786949649453163, -0.03119705431163311, 0.007095534820109606, -0.015841607004404068, -0.030629554763436317, 0.005489283241331577, 0.02303251065313816, -0.01215444691479206, 0.04457492381334305, 0.008277942426502705, 0.012416484765708447, -0.025543464347720146, -0.08762531727552414, -0.07963748276233673, -0.0373849980533123, -0.05513569340109825, -0.020819474011659622, -0.09315269440412521, 0.011074762791395187, -0.009963657706975937, 0.006134117487818003, -5.853624315932393e-05, -0.05061156675219536, -0.04917057976126671, -0.04464699700474739, -0.08318252861499786, 0.04586414992809296, -0.0017080733086913824, -0.020153827965259552, 0.0057930126786231995, 0.04092203825712204, 0.0876760482788086, -0.06786852329969406, -0.09121538698673248, -0.04893220588564873, 0.02419239468872547, 0.013771601021289825, -0.053100910037755966, -0.09262818843126297, 0.016232693567872047, 0.008995919488370419, -0.03568848595023155, -0.050029363483190536, 0.03207925334572792, 0.019404644146561623], [0.030489008873701096, -0.018641717731952667, -0.08520244061946869, 0.11152618378400803, -0.08832305669784546, -0.10970364511013031, 0.09676479548215866, 0.11420921981334686, 0.03483352065086365, -0.0042016697116196156, -0.03512370586395264, -0.03638728708028793, 0.10096681118011475, -0.04703548178076744, 0.10280323028564453, 0.06275004148483276, -0.05811372771859169, 0.05993673950433731, 0.07022572308778763, 0.05736296623945236, 0.05184565484523773, -0.04311421513557434, -0.05094028264284134, -0.055687904357910156, -0.06872627884149551, -0.011233951896429062, 0.04411293566226959, -0.08371084183454514, -0.08687038719654083, 0.0031538871116936207, -0.1131615862250328, 0.08804730325937271, -0.07735231518745422, 0.07675906270742416, 0.09979002922773361, -0.028963500633835793, -0.006627639755606651, -0.01939914934337139, 0.08207599073648453, -0.09039375931024551, -0.05281587690114975, 0.03638484328985214, 0.035665687173604965, -0.07264114171266556, 0.13210880756378174, 0.04756859317421913, -0.056746698915958405, 0.07097519189119339, -0.04880853742361069, 0.028538987040519714, -0.08209944516420364, -0.022160300984978676, -0.018949901685118675, -0.009545435197651386, 0.05368701368570328, 0.03429050371050835, -0.012896185740828514, -0.03479953110218048, 0.0798354297876358, 0.103025421500206, 0.019975431263446808, 0.004150037188082933, 0.07515363395214081, -0.09582831710577011, -0.11484317481517792, 0.09172657877206802, 0.005910576321184635, 0.12758921086788177, 0.05323193594813347, -0.012837964110076427, -0.053917597979307175, -0.06680110841989517, 0.02561107836663723, -0.04665309563279152, 0.048078298568725586, 0.05118456110358238, 0.04326873645186424, -0.1160297691822052, 0.08393601328134537, -0.06850677728652954, 0.030713912099599838, -0.049530573189258575, -0.09100232273340225, -0.09804552048444748, -0.07257745414972305, -0.07796156406402588, 0.10156362503767014, 0.06553807854652405, -0.07404714822769165, 0.0734097883105278, 0.09650473296642303, -0.012645500712096691, -0.08985268324613571, 0.06110595166683197, -0.08790968358516693, -0.028516145423054695, 0.08157194405794144, -0.08017846196889877, -0.008048838004469872, -0.01935139298439026], [0.009441192261874676, 0.08003781735897064, 0.05368060991168022, 0.02398102730512619, -0.02974817529320717, -0.08763718605041504, -0.028897345066070557, 0.007116402965039015, -0.08738810569047928, 0.00990318600088358, -0.03155692666769028, 0.06962557137012482, 0.06242476403713226, -0.07465438544750214, -0.0005309249390847981, -0.011357162147760391, -0.02885996177792549, 0.058505620807409286, 0.05662219971418381, -0.04308418557047844, -0.047192711383104324, 0.04126747325062752, 0.049457233399152756, 0.011025040410459042, -0.0792301669716835, -0.07615857571363449, 0.057559385895729065, 0.05406134948134422, 0.02849755249917507, -0.06819617003202438, -0.06425964087247849, 0.031664494425058365, 0.05529477819800377, -0.04110580310225487, -0.05748237669467926, 0.034985367208719254, 0.08370957523584366, -0.09315063804388046, 0.027301141992211342, 0.013890394940972328, 0.01949205994606018, 0.04838357865810394, 0.00212735403329134, -0.02898380160331726, -0.032183676958084106, -0.10515926033258438, -0.08687309175729752, 0.00528456037864089, -0.07430941611528397, 0.07552479952573776, -0.028833331540226936, -0.008251198567450047, -0.0660843774676323, -0.005002100486308336, -0.09035652130842209, -0.1546613723039627, -0.05672602728009224, 0.03760318458080292, 0.029573606327176094, 0.01045946590602398, 0.08724570274353027, -0.08596518635749817, 0.05905446782708168, -0.06637641042470932, -0.05987563356757164, -0.040226470679044724, 0.018668465316295624, -0.053815409541130066, 0.0670718401670456, 0.067562036216259, 0.08644960820674896, -0.049501221626996994, -0.09959791600704193, -0.016073688864707947, -0.06823655217885971, 0.05049869790673256, 0.06233740970492363, 0.005945958662778139, -0.0008448009029962122, -0.04714152216911316, 0.07132357358932495, -0.040121808648109436, 0.07841727137565613, 0.06729550659656525, -0.015129916369915009, 0.015146471560001373, 0.042126405984163284, 0.015478179790079594, -0.04691721498966217, 0.005187228787690401, -0.09568250924348831, -0.05814773589372635, 0.07027032971382141, 0.010705211199820042, 0.01088782213628292, -0.01745537668466568, 0.029503338038921356, 0.07949214428663254, -0.0762724056839943, -0.0626286193728447], [0.04898577928543091, -0.08747436106204987, 0.05125481262803078, 0.02079923078417778, 0.04179450497031212, -0.013423208147287369, -0.02052875980734825, -0.0023937516380101442, -0.010062886402010918, 0.03632500767707825, -0.029211372137069702, 0.06351406127214432, 0.03262298181653023, 0.08393198996782303, 0.023051369935274124, 0.05367182940244675, -0.011049851775169373, 0.06207682192325592, 0.07529521733522415, 0.05127451568841934, -0.004979092627763748, -0.09283549338579178, -0.01005957555025816, -0.02004208043217659, 0.041707202792167664, -0.05019868537783623, 0.005537772551178932, -0.016538314521312714, 0.023453721776604652, 0.040686868131160736, 0.003757799044251442, -0.0337250642478466, -0.06166984140872955, -0.08325795084238052, -0.043888989835977554, 0.0011181167792528868, -0.06684035062789917, -0.10102758556604385, -0.04710320010781288, -0.04364576190710068, 0.03365395590662956, 0.059153854846954346, 0.024757329374551773, 0.09296396374702454, -0.08164485543966293, -0.053894687443971634, -0.062405288219451904, 0.017412381246685982, 0.04597068205475807, 0.015110418200492859, 0.01419695746153593, 0.0723213404417038, -0.09425720572471619, -0.07751515507698059, -0.04492882639169693, -0.10351619124412537, -0.025539735332131386, -0.008032422512769699, 0.015575096942484379, 2.4911681975936517e-05, 0.03043282963335514, 0.05044102668762207, 0.08792714029550552, -0.06010572612285614, 0.0542798712849617, 0.034140609204769135, 0.01297714002430439, -0.08265495300292969, 0.10346947610378265, 0.031915418803691864, -0.06414107233285904, 0.09095630794763565, -0.022945579141378403, 0.02489134483039379, 0.020773395895957947, -0.07786823064088821, -0.05149603262543678, 0.05453573539853096, -0.041460610926151276, 0.004309249110519886, -0.0002329764247406274, 0.02166576310992241, 0.0785747766494751, 0.08438610285520554, 0.04785517230629921, -0.08032958209514618, 0.02429938316345215, 0.01390992384403944, -0.0050574918277561665, 0.019259752705693245, -0.09805955737829208, 0.047549422830343246, 0.03469138592481613, 0.046587444841861725, 0.09615562856197357, 0.0801747739315033, 0.0393589586019516, 0.07080604135990143, -0.05527520552277565, -0.057487111538648605], [-0.08417785912752151, 0.05240263789892197, -0.014167806133627892, -0.06771442294120789, 0.09968860447406769, -0.036101195961236954, -0.00361005705781281, 0.03119591251015663, 0.029342209920287132, -0.023596685379743576, -0.02075016126036644, -0.0011656805872917175, -0.08364395797252655, 0.10121040046215057, -0.045778583735227585, -0.08900663256645203, 0.06456368416547775, 0.05975774675607681, 0.06829401850700378, -0.07760201394557953, -0.003598958719521761, -0.05385258421301842, 0.12891170382499695, 0.02591712586581707, -0.004960488993674517, 0.06951745599508286, -0.06697732955217361, 0.07326393574476242, -0.023415813222527504, -0.05480560287833214, -0.020786931738257408, -0.045919179916381836, -0.02180449850857258, -0.09298603236675262, 0.10657864063978195, -0.06621678173542023, -0.06128634512424469, -0.044999830424785614, 0.08336063474416733, 0.002612639218568802, 0.0937097817659378, 0.11514462530612946, 0.1454657018184662, 0.16656917333602905, -0.08125962316989899, -0.036092400550842285, 0.10693075507879257, -0.011114773340523243, 0.07357087731361389, -0.05596238374710083, 0.056018225848674774, 0.10892120748758316, 0.0019237318774685264, -0.01880212128162384, -0.05521544814109802, -0.0018731300951913, 0.1418195217847824, -0.020452968776226044, -0.051751937717199326, -0.06325555592775345, 0.05381889268755913, -0.10355564951896667, 0.012362494133412838, 0.13563823699951172, -0.008836593478918076, 0.06121817231178284, -0.011806518770754337, -0.09232486039400101, -0.05031580477952957, 0.12184508144855499, 0.08781962841749191, -0.008802378550171852, -0.03462779149413109, 0.023133594542741776, 0.03167280554771423, -0.0056970370933413506, -0.030047355219721794, -0.09765183925628662, -0.03399829566478729, 0.133423313498497, 0.0026400901842862368, 0.028520900756120682, -0.06038542464375496, -0.08498026430606842, -0.07134304195642471, 0.040625426918268204, -0.021360673010349274, -0.06620291620492935, -0.0034927469678223133, 0.05892661213874817, -0.06381205469369888, -0.02424805797636509, -0.08668836206197739, -0.019136562943458557, -0.11362999677658081, 0.03833300992846489, -0.04274882376194, 0.08334679156541824, 0.06529632955789566, -0.03654727712273598], [-0.025316016748547554, -0.033288273960351944, -0.0014048609882593155, -0.038728516548871994, 0.012978329323232174, 0.06380852311849594, 0.09559383243322372, -0.06245778501033783, -0.03718932718038559, -0.08049916476011276, 0.002934582531452179, 0.08198539167642593, -0.068804070353508, -0.02766079641878605, 0.06235922873020172, -0.06340976804494858, -0.034433986991643906, -0.01861046999692917, -0.03354901820421219, -0.01826222985982895, -0.025173164904117584, 0.030403567478060722, -0.033825285732746124, -0.07074549794197083, -0.022841574624180794, -0.05703696608543396, 0.032500818371772766, -0.05733565613627434, 0.0028897998854517937, -0.08003993332386017, 0.08399941772222519, -0.11347892880439758, -0.09337298572063446, -0.0433616042137146, -0.09267172962427139, -0.06859677284955978, -0.09165975451469421, -0.044343214482069016, 0.008329263888299465, -0.015999875962734222, 0.09561838209629059, 0.036672599613666534, -0.014773848466575146, 0.016769517213106155, 2.7003146897186525e-05, 0.010146459564566612, -0.002177571877837181, -0.05140597000718117, -0.1132889986038208, 0.019819695502519608, -0.12274046242237091, -0.0234431941062212, -0.08991148322820663, -0.03843693807721138, -0.11420919001102448, -0.0677729994058609, 0.028673207387328148, -0.17913907766342163, 0.05211285501718521, -0.06406179815530777, -0.025516755878925323, 0.005473457742482424, -0.04095305874943733, -0.03250422328710556, 0.12283432483673096, -0.010359439067542553, -0.10853710025548935, -0.026257915422320366, 0.03439674153923988, 0.05207076668739319, 0.054038334637880325, -0.009941267780959606, 0.020280444994568825, -0.02386951819062233, -0.015511609613895416, 0.020770441740751266, -0.038230448961257935, 0.022476132959127426, 0.011684602126479149, -0.017603034153580666, 0.03403396159410477, -0.07626479864120483, -0.008888485841453075, -0.03773670271039009, 0.005648628808557987, -0.01060401275753975, 0.05967475473880768, 0.03121095336973667, 0.08558399975299835, 0.013964707031846046, 0.08508491516113281, 0.06348177790641785, -0.045665908604860306, -0.007038152776658535, -0.08275218307971954, 0.060060277581214905, 0.03754309564828873, 0.052020348608493805, 0.09014717489480972, 0.060482222586870193], [0.0995282232761383, -0.022911151871085167, 0.05534802004694939, -0.0029509132727980614, 0.00427063787356019, 0.0677446648478508, 0.03017365001142025, 0.0780382975935936, -0.05212293937802315, 0.011406348086893559, 0.03541005030274391, -0.03245794400572777, 0.04894675314426422, 0.02989489771425724, 0.05690932273864746, 0.026452448219060898, 0.058400992304086685, 0.040858279913663864, 0.03217880800366402, -0.03659767284989357, -0.02575507201254368, 0.02685329131782055, -0.017242973670363426, 0.06872935593128204, -0.04766476899385452, 0.08052154630422592, 0.09943900257349014, 0.042976632714271545, 0.00364784337580204, -0.061162177473306656, -0.006300634238868952, -0.06262686848640442, -0.07145135849714279, -0.08678736537694931, -0.051801182329654694, -0.05411388725042343, -0.002632155315950513, -0.0932057797908783, 0.025172574445605278, 0.02504902146756649, -0.04665345698595047, 0.04858298972249031, -0.026155704632401466, 0.045631248503923416, 0.0007998694782145321, -0.09958931058645248, -0.017186783254146576, 0.007909526117146015, 0.003443758701905608, 0.042838096618652344, 0.05650659650564194, -0.05503414571285248, 0.027888085693120956, 0.039121706038713455, -0.05525029078125954, -0.049844276160001755, -0.03525768592953682, 0.025212110951542854, 0.008039869368076324, 0.02053181827068329, 0.04191042482852936, -0.004963650368154049, -0.07041363418102264, 0.00610205065459013, 0.03389338403940201, -0.04737655818462372, 0.008640836924314499, -0.002753495704382658, -0.10676950216293335, 0.025753077119588852, 0.04536818340420723, -0.068619504570961, 0.008153388276696205, -0.10794375091791153, 0.07009747624397278, -0.05402299761772156, 0.0022193938493728638, 0.03458132967352867, -0.09016384184360504, 0.008615604601800442, -0.006724228151142597, -0.00044826845987699926, -0.04607551172375679, 0.019015176221728325, -0.004078354686498642, -0.0752716064453125, 0.015232369303703308, 0.018387820571660995, -0.02739844098687172, 0.043068304657936096, 0.06943049281835556, 0.00985373742878437, -0.02256726287305355, 0.05729696527123451, 0.06333165615797043, 0.049300629645586014, 0.03355375677347183, -0.0350477360188961, 0.06280786544084549, 0.1115327775478363], [0.05349533632397652, -0.09459946304559708, 0.0008153844391927123, 0.01721423678100109, 0.06543640792369843, 0.043269842863082886, -0.02390887401998043, -0.0504220612347126, 0.07297691702842712, 0.010667996481060982, -0.08461212366819382, 0.07474231719970703, -0.0948650911450386, -0.051758915185928345, 0.03322715312242508, -0.09277360886335373, -0.023642929270863533, -0.08372469991445541, -0.09483800083398819, 0.054881490767002106, -0.02776508405804634, -0.02211318351328373, -0.08002787083387375, -0.10086135566234589, 0.08217471837997437, -0.08890119194984436, 0.08917727321386337, 0.017717881128191948, 0.0454973429441452, 0.0588458813726902, 0.0262895654886961, 0.04686997830867767, -0.08909229189157486, -0.05514898523688316, -0.030974026769399643, -0.02367553859949112, 0.06193201616406441, -0.08854272216558456, 0.001338927773758769, 0.05363543704152107, -0.04290546476840973, -0.09253296256065369, -0.04973248764872551, 0.09315670281648636, 0.0302237868309021, 0.0051565454341471195, -0.08760146796703339, 0.02204984799027443, -0.07837579399347305, 0.06581193953752518, -0.0212879441678524, 0.09884239733219147, 0.09440018981695175, 0.08346907794475555, -0.007168926298618317, -0.14002183079719543, 0.11516208201646805, -0.12862691283226013, 0.14644256234169006, 0.09107652306556702, 0.043403465300798416, 0.0864669680595398, 0.054621562361717224, 0.11579888314008713, -0.02105654589831829, -0.002030403818935156, -0.13400961458683014, 0.0798836201429367, -0.03460017964243889, -0.08452892303466797, 0.05216899514198303, 0.0058353366330266, -0.023768866434693336, 0.012943652458488941, -0.09302939474582672, -0.025654954835772514, 0.02599530853331089, -0.03441401571035385, -0.07156266272068024, -0.08235031366348267, 0.022357825189828873, 0.10062050819396973, 0.06006384640932083, -0.0062368460930883884, -0.0018442788859829307, -0.06853292137384415, 0.1153494119644165, 0.06200764700770378, 0.06459037959575653, 0.08581341058015823, 0.0655658096075058, 0.06516382843255997, 0.0434156097471714, 0.07054406404495239, 0.08304416388273239, -0.08274354040622711, 0.056681547313928604, 0.07084227353334427, -0.06164642795920372, 0.009346201084554195], [-0.0008121241116896272, -0.07412739843130112, -0.01787332259118557, 0.06573934853076935, 0.10024171322584152, -0.04478881508111954, 0.08329136669635773, -0.04884300008416176, -0.09075162559747696, 0.06322640925645828, -0.06726250797510147, -0.04300616309046745, -0.08398959785699844, 0.024782614782452583, 0.043380387127399445, -0.10793205350637436, 0.034505363553762436, 0.03494688868522644, 0.022990504279732704, -0.09541360288858414, -0.021750768646597862, 0.021858589723706245, -0.045235227793455124, -0.04393010213971138, -0.03298410773277283, -0.03949043154716492, 0.03587231785058975, 0.09502790123224258, 0.002922116545960307, 0.03858286142349243, 0.06026797741651535, 0.022158296778798103, 0.06741145998239517, 0.10585327446460724, 0.027766622602939606, 0.0569632314145565, 0.05808201804757118, -0.08846892416477203, 0.10620268434286118, -0.10380759835243225, -0.10487830638885498, -0.053632527589797974, -0.08757718652486801, 0.0033569191582500935, 0.18756935000419617, 0.14880362153053284, 0.06256820261478424, 0.06522292643785477, 0.07301624119281769, -0.03728368133306503, -0.06319881975650787, -0.06817367672920227, 0.06552954763174057, -0.027763592079281807, 0.05239774286746979, 0.058746419847011566, -0.08606581389904022, -0.07401075959205627, 0.037279050797224045, -0.06905151903629303, 0.021218540146946907, -0.004406260326504707, -0.08310618996620178, 0.03534874692559242, -0.006015758495777845, -0.006914926692843437, 0.08492432534694672, -0.02885117568075657, 0.10446824133396149, 0.107197105884552, -0.023288140073418617, 0.06553597003221512, 0.1362927109003067, 0.005588054656982422, 0.07190593332052231, 0.08247572928667068, -0.06639165431261063, 0.10331855714321136, 0.02441422827541828, -0.021634742617607117, -0.07187747955322266, -0.06971392035484314, 0.03770480304956436, -0.03101159818470478, -0.08034227788448334, -0.04216628894209862, 0.10317511856555939, -0.05070003122091293, -0.06779009103775024, 0.07184253633022308, 0.0213310606777668, -0.023850608617067337, -0.07060861587524414, 0.039852697402238846, 0.03213159367442131, -0.008462785743176937, -0.07932420819997787, 0.0003381438727956265, -0.03214056417346001, -0.07673292607069016], [-0.03291512280702591, -0.0681963562965393, -0.0014891874743625522, 0.01834803633391857, 0.02640734612941742, 0.0137636112049222, -0.07368569076061249, 0.020769210532307625, 0.0567944273352623, -0.048966363072395325, -0.01813216507434845, -0.05730857700109482, -0.006978997960686684, -0.001995233353227377, -0.05902579799294472, 0.03397475183010101, -0.05231361463665962, 0.029476122930645943, -0.008757402189075947, 0.0029815707821398973, -0.05428958311676979, -0.00450018560513854, 0.008897951804101467, -0.003038872266188264, 0.01370271947234869, -0.041555989533662796, 0.0065839155577123165, 0.04452638328075409, -0.046869195997714996, 0.021962525323033333, -0.05452829599380493, -0.03328566253185272, -0.07021545618772507, 0.007667791098356247, -0.10803178697824478, -0.10322199761867523, -0.06943682581186295, 0.05198273807764053, -0.02803918533027172, -0.018697166815400124, 0.06234944239258766, -0.05973042920231819, 0.013789166696369648, -0.08128423988819122, -0.05203399062156677, -0.04027503728866577, -0.08345970511436462, 0.007391365710645914, -0.04014291241765022, 0.00010328926146030426, -0.07230991125106812, 0.015286165289580822, -0.022870630025863647, 0.03380535915493965, -0.06783594191074371, 0.026182057335972786, 0.020991768687963486, 0.042055513709783554, -0.08874687552452087, 0.010560638271272182, -0.000619802565779537, 0.01293626893311739, -0.06538303941488266, -0.004304985050112009, -0.017904266715049744, -0.08121082186698914, -0.06063179299235344, -0.05809849500656128, -0.10330328345298767, 0.006846467964351177, 0.06836390495300293, -0.03473523631691933, 0.020634515210986137, -0.08254207670688629, 0.08262691646814346, -0.04188953712582588, -0.016086746007204056, 0.00757851917296648, 0.0162632018327713, 0.009797506034374237, -0.0394698902964592, -0.03364915773272514, 0.022337760776281357, -0.041435595601797104, 0.04640186205506325, -0.00621379679068923, -0.038477908819913864, 0.01755879446864128, -0.04416515305638313, -0.014600268565118313, -0.01094247680157423, -0.008314915932714939, 0.06042967364192009, -0.004836863372474909, 0.027563776820898056, 0.03706720098853111, -0.008770301006734371, 0.05499698966741562, -0.05021471157670021, 0.0016455339500680566], [0.060223013162612915, 0.07477166503667831, 0.08587488532066345, 0.03669077157974243, 0.0526382252573967, -0.04472478851675987, -0.0679565817117691, 0.0458163321018219, 0.07504396140575409, 0.04264666512608528, 0.05996417626738548, 0.10263340920209885, 0.002825062954798341, -0.003957611043006182, -0.10109999775886536, 0.045684877783060074, 0.05604926869273186, 0.026524873450398445, -0.05122879147529602, -0.024622850120067596, -0.0008768334519118071, 0.0031461725011467934, 0.036434248089790344, 0.025889530777931213, 0.10230137407779694, 0.01392411906272173, 0.04940604045987129, -0.07672625780105591, 0.01343993004411459, 0.04185980185866356, -0.006575874052941799, 0.03118974342942238, -0.00886057410389185, 0.08360013365745544, 0.013658844865858555, 0.10852367430925369, -0.10286827385425568, -0.057509638369083405, -0.07310923933982849, 0.05793735757470131, 0.027397213503718376, 0.035233646631240845, 0.01255334634333849, -0.011888084001839161, -0.11020753532648087, -0.07881482690572739, -0.0833018571138382, -0.05495984107255936, -0.02664649859070778, 0.09986948221921921, 0.023545002564787865, 0.008730261586606503, -0.00016031925042625517, 0.081351138651371, 0.06335781514644623, -0.2138378918170929, -0.092353954911232, -0.1227615624666214, 0.05060840770602226, 0.052027396857738495, 0.020030181854963303, 0.04099079221487045, -0.032373785972595215, -0.029711488634347916, 0.05120951309800148, 0.05951675400137901, -0.050791725516319275, -0.09725111722946167, 0.0016815934795886278, -0.019816868007183075, 0.10855920612812042, 0.10243035852909088, 0.020553505048155785, 0.04873589798808098, 0.1015421599149704, -0.10504753887653351, -0.06737366318702698, 0.07204422354698181, -0.043357305228710175, 0.013367518782615662, 0.08283703774213791, -0.0339033417403698, -0.04518153890967369, -0.05713018774986267, 0.002782786963507533, 0.04735932871699333, 0.04260377585887909, -0.06958591938018799, 0.017282862216234207, -0.046309322118759155, -0.030021725222468376, 0.03338615223765373, 0.026155268773436546, 0.03587976470589638, -0.005322898738086224, 0.010486817918717861, -0.08721794933080673, 0.026306327432394028, -0.05289529636502266, 0.006839645095169544], [-0.02350621484220028, -0.08697030693292618, 0.02848893590271473, -0.06837145984172821, -0.07323791831731796, -0.0729639008641243, 0.10694999247789383, -0.03909457474946976, -0.02300572581589222, -0.06379752606153488, -0.04873468354344368, -0.10440311580896378, 0.09370092302560806, -0.07162673026323318, -0.10444933921098709, 0.020369036123156548, 0.0333857424557209, 0.11348824948072433, 0.04834415018558502, -0.10252536088228226, -0.06162819638848305, -0.0044463640078902245, 0.08895629644393921, 0.04669937863945961, 0.06721671670675278, 0.13684183359146118, 0.03421652317047119, -0.08212237805128098, -0.01426366250962019, 0.010692168027162552, -0.056681208312511444, 0.052028264850378036, 0.010161656886339188, -0.0015921556623652577, 0.045057836920022964, -0.02125680260360241, -0.08433756977319717, -0.026760755106806755, 0.042189184576272964, -0.03902940824627876, 0.12055722624063492, 0.07885398715734482, 0.06955155730247498, -0.06165441870689392, 0.024269836023449898, -0.09389995038509369, 0.02478291094303131, 0.1035161092877388, 0.009986389428377151, -0.0909581407904625, 0.06662468612194061, 0.0005079771508462727, 0.008565766736865044, -0.0028342637233436108, -0.014059639535844326, 0.09366104006767273, -0.11678852885961533, -0.06345240026712418, -0.06719804555177689, 0.03550732135772705, -0.05340033024549484, 0.027396177873015404, 0.011717384681105614, -0.0021559717133641243, 0.08727272599935532, 0.11716702580451965, -0.011548961512744427, -0.05410164222121239, 0.03373468294739723, 0.009134702384471893, 0.06471056491136551, 0.04600802809000015, -0.054321903735399246, -0.019352715462446213, -0.015951476991176605, -0.0013097473420202732, 0.0630066767334938, 0.03549204766750336, -0.026529720053076744, -0.02380078099668026, 0.006386426277458668, -0.09821685403585434, -0.05124564468860626, 0.03097204864025116, 0.06369364261627197, 0.06476212292909622, 0.07793350517749786, -0.08894570171833038, -0.1002257913351059, -0.06110009923577309, -0.08766200393438339, -0.03692416101694107, 0.010276200249791145, -0.07897992432117462, 0.07841890305280685, -0.021430019289255142, -0.009369189850986004, -0.0880003273487091, 0.021890969946980476, 0.007865377701818943], [0.01942041516304016, 0.035292863845825195, -0.022025221958756447, -0.014542919583618641, -0.03617188706994057, 0.011073947884142399, 0.027306992560625076, 0.029861824586987495, 0.06871826946735382, -0.06309545785188675, -0.014245935715734959, 0.01292101014405489, 0.014351766556501389, 0.013985659927129745, -0.0402083583176136, -0.01888919062912464, -0.014861013740301132, 0.041159488260746, -0.008360507898032665, 0.0002919100224971771, -0.031884580850601196, 0.03422341123223305, 0.009917608462274075, -0.03772089630365372, -0.09547704458236694, -0.004586037714034319, -0.05851798132061958, 0.032996006309986115, 0.029364777728915215, 0.005624832585453987, -0.0007106039556674659, 0.06022603064775467, -0.06943651288747787, 0.0048062619753181934, -0.10760130733251572, 0.02381441369652748, 0.07238882035017014, -0.03543918579816818, 0.04586606100201607, 0.020785661414265633, 0.04866010695695877, -0.02095840312540531, -0.08677177876234055, -0.06800249963998795, -0.09413550049066544, 0.013521518558263779, 0.05460529401898384, 0.04280205816030502, 0.006735962349921465, 0.017556147649884224, 0.029742397367954254, 0.052215058356523514, 0.01306829135864973, -0.0015625456580892205, 0.030835943296551704, -0.05329084396362305, 0.007175828330218792, 0.02742649056017399, -0.02615116722881794, 0.05004110559821129, 0.03851025924086571, -0.039723701775074005, -0.08030853420495987, 0.039069559425115585, -0.05461124703288078, -0.04128105938434601, -0.08383699506521225, -0.016811612993478775, -0.09006477892398834, -0.041033316403627396, 0.040458787232637405, -0.020088404417037964, 0.007634968962520361, -0.07790251076221466, -0.0636223629117012, -0.10465608537197113, 0.04112018644809723, -0.020472800359129906, -0.09913236647844315, 0.017385603860020638, 0.05097994953393936, 0.028785666450858116, 0.016763340681791306, -0.0973772257566452, 0.02371341362595558, -0.01668943092226982, 0.007447927724570036, 0.037384919822216034, 0.015079823322594166, -0.0035518461372703314, 0.007516908459365368, 0.015294213779270649, 0.04815039411187172, 0.02086343802511692, 0.061835337430238724, -0.018356991931796074, 0.013504013419151306, 0.07248714566230774, -0.08463709056377411, 0.0038758444134145975], [0.0683884471654892, 0.0011349028209224343, 0.0703139528632164, 0.029561813920736313, -0.013110163621604443, -0.08345382660627365, -0.08500484377145767, -0.05611812323331833, -0.010124117136001587, 0.020229671150445938, 0.02723630517721176, -0.03376806527376175, -0.011863158084452152, -0.07258722186088562, -0.023790718987584114, 0.024446653202176094, -0.09430398046970367, 0.04047714173793793, -0.04407905414700508, 0.004993140697479248, -0.0056499456986784935, 0.002542746951803565, -0.01004517637193203, 0.06000646576285362, 0.02737252041697502, -0.016684357076883316, 0.07827499508857727, 0.0322742834687233, -0.08176485449075699, 0.07608143985271454, -0.020799262449145317, 0.06695246696472168, 0.02804519049823284, 0.0008967617759481072, 0.08008981496095657, -0.026002902537584305, -0.0647682473063469, -0.09739942103624344, -0.048698484897613525, -0.015017813071608543, 0.037171415984630585, -0.011413910426199436, -0.017024481669068336, 0.017255065962672234, -0.08434075862169266, -0.05421098694205284, 0.014931606128811836, 0.02701331488788128, -0.0747196227312088, -0.003000844968482852, -0.004381231032311916, -0.05056248605251312, 0.026318395510315895, -0.041405536234378815, -0.07758744060993195, -0.023312602192163467, -0.09355694055557251, -0.016324156895279884, -0.008469871245324612, -0.0006089620874263346, 0.061733610928058624, -0.08645324409008026, -0.021892214193940163, 0.016952447593212128, -0.028077784925699234, 0.047375041991472244, -0.07426244765520096, 0.033471208065748215, 0.030406437814235687, 0.017280777916312218, -0.06458578258752823, 0.0062641361728310585, -0.041805293411016464, -0.01676459237933159, 0.088957779109478, 0.03551010414958, -0.038972001522779465, 0.08291704952716827, 0.035992737859487534, -0.011199932545423508, 0.0849698930978775, 0.006839819718152285, 0.03905535861849785, -0.10097087174654007, -0.07192295044660568, 0.08508680760860443, 0.021785302087664604, -0.0031194742769002914, 0.035717543214559555, 0.06373520940542221, -0.033595118671655655, -0.01877898909151554, 0.05212181434035301, 0.030566349625587463, -0.013836126774549484, -0.034305889159440994, -0.018739642575383186, 0.0003219259961042553, -0.0695016160607338, -0.02483108453452587], [-0.045075464993715286, -0.007609123829752207, -0.051377326250076294, 0.10210850834846497, 0.10708699375391006, 0.09786846488714218, -0.02980624884366989, -0.09889722615480423, 0.06970466673374176, 0.009273961186408997, 0.1187649518251419, -0.06431011855602264, 0.039861369878053665, -0.09859627485275269, -0.047882311046123505, 0.05286423861980438, -0.1287820190191269, 0.00896246824413538, -0.11079347133636475, 0.08551477640867233, 0.06949090957641602, 0.05791414529085159, -0.06368269771337509, 0.03678407147526741, 0.06419969350099564, -0.01792137324810028, -0.008901393972337246, -0.071369469165802, -0.05801817774772644, -0.09040496498346329, -0.08084826916456223, -0.020340077579021454, 0.09918206185102463, -0.014820738695561886, 0.05261882767081261, -0.012942717410624027, -0.0993274673819542, -0.09740491956472397, 0.07950745522975922, 0.033873412758111954, 0.02333081141114235, -0.09541978687047958, 0.015720194205641747, 0.055690765380859375, 0.09202982485294342, -0.09123267978429794, 0.11313614249229431, 0.07406936585903168, -0.07683760672807693, 0.009892475791275501, -0.07117817550897598, -0.04552410915493965, -0.07884851843118668, -0.06505148112773895, -0.07542359828948975, -0.08586727827787399, 0.015419228933751583, -0.08260241150856018, 0.029291681945323944, -0.020343882963061333, -0.12716415524482727, -0.08738608658313751, 0.0033126010093837976, 0.0976492315530777, -0.09525834023952484, 0.04870104789733887, 0.114029660820961, 0.07399319857358932, 0.039126358926296234, -0.12226325273513794, 0.005966472905129194, -0.054339561611413956, -0.10315365344285965, 0.11082900315523148, 0.013122977688908577, -0.04636402428150177, -0.07112274318933487, -0.10694556683301926, -0.08493118733167648, 0.02140059694647789, 0.07501307129859924, 0.08455776423215866, 0.05836998298764229, -0.0912906602025032, -0.11240748316049576, 0.05574021860957146, -0.0837085172533989, -0.12080566585063934, -0.0732368677854538, 0.09374918043613434, 0.09949898719787598, -0.12880663573741913, -0.10287902504205704, -0.06918123364448547, 0.08151920884847641, 0.027456900104880333, -0.09107482433319092, -0.029008401557803154, -0.06295695155858994, 0.07832802832126617], [-0.06926891207695007, 0.04958713427186012, 0.036337751895189285, -0.005472925491631031, 0.024555614218115807, 0.08248674124479294, 0.012217134237289429, -0.0567370168864727, -0.013086860068142414, 0.039529863744974136, 0.04875871166586876, 0.03198963403701782, 0.04660597816109657, -0.04330461099743843, 0.03829938918352127, 0.06200079619884491, 0.0781114250421524, 0.06671644002199173, -0.0433068573474884, 0.051293421536684036, -0.004743595607578754, -0.04104376211762428, 0.023303207010030746, 0.041316576302051544, 0.0035604746080935, 0.056050077080726624, 0.05989254638552666, -0.0619177371263504, -0.08257496356964111, 0.04611818492412567, -0.03682287037372589, -0.03153957799077034, 0.04919290915131569, -0.07760216295719147, 0.010696016252040863, 0.0423613041639328, -0.03943144530057907, -0.04662191495299339, 0.028927601873874664, 0.03343493863940239, 0.07719302922487259, 0.04480151832103729, -0.035652872174978256, -0.04383037984371185, -0.052192214876413345, -0.052816927433013916, -0.0028872545808553696, 0.023354940116405487, 0.0487293116748333, 0.015752414241433144, 0.1063399538397789, -0.04547945782542229, -0.07464578002691269, -0.07171334326267242, 0.056780166923999786, -0.11273031681776047, 0.0787634551525116, -0.028475062921643257, 0.045403845608234406, 0.021105008199810982, -0.0026787584647536278, -0.03949251398444176, -0.06038603559136391, -0.001993372105062008, -0.09234853088855743, -0.05252211540937424, -0.03525402769446373, -0.03831363096833229, -0.07345881313085556, 0.06157784163951874, 0.0031418628059327602, -0.008450502529740334, 0.019875358790159225, -0.08881212025880814, -0.10268986970186234, 0.007076836656779051, 0.006917845457792282, -0.03971721976995468, -0.031720902770757675, -0.005222246050834656, -0.017718788236379623, -0.031199995428323746, -0.002545005874708295, 0.014990653842687607, 0.03399442881345749, -0.06576777994632721, -0.08921083062887192, -0.07245846837759018, -0.08678848296403885, 0.09865108877420425, -0.06970757246017456, 0.006003112997859716, -0.011012036353349686, 0.06956703960895538, -0.015629442408680916, 0.029232462868094444, 0.034376341849565506, -0.07595644146203995, 0.08222784847021103, -0.07147134840488434], [-0.028165670111775398, -0.07869484275579453, 0.0068316650576889515, 0.02409982681274414, 0.1103685274720192, -0.08848654478788376, 0.07217974215745926, -0.04861561581492424, 0.01620539277791977, -0.07764766365289688, -0.006492496933788061, -0.00389331323094666, -0.04102713614702225, -0.1087435856461525, 0.049403466284275055, -0.018103284761309624, 0.07520341873168945, 0.05066008120775223, 0.016453905031085014, -0.12220682948827744, -0.1240881159901619, -0.08565108478069305, 0.11837124824523926, 0.03402804210782051, -0.024361571297049522, -0.07424744218587875, 0.025918377563357353, -0.08741097152233124, -0.08973635733127594, -0.07965600490570068, -0.05874333530664444, -0.004275394603610039, -0.08646160364151001, -0.018703285604715347, 0.083248570561409, -0.08315984159708023, 0.015751082450151443, 0.06786816567182541, 0.07136819511651993, -0.028014568611979485, -0.09666267037391663, 0.02745887078344822, 0.04772186279296875, -0.03143306076526642, -0.03075036033987999, 0.014048092998564243, 0.13918638229370117, -0.08439673483371735, -0.009441646747291088, -0.02341768704354763, 0.0614532008767128, -0.018035022541880608, 0.013723977841436863, 0.096302829682827, -0.03593691438436508, -0.007674406282603741, 0.028172995895147324, 0.09091207385063171, 0.016093231737613678, -0.12178154289722443, -0.0862460508942604, 0.06204582750797272, 0.10579006373882294, 0.0914994403719902, 0.08186883479356766, 0.042473793029785156, 0.0397079773247242, -0.019835028797388077, 0.08873096853494644, -0.08643463999032974, -0.014868034981191158, -0.07597721368074417, -0.016808481886982918, -0.0033248700201511383, -0.12803690135478973, -0.07012803107500076, -0.07885807752609253, -0.11018170416355133, 0.08076450973749161, -0.1004527136683464, -0.005628517363220453, -0.06889167428016663, -0.059827059507369995, 0.020079944282770157, 0.04879853129386902, 0.07311743497848511, -0.09784281998872757, -0.08394743502140045, 0.0294360239058733, 0.057683467864990234, -0.10554347187280655, -0.10031447559595108, 0.054107118397951126, -0.04865965247154236, 0.016968470066785812, -0.08889439702033997, 0.005433840677142143, 0.03988609462976456, 0.07044487446546555, 0.11170993000268936], [-0.03918219357728958, -0.05407765880227089, -0.03397209197282791, 0.012186827138066292, -0.07403109967708588, 0.05798845738172531, -0.03141195699572563, 0.061496470123529434, -0.06913041323423386, 0.013090522959828377, 0.012725785374641418, 0.028932388871908188, 0.032015398144721985, 0.0005129367345944047, -0.07258930057287216, -0.11107171326875687, -0.02279164455831051, -0.03650866076350212, 0.08040662854909897, 0.008077251724898815, 0.026878220960497856, 0.03715604916214943, 0.010868067853152752, -0.014870377257466316, 0.09736870229244232, 0.07855476438999176, -0.0017178966663777828, 0.07933752983808517, 0.04607362672686577, 0.004537669010460377, 0.013962602242827415, -0.01877526193857193, 0.03747827559709549, -0.02009989321231842, -0.017181536182761192, -0.0038753857370465994, 0.0019054122967645526, -0.11167504638433456, -0.02774607203900814, -0.014045395888388157, 0.11578890681266785, 0.049157481640577316, 0.018715444952249527, 0.030193081125617027, 0.0759768933057785, 0.05730006843805313, -0.1013111025094986, 0.0897916927933693, -0.02969466522336006, -0.01823565922677517, 0.019250482320785522, 0.10633187741041183, 0.05240043252706528, 0.05186588317155838, -0.06906653195619583, -0.009470519609749317, -0.13214033842086792, 0.024014964699745178, 0.046313654631376266, -0.004880605265498161, 0.013231870718300343, 0.09767366200685501, -0.028414178639650345, -0.0683167353272438, 0.13898968696594238, 0.016888439655303955, -0.05139696225523949, 0.07690148055553436, -0.05331071838736534, 0.02563403733074665, -0.012526369653642178, 0.011832519434392452, 0.012842075899243355, -0.023287177085876465, 0.01523718610405922, -0.05887293815612793, -0.041628818958997726, -0.052085261791944504, 0.015515713021159172, 0.024973899126052856, -0.05922355502843857, 0.045562975108623505, -0.06297627091407776, -0.022365452721714973, 0.08468678593635559, -0.056602947413921356, 0.0031179815996438265, 0.08138804882764816, 0.05251534655690193, 0.008109891787171364, -0.025052886456251144, -0.057782046496868134, 0.022450309246778488, -0.06628335267305374, -0.06851744651794434, 0.09388649463653564, -0.05406982824206352, 0.015310164541006088, -0.07564494758844376, 0.05636853352189064], [-0.08938203006982803, -0.10215961188077927, -0.015488662756979465, 0.006609911099076271, -0.05758490785956383, 0.016110818833112717, -0.07283978164196014, 0.0010041572386398911, 0.026874683797359467, 0.023788997903466225, 0.00368075305595994, -0.09444494545459747, 0.05752796307206154, -0.09616366028785706, 0.04297094792127609, -0.026076428592205048, 0.0546298511326313, 0.06206313893198967, -0.04055303335189819, 0.022116217762231827, -0.08997581154108047, -0.03798580542206764, 0.057851336896419525, 0.028962569311261177, -0.028557278215885162, 0.008267872966825962, -0.081413634121418, 0.06961455941200256, -1.959892688319087e-05, 0.013189965859055519, -0.03270239755511284, 0.033858127892017365, -0.043538857251405716, -0.0013081495417281985, -0.05967975780367851, 0.0024434360675513744, 0.03917800635099411, -0.103108249604702, -0.04765453562140465, -0.03916264697909355, -0.006456924602389336, 0.027851393446326256, -0.012295889668166637, -0.06880071759223938, -0.05021374300122261, -0.09747853875160217, -0.030824817717075348, -0.0142663037404418, -0.05260837823152542, 0.013201971538364887, -0.09419021010398865, -0.0487155020236969, -0.06682901084423065, -0.03462882712483406, 0.046756431460380554, -0.1722099930047989, 0.013699816539883614, -0.04344768822193146, 0.005275644827634096, -0.0653403028845787, 0.0672292560338974, 0.050085362046957016, -0.027017604559659958, 0.029536742717027664, -0.003890801453962922, 0.06389560550451279, -0.02684495784342289, 0.04020865261554718, 0.030262157320976257, 0.005504013504832983, 0.05818283557891846, -0.05660649389028549, -0.04763084650039673, 0.05452979356050491, 0.009908150881528854, -0.007736544590443373, 0.053867828100919724, -0.047111719846725464, -0.062025729566812515, 0.07426324486732483, -0.016143226996064186, 0.015221851877868176, 0.01472373679280281, 0.043370191007852554, -0.019270403310656548, 0.003766188630834222, -0.06624630093574524, -0.06877652555704117, -0.04199543967843056, 0.08037075400352478, -0.0043617356568574905, 0.004764750134199858, -0.002286392729729414, 0.018692294135689735, 0.0349288284778595, -0.07667110860347748, 0.032050713896751404, 0.04951833561062813, -0.0798734501004219, 0.007147111929953098], [-0.017661748453974724, 0.018323855474591255, 0.008486373350024223, -0.0064476365223526955, -0.03311716765165329, -0.07515492290258408, -0.03860212117433548, 0.020017335191369057, 0.03844718635082245, 0.030084656551480293, 0.030222855508327484, 0.02257470414042473, -0.021765105426311493, 0.048209384083747864, -0.0022224821150302887, -0.06870974600315094, 0.025981297716498375, 0.030695701017975807, 0.003982483875006437, 0.035922132432460785, 0.045784030109643936, -0.07535050809383392, -0.07347659021615982, -0.020891834050416946, 0.05744420737028122, 0.04872254282236099, 0.06962726265192032, 0.011956989765167236, 0.03286229819059372, -0.09230665117502213, 0.0005268021486699581, 0.013474843464791775, 0.0080193430185318, 0.005361618939787149, -0.08964645117521286, 0.04047428444027901, 0.020656852051615715, 0.022825786843895912, -0.0081425029784441, -0.003435726510360837, -0.09932536631822586, 0.013244879432022572, -0.07598617672920227, -0.024490294978022575, -0.017643239349126816, 0.00023618340492248535, -0.027195962145924568, -0.0018516619456931949, 0.032594408839941025, 0.033987127244472504, 0.0056442986242473125, -0.0385625958442688, -0.002783007686957717, -0.08050933480262756, -0.017328785732388496, -0.07745598256587982, -0.04730662703514099, -0.009130517020821571, -0.0653633326292038, -0.06265033036470413, 0.06145542114973068, -0.08711375296115875, -0.0493435263633728, -0.009958828799426556, -0.009945545345544815, -0.004348075017333031, -0.03463974967598915, 0.06897958368062973, 0.041594646871089935, 0.03160683438181877, -0.08201335370540619, 0.05503815412521362, -0.011112269014120102, -0.08399756997823715, -0.058263443410396576, -0.008773363195359707, -0.09184601157903671, 0.00885264202952385, -0.0003836008545476943, 0.04709552228450775, 0.026280255988240242, -0.04793470725417137, -0.009695197455585003, -0.01822543330490589, 0.008266013115644455, 0.010787533596158028, 0.01526647713035345, -0.0870625451207161, 0.05862600728869438, -0.013056446798145771, 0.005911683663725853, 0.04840034246444702, 0.03513358533382416, -0.09698904305696487, -0.0652349591255188, -0.0073539684526622295, 0.05004957690834999, -0.011126901023089886, 0.030338548123836517, 0.0596698559820652], [-0.08978366106748581, 0.05996113270521164, -0.09706119447946548, -0.03390399366617203, 0.01155184954404831, 0.0032274448312819004, 0.0846405178308487, 0.012199143879115582, 0.04229463264346123, -0.08091961592435837, -0.005407869350165129, 0.03901571035385132, -0.06563501805067062, -0.07656124979257584, 0.022071439772844315, -0.09802320599555969, 0.06855544447898865, 0.04389769956469536, -0.004098508041352034, 0.007074831053614616, -0.0027670112904161215, -0.017829839140176773, -0.03159811347723007, -0.01762065850198269, 0.03712339326739311, -0.0463845394551754, 0.042142726480960846, -0.0014494090573862195, 0.06377419084310532, -0.022168967872858047, 0.007132634520530701, -0.03814614936709404, -0.061055827885866165, -0.04002022743225098, 0.04519466683268547, -0.007932906039059162, -0.009321602992713451, -0.002078889636322856, 0.0006821647402830422, 0.027593595907092094, -0.044535987079143524, -0.03848112374544144, -0.04952780529856682, -0.043246421962976456, -0.04980629310011864, 0.005941583309322596, 0.03252716362476349, 0.01040701661258936, 0.02770093083381653, 0.03723704069852829, -0.08892445266246796, -0.05506541579961777, -0.11199390888214111, -0.05813046917319298, -0.10130634903907776, -0.028817128390073776, 0.10894045233726501, 0.016652677208185196, -0.009228658862411976, 0.008999583311378956, -0.04032692313194275, -0.008296238258481026, -0.02093820460140705, -0.09002798795700073, -0.004943986423313618, 0.02115708589553833, -0.003195703960955143, -0.01587841287255287, 0.04659656435251236, 0.04968217387795448, 0.0189038272947073, 0.013570006936788559, 0.00830555334687233, 0.005284937098622322, -0.07187213748693466, -0.0008128511253744364, 0.04827951267361641, 0.025462670251727104, -0.0054465061984956264, 0.02223529852926731, -0.02588805928826332, -0.10056202113628387, -0.00016673114441800863, -0.005318847484886646, -0.018556691706180573, -0.08056128770112991, 0.07667061686515808, -0.04044444486498833, 0.08717940747737885, 0.09222308546304703, 0.000692740548402071, -0.004691891837865114, 0.015594463795423508, 4.613627243088558e-05, -0.07243016362190247, -0.06396228820085526, 0.035426437854766846, 0.020723292604088783, -0.04023515060544014, 0.027606796473264694], [-0.07213536649942398, -0.0953994169831276, -0.07600945234298706, 0.021641816943883896, 0.09773119539022446, -0.030261509120464325, 0.026042111217975616, 0.04358767345547676, -0.03421434387564659, -0.06638320535421371, 0.08329074829816818, 0.021620525047183037, -0.02509995736181736, -0.09310325980186462, -0.02447412721812725, 0.044064827263355255, -0.020119698718190193, 0.03812704607844353, 0.010624183341860771, 0.06466404348611832, 0.05661189556121826, 0.05384039506316185, 0.05509862303733826, 0.04903458431363106, 0.07247902452945709, 0.07438161224126816, -0.0903768464922905, -0.027232643216848373, -0.0729902908205986, 0.07518759369850159, -0.056872546672821045, 0.05889425426721573, -0.07442378252744675, 0.046867839992046356, 0.07080483436584473, -0.06393615156412125, 0.022136405110359192, -0.023905273526906967, 0.03824862465262413, 0.03071315959095955, 0.07835681736469269, 0.021938975900411606, 0.09014006704092026, 0.012090934440493584, 0.03385527431964874, 0.06095800921320915, -0.005339740309864283, 0.005375176202505827, -0.07964172214269638, -0.027959363535046577, 0.04251788556575775, 0.0824865996837616, -0.014187811873853207, 0.010555407032370567, -0.00751582020893693, -0.08631955087184906, -0.0641847476363182, -0.0519835539162159, -0.06120194122195244, 0.05833882465958595, 0.04379475116729736, 0.09799095243215561, -0.07516087591648102, 0.03895096853375435, 0.006346772890537977, -0.01571793667972088, 0.00687962444499135, -0.10070927441120148, 0.0651748850941658, -0.0474521741271019, -0.03775116801261902, -0.07158822566270828, -0.09609602391719818, -0.031756579875946045, 0.04265396296977997, -0.027301205322146416, 0.09711126983165741, 0.03204050660133362, -0.012302877381443977, 0.03525695577263832, -0.08248760551214218, 0.05131258815526962, 0.08087968081235886, 0.03279808163642883, -0.0654362291097641, 0.032818589359521866, 0.0031843334436416626, 0.08311037719249725, 0.0003110403486061841, 0.1048809364438057, 0.0002437803050270304, -0.0032964847050607204, 0.08214684575796127, -0.07159926742315292, 0.09550546109676361, -0.07108234614133835, -0.020419081673026085, -0.01599576137959957, -0.008800259791314602, -0.02561829425394535], [-0.10279559344053268, 0.061182256788015366, 0.06892681121826172, 0.045354560017585754, 0.08093900978565216, -0.06598136574029922, -0.05685175210237503, 0.0025644644629210234, 0.0038102371618151665, -0.021063383668661118, -0.1228073239326477, 0.04804081842303276, -0.015833888202905655, -0.10510189086198807, 0.0007254477241076529, 0.1521848738193512, 0.03693021088838577, -0.08689848333597183, -0.01868976652622223, 0.0885561928153038, -0.0076360260136425495, -0.01567769981920719, 0.020979469642043114, -0.06916786730289459, -0.033094339072704315, -0.10385393351316452, -0.04920694977045059, 0.003921272698789835, -0.10965494811534882, -0.015871621668338776, -0.0023889748845249414, 0.07982243597507477, -0.05231587216258049, 0.018039295449852943, 0.08223935216665268, 0.14106959104537964, 0.0724545493721962, 0.07584597915410995, 0.06163967028260231, -0.09561900794506073, -0.0463375449180603, 0.012028597295284271, 0.051972147077322006, 0.009675445035099983, 0.015344144776463509, -0.038684383034706116, 0.013832766562700272, 0.17136558890342712, -0.11496046930551529, -0.08651018887758255, -0.00036209324025548995, -0.06179514527320862, -0.011290870606899261, -0.09705612808465958, -0.052454471588134766, 0.04203781485557556, 0.12009180337190628, 0.11533425748348236, 0.03805157169699669, 0.0421084426343441, 0.06858179718255997, -0.126418337225914, -0.025046199560165405, 0.025816043838858604, 0.11530599743127823, 0.2010941505432129, -0.13336703181266785, -0.0707070454955101, -0.08766993135213852, -0.00038627078174613416, -0.09869211167097092, 0.03041842021048069, -0.0007714013336226344, 0.033033762127161026, 0.1199241653084755, -0.12057255208492279, 0.06585951894521713, -0.09461744129657745, -0.052333127707242966, 0.09092750400304794, -0.02635381370782852, -0.01060402113944292, -0.09181452542543411, 0.08824425935745239, -0.03933288902044296, -0.13230451941490173, -0.04169303551316261, -0.032801199704408646, 0.12756678462028503, 0.1021210178732872, 0.09426195174455643, -0.01611982099711895, 0.05476873368024826, -0.09685109555721283, -0.012321148067712784, 0.03675833344459534, -0.032575130462646484, -0.05596825107932091, -0.08888259530067444, -0.09245454519987106], [-0.09128601849079132, 0.04100247472524643, -0.02409265749156475, 0.03163739666342735, -0.0027564107440412045, 0.05705759674310684, -0.04961727559566498, 0.07538742572069168, 0.006595521699637175, -0.08847842365503311, 0.09766222536563873, -0.02220379188656807, -0.03649379685521126, -0.03804383799433708, -0.04676869139075279, 0.008110650815069675, -0.0042551737278699875, 0.04263720661401749, -0.03984712064266205, 0.0059781926684081554, -0.0009887098567560315, -0.060125913470983505, 0.003657969646155834, 0.07321326434612274, -0.06243210658431053, 0.06848881393671036, -0.006508741993457079, -0.02404363825917244, 0.06422464549541473, -0.0868571549654007, 0.06278381496667862, 0.06213858723640442, -0.01805396005511284, 0.00863340962678194, -0.06839358061552048, -0.012750967405736446, 0.03201667219400406, 0.019308991730213165, -0.025543436408042908, -0.08482200652360916, 0.02037939988076687, 0.03513248264789581, -0.02624969370663166, -0.04784925654530525, -0.06989128887653351, 0.05025949701666832, 0.04441304877400398, -0.060334768146276474, -0.05788513273000717, 0.06222199648618698, 0.04953612759709358, -0.05835003778338432, -0.016495920717716217, 0.07060416042804718, 0.09041249752044678, 0.09317238628864288, 0.05797187611460686, 0.025255965068936348, -0.09225209057331085, 0.10793329030275345, -0.10275712609291077, 0.1079195886850357, 0.021966179832816124, -0.05126780644059181, -0.023942936211824417, 0.1790432184934616, 0.05575793609023094, 0.034834954887628555, 0.03939076513051987, -0.09123149514198303, -0.10013282299041748, 0.12681379914283752, 0.07938513159751892, -0.04354110732674599, -0.033798083662986755, 0.05770076438784599, 0.12691690027713776, 0.12786729633808136, 0.08085838705301285, -0.04673883318901062, 0.11136288195848465, 0.008231007494032383, 0.12936586141586304, 0.12196909636259079, 0.02712741680443287, 0.025813894346356392, -0.05003455653786659, -0.07534041255712509, -0.08575030416250229, 0.10862641036510468, -0.10053901374340057, -0.05494870990514755, 0.013429606333374977, 0.06649771332740784, 0.05248444899916649, 0.01972063258290291, -0.023313838988542557, 0.035341039299964905, -0.06592665612697601, -0.09986727684736252], [0.0412183441221714, 0.0162289347499609, 0.015773911029100418, 0.042467307299375534, 0.02534632571041584, 0.0201618243008852, -0.033105649054050446, 0.06827142089605331, -0.07304850220680237, -0.05190740153193474, 0.05528877675533295, 0.04413367062807083, 0.04318230599164963, 0.041906315833330154, -0.058805592358112335, 0.048040956258773804, 0.029683535918593407, 0.040943194180727005, -0.035076651722192764, -0.011511311866343021, 0.01693836599588394, 0.045846257358789444, -0.08408286422491074, 0.05311959981918335, 0.04983489215373993, 0.0747797042131424, -0.11688540130853653, -0.05823226273059845, -0.023828908801078796, 0.027622446417808533, 0.026611268520355225, -0.07805751264095306, 0.07542447745800018, -0.03892306238412857, -0.005013991612941027, 0.018664687871932983, -0.09748758375644684, 0.024182995781302452, 0.016173653304576874, 0.03690928965806961, 0.035016562789678574, -0.04214688390493393, 0.04123930260539055, -0.02230936661362648, 0.08734375983476639, -0.0143033592030406, -0.03193667531013489, 0.018510660156607628, -0.01017932128161192, 0.035782862454652786, 0.04870882257819176, 0.05888436734676361, 0.04405611380934715, 0.020306572318077087, 0.007251075468957424, -0.18674735724925995, 0.06482191383838654, 0.014078081585466862, -0.06069888547062874, 0.03798544406890869, 0.05473922938108444, -0.07930076122283936, -0.06842955946922302, -0.019764620810747147, -0.10977210849523544, 0.09372813999652863, -0.02818414196372032, 0.02675616554915905, -0.09193368256092072, -0.04592243209481239, -0.06305386871099472, -0.020249223336577415, -0.06547637283802032, 0.01654638722538948, -0.023386573418974876, -0.11368443816900253, -0.09837087988853455, -0.07724461704492569, -0.05457120016217232, -0.07198966294527054, 0.09922920167446136, 0.11329092085361481, -0.025950932875275612, -0.06428572535514832, 0.04256673902273178, 0.05266512557864189, -0.052183039486408234, -0.07677415758371353, 0.05689781904220581, -0.0546259842813015, 0.08988852798938751, -0.0691789761185646, -0.04781460762023926, 0.03999820724129677, -0.020242393016815186, 0.02361336536705494, -0.09838556498289108, -0.04036296531558037, -0.016185374930500984, -0.016445299610495567], [0.02077448181807995, 0.0447545126080513, -0.04099481552839279, 0.05138790234923363, -0.046880945563316345, 0.04191114380955696, -0.07471804320812225, -0.0669458881020546, 0.036228619515895844, -0.019881930202245712, 0.0020960194524377584, -0.020563004538416862, 0.05951963737607002, 0.0916358083486557, -0.037237294018268585, 0.027738315984606743, -0.05360497906804085, -0.007899640128016472, -0.0381048247218132, 0.03076007030904293, 0.06719597429037094, -0.03143395856022835, 0.06202096492052078, -0.08448110520839691, 0.06921008229255676, -0.06606938689947128, 0.04993801191449165, -0.09313937276601791, 0.044447217136621475, -0.03721198812127113, -0.030458904802799225, 0.030649151653051376, -0.092641681432724, 0.016572481021285057, -0.08539766073226929, 0.03506145998835564, -0.05456174537539482, -0.057086244225502014, 0.027170807123184204, 0.08206798136234283, -0.04208347201347351, 0.019664455205202103, 0.006841722410172224, 0.0249126348644495, -0.10551990568637848, 0.015506329014897346, -0.025970393791794777, -0.060111723840236664, 0.05936975032091141, 0.11891181021928787, 0.01496662013232708, 0.08949785679578781, 0.04506879672408104, -0.03604118898510933, -0.12227518111467361, 0.022620724514126778, -0.10422386974096298, 0.054797593504190445, 0.0013690480263903737, 0.06310064345598221, -0.0028110353741794825, 0.01153778936713934, -0.06542849540710449, 0.03726322576403618, 0.026887807995080948, -0.11384539306163788, -0.045237958431243896, -0.10631342977285385, 0.0030569450464099646, 0.019882598891854286, 0.0652366355061531, 0.09163925796747208, -0.031251076608896255, -0.04143257811665535, -0.010665081441402435, 0.028687475249171257, -0.08582130074501038, -0.07631607353687286, 0.06601789593696594, 0.04446999728679657, 0.11926973611116409, 0.0921754539012909, -0.0049968441016972065, -0.0934944674372673, 0.020622454583644867, 0.10031111538410187, 0.009624670259654522, 0.022688008844852448, 0.0905066728591919, -0.04720260202884674, -0.00970090739428997, 0.014149375259876251, -0.08872202783823013, 0.06885460019111633, 0.03246242180466652, -0.010153297334909439, 0.06759123504161835, -0.0032272818498313427, 0.006545505952090025, 0.015593565069139004], [-0.014083072543144226, -0.06750261038541794, -0.001101690111681819, -0.05290812626481056, -0.0627804845571518, 0.030662087723612785, -0.08722088485956192, -0.0852421447634697, -0.09146038442850113, -0.021786270663142204, -0.026546228677034378, -0.06949255615472794, -0.015319837257266045, 0.065656878054142, -0.049278900027275085, 0.002583316992968321, -0.09785856306552887, -0.07346811890602112, 0.03930368274450302, 0.03921816498041153, -0.046459637582302094, 0.0408218577504158, -0.030014289543032646, 0.036696355789899826, 0.0858657956123352, 0.031200453639030457, -0.043922290205955505, -0.035255953669548035, 0.048687227070331573, 0.005774698685854673, 0.05160779878497124, -0.01193467527627945, -0.00353499548509717, -0.07823427021503448, 0.0019418731098994613, 0.06473831087350845, -0.08897620439529419, -0.07154066115617752, 0.010727332904934883, 0.002282375004142523, -0.03132026642560959, -0.019028982147574425, -0.01887444593012333, -0.03317394107580185, -0.08158411830663681, 0.024960573762655258, 0.036906592547893524, 0.01439682673662901, 0.0010053531732410192, -0.05898991972208023, 0.07641073316335678, -0.06439240276813507, -0.09430696815252304, -0.0837416797876358, -0.09536213427782059, -0.09533082693815231, -0.08721567690372467, -0.040511973202228546, -0.06813415884971619, -0.07325708121061325, -0.08231907337903976, -0.05765627697110176, -0.02614888921380043, 0.06909260898828506, -0.07839802652597427, -0.05183088034391403, -0.08537335693836212, -0.03345616161823273, -0.006449110805988312, -0.03232761472463608, 0.031630758196115494, 0.0004288403142709285, 0.05450934171676636, -0.051911164075136185, 0.02315349318087101, -0.06878986209630966, 0.036004696041345596, 0.026697058230638504, 0.07794056832790375, 0.008114981465041637, -0.013051497749984264, -0.022703154012560844, -0.06940743327140808, -0.08192456513643265, -0.08494258671998978, 0.0853143036365509, 0.00397568941116333, 0.04615933820605278, -0.0106098847463727, -0.010707632638514042, -0.0913788303732872, -0.004058444406837225, -0.058744095265865326, 0.013057779520750046, -0.006365236826241016, 0.00816992949694395, 0.07594482600688934, -0.00488573731854558, -0.08504380285739899, -0.009448853321373463], [-0.024716589599847794, 0.06654295325279236, 0.05518472194671631, 0.005971873644739389, 0.0538974367082119, -0.008504878729581833, -0.04933665692806244, -0.05641704052686691, 0.0025917915627360344, 0.029101958498358727, -0.0017241609748452902, 0.05515727773308754, -0.013145015574991703, 0.06515266001224518, -0.02787322923541069, 0.01638527400791645, 0.07942799478769302, 0.02863255701959133, -0.05065637826919556, 0.047980476170778275, -0.0023475822526961565, 0.017354648560285568, 0.03245208412408829, -0.010709542781114578, 0.060933616012334824, 0.05275021493434906, 0.046705763787031174, -0.035349003970623016, 0.008135017938911915, -0.03565864637494087, -0.027671201154589653, -0.06738628447055817, -0.08906865119934082, -0.052929237484931946, -0.07121969014406204, -0.021024249494075775, 0.017430713400244713, -0.10813512653112411, -0.007366064935922623, -0.06919623166322708, 0.03642622381448746, -0.037173740565776825, 0.06653283536434174, -0.049370937049388885, -0.030244745314121246, -0.042941659688949585, -0.02939530462026596, -0.0038083521649241447, -0.032306473702192307, -0.06526211649179459, -0.07953730970621109, 0.043062616139650345, 0.10292913764715195, 0.08761399239301682, 0.04676483944058418, -0.03073064051568508, 0.023115290328860283, 0.023493656888604164, -0.1146291047334671, 0.03966649994254112, 0.014116981998085976, -0.05744200199842453, 0.13989989459514618, 0.048337601125240326, 0.036172106862068176, -0.002130212727934122, -0.04492470994591713, -0.004526112228631973, -0.012303624302148819, -0.03297876566648483, -0.03013572283089161, -0.027968326583504677, -0.10557699203491211, -0.06219184398651123, -0.010078944265842438, 0.0418546237051487, -0.010118808597326279, -9.170180419459939e-05, 0.04919150471687317, 0.06677725911140442, 0.03289754316210747, -0.09154732525348663, 0.041900020092725754, 0.04520386829972267, 0.02126397006213665, -0.030511531978845596, -0.017852075397968292, 0.02776271663606167, -0.075650155544281, 0.08544193208217621, -0.010181163437664509, -0.02110741101205349, 0.014408335089683533, -0.010320325382053852, 0.04147927463054657, 0.030361492186784744, 0.01947709172964096, 0.018162155523896217, -0.030068138614296913, 0.006055336911231279], [-0.017429104074835777, 0.0042456528171896935, 0.028275486081838608, 0.006002823822200298, -0.06448227167129517, -0.05679049342870712, -0.02978435903787613, 0.032414890825748444, -0.050279419869184494, 0.03598989173769951, -0.08759348839521408, -0.08481873571872711, -0.02612585388123989, 0.0243747029453516, -0.09647015482187271, -0.09657138586044312, 0.03587322309613228, -0.02095014788210392, 0.03169567883014679, 0.05529768764972687, 0.00389862060546875, 0.004775498062372208, 0.014549452811479568, -0.05824868008494377, 0.03352564200758934, -0.015766754746437073, -0.060042303055524826, 0.009504130110144615, -0.019124841317534447, -0.004544583614915609, -0.032475072890520096, -0.04446456581354141, 0.03148756921291351, -0.026207009330391884, 0.01221360731869936, -0.05987817421555519, -0.12139053642749786, -0.02115481346845627, -0.03640275076031685, -0.038576435297727585, 0.032604996114969254, -0.03148004412651062, -0.033472027629613876, -0.0017884544795379043, -0.09802516549825668, 0.01973547227680683, -0.04386012628674507, 0.011876124888658524, -0.04931502789258957, 0.010405712760984898, -0.08054854720830917, 0.08054379373788834, -0.09338926523923874, 0.003249152097851038, 0.0411912277340889, -0.03823433071374893, -0.007707867305725813, -0.07082636654376984, 0.004941894207149744, 0.026084670796990395, -0.03934091329574585, 0.010518001392483711, -0.005124372895807028, 0.007678419351577759, -0.10462149977684021, -0.019181817770004272, 0.03780590742826462, 0.02317028120160103, 0.0375312864780426, 0.08801159262657166, -0.056968118995428085, 0.07120669633150101, -0.09104417264461517, 0.06928716599941254, 0.005962493363767862, 0.012645374052226543, 0.05677688866853714, -0.021830858662724495, 0.02766341343522072, 0.002581831533461809, 0.013138854876160622, -0.008185746148228645, -0.006908803712576628, 0.07750510424375534, -0.02045242302119732, 0.08041636645793915, -0.09397608041763306, -0.017786504700779915, -0.02799398824572563, -0.06909681856632233, -0.06524098664522171, -0.07100064307451248, -0.018226977437734604, 0.0456271693110466, -0.025548573583364487, -0.012777996249496937, 0.0646134465932846, -0.046066805720329285, 0.08838270604610443, -0.029798496514558792], [0.0014790755230933428, -0.033918675035238266, -0.07014340162277222, -0.04644379764795303, -0.06531903892755508, -0.07017145305871964, -0.07831820845603943, 0.0390598326921463, -0.07580525428056717, -0.014795630238950253, 0.0024021195713430643, -0.030283352360129356, 0.026949835941195488, -0.08120327442884445, -0.07931008189916611, -0.03165629506111145, 0.009896731935441494, -0.0033109388314187527, 0.07424528896808624, -0.045348282903432846, 0.03600941225886345, -0.031241148710250854, 0.07556303590536118, 0.004123416263610125, 0.05889590084552765, 0.0573456771671772, 0.04476073756814003, -0.062369268387556076, 0.06262321770191193, 0.03594767674803734, -0.027355799451470375, 0.011489363387227058, 0.016607683151960373, -0.012202393263578415, -0.029880862683057785, -0.05229266360402107, -0.004946588072925806, -0.0683724656701088, 0.03716990351676941, -0.02474220283329487, -0.019549589604139328, 0.0630873590707779, -0.002153413835912943, -0.10104459524154663, -0.024620793759822845, -0.008015168830752373, 0.017267290502786636, -0.010229041799902916, -0.05010322108864784, -0.03270348533987999, -0.07910919189453125, 0.058199573308229446, -0.02531309612095356, 0.06634532660245895, -0.04946234077215195, -0.1694200336933136, -0.09584013372659683, 0.0837772935628891, -0.03972608223557472, 0.03237470984458923, 0.008176775649189949, 0.03176086023449898, -0.0037647010758519173, -0.060809843242168427, -0.1577526330947876, 0.008940372616052628, -0.11735964566469193, -0.03812967240810394, -0.004612968303263187, -0.053817614912986755, -0.015940548852086067, 0.013372520916163921, 0.03383522108197212, 0.07069169729948044, 0.015539836138486862, -0.0015120557509362698, -0.020296534523367882, 0.03333447873592377, -0.0031453329138457775, 0.1207270622253418, 0.026034610345959663, 0.016122011467814445, 0.039179231971502304, -0.014251096174120903, -0.037179671227931976, 0.03796819970011711, -0.010138609446585178, -0.06376221030950546, 0.03607429563999176, 0.05369124561548233, -0.046216923743486404, -0.07917998731136322, 0.05677255988121033, 0.08697963505983353, 0.011695167049765587, 0.014577572233974934, -0.034954093396663666, 0.03927672654390335, -0.06920786201953888, 0.025830499827861786], [-0.1001453548669815, -0.030113793909549713, 0.004575180355459452, 0.0031607153359800577, -0.008130041882395744, -0.028757311403751373, -0.07228076457977295, 0.014873241074383259, -0.090894415974617, -0.022018644958734512, -0.005569120869040489, -0.06368491798639297, -0.029580896720290184, -0.0716024786233902, 0.01538097858428955, -0.03493962809443474, -0.04280763491988182, 0.019945742562413216, 0.012050447054207325, 0.036475393921136856, 0.003968031611293554, -0.07444245368242264, 0.008349093608558178, -0.06358568370342255, 0.059488121420145035, -0.005590340122580528, 0.013348276726901531, 0.03223433345556259, -0.10488712787628174, 0.0336846299469471, -0.07720877230167389, -0.09768464416265488, -0.07674999535083771, -0.02822454273700714, 0.03320459648966789, -0.02133313938975334, -0.07618627697229385, -0.007005936931818724, -0.0012328489683568478, 0.016246510669589043, 0.03512061387300491, -0.01929772086441517, -0.02072666585445404, -0.03996691480278969, 0.005934075452387333, -0.01887206733226776, -0.040620602667331696, -0.054092202335596085, 0.047829244285821915, 0.011044946499168873, -0.010617117397487164, -0.042018648236989975, -0.08217734098434448, -0.07541562616825104, 0.044759418815374374, -0.08607897162437439, -0.09221106767654419, 0.026866592466831207, -0.04676405340433121, 0.0036189707461744547, -0.020282546058297157, -0.04446832463145256, -0.0593634694814682, 0.04195450618863106, 0.06796814501285553, 0.015065855346620083, -0.06832477450370789, -0.01488932128995657, -0.03731321915984154, 0.017754502594470978, -0.01153155229985714, -0.04403622820973396, -0.05878647416830063, 0.06418003141880035, 0.040534984320402145, 0.025904739275574684, 0.04333190247416496, -0.06141146272420883, 0.030399249866604805, 0.051413893699645996, -0.06767026335000992, 0.08177915960550308, 0.03222550451755524, 0.0020800752099603415, 0.018616363406181335, -0.08912865817546844, -0.021618343889713287, -0.001615128479897976, 0.0174638070166111, 0.04414427652955055, -0.04327996447682381, -0.004843485541641712, 0.028410639613866806, 0.01276792585849762, 0.0581216923892498, 0.02505357377231121, 0.0017527375603094697, -0.03982256352901459, 0.057819291949272156, -0.02019117958843708], [0.010515525005757809, -0.06710802018642426, 0.03998420387506485, -0.0802168995141983, 0.03251597285270691, 0.05741000175476074, -0.011439231224358082, 0.026488734409213066, 0.007516248617321253, -0.02370982989668846, 0.05334426090121269, 0.038721345365047455, 0.010693741030991077, -0.03232840448617935, 0.0003469812509138137, 0.09358645975589752, -0.018918350338935852, -0.0420556478202343, 0.023151986300945282, 0.013947340659797192, -0.012705010361969471, -0.048150479793548584, 0.020391520112752914, -0.0023921304382383823, 0.11402042210102081, 0.032873231917619705, 7.340192678384483e-05, 0.04971075803041458, 0.04073239862918854, 0.012136806733906269, 0.07372057437896729, -0.09101385623216629, -0.08901619911193848, 0.04114114120602608, -0.08851823210716248, -0.03292960673570633, -0.03908326476812363, 0.08173629641532898, -0.008395032025873661, -0.022799592465162277, -0.05624197795987129, 0.08126737177371979, -0.028525814414024353, 0.09610600769519806, -0.06035703793168068, -0.030286496505141258, 0.014693168923258781, 0.04550822079181671, 0.014608856290578842, 0.006742883939296007, 0.08678387850522995, 0.06159154325723648, -0.09350833296775818, 0.008722823113203049, -0.04392591863870621, -0.10287756472826004, 0.007710466627031565, 0.020418208092451096, 0.0035538887605071068, -0.02456141822040081, 0.04824736714363098, -0.040581729263067245, -0.0032648169435560703, -0.07743267714977264, 0.04376525804400444, -0.12867842614650726, -0.08252092450857162, 0.08595859259366989, 0.06146610528230667, 0.08547823131084442, 0.035489533096551895, 0.032044608145952225, 0.0447276271879673, -0.0752834677696228, -0.1077808290719986, -0.12237188965082169, 0.018655402585864067, -0.04028479382395744, -0.06220466271042824, -0.05227174609899521, 0.01657959818840027, -0.016378099098801613, -0.0421917550265789, 0.05227019637823105, 0.0924999788403511, 0.061493128538131714, -0.0268577691167593, 0.022375857457518578, 0.004106718581169844, -0.04837707057595253, -0.03748272359371185, -0.030665304511785507, -0.08431852608919144, 0.04039971902966499, -0.04346605762839317, -0.07890252023935318, -0.003701611189171672, -0.010988421738147736, 0.046621792018413544, -0.02779649756848812], [-0.0019696345552802086, 0.039454132318496704, -0.10348989814519882, 0.06512001901865005, 0.055579815059900284, 0.09891321510076523, 0.0925569012761116, -0.03482666611671448, -0.10353728383779526, -0.034834109246730804, -0.13125404715538025, -0.05287308990955353, -0.08554533123970032, 0.011753804981708527, -0.04725128039717674, 0.025033459067344666, -0.08531000465154648, -0.027246419340372086, 0.011121219024062157, 0.06714626401662827, 0.026072358712553978, 0.12161123007535934, -0.09240686893463135, 0.0164406206458807, 0.06311174482107162, 0.09416305273771286, -0.04099104180932045, 0.08405692130327225, -0.021293483674526215, 0.08055241405963898, -0.0690426304936409, -0.11167655885219574, 0.062095530331134796, -0.06023901328444481, -0.09649603068828583, 0.06712708622217178, 0.006378288846462965, -0.06701818853616714, -0.048062730580568314, -0.003904143813997507, -0.06525376439094543, 0.11221813410520554, -0.03345492482185364, -0.05464337766170502, -0.018129555508494377, 0.04518862068653107, 0.0779317244887352, -0.05627115070819855, -0.11910989880561829, 0.02631908468902111, -0.047420334070920944, -0.09916171431541443, 0.057387422770261765, 0.028168389573693275, 0.05340588465332985, 0.011146117933094501, 0.022586697712540627, -0.047316018491983414, 0.152581125497818, 0.015589877963066101, 0.0185066070407629, -0.024636557325720787, 0.03208357095718384, -0.015948202461004257, 0.12119123339653015, -0.032259516417980194, 0.08734078705310822, 0.11513607949018478, -0.04959415644407272, 0.056685350835323334, 0.10095185786485672, -0.04482893645763397, -0.06375572830438614, 0.05505779758095741, 0.1093004122376442, -0.054888028651475906, -0.048622045665979385, -0.07716040313243866, 0.03257676586508751, 0.10669577121734619, 0.04673564434051514, -0.09433397650718689, -0.08819180727005005, -0.028407201170921326, -0.04532180353999138, -0.0015409531770274043, 0.11369533091783524, -0.03023912012577057, -0.08887980133295059, -0.006430395878851414, 0.001402168651111424, 0.03795716166496277, -0.038071196526288986, 0.067938894033432, -0.009399383328855038, -0.05090101435780525, 0.07891875505447388, 0.025135943666100502, -0.010005603544414043, 0.08319278061389923], [0.0245345588773489, -0.04675616696476936, -0.04134954512119293, -0.028990043327212334, -0.01751023158431053, -0.06946272403001785, 0.05206073448061943, -0.07803872972726822, -0.005296834744513035, 0.005381095688790083, -0.09016134589910507, 0.11431150883436203, 0.03739720955491066, 0.07682247459888458, -0.003855773713439703, 0.03903241455554962, 0.008957084268331528, 0.04504738003015518, 0.04616094380617142, 0.041994381695985794, 0.0065846568904817104, 0.05139879509806633, -0.03436491638422012, -0.10010050982236862, -0.025093277916312218, 0.027044260874390602, 0.051457829773426056, 0.01406063325703144, 0.06184164807200432, -0.08394566923379898, 0.04168831929564476, -0.03453106805682182, 0.004175806418061256, 0.052243005484342575, 0.04918774589896202, 0.03226979076862335, -0.07270777970552444, 0.09667737036943436, 0.06786680221557617, 0.03643542528152466, 0.062093429267406464, 0.027587497606873512, -0.007929357700049877, 0.06181390956044197, -0.011276330798864365, -0.09385906159877777, -0.06067090481519699, -0.05991996452212334, 0.051531653851270676, 0.0872848778963089, -0.04925394058227539, 0.0306765828281641, 0.048083964735269547, -0.02704240381717682, -0.08738662302494049, -0.07715514302253723, -0.07920034229755402, -0.04772786796092987, 0.01701723225414753, 0.04127994179725647, 0.040009353309869766, 0.07796952873468399, 0.04074614495038986, -0.024223949760198593, 0.08621051907539368, -0.027031149715185165, 0.01590663753449917, -0.08223643153905869, -0.047465674579143524, -0.05286813899874687, -0.007274962961673737, 0.04615036025643349, 0.0999753400683403, 0.020406778901815414, 0.060387320816516876, -0.006976169999688864, -0.07308603823184967, 0.01883828639984131, 0.06247616931796074, -0.017985792830586433, -0.08870325237512589, 0.006369365844875574, 0.009196036495268345, 0.022643225267529488, 0.09623751789331436, 0.011229866184294224, 0.030852828174829483, 0.008187924511730671, -0.03892175108194351, 0.0013419106835499406, 0.1049761027097702, 0.04742629453539848, 0.021448194980621338, -0.016070198267698288, 0.010181521065533161, -0.009238779544830322, 0.06996332854032516, 0.007253135088831186, -0.06405021250247955, 0.033966343849897385], [-0.010539010167121887, 0.02530800737440586, 0.022188233211636543, 0.02592170424759388, 0.013707408681511879, -0.027983805164694786, -0.08643093705177307, -0.010391338728368282, 0.05383345112204552, -0.06433498114347458, 0.012631249614059925, 0.0497586652636528, -0.0032160470727831125, -0.06326642632484436, -0.0795401930809021, 0.0009403989533893764, 0.008707641623914242, -0.027526650577783585, 0.03981194272637367, 0.006889741402119398, 0.07325194031000137, 0.03612906485795975, -0.04588773846626282, 0.011575746349990368, 0.013871151022613049, 0.022714613005518913, 0.07380950450897217, -0.07767865806818008, 0.017965177074074745, -0.012494068592786789, -0.01861809939146042, -0.03552579507231712, 0.03203689306974411, -0.017574530094861984, -0.08745045959949493, -0.0705188736319542, -0.0689149871468544, -0.01931660622358322, -0.015806514769792557, 0.015384507365524769, -0.006380765698850155, 0.0029312705155462027, -0.04612645506858826, -0.048868756741285324, -0.013491800986230373, -0.031100619584321976, -0.05818796157836914, -0.041805434972047806, 0.0024910257197916508, 0.02548319846391678, -0.078185074031353, 0.0339474081993103, -0.014977946877479553, -0.0769512727856636, -0.07350251823663712, -0.14666777849197388, 0.02457939088344574, 0.007145869545638561, -0.022459033876657486, 0.014791201800107956, 0.014761638827621937, -0.028242528438568115, -0.055358510464429855, 0.06664977967739105, -0.0008889216114766896, -0.0789971798658371, -0.04470372945070267, 0.02431345172226429, 0.0801125094294548, 0.03954462334513664, 0.03751831874251366, 0.008440082892775536, -0.06352414935827255, 0.0024525488261133432, -0.03559078276157379, 0.007845742627978325, -0.01511251088231802, 0.016601337119936943, -0.09829966723918915, 0.0007334387628361583, -0.04123010113835335, -0.01254736352711916, 0.008920143358409405, 0.005103376694023609, -0.008898372761905193, -0.015323808416724205, -0.0022462201304733753, 0.0018763497937470675, 0.030667699873447418, 0.07962095737457275, 0.00961325690150261, -0.013189248740673065, 0.024395164102315903, -0.0027775822672992945, -0.07791361212730408, -0.0637405663728714, 0.03980838134884834, -0.025643784552812576, 0.10117743164300919, -0.06155776232481003], [0.03124121204018593, 0.020840046927332878, 0.0369102843105793, 0.028047025203704834, 0.010907567106187344, 0.08970753103494644, -0.07569796591997147, -0.1003456711769104, 0.010040666908025742, 0.03541857376694679, 0.0537332147359848, 0.04290864244103432, 0.026621058583259583, -0.05479048192501068, -0.10148115456104279, -0.0015038505662232637, 0.07657348364591599, 0.07432010769844055, -0.004947533365339041, -0.02179878205060959, 0.018935201689600945, -0.058982331305742264, 0.022822368890047073, -0.08470497280359268, -0.11058991402387619, -0.022847166284918785, 0.012551805935800076, -0.11585748195648193, -0.06150595843791962, 0.05955320969223976, 0.037881024181842804, 0.026489954441785812, -0.07372749596834183, 0.03138279914855957, 0.044831231236457825, 0.05288500711321831, -0.10084639489650726, -0.030313264578580856, -0.049719616770744324, 0.025474661961197853, 0.02115616761147976, 0.06904734671115875, 0.04726875200867653, -0.014388477429747581, -0.10056544095277786, -0.057320352643728256, -0.07109637558460236, 0.04855562746524811, 0.0012067626230418682, -0.05914178863167763, -0.008756760507822037, -0.04644899442791939, 0.0007018462056294084, 0.019175801426172256, -0.08849940448999405, -0.1315648853778839, 0.015838464722037315, -0.08012058585882187, -0.01058244239538908, 0.01390804909169674, -0.03662940487265587, -0.051679544150829315, 0.05568677559494972, 0.02914094552397728, -0.09883075207471848, -0.16204456984996796, 0.07349859178066254, -0.017491362988948822, 0.050546713173389435, 0.05319780483841896, -0.003389555960893631, -0.02343982271850109, 0.022611092776060104, -0.039705950766801834, 0.05536516755819321, -0.03176046162843704, 0.07134152203798294, 0.008745088241994381, -0.06965158879756927, 0.017046112567186356, -0.013705511577427387, 0.054599516093730927, 0.018688807263970375, 0.04830387979745865, -0.012307301163673401, 0.0641959086060524, -0.07797116041183472, -0.08518127351999283, -0.07428039610385895, 0.020664669573307037, 0.021331116557121277, 0.0006446797633543611, 0.027355829253792763, 0.031124720349907875, 0.04877222329378128, -0.013171074911952019, -0.00498536229133606, 0.008234341628849506, 0.013892878778278828, 0.0005365333054214716], [0.034059491008520126, -0.029787249863147736, 0.05241972208023071, 0.0948457345366478, -0.011191843077540398, 0.061282772570848465, -0.0018445466412231326, -0.0650281012058258, -0.08289532363414764, -0.09322498738765717, 0.07678636163473129, 0.06310436874628067, -0.034060101956129074, 0.04828330874443054, -0.0002310486015630886, -0.08589018881320953, -0.05295536667108536, 0.0348668098449707, -0.001989015145227313, 0.050017379224300385, -0.006232087966054678, -0.011191386729478836, 0.04883892089128494, -0.0866696909070015, -0.07054349035024643, 0.019334932789206505, -0.013129743747413158, 0.07401382923126221, -0.010796528309583664, 0.0007958774804137647, 0.009790267795324326, 0.013872254639863968, 0.017299113795161247, 0.041595205664634705, 0.024351557716727257, -0.09719514101743698, 0.056536685675382614, -0.07608658820390701, 0.07308303564786911, 0.005751180928200483, -0.03160184621810913, 0.0657552108168602, -0.0003928257501684129, 0.05187797546386719, 0.07071640342473984, 0.04021463543176651, 0.07905691117048264, -0.08030601590871811, 0.043995581567287445, 0.06413071602582932, 0.015005713328719139, 0.017692022025585175, 0.0034005208872258663, -0.04198132082819939, -0.06192253157496452, -0.0582275465130806, -0.010392379947006702, -0.04060051962733269, 0.05590926110744476, -0.07104503363370895, 0.0325915589928627, 0.03630154952406883, -0.046298567205667496, 0.04028794541954994, -0.10220634192228317, -0.0726284608244896, -0.041746944189071655, -0.009801007807254791, 0.0882500559091568, -0.08329471200704575, -1.97776680579409e-05, -0.06548105180263519, -0.026503628119826317, 0.01839025877416134, -0.06142312288284302, 0.02507205121219158, -0.05222998186945915, 0.03733043745160103, 0.006716993171721697, -0.06848111003637314, 0.03788800910115242, 0.0054956297390162945, 0.03570537641644478, -0.005660934839397669, 0.015167544595897198, -0.022277137264609337, -0.0009651609580032527, 0.02577102743089199, 0.0326012521982193, -0.0595361553132534, 0.11116961389780045, 0.03668208047747612, -0.0635690838098526, 0.02175288088619709, -0.06577853858470917, 0.004157813265919685, -0.04398631304502487, -0.011041322723031044, 0.09290724247694016, -0.07122642546892166], [-0.07454698532819748, -0.03704790025949478, -0.03412112593650818, 0.04800951108336449, 0.05648238956928253, 0.03065609186887741, 0.08734692633152008, -0.035936444997787476, 0.04689553752541542, 0.06219370663166046, 0.008753364905714989, -0.016337281093001366, -0.03545517101883888, -0.004678656347095966, 0.03499270975589752, 0.03156604245305061, 0.027559341862797737, -0.03596002981066704, -0.10329357534646988, 0.046226616948843, 0.00932686123996973, -0.018526645377278328, -0.06172836571931839, 0.051911961287260056, 0.06980559974908829, -0.08351852744817734, -0.05340765044093132, 0.004376532509922981, -0.027248458936810493, -0.008615023456513882, -0.09668133407831192, -0.0546625554561615, -0.019483547657728195, 0.029991302639245987, -0.02010761946439743, -0.007258833386003971, -0.10249654948711395, -0.062359768897295, -0.013866787776350975, -0.00987951923161745, -0.00270933099091053, 0.018048910424113274, -0.005059545394033194, -0.029045674949884415, -0.08813076466321945, -0.046001795679330826, 0.025916123762726784, 0.013871447183191776, -0.03741280734539032, 0.014257795177400112, -0.03199388459324837, -0.10121577233076096, 0.020514972507953644, 0.0219234898686409, 0.02281022071838379, 0.005869351327419281, -0.009560944512486458, -0.01560448482632637, -0.0769096240401268, -0.009412242099642754, -0.016306167468428612, 0.08052513748407364, 0.005930287763476372, -0.02188841626048088, -0.003140558023005724, 0.10743717849254608, -0.060347914695739746, -0.03239302709698677, -0.01616728864610195, 0.03656209632754326, 0.0702286958694458, -0.0298974197357893, 0.043546076864004135, -0.07763168960809708, -0.0627622976899147, 0.038134265691041946, 0.06706169992685318, 0.044582828879356384, 0.005368630401790142, 0.006550714839249849, 0.0614907406270504, 0.05326549708843231, -0.019561946392059326, 0.004980823025107384, 0.013725604861974716, -0.04736970365047455, -0.016679339110851288, 0.057837460190057755, -0.03210447356104851, 0.12046749144792557, -0.028770511969923973, 0.03923635557293892, 0.056149672716856, 0.09017939120531082, 0.019600175321102142, -0.00644714618101716, 0.08169437199831009, -0.05065067484974861, -0.03886474296450615, -0.00041091578896157444], [-0.04667389765381813, -0.0660218745470047, -0.09404349327087402, -0.11805203557014465, -0.08089083433151245, -0.10735363513231277, 0.06070715934038162, -0.10854703933000565, -0.11000654846429825, 0.057824376970529556, 0.036242034286260605, 0.0447114035487175, -0.006808123551309109, -0.04870130494236946, -0.0898311659693718, -0.04467753320932388, -0.043649014085531235, -0.09039124846458435, 0.06756925582885742, -0.027599141001701355, -0.09518011659383774, -0.01591101661324501, 0.056793082505464554, -0.051542870700359344, -0.046952616423368454, 0.007726391777396202, -0.03458130359649658, 0.09643826633691788, -0.034196048974990845, 0.04496815800666809, -0.026885034516453743, 0.07583098113536835, 0.009214485995471478, -0.08886323869228363, 0.038294028490781784, 0.0822092741727829, -0.05055929720401764, -0.009606470353901386, 0.09846972674131393, -0.008525972254574299, -0.11207637935876846, -0.03503946214914322, -0.10670660436153412, 0.05652688071131706, 0.08322647958993912, 0.11743565648794174, 0.14367666840553284, -0.0015743235126137733, -0.011194754391908646, 0.018323460593819618, 0.15370216965675354, 0.09696591645479202, -0.05444328114390373, 0.04549020901322365, 0.05180206149816513, 0.17849405109882355, 0.14399681985378265, 0.14827263355255127, 0.014828307554125786, 0.12628929316997528, 0.10378164798021317, -0.006833937484771013, 0.03088223934173584, -0.015101611614227295, -0.033662255853414536, 8.761135177337565e-06, -0.037331439554691315, -0.08476147800683975, -0.01834716647863388, -0.07778221368789673, 0.09899581968784332, 0.08628540486097336, -0.10124219208955765, 0.07430002093315125, 0.04358040913939476, 0.11161116510629654, 0.11433173716068268, 0.06138980761170387, -0.0845259502530098, 0.05868985131382942, -0.025104090571403503, -0.05514545738697052, 0.03977394104003906, 0.10462427884340286, -0.022075828164815903, -0.052766505628824234, 0.03149660676717758, 0.03970354050397873, -0.05219310149550438, -0.07736501097679138, -0.00892456341534853, -0.005383717827498913, -0.002234063809737563, 0.10935710370540619, -0.07253722846508026, 0.010538200847804546, -0.0058388011530041695, 0.007333268877118826, -0.002428782870993018, -0.005282395053654909], [0.06638140976428986, -0.08443783223628998, 0.08463551104068756, 0.03816356137394905, -0.07519282400608063, -0.028474321588873863, -0.07936800271272659, 0.08017520606517792, 0.04207245260477066, 0.051885150372982025, 0.060203760862350464, -0.08383438736200333, 0.05414650961756706, 0.06438538432121277, -0.05375174805521965, 0.0031786137260496616, 0.09720595180988312, -0.04534664750099182, 0.09219829738140106, 0.05711659416556358, 0.07433910667896271, -0.06399853527545929, -0.061715882271528244, -0.09626678377389908, -0.012203086167573929, -0.04115672409534454, -0.0968647375702858, 0.06759192049503326, 0.05784977972507477, 0.013978322967886925, 0.08959005028009415, 0.06346027553081512, 0.05773701146245003, -0.024197662249207497, -0.0025449341628700495, -0.04901963099837303, -0.047964468598365784, 0.0011672775726765394, 0.06763048470020294, -0.04694376513361931, 0.03491497412323952, 0.022055264562368393, 0.06700985878705978, -0.011923754587769508, -0.08613411337137222, -0.0532950833439827, -0.001362159731797874, -0.006016121245920658, -0.07301066070795059, -0.06872495263814926, -0.051588281989097595, 0.028324909508228302, 0.08420893549919128, 0.044345106929540634, -0.08839482069015503, -0.09072700142860413, -0.05337793007493019, -0.0012932922691106796, -0.08374360203742981, -0.009839752689003944, -0.03052680753171444, 0.07660000026226044, 0.07788930833339691, -0.03074788674712181, -0.027623416855931282, -0.06911838054656982, 0.04654480144381523, -0.09702660888433456, 0.052489764988422394, 0.05276859924197197, 0.06818444281816483, -0.10060404986143112, 0.030310293659567833, 0.06729378551244736, -0.036893442273139954, 0.0934533029794693, -0.052660465240478516, 0.057870082557201385, 0.0857376977801323, 0.011329563334584236, -0.06927391141653061, 0.038585420697927475, 0.023878231644630432, 0.06485461443662643, -0.0005452670156955719, -0.07776515185832977, -0.03262340649962425, -0.10012112557888031, -0.004449370317161083, -0.07394595444202423, -0.05696360021829605, 0.07269840687513351, -0.006249374710023403, -0.017657984048128128, -0.04103124514222145, -0.08492863923311234, 0.12084846943616867, 0.0162334106862545, -0.0022811233066022396, 0.03180361166596413], [0.052727196365594864, 0.054896630346775055, 0.05117527022957802, 0.05710158124566078, -0.10276317596435547, -0.09203577786684036, 0.07182954251766205, -0.09102848172187805, 0.007528235204517841, -0.09191544353961945, -0.07627327740192413, 0.032444652169942856, -0.08276823163032532, -0.0022671259939670563, -0.09197419136762619, 0.07656785845756531, 0.0020614515524357557, 0.09349098056554794, 0.06289976090192795, -0.11259938776493073, 0.03502202406525612, -0.0716216117143631, 0.059412311762571335, -0.06499059498310089, 0.002550437580794096, 0.02827955223619938, 0.03698372840881348, -0.07441878318786621, -0.07313420623540878, 0.07406022399663925, 0.06872769445180893, 0.011529602110385895, -0.021882519125938416, 0.11900680512189865, -0.07110664248466492, 0.060779135674238205, -0.06881298869848251, -0.01354517973959446, 0.1573210507631302, 0.14685174822807312, 0.03491146117448807, 0.1281953603029251, 0.0018972662510350347, 0.036912743002176285, -0.03563922271132469, 0.10678081959486008, 0.03512147068977356, 0.07825887948274612, -0.0734989121556282, 0.08924683183431625, -0.09655957669019699, -0.10189010947942734, -0.008782041259109974, 0.03877175226807594, 0.09164434671401978, 0.037462230771780014, 0.08635319024324417, 0.09771651029586792, -0.0643749013543129, 0.047975070774555206, 0.12315604835748672, 0.11382442712783813, -0.09156807512044907, 0.053389646112918854, -0.05443312227725983, 0.12089996039867401, 0.07944733649492264, -0.12379754334688187, 0.054767362773418427, -0.11454800516366959, 0.044679418206214905, -0.13110065460205078, -0.11168552190065384, -0.034604523330926895, -0.04433252662420273, 0.10383842140436172, 0.09930867701768875, 0.11511289328336716, 0.061536140739917755, 0.03442519158124924, -0.009953975677490234, 0.07705932855606079, 0.008071307092905045, -0.025332508608698845, -0.08602773398160934, 0.09125392138957977, -0.04895686358213425, -0.0812312662601471, 0.04965273290872574, 0.08607039600610733, -0.07263718545436859, -0.07310312241315842, 0.03229526802897453, -0.0778857171535492, -0.09508189558982849, -0.06919191032648087, -0.10506624728441238, 0.027129607275128365, 0.017916226759552956, 0.046491704881191254], [-0.04423610866069794, 0.04816048964858055, -0.0007610645843669772, -0.061389464884996414, -0.08375264704227448, -0.06615426391363144, 0.11798807233572006, 0.06126997619867325, -0.08412927389144897, -0.03154466301202774, 0.05588195100426674, 0.045592181384563446, -0.0589294359087944, -0.06260731816291809, 0.10361481457948685, -0.06897225975990295, 0.05003988742828369, 0.15218213200569153, 0.026857320219278336, -0.09542088210582733, 0.016515349969267845, -0.052473895251750946, 0.013713635504245758, -0.0370267778635025, -0.006530753802508116, 0.04870743677020073, -0.0015938110882416368, 0.06333211809396744, -0.006446660961955786, -0.028197031468153, -0.055167749524116516, -0.0729694664478302, 0.11442799866199493, -0.07448101788759232, 0.016878312453627586, 0.048307865858078, 0.022905785590410233, -0.006039121188223362, -0.030738849192857742, 0.0894174724817276, 0.10611806064844131, 0.07026587426662445, -0.07503938674926758, -0.0292880330234766, -0.07416357845067978, 0.113156758248806, 0.011666073463857174, 0.038650255650281906, 0.04940970614552498, -0.06760512292385101, 0.08679947257041931, 0.023176604881882668, 0.006253498140722513, -0.10756197571754456, -0.0566377192735672, 0.06333765387535095, 0.0824381485581398, -0.09898267686367035, 0.04173719137907028, 0.07426725327968597, -0.02374270372092724, 0.16071727871894836, -0.0683278813958168, -0.005389209371060133, 0.03681005910038948, 0.05689520761370659, 0.0029537074733525515, -0.01901634968817234, -0.05519203841686249, -0.015811026096343994, 0.06730908155441284, 